tree
version=v3
num_class=1
num_tree_per_iteration=1
label_index=0
max_feature_idx=144
objective=regression
feature_names=element_1 element_2 element_3 element_4 element_5 element_6 element_7 element_8 element_9 element_10 element_11 element_12 mixing_entropy element_1_element_2 element_1_element_3 element_1_element_4 element_1_element_5 element_1_element_6 element_1_element_7 element_1_element_8 element_1_element_9 element_1_element_10 element_1_element_11 element_1_element_12 element_2_element_3 element_2_element_4 element_2_element_5 element_2_element_6 element_2_element_7 element_2_element_8 element_2_element_9 element_2_element_10 element_2_element_11 element_2_element_12 element_3_element_4 element_3_element_5 element_3_element_6 element_3_element_7 element_3_element_8 element_3_element_9 element_3_element_10 element_3_element_11 element_3_element_12 element_4_element_5 element_4_element_6 element_4_element_7 element_4_element_8 element_4_element_9 element_4_element_10 element_4_element_11 element_4_element_12 element_5_element_6 element_5_element_7 element_5_element_8 element_5_element_9 element_5_element_10 element_5_element_11 element_5_element_12 element_6_element_7 element_6_element_8 element_6_element_9 element_6_element_10 element_6_element_11 element_6_element_12 element_7_element_8 element_7_element_9 element_7_element_10 element_7_element_11 element_7_element_12 element_8_element_9 element_8_element_10 element_8_element_11 element_8_element_12 element_9_element_10 element_9_element_11 element_9_element_12 element_10_element_11 element_10_element_12 element_11_element_12 phs_element_1_element_2 phs_element_1_element_3 phs_element_1_element_4 phs_element_1_element_5 phs_element_1_element_6 phs_element_1_element_7 phs_element_1_element_8 phs_element_1_element_9 phs_element_1_element_10 phs_element_1_element_11 phs_element_1_element_12 phs_element_2_element_3 phs_element_2_element_4 phs_element_2_element_5 phs_element_2_element_6 phs_element_2_element_7 phs_element_2_element_8 phs_element_2_element_9 phs_element_2_element_10 phs_element_2_element_11 phs_element_2_element_12 phs_element_3_element_4 phs_element_3_element_5 phs_element_3_element_6 phs_element_3_element_7 phs_element_3_element_8 phs_element_3_element_9 phs_element_3_element_10 phs_element_3_element_11 phs_element_3_element_12 phs_element_4_element_5 phs_element_4_element_6 phs_element_4_element_7 phs_element_4_element_8 phs_element_4_element_9 phs_element_4_element_10 phs_element_4_element_11 phs_element_4_element_12 phs_element_5_element_6 phs_element_5_element_7 phs_element_5_element_8 phs_element_5_element_9 phs_element_5_element_10 phs_element_5_element_11 phs_element_5_element_12 phs_element_6_element_7 phs_element_6_element_8 phs_element_6_element_9 phs_element_6_element_10 phs_element_6_element_11 phs_element_6_element_12 phs_element_7_element_8 phs_element_7_element_9 phs_element_7_element_10 phs_element_7_element_11 phs_element_7_element_12 phs_element_8_element_9 phs_element_8_element_10 phs_element_8_element_11 phs_element_8_element_12 phs_element_9_element_10 phs_element_9_element_11 phs_element_9_element_12 phs_element_10_element_11 phs_element_10_element_12 phs_element_11_element_12
feature_infos=[0:0.99935042222555337] [0:0.58112287937013785] [0:0.4134129536058796] [0:0.95467695274831244] [0:0.19047619047619041] [0:0.99999600001599998] [0:0.015779507679360399] [0:0.037486435829140699] [0:0.0060850028084628001] [0:0.99992000639948797] [0:0.014677103718199601] [0:0.99423344601312402] [-1.3124890170420334:-5.5965989501844974e-05] [0:0.20817682030577769] [0:0.095486695656097506] [0:0.24015342965221281] [0:0.033754480277134] [0:0.039554351956803999] [0:0.0081467808719830996] [0:0.034982902529710001] [0:0.0032294299742739998] [0:0.0096611177170035003] [0:0.0094378672039656004] [0:0.018141918837522399] [0:0.025939851242845799] [0:0.23975286797622131] [0:0.009661514994792] [0:0.0123704341704089] [0:0.0016445684467879] [0:0.0029119906544513002] [0:0.0007005692124851] [0:0.00020343790687580001] [0:0.00072907549314039997] [0:0.0054830041632872003] [0:0.053755080442338399] [0:0.0035983725440584999] [0:0.2278803602788495] [0:8.412924727408167e-05] [0:0.00058495031754729997] [0:6.0460745429167171e-05] [0:0.039110758859621897] [0:0.0011394018013942001] [0:0.016660602771538] [0:0.017583338370722099] [0:0.24033432319237669] [0:0.0030897952636621999] [0:0.0084384627969608002] [0:0.00040032526427719999] [0:0.0508582326764144] [0:0.0046030711318626001] [0:0.023258251528863998] [0:0.045708766649446203] [0:0.0002429285031049] [0:0.0012627575355474] [0:6.6720877379536074e-05] [0:0.0080062398779531998] [0:0.00090702947845799995] [0:0.1462131519274375] [0:0.0147735765144443] [0:0.0032889833838587001] [0:0.0050698862568169002] [0:0.2374125308789789] [0:0.011616212722282601] [0:0.092266003576446695] [0:0.00029498461091309998] [0:1.313276953113343e-05] [0:0.0023300472967561999] [0:0.0001149117333974] [0:4.9835407478423365e-05] [0:5.4511675249513165e-05] none [0:2.3594668009913781e-05] [0:5.2721193877761385e-05] none [0:3.9875509885076957e-05] [0:6.7473439687716962e-06] [0:0.0044705714959370002] [0:0.19007429077832819] [0:0.014274991287563901] [-0.17295896129139521:0] [-0.095600822256169296:0] [-0.2013526925242442:0] [-0.037118379699739301:0] [-0.034759257777663602:0] [-0.0030374216401363001:0] [-0.018959595151452801:0] [-0.0024089463657928998:0] [-0.0115371723035696:0] [-0.0025727587361171001:0] [-0.011097006647905:0] [-0.0259708547979314:0] [-0.19577920420195999:0] [-0.012501008707166099:0] [-0.0104902906090852:0] [-0.0014976324923904999:0] [-0.0020934306597618002:0] [-0.00069872753703929997:0] [-9.9832352298437943e-05:0] [-0.00062975132461929998:0] [-0.0056734457472972996:0] [-0.0561648112729684:0] [-0.0041918483919123001:0] [-0.19337234376142479:0] [-8.4229799344629451e-05:0] [-0.00052231982361920001:0] [-6.0298663925360291e-05:0] [-0.0494904289282313:0] [-0.00096686171880709995:0] [-0.0095860026114388003:0] [-0.0186437678263188:0] [-0.1854831357533063:0] [-0.0028137337735822002:0] [-0.0077964847273695997:0] [-0.00039927287830819998:0] [-0.054323376209752701:0] [-0.0029560426985771999:0] [-0.016841754298498102:0] [-0.026060667447681998:0] [-9.0572743262851005e-05:0] [-0.0012766629126417001:0] [-6.6545479718037965e-05:0] [-0.0059656949579031003:0] [-0.00065542929246279998:0] [-0.1056552019450166:0] [-0.0074843374207800998:0] [-0.0013811625607017999:0] [-0.0029566432266190999:0] [-0.2149591409433082:0] [-0.0062294174619401:0] [-0.067858967620839594:0] [-0.0001099811882477:0] [-7.3017926056386352e-06:0] [-0.0014603585211277999:0] [-6.3890685299342243e-05:0] [-4.538280279971415e-05:0] [-3.0134455869856959e-05:0] none [-5.2875329069593329e-06:0] [-5.4552362954782063e-05:0] none [-2.325449728801534e-05:0] [-4.9106433259824942e-06:0] [-0.0037858367104838002:0] [-0.13387376654067079:0] [-0.0044040465214426998:0]
tree_sizes=758 753 756 758 760 848 855 749 759 675 762 856 676 858 674 665 669 667 665 665

Tree=0
num_leaves=7
num_cat=0
split_feature=25 91 81 15 45 45
split_gain=172.377 212.118 10.2938 1.73343 0.869943 0.293049
threshold=0.074693216289929823 -0.065860850426988984 -0.12070454107923363 0.03472803703814261 1.7385897421338529e-05 4.5742499757824306e-05
decision_type=2 2 2 2 2 2
left_child=1 -1 -3 4 -4 -5
right_child=-2 2 3 5 -6 -7
leaf_value=-0.17826093626038117 0.10089850064886791 -0.039476908807867049 -0.010848553532390762 -0.015538222949294746 -0.00046567573307691387 -0.021023641443836078
leaf_weight=20 32 35 513 80 21 35
leaf_count=20 32 35 513 80 21 35
internal_value=-0.0123445 -0.0177569 -0.0130638 -0.0116394 -0.0104402 -0.0172077
internal_weight=0 704 684 649 534 115
internal_count=736 704 684 649 534 115
is_linear=0
shrinkage=1


Tree=1
num_leaves=7
num_cat=0
split_feature=25 91 81 15 45 45
split_gain=155.571 191.437 9.33092 2.12901 0.850356 0.41529
threshold=0.074693216289929823 -0.065860850426988984 -0.13045657858095819 0.042400983002251459 2.2073540601042983e-05 4.8106818976625736e-05
decision_type=2 2 2 2 2 2
left_child=1 -1 -3 4 -4 -5
right_child=-2 2 3 5 -6 -7
leaf_value=-0.15762064028531314 0.10758082520333119 -0.031308010267093782 0.0012743757964005422 -0.0037964496112456829 0.011774532161653042 -0.010413916409015657
leaf_weight=20 32 24 537 66 20 37
leaf_count=20 32 24 537 66 20 37
internal_value=0 -0.00514184 -0.000683395 0.000430227 0.0016514 -0.0061736
internal_weight=0 704 684 660 557 103
internal_count=736 704 684 660 557 103
is_linear=0
shrinkage=0.05


Tree=2
num_leaves=7
num_cat=0
split_feature=25 91 15 15 45 45
split_gain=140.402 172.772 8.30498 1.64621 0.875454 0.364922
threshold=0.074693216289929823 -0.065860850426988984 0.10553652414382131 0.025408256175714003 1.0295737047536031e-05 5.0761273378833078e-05
decision_type=2 2 2 2 2 2
left_child=1 -1 3 4 -3 -5
right_child=-2 2 -4 5 -6 -7
leaf_value=-0.14973960522562266 0.10220178280783331 0.0014001309475641184 -0.0259356229896507 -0.0031469715259680969 0.012067445588763805 -0.0097634065609711884
leaf_weight=20 32 502 31 105 20 26
leaf_count=20 32 502 31 105 20 26
internal_value=0 -0.00488475 -0.000649226 0.000551201 0.00180884 -0.00446016
internal_weight=0 704 684 653 522 131
internal_count=736 704 684 653 522 131
is_linear=0
shrinkage=0.05


Tree=3
num_leaves=7
num_cat=0
split_feature=25 81 81 81 111 45
split_gain=126.713 165.839 6.49026 1.20201 0.758154 0.181763
threshold=0.074693216289929823 -0.15860499965874966 -0.12070454107923363 -0.029512912082082298 -1.0784744560430228e-05 4.0331614826645491e-05
decision_type=2 2 2 2 2 2
left_child=1 -1 -3 5 -5 -4
right_child=-2 2 3 4 -6 -7
leaf_value=-0.14655954321846365 0.097091696580173456 -0.02178645469248295 -0.002215463676395179 0.011151463000569493 0.0012307161424883915 -0.0062701456606961223
leaf_weight=20 32 34 59 20 519 52
leaf_count=20 32 34 59 20 519 52
internal_value=0 -0.00464051 -0.000490831 0.000623094 0.00159883 -0.00411495
internal_weight=0 704 684 650 539 111
internal_count=736 704 684 650 539 111
is_linear=0
shrinkage=0.05


Tree=4
num_leaves=7
num_cat=0
split_feature=25 81 81 81 111 111
split_gain=114.359 149.67 5.85746 1.08982 0.756081 0.170651
threshold=0.074693216289929823 -0.15860499965874966 -0.12070454107923363 -0.020111250573121596 -7.1668757100531354e-06 -4.2396037996546663e-05
decision_type=2 2 2 2 2 2
left_child=1 -1 -3 5 -5 -4
right_child=-2 2 3 4 -6 -7
leaf_value=-0.13923156175878831 0.092237111943541103 -0.020697131731054363 -0.0062374671751802627 0.011088653588667513 0.0011793298208973731 -0.0022953459479302259
leaf_weight=20 32 34 44 20 513 73
leaf_count=20 32 34 44 20 513 73
internal_value=0 -0.00440848 -0.00046629 0.000591939 0.00155116 -0.00377785
internal_weight=0 704 684 650 533 117
internal_count=736 704 684 650 533 117
is_linear=0
shrinkage=0.05


Tree=5
num_leaves=8
num_cat=0
split_feature=94 81 25 15 47 45 64
split_gain=75.0187 85.6867 3.37681 1.01961 0.790524 0.367466 0.326446
threshold=-0.00010481784726614999 -0.15743962166196973 0.031247636918885702 0.025408256175714003 8.4526809495911119e-06 4.7461585044546505e-05 1.1911986267670354e-07
decision_type=2 2 2 2 2 2 2
left_child=-1 -2 3 4 -3 -5 -4
right_child=1 2 6 5 -6 -7 -8
leaf_value=0.090392675420100044 -0.10538163408637047 0.0012155372241992636 -0.017104174243286252 -0.0022091816124786322 0.011359442907807989 -0.0095718939695507294 -0.0090175296690386663
leaf_weight=22 20 484 24 111 20 20 26
leaf_count=22 20 484 24 111 20 20 26
internal_value=0 -0.003367 -0.000388473 0.000596617 0.00161807 -0.00333326 -0.0128991
internal_weight=0 705 685 635 504 131 50
internal_count=727 705 685 635 504 131 50
is_linear=0
shrinkage=0.05


Tree=6
num_leaves=8
num_cat=0
split_feature=27 111 91 96 84 112 111
split_gain=68.0642 80.1703 6.04246 6.45459 0.99218 0.944262 0.328085
threshold=0.005009417232778101 -0.00015086110047759997 -0.049117208807060046 -3.0140469861343615e-05 -0.00020901565739499996 -7.6095600458910738e-05 -5.0278516855640171e-05
decision_type=2 2 2 2 2 2 2
left_child=1 -1 3 -3 6 -6 -4
right_child=-2 2 4 -5 5 -7 -8
leaf_value=0.1007502634706907 -0.091464587512891743 -0.0032627318170852962 -0.0096258837543427948 -0.039471695572137838 0.012085290560498833 0.0010092024408843677 -0.0025238843895655514
leaf_weight=20 20 32 20 20 20 508 87
leaf_count=20 20 32 20 20 20 508 87
internal_value=0 0.00206994 -0.000802848 -0.0171893 0.000539032 0.00142875 -0.00385136
internal_weight=0 707 687 52 635 528 107
internal_count=727 707 687 52 635 528 107
is_linear=0
shrinkage=0.05


Tree=7
num_leaves=7
num_cat=0
split_feature=93 12 25 103 15 3
split_gain=65.9717 81.6151 10.011 2.75422 3.79286 1.44417
threshold=-0.0047328071692465988 -1.1946748881667189 0.064223541911589715 -5.1368867224135154e-06 0.10186755078205816 0.25624058583624904
decision_type=2 2 2 2 2 2
left_child=-1 -2 3 4 -3 -5
right_child=1 2 -4 5 -6 -7
leaf_value=-0.090030306642875091 0.090784656308591366 -0.0028395098395272529 -0.032916678891827665 0.00086006165841345729 -0.027095452491194012 0.014544724721054081
leaf_weight=20 25 83 24 535 20 20
leaf_count=20 25 83 24 535 20 20
internal_value=0 0.00205524 -0.0011973 -4.03661e-05 -0.0075494 0.0013532
internal_weight=0 707 682 658 103 555
internal_count=727 707 682 658 103 555
is_linear=0
shrinkage=0.05


Tree=8
num_leaves=7
num_cat=0
split_feature=25 25 118 25 113 45
split_gain=60.3667 121.101 2.82467 1.14342 1.43061 0.255026
threshold=0.074693216289929823 0.054307844799748602 -8.3560409595176017e-06 0.017085569937584352 -2.2382973587152568e-05 5.0761273378833078e-05
decision_type=2 2 2 2 2 2
left_child=1 2 -1 4 -4 -5
right_child=-2 -3 3 5 -6 -7
leaf_value=-0.018502501699840652 0.063610813952982431 -0.12192830727768265 0.014520721873268486 -0.0029132802983982851 0.00090543431417225309 -0.0087404213446591588
leaf_weight=20 35 21 20 57 546 28
leaf_count=20 35 21 20 57 546 28
internal_value=0 -0.00369444 5.87595e-06 0.00057449 0.00138654 -0.00483281
internal_weight=0 692 671 651 566 85
internal_count=727 692 671 651 566 85
is_linear=0
shrinkage=0.05


Tree=9
num_leaves=6
num_cat=0
split_feature=94 111 91 47 15
split_gain=64.5482 75.6948 1.76144 0.778696 0.468819
threshold=-0.00010481784726614999 -0.00011462395802584999 -0.049117208807060046 4.5658494684879088e-05 0.043389448172439907
decision_type=2 2 2 2 2
left_child=-1 -2 -3 4 -4
right_child=1 2 3 -5 -6
leaf_value=0.083907474674792454 -0.086788601091561418 -0.010465377390485357 0.00099903459681746523 0.010465102678572294 -0.0029396912813271312
leaf_weight=22 26 37 534 20 88
leaf_count=22 26 37 534 20 88
internal_value=0 -0.0030633 0.000142673 0.00075404 0.000441787
internal_weight=0 705 679 642 622
internal_count=727 705 679 642 622
is_linear=0
shrinkage=0.05


Tree=10
num_leaves=7
num_cat=0
split_feature=25 45 45 3 15 91
split_gain=54.9787 25.1416 1.01094 0.310889 0.276703 0.244017
threshold=0.074693216289929823 9.2022995453765771e-05 4.7003982045504192e-05 0.14436366367338424 0.0061040572510752513 -0.049117208807060046
decision_type=2 2 2 2 2 2
left_child=1 2 3 4 -1 -4
right_child=-2 -3 5 -5 -6 -7
leaf_value=0.0012142476515700331 0.065187662278185607 -0.047407930177347415 -0.0099756563231349002 0.0068466947658453146 -0.0011243224211837273 -0.0033363469005111726
leaf_weight=420 32 29 25 20 181 31
leaf_count=420 32 29 25 20 181 31
internal_value=0 -0.00181903 0.000133822 0.000714035 0.000509953 -0.00630032
internal_weight=0 706 677 621 601 56
internal_count=738 706 677 621 601 56
is_linear=0
shrinkage=0.05


Tree=11
num_leaves=8
num_cat=0
split_feature=25 111 103 3 25 112 112
split_gain=49.6183 40.5628 1.01339 0.848871 0.560195 0.197712 0.0873876
threshold=0.074693216289929823 -0.00011462395802584999 -5.8554170703669086e-06 0.20749867501703498 0.037764872861147901 -1.0605911357149422e-06 -4.0406741256909734e-05
decision_type=2 2 2 2 2 2 2
left_child=1 -1 4 5 6 -4 -3
right_child=-2 2 3 -5 -6 -7 -8
leaf_value=-0.071918642893433568 0.061928276269463824 -0.0036940702563657869 -0.00056985076896853566 0.010934572000544341 -0.011797158313649041 0.001375909651455623 0.00013734437948600812
leaf_weight=20 32 46 200 21 21 376 22
leaf_count=20 32 46 200 21 21 376 22
internal_value=0 -0.00172808 0.000318297 0.0010603 -0.00465894 0.000700298 -0.00245449
internal_weight=0 706 686 597 89 576 68
internal_count=738 706 686 597 89 576 68
is_linear=0
shrinkage=0.05


Tree=12
num_leaves=6
num_cat=0
split_feature=94 111 91 47 15
split_gain=47.019 13.7199 1.49985 0.402573 0.332092
threshold=-0.00010347916263989998 -0.00011462395802584999 -0.049117208807060046 4.4524754348081148e-05 0.043787129608366455
decision_type=2 2 2 2 2
left_child=-1 -2 -3 4 -4
right_child=1 2 3 -5 -6
leaf_value=0.072979035434863448 -0.035540462189653357 -0.010405519278720021 0.00090005454243089757 0.007664940394461155 -0.0025092503476870907
leaf_weight=22 28 32 554 20 82
leaf_count=22 28 32 554 20 82
internal_value=0 -0.00123176 0.000164526 0.000680138 0.00046049
internal_weight=0 716 688 656 636
internal_count=738 716 688 656 636
is_linear=0
shrinkage=0.05


Tree=13
num_leaves=8
num_cat=0
split_feature=25 111 103 34 25 15 112
split_gain=45.0407 36.0859 0.986424 0.716343 0.569856 0.19339 0.0886549
threshold=0.074693216289929823 -0.00011462395802584999 -5.8554170703669086e-06 0.0026075005629743503 0.037764872861147901 0.0046874069876017008 -4.0406741256909734e-05
decision_type=2 2 2 2 2 2 2
left_child=1 -1 4 5 6 -4 -3
right_child=-2 2 3 -5 -6 -7 -8
leaf_value=-0.067902181446552287 0.058950674408697529 -0.0037038850334837389 0.0012112233119163983 0.010034688904748432 -0.011878232386273642 -0.00081892511451570028 0.00015521021348170261
leaf_weight=20 32 46 412 21 21 164 22
leaf_count=20 32 46 412 21 21 164 22
internal_value=0 -0.0016983 0.000231839 0.000963901 -0.00467873 0.000633195 -0.00245535
internal_weight=0 706 686 597 89 576 68
internal_count=738 706 686 597 89 576 68
is_linear=0
shrinkage=0.05


Tree=14
num_leaves=6
num_cat=0
split_feature=94 25 82 47 15
split_gain=42.5208 12.3855 1.92398 0.929249 0.526762
threshold=-0.00010347916263989998 0.064223541911589715 -0.012042134737953798 5.0555404423740156e-05 0.065765112178658616
decision_type=2 2 2 2 2
left_child=-1 2 -2 4 -4
right_child=1 -3 3 -5 -6
leaf_value=0.069352935289498416 -0.014793717606170549 -0.033816519377121171 0.00072613808336636533 0.010927873774475995 -0.0039567844316696944
leaf_weight=22 21 28 579 21 67
leaf_count=22 21 28 579 21 67
internal_value=0 -0.00121888 0.000107771 0.000576934 0.000240448
internal_weight=0 716 688 667 646
internal_count=738 716 688 667 646
is_linear=0
shrinkage=0.05


Tree=15
num_leaves=6
num_cat=0
split_feature=81 91 3 91 81
split_gain=94.2349 3.56468 4.02497 1.61105 0.35532
threshold=-0.16401389947234948 -0.10767070535711783 0.26473338016177872 -0.049117208807060046 -0.043447095246015095
decision_type=2 2 2 2 2
left_child=-1 -2 3 -3 -5
right_child=1 2 -4 4 -6
leaf_value=-0.10772103984795867 -0.021018569262232632 -0.013272583776194117 0.02249632975552231 -0.0026549939838518459 0.0006915965488614971
leaf_weight=21 20 23 20 93 539
leaf_count=21 20 23 20 93 539
internal_value=0 -0.000215623 0.00040076 -0.000273913 0.000199139
internal_weight=0 695 675 655 632
internal_count=716 695 675 655 632
is_linear=0
shrinkage=0.05


Tree=16
num_leaves=6
num_cat=0
split_feature=81 25 3 91 15
split_gain=85.047 3.46306 4.01151 1.46341 0.352681
threshold=-0.16401389947234948 0.092896964757821415 0.25768361118624833 -0.049117208807060046 0.039697712001948653
decision_type=2 2 2 2 2
left_child=-1 2 3 -2 -5
right_child=1 -3 -4 4 -6
leaf_value=-0.10233498676014799 -0.013227396222161285 -0.019725933675230903 0.022490867977030579 0.00072241226209249969 -0.0024271321920057865
leaf_weight=21 21 22 20 525 107
leaf_count=21 21 22 20 525 107
internal_value=0 -0.000204842 0.000433292 -0.000242285 0.000189182
internal_weight=0 695 673 653 632
internal_count=716 695 673 653 632
is_linear=0
shrinkage=0.05


Tree=17
num_leaves=6
num_cat=0
split_feature=81 25 3 25 15
split_gain=76.7549 3.12542 3.62038 1.27884 0.336865
threshold=-0.16401389947234948 0.092896964757821415 0.25768361118624833 0.04396035144989411 0.039697712001948653
decision_type=2 2 2 2 2
left_child=-1 2 3 4 -2
right_child=1 -3 -4 -5 -6
leaf_value=-0.097218237568934773 0.00068629165787604596 -0.018739636741917243 0.021366324126720432 -0.012678426830098033 -0.0023799629791298044
leaf_weight=21 525 22 20 20 108
leaf_count=21 525 22 20 20 108
internal_value=0 -0.0001946 0.000411627 -0.000230171 0.000163139
internal_weight=0 695 673 653 633
internal_count=716 695 673 653 633
is_linear=0
shrinkage=0.05


Tree=18
num_leaves=6
num_cat=0
split_feature=81 25 3 91 15
split_gain=69.2713 2.82069 3.2674 1.19581 0.286511
threshold=-0.16401389947234948 0.092896964757821415 0.25768361118624833 -0.049117208807060046 0.039697712001948653
decision_type=2 2 2 2 2
left_child=-1 2 3 -2 -5
right_child=1 -3 -4 4 -6
leaf_value=-0.092357328179336728 -0.01195662489889877 -0.0178026547994126 0.020298008006066084 0.0006519770796557645 -0.0021867774562664313
leaf_weight=21 21 22 20 525 107
leaf_count=21 21 22 20 525 107
internal_value=0 -0.00018487 0.000391046 -0.000218662 0.000171365
internal_weight=0 695 673 653 632
internal_count=716 695 673 653 632
is_linear=0
shrinkage=0.05


Tree=19
num_leaves=6
num_cat=0
split_feature=111 3 3 12 46
split_gain=57.4712 6.22675 4.70532 1.12 0.261999
threshold=-0.00015417610574674999 0.36918632442412996 0.277939866697823 -1.1399940585884754 5.3512859868251707e-05
decision_type=2 2 2 2 2
left_child=-1 2 3 -2 -5
right_child=1 -3 -4 4 -6
leaf_value=-0.084237034122149154 -0.010365693161908824 -0.027775907551404092 0.02442331987665966 0.00062745440970154651 -0.0023574911879019485
leaf_weight=21 26 20 20 544 85
leaf_count=21 26 20 20 544 85
internal_value=0 -0.000281455 0.000533195 -0.000196274 0.000224083
internal_weight=0 695 675 655 629
internal_count=716 695 675 655 629
is_linear=0
shrinkage=0.05


end of trees

feature_importances:
element_2_element_4=20
element_1_element_4=14
phs_element_1_element_4=14
element_4_element_7=11
phs_element_2_element_4=11
phs_element_4_element_7=10
element_4=9
element_4_element_9=4
phs_element_2_element_7=4
phs_element_4_element_8=4
phs_element_3_element_7=3
mixing_entropy=2
element_2_element_6=1
element_3_element_4=1
element_4_element_8=1
element_7_element_8=1
phs_element_1_element_5=1
phs_element_1_element_7=1
phs_element_2_element_6=1
phs_element_2_element_9=1
phs_element_4_element_9=1
phs_element_5_element_7=1

parameters:
[boosting: gbdt]
[objective: regression]
[metric: l1,l2]
[tree_learner: serial]
[device_type: cpu]
[data: ]
[valid: ]
[num_iterations: 100]
[learning_rate: 0.05]
[num_leaves: 31]
[num_threads: 0]
[deterministic: 0]
[force_col_wise: 0]
[force_row_wise: 0]
[histogram_pool_size: -1]
[max_depth: 5]
[min_data_in_leaf: 20]
[min_sum_hessian_in_leaf: 0.001]
[bagging_fraction: 0.8]
[pos_bagging_fraction: 1]
[neg_bagging_fraction: 1]
[bagging_freq: 5]
[bagging_seed: 3]
[feature_fraction: 0.8]
[feature_fraction_bynode: 1]
[feature_fraction_seed: 2]
[extra_trees: 0]
[extra_seed: 6]
[early_stopping_round: 20]
[first_metric_only: 0]
[max_delta_step: 0]
[lambda_l1: 0]
[lambda_l2: 0]
[linear_lambda: 0]
[min_gain_to_split: 0]
[drop_rate: 0.1]
[max_drop: 50]
[skip_drop: 0.5]
[xgboost_dart_mode: 0]
[uniform_drop: 0]
[drop_seed: 4]
[top_rate: 0.2]
[other_rate: 0.1]
[min_data_per_group: 100]
[max_cat_threshold: 32]
[cat_l2: 10]
[cat_smooth: 10]
[max_cat_to_onehot: 4]
[top_k: 20]
[monotone_constraints: ]
[monotone_constraints_method: basic]
[monotone_penalty: 0]
[feature_contri: ]
[forcedsplits_filename: ]
[refit_decay_rate: 0.9]
[cegb_tradeoff: 1]
[cegb_penalty_split: 0]
[cegb_penalty_feature_lazy: ]
[cegb_penalty_feature_coupled: ]
[path_smooth: 0]
[interaction_constraints: ]
[verbosity: -1]
[saved_feature_importance_type: 0]
[linear_tree: 0]
[max_bin: 255]
[max_bin_by_feature: ]
[min_data_in_bin: 3]
[bin_construct_sample_cnt: 200000]
[data_random_seed: 1]
[is_enable_sparse: 1]
[enable_bundle: 1]
[use_missing: 1]
[zero_as_missing: 0]
[feature_pre_filter: 1]
[pre_partition: 0]
[two_round: 0]
[header: 0]
[label_column: ]
[weight_column: ]
[group_column: ]
[ignore_column: ]
[categorical_feature: ]
[forcedbins_filename: ]
[precise_float_parser: 0]
[objective_seed: 5]
[num_class: 1]
[is_unbalance: 0]
[scale_pos_weight: 1]
[sigmoid: 1]
[boost_from_average: 1]
[reg_sqrt: 0]
[alpha: 0.9]
[fair_c: 1]
[poisson_max_delta_step: 0.7]
[tweedie_variance_power: 1.5]
[lambdarank_truncation_level: 30]
[lambdarank_norm: 1]
[label_gain: ]
[eval_at: ]
[multi_error_top_k: 1]
[auc_mu_weights: ]
[num_machines: 1]
[local_listen_port: 12400]
[time_out: 120]
[machine_list_filename: ]
[machines: ]
[gpu_platform_id: -1]
[gpu_device_id: -1]
[gpu_use_dp: 0]
[num_gpu: 1]

end of parameters

pandas_categorical:[]
