tree
version=v3
num_class=1
num_tree_per_iteration=1
label_index=0
max_feature_idx=144
objective=regression
feature_names=element_1 element_2 element_3 element_4 element_5 element_6 element_7 element_8 element_9 element_10 element_11 element_12 mixing_entropy element_1_element_2 element_1_element_3 element_1_element_4 element_1_element_5 element_1_element_6 element_1_element_7 element_1_element_8 element_1_element_9 element_1_element_10 element_1_element_11 element_1_element_12 element_2_element_3 element_2_element_4 element_2_element_5 element_2_element_6 element_2_element_7 element_2_element_8 element_2_element_9 element_2_element_10 element_2_element_11 element_2_element_12 element_3_element_4 element_3_element_5 element_3_element_6 element_3_element_7 element_3_element_8 element_3_element_9 element_3_element_10 element_3_element_11 element_3_element_12 element_4_element_5 element_4_element_6 element_4_element_7 element_4_element_8 element_4_element_9 element_4_element_10 element_4_element_11 element_4_element_12 element_5_element_6 element_5_element_7 element_5_element_8 element_5_element_9 element_5_element_10 element_5_element_11 element_5_element_12 element_6_element_7 element_6_element_8 element_6_element_9 element_6_element_10 element_6_element_11 element_6_element_12 element_7_element_8 element_7_element_9 element_7_element_10 element_7_element_11 element_7_element_12 element_8_element_9 element_8_element_10 element_8_element_11 element_8_element_12 element_9_element_10 element_9_element_11 element_9_element_12 element_10_element_11 element_10_element_12 element_11_element_12 phs_element_1_element_2 phs_element_1_element_3 phs_element_1_element_4 phs_element_1_element_5 phs_element_1_element_6 phs_element_1_element_7 phs_element_1_element_8 phs_element_1_element_9 phs_element_1_element_10 phs_element_1_element_11 phs_element_1_element_12 phs_element_2_element_3 phs_element_2_element_4 phs_element_2_element_5 phs_element_2_element_6 phs_element_2_element_7 phs_element_2_element_8 phs_element_2_element_9 phs_element_2_element_10 phs_element_2_element_11 phs_element_2_element_12 phs_element_3_element_4 phs_element_3_element_5 phs_element_3_element_6 phs_element_3_element_7 phs_element_3_element_8 phs_element_3_element_9 phs_element_3_element_10 phs_element_3_element_11 phs_element_3_element_12 phs_element_4_element_5 phs_element_4_element_6 phs_element_4_element_7 phs_element_4_element_8 phs_element_4_element_9 phs_element_4_element_10 phs_element_4_element_11 phs_element_4_element_12 phs_element_5_element_6 phs_element_5_element_7 phs_element_5_element_8 phs_element_5_element_9 phs_element_5_element_10 phs_element_5_element_11 phs_element_5_element_12 phs_element_6_element_7 phs_element_6_element_8 phs_element_6_element_9 phs_element_6_element_10 phs_element_6_element_11 phs_element_6_element_12 phs_element_7_element_8 phs_element_7_element_9 phs_element_7_element_10 phs_element_7_element_11 phs_element_7_element_12 phs_element_8_element_9 phs_element_8_element_10 phs_element_8_element_11 phs_element_8_element_12 phs_element_9_element_10 phs_element_9_element_11 phs_element_9_element_12 phs_element_10_element_11 phs_element_10_element_12 phs_element_11_element_12
feature_infos=[0:0.99502487562189079] [0:0.49223778871639529] [0:0.4134129536058796] [0:0.98512461826421038] [0:0.19047619047619041] [0:0.99997500062498434] [0:0.015779507679360399] [0:0.037486435829140699] [0:0.0060850028084628001] [0:0.99992000639948797] [0:0.014677103718199601] [0:0.99591674136042241] [-1.3124890170420334:-0.00030673380415490001] [0:0.20330486876099779] [0:0.090862666758111693] [0:0.22516149251642309] [0:0.028228386465429599] [0:0.045434260120548603] [0:0.0018341438435095999] [0:0.034982902529710001] [0:0.0034208931118601001] [0:0.0096611177170035003] [0:0.0095606389546341007] [0:0.018141918837522399] [0:0.0271018943234556] [0:0.23763846293578339] [0:0.0070588625953240001] [0:0.014345793640943599] [0:0.0004503080089461] [0:0.0029119906544513002] [0:0.00057437872120480005] [0:0.00037157003344840002] [0:0.0013775343814633001] [0:0.0101260566662623] [0:0.0203758183486491] [0:0.0014331569735478999] [0:0.2278803602788495] [0:8.5584929442477544e-05] [0:0.00036248179978880002] [0:6.0460745429167171e-05] [0:0.027964956553643502] [0:0.0011394018013942001] [0:0.016660602771538] [0:0.017583338370722099] [0:0.24033432319237669] [0:0.0011361617456487] [0:0.0084384627969608002] [0:0.00034835760998799998] [0:0.057369880500944097] [0:0.0046012811361152003] [0:0.022048671773313201] [0:0.045708766649446203] [0:6.1870927346205647e-05] [0:0.0010930183311529001] [0:4.7465226274553904e-05] [0:0.0081050914823531002] [0:0.00090702947845799995] [0:0.1462131519274375] [0:0.0147735765144443] [0:0.0017645776702153] [0:0.0050698862568169002] [0:0.23871799318851369] [0:0.0071529143934992] [0:0.1018845039419599] [0:6.8147595034861333e-05] [0:1.3187897058044316e-05] [0:0.0023300472967561999] [0:0.0001153940992578] [0:5.1958616416864722e-05] [0:5.1903114186850562e-05] none [0:2.8286115348481719e-05] [0:0.00010391723283369999] [0:0.0007975101977015] [0:3.9875509885076957e-05] [0:6.7473439687716962e-06] [0:0.0044705714959370002] [0:0.19007429077832819] [0:0.014274991287563901] [-0.17295896129139521:0] [-0.1018058503422048:0] [-0.21324032869777201:0] [-0.0299308056454957:0] [-0.049392409232181397:0] [-0.0012113167703714:0] [-0.019756963692872501:0] [-0.0022159758992569001:0] [-0.010606681713937201:0] [-0.0021977321799459999:0] [-0.011097006647905:0] [-0.030365952221379701:0] [-0.19577920420195999:0] [-0.0078985848192142001:0] [-0.0104902906090852:0] [-0.00048492063978810001:0] [-0.0020934306597618002:0] [-0.00057283730729089995:0] [-0.00024246031989399999:0] [-0.0013687246624300999:0] [-0.010502416347118499:0] [-0.020262955634983398:0] [-0.0015982080116514999:0] [-0.19337234376142479:0] [-9.5892480699078479e-05:0] [-0.00038487591609489999:0] [-6.0298663925360291e-05:0] [-0.0341867444578179:0] [-0.00096686171880709995:0] [-0.011327944447644501:0] [-0.0186437678263188:0] [-0.1924980785323428:0] [-0.0012234920757732001:0] [-0.0077964847273695997:0] [-0.00032180989462630001:0] [-0.059937744269431201:0] [-0.0032480889104591999:0] [-0.0228681646267903:0] [-0.026060667447681998:0] [-5.9385571019103402e-05:0] [-0.0011589369189333001:0] [-3.0149331962680145e-05:0] [-0.0077795098035026997:0] [-0.00065542929246279998:0] [-0.1056552019450166:0] [-0.0074843374207800998:0] [-0.0019243795804745:0] [-0.0029566432266190999:0] [-0.21255703609890861:0] [-0.0062294174619401:0] [-0.071899922403828795:0] [-2.2948945497066892e-05:0] [-7.3017926056386352e-06:0] [-0.0014603585211277999:0] [-6.3890685299342243e-05:0] [-5.5952381514019882e-05:0] [-3.079007328759301e-05:0] none [-7.8964884370965889e-06:0] [-0.000111904763028:0] [-0.00046508994576030001:0] [-2.325449728801534e-05:0] [-4.9106433259824942e-06:0] [-0.0037858367104838002:0] [-0.13387376654067079:0] [-0.0027742516619762001:0]
tree_sizes=719 741 734 741 737 732 746 740 733 745 740 739 743 745 744 751 739 742 748 742 739 739 766 742 740 744 746 753 745 745 747 750 751 750 770 753 745 755 747 760 756 764 758 773 757 758 770 757 764 760 762 761 763 767 764 769 781 775 761 764 765 768 766 773 760 766 776 774 778 774 766 768 774 776 784 775 785 780 779 779 777 774 771 787 786 783 789 691 688 689 688 782 782 689 689 678 679 784 677 680

Tree=0
num_leaves=7
num_cat=0
split_feature=0 0 12 0 12 0
split_gain=486.227 52.7944 16.3556 4.74149 3.28877 2.39028
threshold=0.40061963804070549 0.80943168896794304 -0.57966367120690454 0.59987624495197633 -1.0762015475497104 0.91368065606793658
decision_type=2 2 2 2 2 2
left_child=2 3 4 -2 -1 -3
right_child=1 5 -4 -5 -6 -7
leaf_value=0.30996334498363015 0.32908882656991262 0.3642185818498489 0.2660256882026778 0.34717322297462183 0.28757033434915152 0.3781698304547596
leaf_weight=20 48 35 143 148 91 250
leaf_count=20 48 35 143 148 91 250
internal_value=0.333049 0.362719 0.277204 0.342744 0.291605 0.376457
internal_weight=0 481 254 196 111 285
internal_count=735 481 254 196 111 285
is_linear=0
shrinkage=1


Tree=1
num_leaves=7
num_cat=0
split_feature=0 0 34 0 127 0
split_gain=438.923 51.0956 7.22157 4.91745 3.70507 3.10736
threshold=0.37227591857858783 0.7965158944439551 1.7168375555402212e-05 0.5695207650418157 -0.020823083998054544 0.91368065606793658
decision_type=2 2 2 2 2 2
left_child=2 3 4 -2 -1 -3
right_child=1 5 -4 -5 -6 -7
leaf_value=-0.046555990362778688 -0.0062724969747553891 0.028592562741703461 -0.041730261735523806 0.012191000372685236 -0.064143145661945497 0.042865088319778449
leaf_weight=39 48 45 79 145 129 250
leaf_count=39 48 45 79 145 129 250
internal_value=0 0.0276015 -0.0541977 0.00759904 -0.0600604 0.0406879
internal_weight=0 488 247 193 168 295
internal_count=735 488 247 193 168 295
is_linear=0
shrinkage=0.05


Tree=2
num_leaves=7
num_cat=0
split_feature=0 0 12 81 0 0
split_gain=396.23 40.4693 15.6884 4.40565 3.27329 1.68454
threshold=0.44385651459685188 0.82255911822390726 -0.6316395165205656 -0.12080854462627834 0.64039875079794728 0.9196034168581072
decision_type=2 2 2 2 2 2
left_child=2 4 3 -1 -2 -3
right_child=1 5 -4 -5 -6 -7
leaf_value=-0.014215613827109336 0.00069659944561157217 0.02939705373467626 -0.060281943666691686 -0.040083311049528024 0.014374469557688349 0.040843004523491377
leaf_weight=20 67 37 147 93 126 245
leaf_count=20 67 37 147 93 126 245
internal_value=0 0.0272675 -0.0495135 -0.035505 0.00962619 0.0393412
internal_weight=0 475 260 113 193 282
internal_count=735 475 260 113 193 282
is_linear=0
shrinkage=0.05


Tree=3
num_leaves=7
num_cat=0
split_feature=0 0 34 0 0 127
split_gain=357.696 43.0918 5.06496 4.05929 3.11189 3.0918
threshold=0.32136718057685371 0.78107028578436832 1.7168375555402212e-05 0.53689129475548125 0.91368065606793658 -0.020823083998054544
decision_type=2 2 2 2 2 2
left_child=2 3 5 -2 -3 -1
right_child=1 4 -4 -5 -6 -7
leaf_value=-0.041887380220951176 -0.0070230939587497196 0.025352980224591384 -0.038667877881150503 0.010067255508226777 0.03869112894535065 -0.057953207807023399
leaf_weight=39 46 53 76 142 250 129
leaf_count=39 46 53 76 142 250 129
internal_value=0 0.0246904 -0.0493784 0.00588557 0.0363581 -0.0542236
internal_weight=0 491 244 188 303 168
internal_count=735 491 244 188 303 168
is_linear=0
shrinkage=0.05


Tree=4
num_leaves=7
num_cat=0
split_feature=0 0 12 0 0 0
split_gain=322.923 33.0158 13.0311 3.39407 2.46671 1.81509
threshold=0.44385651459685188 0.8049341225594927 -0.66598958196482427 0.20016057663615747 0.63592440904657466 0.91368065606793658
decision_type=2 2 2 2 2 2
left_child=2 4 3 -1 -2 -3
right_child=1 5 -4 -5 -6 -7
leaf_value=-0.035774426110859577 -0.00026313806489362558 0.025159048078916016 -0.054134709525265196 -0.013378300411360606 0.012109369555796225 0.036756573712825778
leaf_weight=87 59 39 152 21 127 250
leaf_count=87 59 39 152 21 127 250
internal_value=0 0.0246162 -0.0446992 -0.0314196 0.00818476 0.0351915
internal_weight=0 475 260 108 186 289
internal_count=735 475 260 108 186 289
is_linear=0
shrinkage=0.05


Tree=5
num_leaves=7
num_cat=0
split_feature=0 0 12 0 0 0
split_gain=292.307 29.546 11.1363 2.72268 2.19566 1.70121
threshold=0.44385651459685188 0.78792483226915577 -0.58331448221194804 0.13361825215422576 0.88924266506088412 0.6126058059261269
decision_type=2 2 2 2 2 2
left_child=2 5 3 -1 -3 -2
right_child=1 4 -4 -5 -6 -7
leaf_value=-0.0346959207751108 -0.0013064609488679304 0.022963257465097642 -0.052008240648678372 -0.015052215721119533 0.034908740756646649 0.010093268292645613
leaf_weight=89 45 45 140 22 265 120
leaf_count=89 45 45 140 22 265 120
internal_value=0 0.024077 -0.0426304 -0.0308026 0.0331747 0.00698425
internal_weight=0 475 251 111 310 165
internal_count=726 475 251 111 310 165
is_linear=0
shrinkage=0.05


Tree=6
num_leaves=7
num_cat=0
split_feature=14 12 12 3 12 12
split_gain=259.706 31.9668 7.58304 2.95529 1.76769 0.936208
threshold=0.0027357801791023004 -0.64229254552150905 -0.49080823857176431 0.19972487663459068 -0.34927749171032424 -0.75976430740104395
decision_type=2 2 2 2 2 2
left_child=2 3 5 -2 -3 -1
right_child=1 4 -4 -5 -6 -7
leaf_value=-0.02890729432675376 0.0091474268179302827 0.023269832879304887 -0.05060264792868762 -0.0051114436155185105 0.033388314425475955 -0.038112261954774247
leaf_weight=67 133 52 123 50 254 47
leaf_count=67 133 52 123 50 254 47
internal_value=0 0.0217826 -0.0419924 0.00525156 0.0316688 -0.0327023
internal_weight=0 489 237 183 306 114
internal_count=726 489 237 183 306 114
is_linear=0
shrinkage=0.05


Tree=7
num_leaves=7
num_cat=0
split_feature=0 0 13 127 0 0
split_gain=238.576 24.0145 6.09577 2.79512 1.95271 1.35323
threshold=0.44385651459685188 0.76683620768696892 0.014587232960047601 -0.063489500339489288 0.88492570036540807 0.5695207650418157
decision_type=2 2 2 2 2 2
left_child=2 5 3 -1 -3 -2
right_child=1 4 -4 -5 -6 -7
leaf_value=-0.029860282824798065 -0.0030868370231473818 0.020201157728830976 -0.015592493890569763 -0.043910913683926862 0.031457240679370828 0.0083911652533480759
leaf_weight=44 32 45 26 181 268 130
leaf_count=44 32 45 26 181 268 130
internal_value=0 0.0217509 -0.0385145 -0.0411632 0.029839 0.00612391
internal_weight=0 475 251 225 313 162
internal_count=726 475 251 225 313 162
is_linear=0
shrinkage=0.05


Tree=8
num_leaves=7
num_cat=0
split_feature=0 0 12 0 0 12
split_gain=215.314 21.6985 8.49122 1.9025 1.79077 1.30757
threshold=0.44385651459685188 0.80943168896794304 -0.6316395165205656 0.13361825215422576 0.65968403978124202 -0.29646957134535518
decision_type=2 2 2 2 2 2
left_child=2 4 3 -1 -2 -4
right_child=1 -3 5 -5 -6 -7
leaf_value=-0.029363060322438562 0.0015788527353235136 0.029048335613036644 -0.03895748123526574 -0.012885837663303723 0.011569758715352627 -0.048645969040422558
leaf_weight=86 82 294 60 22 99 83
leaf_count=86 82 294 60 22 99 83
internal_value=0 0.0206633 -0.0365887 -0.0260066 0.00704349 -0.0445809
internal_weight=0 475 251 108 181 143
internal_count=726 475 251 108 181 143
is_linear=0
shrinkage=0.05


Tree=9
num_leaves=7
num_cat=0
split_feature=14 12 12 3 12 12
split_gain=191.183 23.5107 5.87367 2.20755 1.40705 0.83781
threshold=0.0027357801791023004 -0.64229254552150905 -0.46981042865232814 0.19972487663459068 -0.3360152723340939 -0.73705417709160981
decision_type=2 2 2 2 2 2
left_child=2 3 5 -2 -3 -1
right_child=1 4 -4 -5 -6 -7
leaf_value=-0.024681440357651033 0.0078788862843766697 0.02030187817911307 -0.043934425231763878 -0.0044447850007563834 0.028841584206112034 -0.033205944117234674
leaf_weight=70 133 60 118 50 246 49
leaf_count=70 133 60 118 50 246 49
internal_value=0 0.0186887 -0.0360298 0.00451176 0.0271671 -0.0281915
internal_weight=0 489 237 183 306 119
internal_count=726 489 237 183 306 119
is_linear=0
shrinkage=0.05


Tree=10
num_leaves=7
num_cat=0
split_feature=0 0 12 0 0 12
split_gain=181.083 21.6034 5.49521 1.59334 1.57584 1.13006
threshold=0.37227591857858783 0.75663218952471833 -0.42443129724972523 0.87647176753232514 0.53689129475548125 -0.81638562093086897
decision_type=2 2 2 2 2 2
left_child=2 4 5 -3 -2 -1
right_child=1 3 -4 -5 -6 -7
leaf_value=-0.022521672705025003 -0.0046469423527984574 0.016976461004703604 -0.042778538610484154 0.026971367437803248 0.0062307917349244237 -0.031538748305835078
leaf_weight=57 45 47 111 263 128 89
leaf_count=57 45 47 111 263 128 89
internal_value=0 0.0175565 -0.0343934 0.025456 0.00340132 -0.0280184
internal_weight=0 483 257 310 173 146
internal_count=740 483 257 310 173 146
is_linear=0
shrinkage=0.05


Tree=11
num_leaves=7
num_cat=0
split_feature=0 0 12 0 0 12
split_gain=163.454 20.0709 4.64453 1.55438 1.45594 0.833487
threshold=0.32136718057685371 0.75663218952471833 -0.41566986593449623 0.53689129475548125 0.93672374000242875 -0.81638562093086897
decision_type=2 2 2 2 2 2
left_child=2 3 5 -2 -3 -1
right_child=1 4 -4 -5 -6 -7
leaf_value=-0.022146257752966553 -0.0046314051685233913 0.018273617365421393 -0.04070239050821825 0.005919251936575165 0.026170054758931027 -0.030003726383050284
leaf_weight=54 48 78 110 128 232 90
leaf_count=54 48 78 110 128 232 90
internal_value=0 0.0165271 -0.0329665 0.0030418 0.0241832 -0.0270572
internal_weight=0 486 254 176 310 144
internal_count=740 486 254 176 310 144
is_linear=0
shrinkage=0.05


Tree=12
num_leaves=7
num_cat=0
split_feature=0 0 100 87 0 0
split_gain=147.535 17.238 2.6992 1.65627 1.4088 1.16177
threshold=0.3793123226688368 0.73890301328011931 -2.6025218504368888e-05 -6.2596358935618071e-06 0.87647176753232514 0.53689129475548125
decision_type=2 2 2 2 2 2
left_child=2 5 -1 -4 -3 -2
right_child=1 4 3 -5 -6 -7
leaf_value=-0.022867776760521034 -0.0040131860897269882 0.015126711586300207 -0.028888567402420275 -0.038421901780189859 0.024360833914787598 0.0055049855444055523
leaf_weight=75 43 49 83 101 263 126
leaf_count=75 43 49 83 101 263 126
internal_value=0 0.0159442 -0.0308627 -0.0341215 0.0229106 0.0030832
internal_weight=0 481 259 184 312 169
internal_count=740 481 259 184 312 169
is_linear=0
shrinkage=0.05


Tree=13
num_leaves=7
num_cat=0
split_feature=14 12 12 3 12 12
split_gain=131.071 16.7496 4.06767 1.37168 1.132 0.806283
threshold=0.0027357801791023004 -0.67140331113643625 -0.42443129724972523 0.19972487663459068 -0.30282836029582866 -0.74422981992318549
decision_type=2 2 2 2 2 2
left_child=2 3 5 -2 -3 -1
right_child=1 4 -4 -5 -6 -7
leaf_value=-0.019963150549059117 0.0056738967229942178 0.01661380750934283 -0.036782238746548561 -0.0037195853772573175 0.02369133768904157 -0.027517190438352136
leaf_weight=66 127 75 111 56 229 76
leaf_count=66 127 75 111 56 229 76
internal_value=0 0.0147508 -0.0296115 0.00279939 0.0219452 -0.0240062
internal_weight=0 487 253 183 304 142
internal_count=740 487 253 183 304 142
is_linear=0
shrinkage=0.05


Tree=14
num_leaves=7
num_cat=0
split_feature=0 0 12 90 0 12
split_gain=120.458 14.7556 3.48479 1.15092 1.09952 0.718771
threshold=0.32136718057685371 0.73890301328011931 -0.36250395051510004 -0.00038100824412459999 0.59036786072360903 -0.78645642376661196
decision_type=2 2 2 2 2 2
left_child=2 4 5 -3 -2 -1
right_child=1 3 -4 -5 -6 -7
leaf_value=-0.019274970050901175 -0.0032475270239436735 0.013572628004476429 -0.035508154081826164 0.021989425249171982 0.0052601343963958203 -0.026294270366109831
leaf_weight=60 56 48 101 264 118 93
leaf_count=60 56 48 101 264 118 93
internal_value=0 0.0141883 -0.0283 0.0206945 0.00252204 -0.0235416
internal_weight=0 486 254 312 174 153
internal_count=740 486 254 312 174 153
is_linear=0
shrinkage=0.05


Tree=15
num_leaves=7
num_cat=0
split_feature=18 12 12 25 12 12
split_gain=101.829 11.6057 4.02934 1.55324 0.938308 0.763463
threshold=7.5553685454528925e-05 -0.56634108996067056 -0.57966367120690454 0.028523475036160501 -0.92673350804791765 -0.23220354029408127
decision_type=2 2 2 2 2 2
left_child=2 3 4 -2 -1 -4
right_child=1 -3 5 -5 -6 -7
leaf_value=-0.01185372498105554 0.007088024955762386 0.020408925277063217 -0.027971477283013836 -0.0028278549801109844 -0.021932085233533551 -0.035229242477618473
leaf_weight=34 147 261 74 54 72 71
leaf_count=34 147 261 74 54 72 71
internal_value=0 0.0134545 -0.0261088 0.00442406 -0.0186994 -0.0315253
internal_weight=0 462 251 201 106 145
internal_count=713 462 251 201 106 145
is_linear=0
shrinkage=0.05


Tree=16
num_leaves=7
num_cat=0
split_feature=0 0 12 0 12 12
split_gain=93.7832 9.66295 3.80187 1.19129 0.877654 0.689744
threshold=0.42161646467178598 0.72523248765907378 -0.57966367120690454 0.9196034168581072 -1.0304480342616718 -0.25943665028483665
decision_type=2 2 2 2 2 2
left_child=2 -2 4 -3 -1 -4
right_child=1 3 5 -5 -6 -7
leaf_value=-0.010196790253293925 0.0028707277987115578 0.012640670529553588 -0.026379479531730927 0.020038581156679489 -0.020301007389663214 -0.033280580639839179
leaf_weight=29 152 71 70 233 83 75
leaf_count=29 152 71 70 233 83 75
internal_value=0 0.0131641 -0.0246043 0.0183108 -0.0176847 -0.029949
internal_weight=0 456 257 304 112 145
internal_count=713 456 257 304 112 145
is_linear=0
shrinkage=0.05


Tree=17
num_leaves=7
num_cat=0
split_feature=0 0 12 0 0 12
split_gain=84.7019 9.8396 2.65365 1.08983 0.788168 0.455932
threshold=0.32136718057685371 0.72523248765907378 -0.49080823857176431 0.94181261025082053 0.50856712685182015 -0.23220354029408127
decision_type=2 2 2 2 2 2
left_child=2 4 -1 -3 -2 -4
right_child=1 3 5 -5 -6 -7
leaf_value=-0.018718588043354516 -0.0039276740129571405 0.012920590474250468 -0.025828287570640956 0.019398178110520047 0.0041519432073894164 -0.031803751495522517
leaf_weight=117 40 94 58 210 123 71
leaf_count=117 40 94 58 210 123 71
internal_value=0 0.0120808 -0.0241715 0.0173952 0.00216922 -0.0291171
internal_weight=0 467 246 304 163 129
internal_count=713 467 246 304 163 129
is_linear=0
shrinkage=0.05


Tree=18
num_leaves=7
num_cat=0
split_feature=0 0 12 90 0 12
split_gain=76.4434 8.88024 2.39492 0.998784 0.711322 0.413293
threshold=0.32136718057685371 0.72523248765907378 -0.49080823857176431 -0.00038100824412459999 0.50856712685182015 -0.20485933741802423
decision_type=2 2 2 2 2 2
left_child=2 4 -1 -3 -2 -4
right_child=1 3 5 -5 -6 -7
leaf_value=-0.017782658625107545 -0.0037312902370467784 0.010746004482110341 -0.024673162254153707 0.017946660885068237 0.003944345982295718 -0.030341744861182046
leaf_weight=117 40 60 61 244 123 68
leaf_count=117 40 60 61 244 123 68
internal_value=0 0.0114768 -0.0229629 0.0165255 0.00206075 -0.0276613
internal_weight=0 467 246 304 163 129
internal_count=713 467 246 304 163 129
is_linear=0
shrinkage=0.05


Tree=19
num_leaves=7
num_cat=0
split_feature=0 0 12 0 0 12
split_gain=68.9902 8.01441 2.16994 0.916572 0.658054 0.603548
threshold=0.32136718057685371 0.72523248765907378 -0.36250395051510004 0.94800953618630801 0.61628106871450994 -0.78645642376661196
decision_type=2 2 2 2 2 2
left_child=2 4 5 -3 -2 -1
right_child=1 3 -4 -5 -6 -7
leaf_value=-0.014071867728637437 -0.0019431714672380343 0.011806927776277655 -0.027585658735158492 0.017635756349328704 0.0045450403233895046 -0.020593193591980453
leaf_weight=59 65 101 98 203 98 89
leaf_count=59 65 101 98 203 98 89
internal_value=0 0.0109029 -0.0218148 0.0156992 0.00195772 -0.0179935
internal_weight=0 467 246 304 163 148
internal_count=713 467 246 304 163 148
is_linear=0
shrinkage=0.05


Tree=20
num_leaves=7
num_cat=0
split_feature=0 0 12 0 0 12
split_gain=63.2852 5.95688 2.99094 0.93993 0.782196 0.575417
threshold=0.45991313404399764 0.8423507536726621 -0.6798971985395269 0.13361825215422576 0.66649995221393132 -0.29646957134535518
decision_type=2 2 2 2 2 2
left_child=2 4 3 -1 -2 -4
right_child=1 -3 5 -5 -6 -7
leaf_value=-0.016079019245348478 0.0011414339726363088 0.016081698605734291 -0.020702438428997993 -0.0056269252424438797 0.0075931805671037482 -0.026777287388549134
leaf_weight=76 92 264 72 30 96 85
leaf_count=76 92 264 72 30 96 85
internal_value=0 0.0112379 -0.0196101 -0.0131209 0.00443594 -0.0239914
internal_weight=0 452 263 106 188 157
internal_count=715 452 263 106 188 157
is_linear=0
shrinkage=0.05


Tree=21
num_leaves=7
num_cat=0
split_feature=0 0 12 0 0 12
split_gain=57.1149 5.37722 2.69932 0.848287 0.75775 0.519314
threshold=0.45991313404399764 0.8490427689240746 -0.6798971985395269 0.13361825215422576 0.68031876476968112 -0.29646957134535518
decision_type=2 2 2 2 2 2
left_child=2 4 3 -1 -2 -4
right_child=1 -3 5 -5 -6 -7
leaf_value=-0.015275068365429578 0.0016656405603154437 0.015383689039347254 -0.019667316642072469 -0.0053455789449314284 0.008003507172915994 -0.025438421824399163
leaf_weight=76 111 259 72 30 82 85
leaf_count=76 111 259 72 30 82 85
internal_value=0 0.010676 -0.0186296 -0.0124648 0.00435841 -0.0227918
internal_weight=0 452 263 106 193 157
internal_count=715 452 263 106 193 157
is_linear=0
shrinkage=0.05


Tree=22
num_leaves=7
num_cat=0
split_feature=20 100 80 94 127 25
split_gain=50.5991 6.18706 0.930287 0.793137 0.715649 0.588843
threshold=3.4380794941890701e-05 -0.00049689850079809989 -0.00063896859575789989 -1.0032224541029992e-05 -0.11920547389651219 0.049372637418896852
decision_type=2 2 2 2 2 2
left_child=2 5 -1 -3 -4 -2
right_child=1 3 4 -5 -6 -7
leaf_value=-0.0092908123469290626 0.0032777580112581619 0.0083671900611676144 -0.012038260339586824 0.014716369963771715 -0.0207320568501018 -0.0034940440476768546
leaf_weight=24 112 61 27 254 192 45
leaf_count=24 112 61 27 254 192 45
internal_value=0 0.00944541 -0.0186361 0.0134868 -0.0196602 0.0013368
internal_weight=0 472 243 315 219 157
internal_count=715 472 243 315 219 157
is_linear=0
shrinkage=0.05


Tree=23
num_leaves=7
num_cat=0
split_feature=0 0 12 12 0 0
split_gain=46.6308 4.07875 2.61076 0.979056 0.554066 0.214929
threshold=0.48548780605885283 0.8490427689240746 -0.92673350804791765 -0.31640009079851622 0.68031876476968112 0.96337909241104491
decision_type=2 2 2 2 2 2
left_child=2 4 -1 -4 -2 -3
right_child=1 5 3 -5 -6 -7
leaf_value=-0.0064725728812985691 0.0017907423073414801 0.011945458525872749 -0.016145870619220661 -0.022974030455846464 0.007275657298997408 0.014955104227194531
leaf_weight=52 105 92 128 89 82 167
leaf_count=52 105 92 128 89 82 167
internal_value=0 0.00982313 -0.0165351 -0.0189464 0.00419589 0.013886
internal_weight=0 446 269 217 187 259
internal_count=715 446 269 217 187 259
is_linear=0
shrinkage=0.05


Tree=24
num_leaves=7
num_cat=0
split_feature=0 0 12 0 0 12
split_gain=42.089 3.96873 2.06633 0.675857 0.51671 0.363678
threshold=0.45991313404399764 0.75134261853858353 -0.6316395165205656 0.13361825215422576 0.95304343676491798 -0.20039223141739157
decision_type=2 2 2 2 2 2
left_child=2 -2 3 -1 -3 -4
right_child=1 4 5 -5 -6 -7
leaf_value=-0.013257313649668251 0.0024500153577694597 0.0094225310864522287 -0.017775468120262736 -0.0045413240417838101 0.013844943557672455 -0.022800947181762211
leaf_weight=86 148 97 84 30 207 63
leaf_count=86 148 97 84 30 207 63
internal_value=0 0.0091648 -0.0159923 -0.0110032 0.0124338 -0.0199292
internal_weight=0 452 263 116 304 147
internal_count=715 452 263 116 304 147
is_linear=0
shrinkage=0.05


Tree=25
num_leaves=7
num_cat=0
split_feature=0 0 12 0 12 12
split_gain=37.997 3.56902 2.33065 0.499401 0.493468 0.362631
threshold=0.46749528222583808 0.8423507536726621 -0.66598958196482427 0.65968403978124202 -1.1437296721480423 -0.29384268471293845
decision_type=2 2 2 2 2 2
left_child=2 3 4 -2 -1 -4
right_child=1 -3 5 -5 -6 -7
leaf_value=-0.0040047480694709288 0.000537780428723774 0.012460556230593077 -0.016224130957076945 0.0056920755542172446 -0.011410191028219899 -0.021073255212192079
leaf_weight=31 79 273 72 116 82 83
leaf_count=31 79 273 72 116 82 83
internal_value=0 0.00877029 -0.0148396 0.00360393 -0.00937861 -0.0188208
internal_weight=0 468 268 195 113 155
internal_count=736 468 268 195 113 155
is_linear=0
shrinkage=0.05


Tree=26
num_leaves=7
num_cat=0
split_feature=0 0 12 12 0 13
split_gain=34.2996 3.09502 2.24592 0.555409 0.474073 0.301145
threshold=0.48548780605885283 0.85414200241208438 -0.81638562093086897 -0.34927749171032424 0.68848728424140837 0.063738647238489168
decision_type=2 2 2 2 2 2
left_child=2 4 5 -4 -2 -1
right_child=1 -3 3 -5 -6 -7
leaf_value=-0.009367544397159859 0.0017362963150177773 0.011967493309727255 -0.014194055298424286 -0.019630638665209213 0.0067241653752855117 -0.0031195552150408428
leaf_weight=54 120 265 92 96 79 30
leaf_count=54 120 265 92 96 79 30
internal_value=0 0.00842877 -0.0139332 -0.0169702 0.00371641 -0.00713612
internal_weight=0 464 272 188 199 84
internal_count=736 464 272 188 199 84
is_linear=0
shrinkage=0.05


Tree=27
num_leaves=7
num_cat=0
split_feature=18 12 12 91 12 12
split_gain=30.3246 3.73689 1.35863 0.669015 0.31444 0.245488
threshold=7.5553685454528925e-05 -0.53692824313621912 -0.56061144533994489 -0.026149798647524546 -0.9725457986114141 -0.17889260699309964
decision_type=2 2 2 2 2 2
left_child=2 3 4 -2 -1 -4
right_child=1 -3 5 -5 -6 -7
leaf_value=-0.0054320759878590192 -0.0016406052539111185 0.011305228152682791 -0.015552270300686361 0.0043446983965174232 -0.01155174432420417 -0.01976326432872991
leaf_weight=29 67 269 80 154 76 61
leaf_count=29 67 269 80 154 76 61
internal_value=0 0.00734749 -0.0141675 0.00253015 -0.00986155 -0.017374
internal_weight=0 490 246 221 105 141
internal_count=736 490 246 221 105 141
is_linear=0
shrinkage=0.05


Tree=28
num_leaves=7
num_cat=0
split_feature=0 0 12 0 0 12
split_gain=28.0019 2.52542 1.83683 0.46183 0.404038 0.277951
threshold=0.48548780605885283 0.71676015090457856 -0.66598958196482427 0.9558478825018718 0.23099519861638659 -0.20039223141739157
decision_type=2 2 2 2 2 2
left_child=2 -2 4 -3 -1 -4
right_child=1 3 5 -5 -6 -7
leaf_value=-0.0097407317664249832 0.0019166860918949501 0.0075352868561943372 -0.014335920728659364 0.01143389037553815 -0.0032693683649139371 -0.018617985104069566
leaf_weight=83 137 120 89 207 34 66
leaf_count=83 137 120 89 207 34 66
internal_value=0 0.00761559 -0.0125894 0.0100032 -0.00786016 -0.0161593
internal_weight=0 464 272 327 117 155
internal_count=736 464 272 327 117 155
is_linear=0
shrinkage=0.05


Tree=29
num_leaves=7
num_cat=0
split_feature=0 0 12 12 0 13
split_gain=25.2717 2.28436 1.66408 0.417412 0.379085 0.218679
threshold=0.48548780605885283 0.86214362718602067 -0.81638562093086897 -0.29646957134535518 0.68031876476968112 0.063738647238489168
decision_type=2 2 2 2 2 2
left_child=2 4 5 -4 -2 -1
right_child=1 -3 3 -5 -6 -7
leaf_value=-0.0080107021938871457 0.0011865570867612574 0.010301809174366324 -0.012456751550332858 -0.01719562484040147 0.0055384737607884283 -0.0026864832220599055
leaf_weight=54 107 263 104 84 94 30
leaf_count=54 107 263 104 84 94 30
internal_value=0 0.00723481 -0.01196 -0.0145741 0.00322178 -0.0061092
internal_weight=0 464 272 188 201 84
internal_count=736 464 272 188 201 84
is_linear=0
shrinkage=0.05


Tree=30
num_leaves=7
num_cat=0
split_feature=0 0 12 0 12 12
split_gain=22.8985 2.15749 1.31974 0.394207 0.3121 0.18646
threshold=0.45991313404399764 0.70678615066950667 -0.78645642376661196 0.95841324487448387 -0.25943665028483665 -1.1437296721480423
decision_type=2 2 2 2 2 2
left_child=2 -2 5 -3 -4 -1
right_child=1 3 4 -5 -6 -7
leaf_value=-0.0030685178293236373 0.0015072954142104009 0.0069557119916746589 -0.012318899358312291 0.010447899424112761 -0.016563743793628585 -0.0080899080809424904
leaf_weight=29 135 138 111 195 71 51
leaf_count=29 135 138 111 195 71 51
internal_value=0 0.00683913 -0.0116221 0.00900069 -0.0139749 -0.00626965
internal_weight=0 468 262 333 182 80
internal_count=730 468 262 333 182 80
is_linear=0
shrinkage=0.05


Tree=31
num_leaves=7
num_cat=0
split_feature=0 0 12 0 12 13
split_gain=20.6711 1.87007 1.26555 0.356589 0.282902 0.183615
threshold=0.46749528222583808 0.70678615066950667 -0.78645642376661196 0.96005484955880627 -0.20666365844802045 0.063738647238489168
decision_type=2 2 2 2 2 2
left_child=2 -2 5 -3 -4 -1
right_child=1 3 4 -5 -6 -7
leaf_value=-0.0075040510838682009 0.0015180450088585285 0.0067213452572154027 -0.011789165729464129 0.010014097630172164 -0.015889533880082043 -0.0025300789225314348
leaf_weight=55 132 148 116 185 66 28
leaf_count=55 132 148 116 185 66 28
internal_value=0 0.0065543 -0.0109427 0.00855065 -0.0132761 -0.00582608
internal_weight=0 465 265 333 182 83
internal_count=730 465 265 333 182 83
is_linear=0
shrinkage=0.05


Tree=32
num_leaves=7
num_cat=0
split_feature=0 0 12 0 12 12
split_gain=18.6601 1.62325 1.2095 0.284462 0.256322 0.196051
threshold=0.48548780605885283 0.75134261853858353 -0.6981408993104804 0.95546218066110955 -1.0421011023863322 -0.17541365100961856
decision_type=2 2 2 2 2 2
left_child=2 -2 4 -3 -1 -4
right_child=1 3 5 -5 -6 -7
leaf_value=-0.0033960940974716229 0.0017862885802398005 0.0062141836744494146 -0.011721504927397921 0.0093280343240813215 -0.0083453595385713092 -0.015349620529289905
leaf_weight=47 140 113 104 209 59 58
leaf_count=47 140 113 104 209 59 58
internal_value=0 0.00628104 -0.0103034 0.00823529 -0.00615087 -0.0130205
internal_weight=0 462 268 322 106 162
internal_count=730 462 268 322 106 162
is_linear=0
shrinkage=0.05


Tree=33
num_leaves=7
num_cat=0
split_feature=0 0 12 0 12 79
split_gain=16.8459 1.42285 1.15725 0.263056 0.233488 0.177139
threshold=0.49441792678417845 0.86214362718602067 -0.78645642376661196 0.65968403978124202 -0.36250395051510004 -0.074196086919563045
decision_type=2 2 2 2 2 2
left_child=2 3 5 -2 -4 -1
right_child=1 -3 4 -5 -6 -7
leaf_value=-0.0021926341198302587 0.00032025364758020506 0.0083798196599278105 -0.010073849716607262 0.0041539929028839061 -0.013663417792197355 -0.0067835698479955858
leaf_weight=34 71 267 85 121 97 55
leaf_count=34 71 267 85 121 97 55
internal_value=0 0.00601914 -0.00970212 0.00273631 -0.011987 -0.00502973
internal_weight=0 459 271 192 182 89
internal_count=730 459 271 192 182 89
is_linear=0
shrinkage=0.05


Tree=34
num_leaves=7
num_cat=0
split_feature=20 100 80 127 24 3
split_gain=14.9375 1.79314 0.392648 0.310068 0.265391 0.190184
threshold=3.7367581335505914e-05 -0.00049689850079809989 -0.00063896859575789989 -0.11920547389651219 0.00020465263571790003 0.19972487663459068
decision_type=2 2 2 2 2 2
left_child=2 5 -1 -4 -3 -2
right_child=1 4 3 -5 -6 -7
leaf_value=-0.0044266125251506937 0.0019525688142682655 0.0081700422907950449 -0.0055017839257533738 -0.011323641644496667 0.0049671222782556226 -0.0018686448748996285
leaf_weight=29 106 244 26 190 88 47
leaf_count=29 106 244 26 190 88 47
internal_value=0 0.0052572 -0.00988943 -0.0106229 0.00732108 0.000778732
internal_weight=0 485 245 216 332 153
internal_count=730 485 245 216 332 153
is_linear=0
shrinkage=0.05


Tree=35
num_leaves=7
num_cat=0
split_feature=0 0 12 5 0 12
split_gain=13.9052 1.18304 0.915761 0.267628 0.239097 0.166146
threshold=0.49441792678417845 0.86214362718602067 -0.6798971985395269 0.64384616532044547 0.65362604827137483 -0.17125163407954772
decision_type=2 2 2 2 2 2
left_child=2 4 3 -1 -2 -4
right_child=1 -3 5 -5 -6 -7
leaf_value=-0.0043901850959518927 -7.989184487087187e-05 0.0075639190501979488 -0.0099646254931346021 -0.010726136025041341 0.0036395170683867504 -0.013269436273907052
leaf_weight=100 64 261 101 20 133 61
leaf_count=100 64 261 101 20 133 61
internal_value=0 0.00535617 -0.00875675 -0.00544618 0.00243118 -0.011209
internal_weight=0 458 282 120 197 162
internal_count=740 458 282 120 197 162
is_linear=0
shrinkage=0.05


Tree=36
num_leaves=7
num_cat=0
split_feature=0 0 12 0 5 0
split_gain=12.5606 1.5856 0.471719 0.259879 0.166169 0.14819
threshold=0.32136718057685371 0.69691865180054269 -0.3953333082438098 0.96264123589777884 0.68856929234287734 0.61628106871450994
decision_type=2 2 2 2 2 2
left_child=2 5 4 -3 -1 -2
right_child=1 3 -4 -5 -6 -7
leaf_value=-0.0061602338822205754 -0.0012698452823263196 0.0051055286896695027 -0.011638578081672842 0.0078878586347392535 -0.01001355460821054 0.0018285962216945931
leaf_weight=99 70 163 110 173 39 86
leaf_count=99 70 163 110 173 39 86
internal_value=0 0.00460401 -0.00919611 0.0065381 -0.00724922 0.00043827
internal_weight=0 492 248 336 138 156
internal_count=740 492 248 336 138 156
is_linear=0
shrinkage=0.05


Tree=37
num_leaves=7
num_cat=0
split_feature=0 0 80 61 0 0
split_gain=11.3371 0.97269 0.667014 0.297465 0.195271 0.100699
threshold=0.49441792678417845 0.86214362718602067 -0.00063896859575789989 0.13328472495281282 0.65968403978124202 0.96983781908494093
decision_type=2 2 2 2 2 2
left_child=2 4 -1 -4 -2 -3
right_child=1 5 3 -5 -6 -7
leaf_value=-0.0030217958104913124 0.00010995309832853513 0.005837120275828056 -0.009893874765534676 -0.0048797901773027013 0.0033788476739078765 0.007801714746799685
leaf_weight=56 72 128 191 35 125 133
leaf_count=56 72 128 191 35 125 133
internal_value=0 0.00483636 -0.00790689 -0.00911736 0.00218412 0.00683824
internal_weight=0 458 282 226 197 261
internal_count=740 458 282 226 197 261
is_linear=0
shrinkage=0.05


Tree=38
num_leaves=7
num_cat=0
split_feature=0 0 12 0 5 0
split_gain=10.2504 1.29627 0.401901 0.21222 0.143935 0.118759
threshold=0.32136718057685371 0.69691865180054269 -0.3953333082438098 0.96136255251670599 0.68856929234287734 0.6126058059261269
decision_type=2 2 2 2 2 2
left_child=2 5 4 -3 -1 -2
right_child=1 3 -4 -5 -6 -7
leaf_value=-0.00549691124875663 -0.0012183769911533809 0.0045499942085194976 -0.010561955334110695 0.0070707292825971518 -0.0090831841509311628 0.0015739842865231267
leaf_weight=99 66 155 110 181 39 90
leaf_count=99 66 155 110 181 39 90
internal_value=0 0.00415914 -0.00830747 0.00590789 -0.00651042 0.000392601
internal_weight=0 492 248 336 138 156
internal_count=740 492 248 336 138 156
is_linear=0
shrinkage=0.05


Tree=39
num_leaves=7
num_cat=0
split_feature=20 1 12 25 5 12
split_gain=9.0833 1.18032 0.394451 0.184804 0.146873 0.128579
threshold=3.4380794941890701e-05 0.14739314151634611 -0.3953333082438098 0.024114183170896003 0.68856929234287734 -0.19309263578418753
decision_type=2 2 2 2 2 2
left_child=2 5 4 -3 -1 -2
right_child=1 3 -4 -5 -6 -7
leaf_value=-0.005011458867695183 0.0048139993094753293 0.0021322170077066895 -0.010033857636153699 -0.0010291778920968921 -0.0086290249171165328 0.0068973417752064203
leaf_weight=100 141 118 110 76 39 156
leaf_count=100 141 118 110 76 39 156
internal_value=0 0.00392697 -0.0077968 0.000893732 -0.00602646 0.00590828
internal_weight=0 491 249 194 139 297
internal_count=740 491 249 194 139 297
is_linear=0
shrinkage=0.05


Tree=40
num_leaves=7
num_cat=0
split_feature=0 0 12 0 63 0
split_gain=8.31487 1.12317 0.320918 0.184656 0.101335 0.0859343
threshold=0.23099519861638659 0.69156977214253956 -0.36250395051510004 0.95242444399663928 0.015937820087844601 0.61628106871450994
decision_type=2 2 2 2 2 2
left_child=2 5 4 -3 -1 -2
right_child=1 3 -4 -5 -6 -7
leaf_value=-0.0054393571482652487 -0.0010436170058518413 0.0038921923949457116 -0.0098502384969080346 0.0063359590787440542 -0.0087145481755336127 0.0013066904114587721
leaf_weight=111 71 126 99 200 30 86
leaf_count=111 71 126 99 200 30 86
internal_value=0 0.00371819 -0.00766824 0.00539144 -0.00613621 0.000243813
internal_weight=0 483 240 326 141 157
internal_count=723 483 240 326 141 157
is_linear=0
shrinkage=0.05


Tree=41
num_leaves=7
num_cat=0
split_feature=20 34 12 12 5 3
split_gain=7.33339 0.984918 0.318763 0.165471 0.114202 0.111298
threshold=2.2861281899290905e-05 0.00055133719301030007 -0.36250395051510004 -0.20039223141739157 0.73443487824577702 0.19972487663459068
decision_type=2 2 2 2 2 2
left_child=2 3 4 -2 -1 -3
right_child=1 5 -4 -5 -6 -7
leaf_value=-0.0047890460889479063 0.0039476481416331442 0.001346768629260954 -0.0093577267395125504 0.0062462331693280831 -0.0079659201586857829 -0.0013600430371047095
leaf_weight=103 149 110 99 165 39 58
leaf_count=103 149 110 99 165 39 58
internal_value=0 0.00350226 -0.00717991 0.0051555 -0.00566157 0.000412274
internal_weight=0 482 241 314 142 168
internal_count=723 482 241 314 142 168
is_linear=0
shrinkage=0.05


Tree=42
num_leaves=7
num_cat=0
split_feature=0 0 12 0 127 0
split_gain=6.78894 0.918866 0.26258 0.151889 0.0913643 0.0720679
threshold=0.23099519861638659 0.69156977214253956 -0.29646957134535518 0.96776558624723885 -0.13386104560524187 0.65053033987173359
decision_type=2 2 2 2 2 2
left_child=2 5 4 -3 -1 -2
right_child=1 3 -4 -5 -6 -7
leaf_value=-0.0031738472620731796 -0.0005915195604902692 0.0038768828194323843 -0.0091622331212548643 0.0060422918498516083 -0.006286565008174096 0.0016361637778269751
leaf_weight=29 100 176 85 150 126 57
leaf_count=29 100 176 85 150 126 57
internal_value=0 0.0033598 -0.00692891 0.00487324 -0.00570419 0.000217257
internal_weight=0 483 240 326 155 157
internal_count=723 483 240 326 155 157
is_linear=0
shrinkage=0.05


Tree=43
num_leaves=7
num_cat=0
split_feature=20 90 12 18 5 12
split_gain=5.97845 0.800726 0.292408 0.125642 0.116533 0.0835005
threshold=3.4380794941890701e-05 -0.00061513736311744993 -0.49080823857176431 0.00022112325433315002 0.68856929234287734 -0.16269897159960536
decision_type=2 2 2 2 2 2
left_child=2 3 4 -2 -1 -3
right_child=1 5 -4 -5 -6 -7
leaf_value=-0.0037014432499326479 -0.00068653814397058111 0.0043026047764236439 -0.0080800054967403428 0.0018495114892626528 -0.0072196117835119367 0.0061066719441159262
leaf_weight=89 81 170 125 123 32 103
leaf_count=89 81 170 125 123 32 103
internal_value=0 0.00321239 -0.00638397 0.000842551 -0.00463187 0.00498326
internal_weight=0 477 246 204 121 273
internal_count=723 477 246 204 121 273
is_linear=0
shrinkage=0.05


Tree=44
num_leaves=7
num_cat=0
split_feature=0 0 12 0 63 0
split_gain=5.54584 0.75632 0.218593 0.126502 0.0782954 0.0595464
threshold=0.23099519861638659 0.69156977214253956 -0.29646957134535518 0.95007458556164703 0.015937820087844601 0.61628106871450994
decision_type=2 2 2 2 2 2
left_child=2 5 4 -3 -1 -2
right_child=1 3 -4 -5 -6 -7
leaf_value=-0.0045492919373579998 -0.00088602382325711601 0.0031277795172931938 -0.0083001212249783907 0.0051665010921111924 -0.0072649293579161167 0.0010704282465455839
leaf_weight=121 71 121 85 205 34 86
leaf_count=121 71 121 85 205 34 86
internal_value=0 0.00303674 -0.00626243 0.0044098 -0.00514498 0.000185663
internal_weight=0 483 240 326 155 157
internal_count=723 483 240 326 155 157
is_linear=0
shrinkage=0.05


Tree=45
num_leaves=7
num_cat=0
split_feature=0 12 12 12 0 0
split_gain=5.33907 0.468533 0.287719 0.153656 0.0871783 0.0555345
threshold=0.48548780605885283 -0.50545591693054648 -0.96055591821483599 -0.13899202109001776 0.66337675437284949 0.97523562773747985
decision_type=2 2 2 2 2 2
left_child=2 4 -1 -4 -2 -3
right_child=1 5 3 -5 -6 -7
leaf_value=-0.001990858835485229 0.00012954032067518054 0.0040982307583405713 -0.0055855518819115475 -0.0086751162719268075 0.0022371619928162547 0.0056815325927275888
leaf_weight=47 83 191 178 52 120 78
leaf_count=47 83 191 178 52 120 78
internal_value=0 0.00318884 -0.00555561 -0.00628406 0.00137543 0.00455733
internal_weight=0 472 277 230 203 269
internal_count=749 472 277 230 203 269
is_linear=0
shrinkage=0.05


Tree=46
num_leaves=7
num_cat=0
split_feature=20 1 12 18 9 12
split_gain=4.69311 0.580832 0.182436 0.0938774 0.0875584 0.0682175
threshold=2.2861281899290905e-05 0.13845812769860533 -0.16013142013352272 0.00022566261869555001 0.18602115462929095 -0.17125163407954772
decision_type=2 2 2 2 2 2
left_child=2 5 4 -3 -1 -2
right_child=1 3 -4 -5 -6 -7
leaf_value=-0.0053766401588769726 0.0035656860907022896 -0.00064283604190611035 -0.0079712896457602902 0.0015754587699535604 -0.0026644068530987247 0.0051214206265285615
leaf_weight=152 190 82 62 114 37 112
leaf_count=152 190 82 62 114 37 112
internal_value=0 0.00276701 -0.00561774 0.000647397 -0.00484567 0.00414265
internal_weight=0 498 251 196 189 302
internal_count=749 498 251 196 189 302
is_linear=0
shrinkage=0.05


Tree=47
num_leaves=7
num_cat=0
split_feature=0 0 12 12 0 0
split_gain=4.36988 0.345145 0.291233 0.130233 0.0697747 0.0420845
threshold=0.5001090380517359 0.91620297603864853 -1.0304480342616718 -0.13612145410876578 0.68031876476968112 0.97672453583343699
decision_type=2 2 2 2 2 2
left_child=2 4 -1 -4 -2 -3
right_child=1 5 3 -5 -6 -7
leaf_value=-0.0014335713880136609 0.00050694755381675135 0.0038070328172822897 -0.0050253937932191999 -0.0078997833803296086 0.0023474480685903333 0.0052715984427116136
leaf_weight=50 102 191 186 50 104 66
leaf_count=50 102 191 186 50 104 66
internal_value=0 0.00296093 -0.00489997 -0.00563437 0.00143613 0.00418315
internal_weight=0 463 286 236 206 257
internal_count=749 463 286 236 206 257
is_linear=0
shrinkage=0.05


Tree=48
num_leaves=7
num_cat=0
split_feature=0 12 12 63 12 0
split_gain=3.94392 0.333312 0.232877 0.113676 0.0681907 0.0639881
threshold=0.49441792678417845 -0.49553138800893443 -0.55210724083873208 0.014416429825729802 -0.10373172857998349 0.68031876476968112
decision_type=2 2 2 2 2 2
left_child=2 5 3 -1 -4 -2
right_child=1 -3 4 -5 -6 -7
leaf_value=-0.002499947058489529 0.00040205996821761673 0.0039241347587510439 -0.0054995929886554849 -0.0063744865104799044 -0.0080458941047682475 0.0021861617443488636
leaf_weight=107 108 267 116 23 34 94
leaf_count=107 108 267 116 23 34 94
internal_value=0 0.00276475 -0.00473436 -0.00318544 -0.00607675 0.00123229
internal_weight=0 469 280 130 150 202
internal_count=749 469 280 130 150 202
is_linear=0
shrinkage=0.05


Tree=49
num_leaves=7
num_cat=0
split_feature=0 0 12 9 0 18
split_gain=3.56562 0.427947 0.125941 0.077131 0.0752644 0.0382418
threshold=0.23099519861638659 0.69156977214253956 -0.18854558143768371 0.18602115462929095 0.9650903082270843 0.00021544354368750003
decision_type=2 2 2 2 2 2
left_child=2 5 3 -1 -3 -2
right_child=1 4 -4 -5 -6 -7
leaf_value=-0.004730062201084133 -0.00065664816313929972 0.0026669010829978757 -0.0066751503592564002 -0.0021650814438691816 0.0041485254874541648 0.00092207326681339259
leaf_weight=141 68 175 72 37 168 88
leaf_count=141 68 175 72 37 168 88
internal_value=0 0.00240511 -0.00491063 -0.00419689 0.00339259 0.000233913
internal_weight=0 499 250 178 343 156
internal_count=749 499 250 178 343 156
is_linear=0
shrinkage=0.05


Tree=50
num_leaves=7
num_cat=0
split_feature=0 0 12 0 0 12
split_gain=3.10223 0.410971 0.1389 0.0840994 0.0726189 0.0521505
threshold=0.23099519861638659 0.69156977214253956 -0.49080823857176431 0.0023419717537364005 0.97065605260937948 -0.10149476193163409
decision_type=2 2 2 2 2 2
left_child=2 -2 3 -1 -3 -4
right_child=1 4 5 -5 -6 -7
leaf_value=-0.0010883810535233351 9.6778289723008009e-05 0.0026741929416072697 -0.0050709227547765931 -0.0041267429630985324 0.0041807901912501886 -0.0073266304591122801
leaf_weight=32 151 219 104 79 126 34
leaf_count=32 151 219 104 79 126 34
internal_value=0 0.00227226 -0.00456756 -0.00325082 0.00322443 -0.00562668
internal_weight=0 496 249 111 345 138
internal_count=745 496 249 111 345 138
is_linear=0
shrinkage=0.05


Tree=51
num_leaves=7
num_cat=0
split_feature=0 12 90 61 0 0
split_gain=2.80759 0.243649 0.234486 0.0843131 0.0425928 0.0317262
threshold=0.5001090380517359 -0.84635753352024012 -0.00061513736311744993 0.14997966635446958 0.97746431839648695 0.65362604827137483
decision_type=2 2 2 2 2 2
left_child=1 -1 5 -3 -4 -2
right_child=2 3 4 -5 -6 -7
leaf_value=-0.0015443225383494857 -3.2190438247529197e-05 -0.0050730813114790536 0.0030003530811722671 -0.0016592294257134202 0.0044975923746824265 0.0014385750947357419
leaf_weight=83 55 189 228 20 60 110
leaf_count=83 55 189 228 20 60 110
internal_value=0 -0.00383622 0.00245123 -0.0047464 0.00331228 0.00094832
internal_weight=0 292 453 209 288 165
internal_count=745 292 453 209 288 165
is_linear=0
shrinkage=0.05


Tree=52
num_leaves=7
num_cat=0
split_feature=0 12 1 50 12 0
split_gain=2.53385 0.222022 0.215257 0.09088 0.0546379 0.0416002
threshold=0.5001090380517359 -0.58331448221194804 0.13413494941706122 0.0016631997602515002 -0.10373172857998349 0.97342495048270228
decision_type=2 2 2 2 2 2
left_child=1 3 5 -1 -3 -2
right_child=2 4 -4 -5 -6 -7
leaf_value=-0.0014669822156637175 0.0026865094001901333 -0.0044242715525652189 0.00080996227492411083 -0.0045106328325346112 -0.0066473681169251612 0.0039305084293671686
leaf_weight=105 197 119 154 32 36 102
leaf_count=105 197 119 154 32 36 102
internal_value=0 -0.00364441 0.00232867 -0.00217791 -0.0049406 0.00311088
internal_weight=0 292 453 137 155 299
internal_count=745 292 453 137 155 299
is_linear=0
shrinkage=0.05


Tree=53
num_leaves=7
num_cat=0
split_feature=0 0 127 101 0 0
split_gain=2.29479 0.306629 0.0993588 0.0663185 0.0593592 0.0226872
threshold=0.23099519861638659 0.68632109581045264 -0.13386104560524187 -0.00017295469184784999 0.94905172066276311 0.64321093783788241
decision_type=2 2 2 2 2 2
left_child=2 5 -1 -4 -3 -2
right_child=1 4 3 -5 -6 -7
leaf_value=-0.0013274643146360177 -0.00045504770571094745 0.0018944363289890359 -0.0017733390969426736 -0.0046129084395043094 0.0032486704140567459 0.00083123108813941318
leaf_weight=32 91 127 23 194 223 55
leaf_count=32 91 127 23 194 223 55
internal_value=0 0.00195435 -0.00392839 -0.00431194 0.00275728 2.95094e-05
internal_weight=0 496 249 217 350 146
internal_count=745 496 249 217 350 146
is_linear=0
shrinkage=0.05


Tree=54
num_leaves=7
num_cat=0
split_feature=0 0 12 0 0 18
split_gain=2.07105 0.276733 0.0997863 0.0581874 0.0537008 0.021368
threshold=0.23099519861638659 0.68632109581045264 -0.14680447709040709 0.0023419717537364005 0.95126110181847656 0.00021544354368750003
decision_type=2 2 2 2 2 2
left_child=2 5 3 -1 -3 -2
right_child=1 4 -4 -5 -6 -7
leaf_value=-0.0019002330681541935 -0.00056862475327294749 0.0018234960408528532 -0.0055901644817952607 -0.0037759263743296322 0.0031013443929339768 0.0006412664063746989
leaf_weight=60 74 132 56 133 218 72
leaf_count=60 74 132 56 133 218 72
internal_value=0 0.00185663 -0.00373197 -0.00319281 0.00261941 2.80339e-05
internal_weight=0 496 249 193 350 146
internal_count=745 496 249 193 350 146
is_linear=0
shrinkage=0.05


Tree=55
num_leaves=7
num_cat=0
split_feature=20 1 12 61 18 12
split_gain=1.68361 0.250943 0.105675 0.056909 0.0403882 0.0338463
threshold=2.2861281899290905e-05 0.15132265099080308 -0.84635753352024012 0.12746661948660418 0.00022112325433315002 -0.14252357549273398
decision_type=2 2 2 2 2 2
left_child=2 5 -1 -4 -3 -2
right_child=1 4 3 -5 -6 -7
leaf_value=-0.00098451785007556383 0.0023348552644612236 -0.00059896020643813812 -0.0042723369048016302 -0.0018002535095783295 0.00090615279024440021 0.0036206160926006061
leaf_weight=36 228 78 169 27 104 66
leaf_count=36 228 78 169 27 104 66
internal_value=0 0.00172023 -0.00347446 -0.00393179 0.000261104 0.0026235
internal_weight=0 476 232 196 182 294
internal_count=708 476 232 196 182 294
is_linear=0
shrinkage=0.05


Tree=56
num_leaves=7
num_cat=0
split_feature=20 90 12 12 18 119
split_gain=1.51945 0.218924 0.0953717 0.0555662 0.0425262 0.0280821
threshold=2.2861281899290905e-05 -0.00065657352598219988 -0.84635753352024012 -0.12477296312583289 0.00022112325433315002 -6.1406708691380149e-07
decision_type=2 2 2 2 2 2
left_child=2 4 -1 -4 -2 -3
right_child=1 5 3 -5 -6 -7
leaf_value=-0.00093529194701760495 -0.00049743930382343637 0.002339605525561163 -0.0032822535652054573 -0.0052999466996301314 0.00098038951845574353 0.0037316979277272561
leaf_weight=36 81 230 152 44 122 43
leaf_count=36 81 230 152 44 122 43
internal_value=0 0.00163422 -0.00330074 -0.00373521 0.000390714 0.00255887
internal_weight=0 476 232 196 203 273
internal_count=708 476 232 196 203 273
is_linear=0
shrinkage=0.05


Tree=57
num_leaves=7
num_cat=0
split_feature=20 1 12 63 18 80
split_gain=1.37216 0.196024 0.098435 0.0508824 0.0293119 0.0289916
threshold=3.7367581335505914e-05 0.15132265099080308 -0.42443129724972523 0.028889231237118403 0.00026779164794240006 -0.00096269605904214983
decision_type=2 2 2 2 2 2
left_child=2 5 3 -1 -3 -2
right_child=1 4 -4 -5 -6 -7
leaf_value=-0.0017258392569641954 0.0021863322709650096 -0.00023909230260835978 -0.0041692387692078402 -0.0044618987198919062 0.0010983739225511355 0.0036199962856566037
leaf_weight=113 252 108 108 20 66 41
leaf_count=113 252 108 108 20 66 41
internal_value=0 0.00159753 -0.00304787 -0.00213728 0.000268222 0.00238695
internal_weight=0 467 241 133 174 293
internal_count=708 467 241 133 174 293
is_linear=0
shrinkage=0.05


Tree=58
num_leaves=7
num_cat=0
split_feature=0 12 0 12 79 0
split_gain=1.31459 0.122388 0.113738 0.0483879 0.0363616 0.0178702
threshold=0.5001090380517359 -0.84635753352024012 0.93411679030031758 -0.10641462341941414 -0.12187257446790549 0.97920015676547367
decision_type=2 2 2 2 2 2
left_child=1 -1 4 -3 -2 -4
right_child=2 3 5 -5 -6 -7
leaf_value=-0.00097992210240304247 -7.303554861657862e-05 -0.0030124577676035168 0.0022577509166324858 -0.0050625812581607281 0.0013277361049120321 0.0033607821790096557
leaf_weight=73 69 162 182 35 141 46
leaf_count=73 69 162 182 35 141 46
internal_value=0 -0.00272868 0.00170703 -0.00337669 0.000867483 0.00248029
internal_weight=0 270 438 197 210 228
internal_count=708 270 438 197 210 228
is_linear=0
shrinkage=0.05


Tree=59
num_leaves=7
num_cat=0
split_feature=0 0 80 61 1 51
split_gain=1.18642 0.102649 0.074832 0.0570809 0.0324693 0.019038
threshold=0.5001090380517359 0.93411679030031758 -0.00063896859575789989 0.12746661948660418 0.19396388844843679 4.1174607734139274e-05
decision_type=2 2 2 2 2 2
left_child=2 4 5 -4 -2 -1
right_child=1 -3 3 -5 -6 -7
leaf_value=-0.0018272899829878892 0.0012357418665126479 0.0023562776717242963 -0.0033846932462366884 -0.001226334395893925 -0.00011493035301555211 3.5980897015318846e-05
leaf_weight=29 146 228 178 37 64 26
leaf_count=29 146 228 178 37 64 26
internal_value=0 0.00162168 -0.00259224 -0.00301325 0.000824108 -0.000946471
internal_weight=0 438 270 215 210 55
internal_count=708 438 270 215 210 55
is_linear=0
shrinkage=0.05


Tree=60
num_leaves=7
num_cat=0
split_feature=0 0 12 0 61 82
split_gain=1.13522 0.152555 0.0496017 0.0464609 0.0343511 0.0340199
threshold=0.32136718057685371 0.68632109581045264 -0.82195591395697887 0.019070331564649056 0.12746661948660418 -0.00091702870552599989
decision_type=2 2 2 2 2 2
left_child=2 -2 3 -1 -4 -3
right_child=1 5 4 -5 -6 -7
leaf_value=0.00043324974481947728 2.7386756396917423e-05 0.0014932046185725985 -0.0034403359336060216 -0.0026038290097323414 -0.0012940027418413334 0.0024930337010502066
leaf_weight=20 146 183 166 34 21 159
leaf_count=20 146 183 166 34 21 159
internal_value=0 0.00138042 -0.00281384 -0.00147899 -0.0031993 0.00195804
internal_weight=0 488 241 54 187 342
internal_count=729 488 241 54 187 342
is_linear=0
shrinkage=0.05


Tree=61
num_leaves=7
num_cat=0
split_feature=0 12 0 12 82 116
split_gain=1.02787 0.0942265 0.0873348 0.0323269 0.0293624 0.025741
threshold=0.5001090380517359 -0.82195591395697887 0.69691865180054269 -0.10149476193163409 -0.0006335319491841499 -0.0020154293787804497
decision_type=2 2 2 2 2 2
left_child=1 5 -2 -3 -4 -1
right_child=2 3 4 -5 -6 -7
leaf_value=-0.0026129441335797313 0.0003060214710021377 -0.0027810867725444649 0.0015604943263189551 -0.0047128109633922579 0.0025666194567543882 -0.00061701799759508247
leaf_weight=21 119 162 225 25 107 70
leaf_count=21 119 162 225 25 107 70
internal_value=0 -0.00239719 0.0014682 -0.00303934 0.00188476 -0.00107762
internal_weight=0 278 451 187 332 91
internal_count=729 278 451 187 332 91
is_linear=0
shrinkage=0.05


Tree=62
num_leaves=7
num_cat=0
split_feature=0 0 13 127 1 0
split_gain=0.927656 0.0800769 0.0661505 0.0455159 0.0309318 0.0152495
threshold=0.5001090380517359 0.94181261025082053 0.018712092941237553 -0.13386104560524187 0.23524526629169237 0.98044095201289772
decision_type=2 2 2 2 2 2
left_child=2 4 3 -1 -2 -3
right_child=1 5 -4 -5 -6 -7
leaf_value=-0.00078292245824082671 0.00099895912993442607 0.0018742910136511041 -0.00060995501259398859 -0.0029025295419887699 -0.00057792058371863256 0.0029246295780636544
leaf_weight=29 195 176 49 200 37 43
leaf_count=29 195 176 49 200 37 43
internal_value=0 0.00139479 -0.00227733 -0.00263411 0.000747474 0.00208052
internal_weight=0 451 278 229 232 219
internal_count=729 451 278 229 232 219
is_linear=0
shrinkage=0.05


Tree=63
num_leaves=7
num_cat=0
split_feature=0 79 24 61 80 79
split_gain=0.838078 0.107276 0.0495271 0.0410205 0.0186294 0.0132323
threshold=0.63592440904657466 -0.014851458890063549 0.00030494269354375004 0.12206105899983725 -0.00082424193819284988 -0.134795373957276
decision_type=2 2 2 2 2 2
left_child=1 -1 4 -3 -2 -4
right_child=2 3 5 -5 -6 -7
leaf_value=-0.00040609102295656202 0.0017792090699076655 -0.0027922898828633461 -0.00033916860993485901 -0.0010329903734236723 0.0032179358750581743 0.00097990567818799588
leaf_weight=84 225 193 22 40 25 140
leaf_count=84 225 193 22 40 25 140
internal_value=0 -0.00193799 0.00148179 -0.00249026 0.00192308 0.000800772
internal_weight=0 317 412 233 250 162
internal_count=729 317 412 233 250 162
is_linear=0
shrinkage=0.05


Tree=64
num_leaves=7
num_cat=0
split_feature=0 12 0 12 0 0
split_gain=0.757237 0.0723568 0.065917 0.0285319 0.023942 0.0231502
threshold=0.5001090380517359 -0.82195591395697887 0.68632109581045264 -0.10149476193163409 0.9714840900878744 0.019070331564649056
decision_type=2 2 2 2 2 2
left_child=1 5 -2 -3 -4 -1
right_child=2 3 4 -5 -6 -7
leaf_value=0.00060139706125482927 0.00018944707637040775 -0.002377630702438991 0.0013017168959584171 -0.0041924296319484711 0.0021853658081642515 -0.0013244578934973107
leaf_weight=20 109 162 226 25 116 71
leaf_count=20 109 162 226 25 116 71
internal_value=0 -0.00205754 0.00126018 -0.00262025 0.00160143 -0.000901193
internal_weight=0 278 451 187 342 91
internal_count=729 278 451 187 342 91
is_linear=0
shrinkage=0.05


Tree=65
num_leaves=7
num_cat=0
split_feature=0 1 12 0 80 0
split_gain=0.69126 0.0850759 0.0402862 0.0385595 0.0183856 0.0163318
threshold=0.32136718057685371 0.13413494941706122 -0.12477296312583289 0.0027065835738659502 -0.00082424193819284988 0.65053033987173359
decision_type=2 2 2 2 2 2
left_child=2 4 3 -1 -2 -3
right_child=1 5 -4 -5 -6 -7
leaf_value=-0.00077224227217292159 0.00152336584716949 -0.00025083158488552903 -0.0035714516329557397 -0.0023230758752609466 0.0028944363403651452 0.00069690748724479277
leaf_weight=56 259 82 43 141 27 102
leaf_count=56 259 82 43 141 27 102
internal_value=0 0.00111323 -0.00218488 -0.00188223 0.0016528 0.000274546
internal_weight=0 470 240 197 286 184
internal_count=710 470 240 197 286 184
is_linear=0
shrinkage=0.05


Tree=66
num_leaves=7
num_cat=0
split_feature=18 1 101 61 91 12
split_gain=0.597886 0.0822284 0.0387871 0.0411092 0.0166047 0.0158423
threshold=5.9205579083403198e-05 0.13413494941706122 -0.00019820744348014998 0.12206105899983725 -0.020101551944467545 -0.12097573599876814
decision_type=2 2 2 2 2 2
left_child=2 5 -1 -4 -3 -2
right_child=1 4 3 -5 -6 -7
leaf_value=-7.2641168530522421e-05 0.0013776475630596665 -0.00025562993274146913 -0.0025984707299836116 -0.00076409794639550606 0.00067677564995847215 0.0023428563100214186
leaf_weight=22 233 95 175 37 96 52
leaf_count=22 233 95 175 37 96 52
internal_value=0 0.00101577 -0.00207095 -0.00227832 0.000213014 0.00155376
internal_weight=0 476 234 212 191 285
internal_count=710 476 234 212 191 285
is_linear=0
shrinkage=0.05


Tree=67
num_leaves=7
num_cat=0
split_feature=0 0 127 35 0 14
split_gain=0.566419 0.0773611 0.0344035 0.0317509 0.0223134 0.00575345
threshold=0.096268408981533465 0.66649995221393132 -0.13386104560524187 0.00031144214021765004 0.96922597929825727 0.012525122061662352
decision_type=2 2 2 2 2 2
left_child=2 5 -1 -4 -3 -2
right_child=1 4 3 -5 -6 -7
leaf_value=-0.00039337668080137249 -0.00029978561406464034 0.0010267550217691261 -0.0025065151745792967 -0.00040596413164166738 0.0018377917464266519 0.00062998305831570185
leaf_weight=27 99 231 179 20 134 20
leaf_count=27 99 231 179 20 134 20
internal_value=0 0.000963565 -0.00206817 -0.0022954 0.00132451 -0.000143522
internal_weight=0 484 226 199 365 119
internal_count=710 484 226 199 365 119
is_linear=0
shrinkage=0.05


Tree=68
num_leaves=7
num_cat=0
split_feature=0 1 127 35 80 45
split_gain=0.511194 0.0703828 0.0310491 0.0286552 0.015306 0.0143118
threshold=0.096268408981533465 0.13413494941706122 -0.13386104560524187 0.00031144214021765004 -0.00078331906662324998 7.2177872943966187e-05
decision_type=2 2 2 2 2 2
left_child=2 4 -1 -4 -2 -3
right_child=1 5 3 -5 -6 -7
leaf_value=-0.00037370783832523522 0.001304626261006276 0.00042618042729009173 -0.0023811894139634609 -0.00038566594303119929 0.0026236680103465916 -0.00057371667180051837
leaf_weight=27 263 150 179 20 24 47
leaf_count=27 263 150 179 20 24 47
internal_value=0 0.000915387 -0.00196476 -0.00218063 0.00141493 0.000187626
internal_weight=0 484 226 199 287 197
internal_count=710 484 226 199 287 197
is_linear=0
shrinkage=0.05


Tree=69
num_leaves=7
num_cat=0
split_feature=0 0 12 0 82 45
split_gain=0.461352 0.0643611 0.0284706 0.0408693 0.018877 0.00595957
threshold=0.096268408981533465 0.66649995221393132 -0.10641462341941414 0.0027065835738659502 -0.0011338395473982998 7.2177872943966187e-05
decision_type=2 2 2 2 2 2
left_child=2 5 3 -1 -3 -2
right_child=1 4 -4 -5 -6 -7
leaf_value=-0.00048788590747790296 0.00016625767190067993 0.000813728469554061 -0.0031557815770308175 -0.0020963042394570759 0.0015345728342445234 -0.0005487510152770305
leaf_weight=56 68 170 36 134 195 51
leaf_count=56 68 170 36 134 195 51
internal_value=0 0.000869617 -0.00186652 -0.00162224 0.00119884 -0.000140175
internal_weight=0 484 226 190 365 119
internal_count=710 484 226 190 365 119
is_linear=0
shrinkage=0.05


Tree=70
num_leaves=7
num_cat=0
split_feature=0 1 12 0 80 1
split_gain=0.424156 0.0552933 0.0308195 0.0338419 0.0114536 0.01127
threshold=0.32136718057685371 0.13413494941706122 -0.14252357549273398 0.0020162355421505505 -0.0010689653302246996 0.20046758998083752
decision_type=2 2 2 2 2 2
left_child=2 4 3 -1 -2 -3
right_child=1 5 -4 -5 -6 -7
leaf_value=-0.00030223543922497462 0.0011281572004422859 0.00052225798699665523 -0.0027456331791149246 -0.0017850259226916761 0.0019421797439034254 -0.00022918156956338548
leaf_weight=52 234 117 54 148 53 87
leaf_count=52 234 117 54 148 53 87
internal_value=0 0.00083114 -0.00168569 -0.0013995 0.00127848 0.000201791
internal_weight=0 491 254 200 287 204
internal_count=745 491 254 200 287 204
is_linear=0
shrinkage=0.05


Tree=71
num_leaves=7
num_cat=0
split_feature=0 0 12 0 0 14
split_gain=0.383453 0.0564809 0.025122 0.0303016 0.0132905 0.00704029
threshold=0.096268408981533465 0.68031876476968112 -0.053957223426192545 0.0020162355421505505 0.9746486758894688 0.012219733110802702
decision_type=2 2 2 2 2 2
left_child=2 5 3 -1 -3 -2
right_child=1 4 -4 -5 -6 -7
leaf_value=-0.00055907501524923083 -0.0002309679231442268 0.00094403054701525579 -0.0033582687843590978 -0.0018676582487952252 0.0016697386672428574 0.00051983929354951957
leaf_weight=61 114 263 20 161 83 43
leaf_count=61 114 263 20 161 83 43
internal_value=0 0.000761215 -0.001661 -0.00150809 0.00111812 -2.53328e-05
internal_weight=0 503 242 222 346 157
internal_count=745 503 242 222 346 157
is_linear=0
shrinkage=0.05


Tree=72
num_leaves=7
num_cat=0
split_feature=0 0 101 9 0 14
split_gain=0.346066 0.050974 0.0264154 0.0264631 0.0121112 0.00643851
threshold=0.096268408981533465 0.68031876476968112 -0.00019820744348014998 0.20859010270774977 0.97285200191357013 0.0089874260689414009
decision_type=2 2 2 2 2 2
left_child=2 5 -1 -4 -3 -2
right_child=1 4 3 -5 -6 -7
leaf_value=0.00016246452873019737 -0.00039517119793575816 0.00087094784921944559 -0.0019749082885594962 -0.00049389402314166852 0.0015197416867914738 0.00025220088041452178
leaf_weight=20 67 244 186 36 102 90
leaf_count=20 67 244 186 36 102 90
internal_value=0 0.000723154 -0.00157795 -0.00173474 0.00106221 -2.40662e-05
internal_weight=0 503 242 222 346 157
internal_count=745 503 242 222 346 157
is_linear=0
shrinkage=0.05


Tree=73
num_leaves=7
num_cat=0
split_feature=14 25 80 12 3 9
split_gain=0.303593 0.0590282 0.0318788 0.0219671 0.0146463 0.0145511
threshold=0.00074786301270015015 0.016512677063003755 -0.00074820033827819991 -0.10149476193163409 0.33033974080300893 0.25766597773389782
decision_type=2 2 2 2 2 2
left_child=3 2 -2 5 -3 -1
right_child=1 4 -4 -5 -6 -7
leaf_value=-0.0015097821308603777 0.0008781757954129404 2.8144042025815001e-05 0.0029307874012738469 -0.0027446279826108368 -0.0013021790357306601 -0.00029800981845192869
leaf_weight=170 349 120 20 32 25 29
leaf_count=170 349 120 20 32 25 29
internal_value=0 0.000653545 0.000989428 -0.00152872 -0.000201222 -0.00133319
internal_weight=0 514 369 231 145 199
internal_count=745 514 369 231 145 199
is_linear=0
shrinkage=0.05


Tree=74
num_leaves=7
num_cat=0
split_feature=0 0 101 127 84 35
split_gain=0.28331 0.0417806 0.0235517 0.0231562 0.0113258 0.00557058
threshold=0.096268408981533465 0.68031876476968112 -0.00019820744348014998 -0.13386104560524187 -6.8496469734967926e-05 0.00017104783915885004
decision_type=2 2 2 2 2 2
left_child=2 5 -1 -4 -3 -2
right_child=1 4 3 -5 -6 -7
leaf_value=0.00021569957170868294 -0.00036285673966845295 0.00063814536422700935 -0.00025835387982781337 -0.0017736666961533859 0.0012145402843970327 0.00023820706456114825
leaf_weight=20 68 152 29 193 194 89
leaf_count=20 68 152 29 193 194 89
internal_value=0 0.000654364 -0.00142767 -0.00157572 0.000961326 -2.21263e-05
internal_weight=0 503 242 222 346 157
internal_count=745 503 242 222 346 157
is_linear=0
shrinkage=0.05


Tree=75
num_leaves=7
num_cat=0
split_feature=0 5 11 13 100 80
split_gain=0.238753 0.043163 0.0315541 0.0170448 0.0123731 0.00767817
threshold=0.64321093783788241 0.73443487824577702 0.88134570364777476 0.096926234317794166 -9.5173525840599954e-07 -0.00082424193819284988
decision_type=2 2 2 2 2 2
left_child=1 2 -1 5 -3 -2
right_child=3 4 -4 -5 -6 -7
leaf_value=-0.00035779324369746208 0.00096770750930081089 -0.0031081968918442726 -0.0015834579659187713 0.00036165878689206258 -0.0016594019389231107 0.0019067712360993029
leaf_weight=194 234 20 72 135 56 24
leaf_count=194 234 20 72 135 56 24
internal_value=0 -0.000989799 -0.000689552 0.00081687 -0.00204066 0.00105506
internal_weight=0 342 266 393 76 258
internal_count=735 342 266 393 76 258
is_linear=0
shrinkage=0.05


Tree=76
num_leaves=7
num_cat=0
split_feature=20 28 5 62 100 119
split_gain=0.204409 0.0350436 0.0256258 0.0361959 0.0111667 0.00928461
threshold=3.7367581335505914e-05 5.1523321201205866e-05 0.73443487824577702 0.00074913332009315014 -9.5173525840599954e-07 -6.1406708691380149e-07
decision_type=2 2 2 2 2 2
left_child=2 5 3 -1 -4 -2
right_child=1 -3 4 -5 -6 -7
leaf_value=-0.0012319293786303386 0.00081058236445964976 5.5165424553610812e-05 -0.0029527870588935915 0.00046146343768824162 -0.001576431815504163 0.0016064454292402019
leaf_weight=137 248 190 20 41 56 43
leaf_count=137 248 190 20 41 56 43
internal_value=0 0.000583333 -0.00117004 -0.000841878 -0.00193863 0.000928184
internal_weight=0 481 254 178 76 291
internal_count=735 481 254 178 76 291
is_linear=0
shrinkage=0.05


Tree=77
num_leaves=7
num_cat=0
split_feature=0 12 34 13 22 80
split_gain=0.197244 0.0375414 0.0187579 0.0136998 0.0109593 0.0078637
threshold=0.64321093783788241 -0.84215945291489935 2.0673550431198972e-05 0.12594722203530948 1.0350750760318851e-05 -0.00089046805440174987
decision_type=2 2 2 2 2 2
left_child=1 4 -3 5 -1 -2
right_child=3 2 -4 -5 -6 -7
leaf_value=-5.7465388135026675e-05 0.00079025246922163103 -0.001111545413816644 -0.0023961955106214568 6.6981707063932267e-05 -0.0013004487646477564 0.0016038416659064367
leaf_weight=114 297 173 34 63 21 33
leaf_count=114 297 173 34 63 21 33
internal_value=0 -0.000899498 -0.00132255 0.000742625 -0.000250818 0.000871611
internal_weight=0 342 207 393 135 330
internal_count=735 342 207 393 135 330
is_linear=0
shrinkage=0.05


Tree=78
num_leaves=7
num_cat=0
split_feature=0 101 127 2 82 13
split_gain=0.178062 0.0357223 0.0172595 0.0128508 0.011878 0.00600823
threshold=0.65053033987173359 -0.00014474519319784997 -0.13386104560524187 0.023191101803997503 -0.00090292430788049989 0.13706711803329394
decision_type=2 2 2 2 2 2
left_child=1 3 -3 -1 5 -2
right_child=4 2 -4 -5 -6 -7
leaf_value=-0.00031698743750957373 0.00059944777105836421 -7.6504492732386683e-05 -0.0013016687333905215 0.0010887360909865016 0.0010563897918193386 -0.00011202123548303332
leaf_weight=72 195 33 223 21 156 35
leaf_count=72 195 33 223 21 156 35
internal_value=0 -0.000838844 -0.00114374 4.34004e-07 0.000719607 0.000491181
internal_weight=0 349 256 93 386 230
internal_count=735 349 256 93 386 230
is_linear=0
shrinkage=0.05


Tree=79
num_leaves=7
num_cat=0
split_feature=0 12 5 12 13 80
split_gain=0.160816 0.0335883 0.0324875 0.011833 0.0116159 0.00578771
threshold=0.64321093783788241 -0.49080823857176431 0.73443487824577702 -0.062555711223958491 0.096926234317794166 -0.00079568470541879993
decision_type=2 2 2 2 2 2
left_child=1 2 -1 -3 5 -2
right_child=4 3 -4 -5 -6 -7
leaf_value=-0.00017172684612023407 0.00079670172987332901 -0.0012349326796603052 -0.0020018600370219379 -0.0025543692428618668 0.00029477350810743196 0.0016627644011307332
leaf_weight=181 237 113 28 20 135 21
leaf_count=181 237 113 28 20 135 21
internal_value=0 -0.000812191 -0.000416912 -0.00143334 0.000670562 0.000867195
internal_weight=0 342 209 133 393 258
internal_count=735 342 209 133 393 258
is_linear=0
shrinkage=0.05


Tree=80
num_leaves=7
num_cat=0
split_feature=0 104 50 109 13 0
split_gain=0.13781 0.0241223 0.020073 0.0174738 0.0129733 0.00722841
threshold=0.63592440904657466 -2.3589226951805457e-06 0.0030981916765061004 -0.0013548677805183997 0.15286945330841484 0.97435660173033567
decision_type=2 2 2 2 2 2
left_child=1 3 -3 -1 5 -2
right_child=4 2 -4 -5 -6 -7
leaf_value=-0.00045327273612201681 0.00058749599981790419 -0.00090382238126152255 -0.0025311860499814863 0.0011990814243472417 -0.00039145729558718998 0.0011088443811722967
leaf_weight=80 293 194 21 20 29 86
leaf_count=80 293 194 21 20 29 86
internal_value=0 -0.00076437 -0.00106277 -0.000122802 0.000627806 0.000705797
internal_weight=0 315 215 100 408 379
internal_count=723 315 215 100 408 379
is_linear=0
shrinkage=0.05


Tree=81
num_leaves=7
num_cat=0
split_feature=0 12 50 13 0 12
split_gain=0.124373 0.0272783 0.0258397 0.0117084 0.00658286 0.00611877
threshold=0.63592440904657466 -0.21914026342295062 0.0028048606144057005 0.15286945330841484 0.9700314292462564 -0.068516830358324329
decision_type=2 2 2 2 2 2
left_child=1 2 -1 4 -2 -3
right_child=3 5 -4 -5 -6 -7
leaf_value=-0.0002617129079261269 0.00051993983842655862 -0.0012921189327003823 -0.0017485040144118317 -0.00037188443395656389 0.00095890058526912564 -0.0023185041639953853
leaf_weight=208 249 53 34 29 130 20
leaf_count=208 249 53 34 29 130 20
internal_value=0 -0.000726152 -0.000470601 0.000596415 0.000670507 -0.00157332
internal_weight=0 315 242 408 379 73
internal_count=723 315 242 408 379 73
is_linear=0
shrinkage=0.05


Tree=82
num_leaves=7
num_cat=0
split_feature=0 12 0 13 0 10
split_gain=0.112247 0.0246187 0.0233916 0.0105669 0.0061394 0.00602506
threshold=0.63592440904657466 -0.21914026342295062 0.0020162355421505505 0.15286945330841484 0.97581325023964172 0.0014548995258523002
decision_type=2 2 2 2 2 2
left_child=1 2 -1 4 -2 -3
right_child=3 5 -4 -5 -6 -7
leaf_value=0.00062564000559394209 0.00053869040990808532 -0.0021862672514874827 -0.00067234015772237401 -0.00035329021203355741 0.0010489962618695954 -0.0011963115119393551
leaf_weight=42 306 22 200 29 73 51
leaf_count=42 306 22 200 29 73 51
internal_value=0 -0.000689844 -0.000447071 0.000566595 0.000636982 -0.00149465
internal_weight=0 315 242 408 379 73
internal_count=723 315 242 408 379 73
is_linear=0
shrinkage=0.05


Tree=83
num_leaves=7
num_cat=0
split_feature=7 47 80 116 12 12
split_gain=0.103561 0.030626 0.0254596 0.0175539 0.0182218 0.0160049
threshold=0.00014863844475235003 1.8596022346452142e-05 -0.00074820033827819991 -0.0017725368685019497 -0.21914026342295062 -0.87642528625035554
decision_type=2 2 2 2 2 2
left_child=3 2 -2 -1 -5 -3
right_child=1 5 -4 4 -6 -7
leaf_value=-0.0022589660244358876 0.00053810297460055547 -1.1465216681006228e-05 0.0023718842840753495 -0.00037211606237146875 -0.0013881374609708372 -0.0015374361083377152
leaf_weight=22 353 122 20 114 72 20
leaf_count=22 353 122 20 114 72 20
internal_value=0 0.000398525 0.000636429 -0.000923386 -0.000765415 -0.000226391
internal_weight=0 515 373 208 186 142
internal_count=723 515 373 208 186 142
is_linear=0
shrinkage=0.05


Tree=84
num_leaves=7
num_cat=0
split_feature=7 47 80 116 12 12
split_gain=0.093464 0.02764 0.0229773 0.0158424 0.0164451 0.0144445
threshold=0.00014863844475235003 1.8596022346452142e-05 -0.00074820033827819991 -0.0017725368685019497 -0.21914026342295062 -0.87642528625035554
decision_type=2 2 2 2 2 2
left_child=3 2 -2 -1 -5 -3
right_child=1 5 -4 4 -6 -7
leaf_value=-0.0021460177069953222 0.00051119782739071065 -1.0891955696665645e-05 0.0022532900702208281 -0.00035351026219136098 -0.0013187305969444829 -0.0014605642927926965
leaf_weight=22 353 122 20 114 72 20
leaf_count=22 353 122 20 114 72 20
internal_value=0 0.000378599 0.000604608 -0.000877217 -0.000727144 -0.000215071
internal_weight=0 515 373 208 186 142
internal_count=723 515 373 208 186 142
is_linear=0
shrinkage=0.05


Tree=85
num_leaves=7
num_cat=0
split_feature=0 116 35 82 3 103
split_gain=0.103697 0.0200869 0.0222242 0.0181562 0.0082687 0.003687
threshold=0.096268408981533465 -0.0026795259896472494 0.00030382622328165005 -0.0016694710717267997 0.30263476438475206 -1.9278459910978422e-07
decision_type=2 2 2 2 2 2
left_child=1 -1 -3 4 -2 -5
right_child=3 2 -4 5 -6 -7
leaf_value=-0.0021686057594639285 0.00018909087442872211 -0.00088624453302521599 0.00086558728333329781 0.00063914927418723551 -0.00076410215778741986 0.0013486225347151049
leaf_weight=27 253 191 20 217 25 20
leaf_count=27 253 191 20 217 25 20
internal_value=0 -0.00088451 -0.000720194 0.000377486 0.000103372 0.00069902
internal_weight=0 238 211 515 278 237
internal_count=753 238 211 515 278 237
is_linear=0
shrinkage=0.05


Tree=86
num_leaves=7
num_cat=0
split_feature=7 47 80 116 12 96
split_gain=0.0943597 0.0234544 0.021537 0.0158461 0.0139049 0.0123598
threshold=0.00014863844475235003 1.8596022346452142e-05 -0.00073733733894919989 -0.0022860742834913995 -0.073667385529516335 -2.2057479376814098e-05
decision_type=2 2 2 2 2 2
left_child=3 2 -2 -1 -5 -3
right_child=1 5 -4 4 -6 -7
leaf_value=-0.002172049604070542 0.00045312494983611011 1.3989183679223061e-05 0.0020998947455414703 -0.00060207860865375557 -0.0019110871762361215 -0.0011841898417724924
leaf_weight=22 364 125 21 172 23 26
leaf_count=22 364 125 21 172 23 26
internal_value=0 0.000335812 0.000542949 -0.000899989 -0.000756474 -0.00019232
internal_weight=0 536 385 217 195 151
internal_count=753 536 385 217 195 151
is_linear=0
shrinkage=0.05


Tree=87
num_leaves=6
num_cat=0
split_feature=7 3 103 117 12
split_gain=0.0851596 0.025251 0.0248093 0.0148927 0.0136531
threshold=0.00014863844475235003 0.61113970611149082 -1.7499825557097135e-07 -0.00058703905430674988 -0.073667385529516335
decision_type=2 2 2 2 2
left_child=3 2 -2 -1 -5
right_child=1 -3 -4 4 -6
leaf_value=-0.0018159671878332602 0.0003134207456683571 -0.0014241376839345321 0.0020294609219986756 -0.00051270373337729323 -0.0018155328605486002
leaf_weight=34 494 20 22 160 23
leaf_count=34 494 20 22 160 23
internal_value=0 0.000319021 0.000386585 -0.00085499 -0.000676447
internal_weight=0 536 516 217 183
internal_count=753 536 516 217 183
is_linear=0
shrinkage=0.05


Tree=88
num_leaves=6
num_cat=0
split_feature=7 3 119 117 12
split_gain=0.0768565 0.022789 0.0188819 0.0134407 0.012482
threshold=0.00014863844475235003 0.61113970611149082 -6.0179067745051878e-07 -0.00058703905430674988 -0.20666365844802045
decision_type=2 2 2 2 2
left_child=3 2 -2 -1 -5
right_child=1 -3 -4 4 -6
leaf_value=-0.0017251688254284947 0.0002670884657523583 -0.0013529308105353268 0.0012805480996201583 -0.00032136402830171089 -0.0011734037997498028
leaf_weight=34 465 20 51 114 69
leaf_count=34 465 20 51 114 69
internal_value=0 0.00030307 0.000367256 -0.00081224 -0.000642625
internal_weight=0 536 516 217 183
internal_count=753 536 516 217 183
is_linear=0
shrinkage=0.05


Tree=89
num_leaves=6
num_cat=0
split_feature=7 3 103 50 12
split_gain=0.069363 0.0205671 0.0216157 0.0129332 0.0113547
threshold=0.00014863844475235003 0.61113970611149082 -1.7499825557097135e-07 0.0025351245269899006 -0.062555711223958491
decision_type=2 2 2 2 2
left_child=3 2 -2 4 -1
right_child=1 -3 -4 -5 -6
leaf_value=-0.00049353835532469129 0.00028059993957632188 -0.0012852842803113163 0.001882387064291503 -0.0017955999858073751 -0.0017530287336558104
leaf_weight=170 494 20 22 27 20
leaf_count=170 494 20 22 27 20
internal_value=0 0.000287916 0.000348893 -0.000771628 -0.000626116
internal_weight=0 536 516 217 190
internal_count=753 536 516 217 190
is_linear=0
shrinkage=0.05


Tree=90
num_leaves=6
num_cat=0
split_feature=0 125 50 13 0
split_gain=0.0630813 0.0158711 0.0104541 0.0051553 0.00288578
threshold=0.65362604827137483 -1.671516505900029e-05 0.0030981916765061004 0.13706711803329394 0.97285200191357013
decision_type=2 2 2 2 2
left_child=1 -1 -3 4 -2
right_child=3 2 -4 -5 -6
leaf_value=0.0008744884823681788 0.00040093387155764053 -0.00048323499451821596 -0.0014499083596972689 -0.00017930701836913585 0.00070912536682078134
leaf_weight=20 256 286 31 31 108
leaf_count=20 256 286 31 31 108
internal_value=0 -0.00049158 -0.000577768 0.000439661 0.000492375
internal_weight=0 337 317 395 364
internal_count=732 337 317 395 364
is_linear=0
shrinkage=0.05


Tree=91
num_leaves=7
num_cat=0
split_feature=0 12 34 0 0 35
split_gain=0.0569309 0.0137696 0.0210249 0.0202888 0.00453785 0.00468354
threshold=0.65362604827137483 -0.74422981992318549 2.0673550431198972e-05 0.012500011556963302 0.9572330239909691 0.00025426218993875006
decision_type=2 2 2 2 2 2
left_child=1 3 -3 -1 5 -2
right_child=4 2 -4 -5 -6 -7
leaf_value=0.0012806075229574081 0.00015181062666930043 -0.00056500018339974284 -0.0022160989142404022 -0.00035517246929340639 0.00058083146410176491 0.00092764329165220263
leaf_weight=22 168 156 22 137 205 22
leaf_count=22 168 156 22 137 205 22
internal_value=0 -0.000467001 -0.000769069 -0.000128838 0.000417678 0.000241644
internal_weight=0 337 178 159 395 190
internal_count=732 337 178 159 395 190
is_linear=0
shrinkage=0.05


Tree=92
num_leaves=7
num_cat=0
split_feature=7 3 135 50 12 34
split_gain=0.0471099 0.0187355 0.0157823 0.0107997 0.00930145 0.00761067
threshold=0.00014863844475235003 0.32795457448513909 -1.992250494906685e-08 0.0030981916765061004 -0.43823753201813648 0.0060787551084828008
decision_type=2 2 2 2 2 2
left_child=3 2 -2 4 -1 -3
right_child=1 5 -4 -5 -6 -7
leaf_value=-8.4574631957319124e-05 0.00030100397977384722 -3.3272861709030204e-05 0.0017363000230398032 -0.0017019032833299468 -0.00080108829038429336 -0.001243062425545269
leaf_weight=77 452 26 20 21 110 26
leaf_count=77 452 26 20 21 110 26
internal_value=0 0.000262586 0.000361822 -0.000626788 -0.000506053 -0.000638168
internal_weight=0 524 472 208 187 52
internal_count=732 524 472 208 187 52
is_linear=0
shrinkage=0.05


Tree=93
num_leaves=6
num_cat=0
split_feature=0 59 12 13 0
split_gain=0.0469547 0.0141154 0.0102518 0.00441341 0.00245092
threshold=0.65362604827137483 1.6612973969893431e-05 -0.95203239630158432 0.13706711803329394 0.97581325023964172
decision_type=2 2 2 2 2
left_child=1 2 -1 4 -2
right_child=3 -3 -4 -5 -6
leaf_value=-0.0001071112226068138 0.00035917620921954436 0.00086412557109724728 -0.00070842074489475988 -0.00019343923012192751 0.00067249144165543845
leaf_weight=107 284 20 210 31 80
leaf_count=107 284 20 210 31 80
internal_value=0 -0.000424174 -0.000505455 0.000379263 0.000428037
internal_weight=0 337 317 395 364
internal_count=732 337 317 395 364
is_linear=0
shrinkage=0.05


Tree=94
num_leaves=6
num_cat=0
split_feature=0 59 48 13 0
split_gain=0.0423767 0.0127392 0.00959735 0.00398311 0.00223431
threshold=0.65362604827137483 1.6612973969893431e-05 4.236984907665269e-05 0.13706711803329394 0.97285200191357013
decision_type=2 2 2 2 2
left_child=1 2 -1 4 -2
right_child=3 -3 -4 -5 -6
leaf_value=-0.00034999157510584122 0.00032617426493581904 0.00082091925287386402 -0.0010615513241520665 -0.00018376726599648641 0.00059735629420848218
leaf_weight=259 256 20 58 31 108
leaf_count=259 256 20 58 31 108
internal_value=0 -0.000402966 -0.000480182 0.0003603 0.000406635
internal_weight=0 337 317 395 364
internal_count=732 337 317 395 364
is_linear=0
shrinkage=0.05


Tree=95
num_leaves=6
num_cat=0
split_feature=5 2 0 50 5
split_gain=0.0327894 0.0203048 0.0194408 0.00717395 0.00877139
threshold=0.73443487824577702 0.041865573104463906 0.66649995221393132 4.9328120231078242e-07 0.97669609017884684
decision_type=2 2 2 2 2
left_child=1 2 -1 4 -2
right_child=3 -3 -4 -5 -6
leaf_value=-0.00023651013779905927 -7.1655736504791065e-05 0.0017083130628452636 0.00032739504537025559 -0.0016233400889457421 -0.00139512995790158
leaf_weight=264 31 20 363 26 21
leaf_count=264 31 20 363 26 21
internal_value=0 0.000139988 8.99613e-05 -0.000945204 -0.000606136
internal_weight=0 647 627 78 52
internal_count=725 647 627 78 52
is_linear=0
shrinkage=0.05


Tree=96
num_leaves=6
num_cat=0
split_feature=5 2 11 50 5
split_gain=0.0295924 0.0183251 0.0153869 0.00650306 0.00736096
threshold=0.73443487824577702 0.041865573104463906 0.88134570364777476 5.4777567414762559e-07 0.97669609017884684
decision_type=2 2 2 2 2
left_child=1 2 -1 4 -2
right_child=3 -3 -4 -5 -6
leaf_value=0.00017327109815039687 -0.00012789603382715899 0.0016228973760735244 -0.00061323662319669636 -0.0015827580326003956 -0.0013253734979246344
leaf_weight=557 33 20 70 24 21
leaf_count=557 33 20 70 24 21
internal_value=0 0.000132988 8.54632e-05 -0.000897944 -0.000593582
internal_weight=0 647 627 78 54
internal_count=725 647 627 78 54
is_linear=0
shrinkage=0.05


Tree=97
num_leaves=7
num_cat=0
split_feature=0 101 41 26 37 0
split_gain=0.0262565 0.0140106 0.00820269 0.00409984 0.00225294 0.00176931
threshold=0.65053033987173359 -0.00030095814986129995 1.0370341970315166e-05 0.0016258561808118503 3.996815526572348e-06 0.97920015676547367
decision_type=2 2 2 2 2 2
left_child=1 -1 -3 5 -5 -2
right_child=3 2 -4 4 -6 -7
leaf_value=0.00065520403800559612 0.0003206721134284185 -0.00029131822315313702 -0.0009675129907290368 -0.00044838328273423642 0.00015889307701616505 0.00064383427053689955
leaf_weight=34 277 243 55 24 42 50
leaf_count=34 277 243 55 24 42 50
internal_value=0 -0.000306405 -0.000416119 0.000297532 -6.19347e-05 0.000370085
internal_weight=0 332 298 393 66 327
internal_count=725 332 298 393 66 327
is_linear=0
shrinkage=0.05


Tree=98
num_leaves=6
num_cat=0
split_feature=5 2 0 110 5
split_gain=0.0253727 0.0162841 0.0153525 0.00552112 0.0073753
threshold=0.73443487824577702 0.041865573104463906 0.94181261025082053 -0.0025322811981705498 0.96945456186803536
decision_type=2 2 2 2 2
left_child=1 2 -1 -2 -5
right_child=3 -3 -4 4 -6
leaf_value=-0.00010856030188824662 -0.0014101273018038937 0.0015271144383586944 0.00040625366633754105 0.00013752212752993017 -0.0010708538582548499
leaf_weight=400 27 20 227 23 28
leaf_count=400 27 20 227 23 28
internal_value=0 0.000122624 7.78237e-05 -0.000831979 -0.0005259
internal_weight=0 647 627 78 51
internal_count=725 647 627 78 51
is_linear=0
shrinkage=0.05


Tree=99
num_leaves=6
num_cat=0
split_feature=5 2 0 110 5
split_gain=0.0228988 0.0146964 0.0141465 0.00498281 0.00676144
threshold=0.73443487824577702 0.041865573104463906 0.66649995221393132 -0.0025322811981705498 0.98166432114771618
decision_type=2 2 2 2 2
left_child=1 2 -1 -2 -5
right_child=3 -3 -4 4 -6
leaf_value=-0.00020455895516644168 -0.0013396209433536839 0.0014507587638217957 0.00027647177300821584 -3.7182753646535984e-05 -0.0012163594586309047
leaf_weight=264 27 20 363 31 20
leaf_count=264 27 20 363 31 20
internal_value=0 0.000116493 7.39325e-05 -0.00079038 -0.000499605
internal_weight=0 647 627 78 51
internal_count=725 647 627 78 51
is_linear=0
shrinkage=0.05


end of trees

feature_importances:
element_1=225
mixing_entropy=134
element_6=17
phs_element_1_element_3=16
element_1_element_2=15
element_2=12
phs_element_6_element_10=12
element_4=11
element_1_element_7=10
element_1_element_9=10
element_4_element_12=8
element_8=7
element_1_element_3=7
element_6_element_10=7
element_3_element_4=6
phs_element_3_element_5=6
element_3=5
element_3_element_5=5
phs_element_1_element_5=5
phs_element_2_element_3=5
phs_element_3_element_4=5
phs_element_4_element_12=5
element_10=4
element_2_element_4=4
element_6_element_12=4
phs_element_1_element_2=4
element_4_element_9=3
phs_element_3_element_7=3
phs_element_5_element_8=3
element_12=2
element_2_element_3=2
element_4_element_7=2
element_6_element_8=2
phs_element_2_element_4=2
phs_element_4_element_6=2
phs_element_5_element_6=2
element_11=1
element_1_element_11=1
element_2_element_5=1
element_2_element_7=1
element_3_element_7=1
element_3_element_11=1
element_4_element_10=1
element_5_element_6=1
element_6_element_11=1
phs_element_1_element_4=1
phs_element_1_element_7=1
phs_element_1_element_10=1
phs_element_2_element_7=1
phs_element_2_element_9=1
phs_element_3_element_8=1
phs_element_4_element_5=1
phs_element_6_element_8=1
phs_element_8_element_9=1

parameters:
[boosting: gbdt]
[objective: regression]
[metric: l1,l2]
[tree_learner: serial]
[device_type: cpu]
[data: ]
[valid: ]
[num_iterations: 100]
[learning_rate: 0.05]
[num_leaves: 7]
[num_threads: 0]
[deterministic: 0]
[force_col_wise: 0]
[force_row_wise: 0]
[histogram_pool_size: -1]
[max_depth: 3]
[min_data_in_leaf: 20]
[min_sum_hessian_in_leaf: 0.001]
[bagging_fraction: 0.8]
[pos_bagging_fraction: 1]
[neg_bagging_fraction: 1]
[bagging_freq: 5]
[bagging_seed: 3]
[feature_fraction: 0.8]
[feature_fraction_bynode: 1]
[feature_fraction_seed: 2]
[extra_trees: 0]
[extra_seed: 6]
[early_stopping_round: 20]
[first_metric_only: 0]
[max_delta_step: 0]
[lambda_l1: 0]
[lambda_l2: 0]
[linear_lambda: 0]
[min_gain_to_split: 0]
[drop_rate: 0.1]
[max_drop: 50]
[skip_drop: 0.5]
[xgboost_dart_mode: 0]
[uniform_drop: 0]
[drop_seed: 4]
[top_rate: 0.2]
[other_rate: 0.1]
[min_data_per_group: 100]
[max_cat_threshold: 32]
[cat_l2: 10]
[cat_smooth: 10]
[max_cat_to_onehot: 4]
[top_k: 20]
[monotone_constraints: ]
[monotone_constraints_method: basic]
[monotone_penalty: 0]
[feature_contri: ]
[forcedsplits_filename: ]
[refit_decay_rate: 0.9]
[cegb_tradeoff: 1]
[cegb_penalty_split: 0]
[cegb_penalty_feature_lazy: ]
[cegb_penalty_feature_coupled: ]
[path_smooth: 0]
[interaction_constraints: ]
[verbosity: -1]
[saved_feature_importance_type: 0]
[linear_tree: 0]
[max_bin: 255]
[max_bin_by_feature: ]
[min_data_in_bin: 3]
[bin_construct_sample_cnt: 200000]
[data_random_seed: 1]
[is_enable_sparse: 1]
[enable_bundle: 1]
[use_missing: 1]
[zero_as_missing: 0]
[feature_pre_filter: 1]
[pre_partition: 0]
[two_round: 0]
[header: 0]
[label_column: ]
[weight_column: ]
[group_column: ]
[ignore_column: ]
[categorical_feature: ]
[forcedbins_filename: ]
[precise_float_parser: 0]
[objective_seed: 5]
[num_class: 1]
[is_unbalance: 0]
[scale_pos_weight: 1]
[sigmoid: 1]
[boost_from_average: 1]
[reg_sqrt: 0]
[alpha: 0.9]
[fair_c: 1]
[poisson_max_delta_step: 0.7]
[tweedie_variance_power: 1.5]
[lambdarank_truncation_level: 30]
[lambdarank_norm: 1]
[label_gain: ]
[eval_at: ]
[multi_error_top_k: 1]
[auc_mu_weights: ]
[num_machines: 1]
[local_listen_port: 12400]
[time_out: 120]
[machine_list_filename: ]
[machines: ]
[gpu_platform_id: -1]
[gpu_device_id: -1]
[gpu_use_dp: 0]
[num_gpu: 1]

end of parameters

pandas_categorical:[]
