tree
version=v3
num_class=1
num_tree_per_iteration=1
label_index=0
max_feature_idx=144
objective=regression
feature_names=element_1 element_2 element_3 element_4 element_5 element_6 element_7 element_8 element_9 element_10 element_11 element_12 mixing_entropy element_1_element_2 element_1_element_3 element_1_element_4 element_1_element_5 element_1_element_6 element_1_element_7 element_1_element_8 element_1_element_9 element_1_element_10 element_1_element_11 element_1_element_12 element_2_element_3 element_2_element_4 element_2_element_5 element_2_element_6 element_2_element_7 element_2_element_8 element_2_element_9 element_2_element_10 element_2_element_11 element_2_element_12 element_3_element_4 element_3_element_5 element_3_element_6 element_3_element_7 element_3_element_8 element_3_element_9 element_3_element_10 element_3_element_11 element_3_element_12 element_4_element_5 element_4_element_6 element_4_element_7 element_4_element_8 element_4_element_9 element_4_element_10 element_4_element_11 element_4_element_12 element_5_element_6 element_5_element_7 element_5_element_8 element_5_element_9 element_5_element_10 element_5_element_11 element_5_element_12 element_6_element_7 element_6_element_8 element_6_element_9 element_6_element_10 element_6_element_11 element_6_element_12 element_7_element_8 element_7_element_9 element_7_element_10 element_7_element_11 element_7_element_12 element_8_element_9 element_8_element_10 element_8_element_11 element_8_element_12 element_9_element_10 element_9_element_11 element_9_element_12 element_10_element_11 element_10_element_12 element_11_element_12 phs_element_1_element_2 phs_element_1_element_3 phs_element_1_element_4 phs_element_1_element_5 phs_element_1_element_6 phs_element_1_element_7 phs_element_1_element_8 phs_element_1_element_9 phs_element_1_element_10 phs_element_1_element_11 phs_element_1_element_12 phs_element_2_element_3 phs_element_2_element_4 phs_element_2_element_5 phs_element_2_element_6 phs_element_2_element_7 phs_element_2_element_8 phs_element_2_element_9 phs_element_2_element_10 phs_element_2_element_11 phs_element_2_element_12 phs_element_3_element_4 phs_element_3_element_5 phs_element_3_element_6 phs_element_3_element_7 phs_element_3_element_8 phs_element_3_element_9 phs_element_3_element_10 phs_element_3_element_11 phs_element_3_element_12 phs_element_4_element_5 phs_element_4_element_6 phs_element_4_element_7 phs_element_4_element_8 phs_element_4_element_9 phs_element_4_element_10 phs_element_4_element_11 phs_element_4_element_12 phs_element_5_element_6 phs_element_5_element_7 phs_element_5_element_8 phs_element_5_element_9 phs_element_5_element_10 phs_element_5_element_11 phs_element_5_element_12 phs_element_6_element_7 phs_element_6_element_8 phs_element_6_element_9 phs_element_6_element_10 phs_element_6_element_11 phs_element_6_element_12 phs_element_7_element_8 phs_element_7_element_9 phs_element_7_element_10 phs_element_7_element_11 phs_element_7_element_12 phs_element_8_element_9 phs_element_8_element_10 phs_element_8_element_11 phs_element_8_element_12 phs_element_9_element_10 phs_element_9_element_11 phs_element_9_element_12 phs_element_10_element_11 phs_element_10_element_12 phs_element_11_element_12
feature_infos=[0:0.99935042222555337] [0:0.58112287937013785] [0:0.4134129536058796] [0:0.95467695274831244] [0:0.19047619047619041] [0:0.99999600001599998] [0:0.015779507679360399] [0:0.037486435829140699] [0:0.0060850028084628001] [0:0.99992000639948797] [0:0.014677103718199601] [0:0.99423344601312402] [-1.3124890170420334:-5.5965989501844974e-05] [0:0.20817682030577769] [0:0.095486695656097506] [0:0.24015342965221281] [0:0.033754480277134] [0:0.039554351956803999] [0:0.0081467808719830996] [0:0.034982902529710001] [0:0.0032294299742739998] [0:0.0096611177170035003] [0:0.0094378672039656004] [0:0.018141918837522399] [0:0.025939851242845799] [0:0.23975286797622131] [0:0.009661514994792] [0:0.0123704341704089] [0:0.0016445684467879] [0:0.0029119906544513002] [0:0.0007005692124851] [0:0.00020343790687580001] [0:0.00072907549314039997] [0:0.0054830041632872003] [0:0.053755080442338399] [0:0.0035983725440584999] [0:0.2278803602788495] [0:8.412924727408167e-05] [0:0.00058495031754729997] [0:6.0460745429167171e-05] [0:0.039110758859621897] [0:0.0011394018013942001] [0:0.016660602771538] [0:0.017583338370722099] [0:0.24033432319237669] [0:0.0030897952636621999] [0:0.0084384627969608002] [0:0.00040032526427719999] [0:0.0508582326764144] [0:0.0046030711318626001] [0:0.023258251528863998] [0:0.045708766649446203] [0:0.0002429285031049] [0:0.0012627575355474] [0:6.6720877379536074e-05] [0:0.0080062398779531998] [0:0.00090702947845799995] [0:0.1462131519274375] [0:0.0147735765144443] [0:0.0032889833838587001] [0:0.0050698862568169002] [0:0.2374125308789789] [0:0.011616212722282601] [0:0.092266003576446695] [0:0.00029498461091309998] [0:1.313276953113343e-05] [0:0.0023300472967561999] [0:0.0001149117333974] [0:4.9835407478423365e-05] [0:5.4511675249513165e-05] none [0:2.3594668009913781e-05] [0:5.2721193877761385e-05] none [0:3.9875509885076957e-05] [0:6.7473439687716962e-06] [0:0.0044705714959370002] [0:0.19007429077832819] [0:0.014274991287563901] [-0.17295896129139521:0] [-0.095600822256169296:0] [-0.2013526925242442:0] [-0.037118379699739301:0] [-0.034759257777663602:0] [-0.0030374216401363001:0] [-0.018959595151452801:0] [-0.0024089463657928998:0] [-0.0115371723035696:0] [-0.0025727587361171001:0] [-0.011097006647905:0] [-0.0259708547979314:0] [-0.19577920420195999:0] [-0.012501008707166099:0] [-0.0104902906090852:0] [-0.0014976324923904999:0] [-0.0020934306597618002:0] [-0.00069872753703929997:0] [-9.9832352298437943e-05:0] [-0.00062975132461929998:0] [-0.0056734457472972996:0] [-0.0561648112729684:0] [-0.0041918483919123001:0] [-0.19337234376142479:0] [-8.4229799344629451e-05:0] [-0.00052231982361920001:0] [-6.0298663925360291e-05:0] [-0.0494904289282313:0] [-0.00096686171880709995:0] [-0.0095860026114388003:0] [-0.0186437678263188:0] [-0.1854831357533063:0] [-0.0028137337735822002:0] [-0.0077964847273695997:0] [-0.00039927287830819998:0] [-0.054323376209752701:0] [-0.0029560426985771999:0] [-0.016841754298498102:0] [-0.026060667447681998:0] [-9.0572743262851005e-05:0] [-0.0012766629126417001:0] [-6.6545479718037965e-05:0] [-0.0059656949579031003:0] [-0.00065542929246279998:0] [-0.1056552019450166:0] [-0.0074843374207800998:0] [-0.0013811625607017999:0] [-0.0029566432266190999:0] [-0.2149591409433082:0] [-0.0062294174619401:0] [-0.067858967620839594:0] [-0.0001099811882477:0] [-7.3017926056386352e-06:0] [-0.0014603585211277999:0] [-6.3890685299342243e-05:0] [-4.538280279971415e-05:0] [-3.0134455869856959e-05:0] none [-5.2875329069593329e-06:0] [-5.4552362954782063e-05:0] none [-2.325449728801534e-05:0] [-4.9106433259824942e-06:0] [-0.0037858367104838002:0] [-0.13387376654067079:0] [-0.0044040465214426998:0]
tree_sizes=643 670 657 657 654 650 654 655 658 655 669 669 738 675 743 671 672 753 753 672 750 750 670 750 757 677 748 751 751 679 753 757 755 763 757 774 759 760 759 762 756 757 764 762 755 766 773 765 765 764 763 764 767 763 764 767 773 767 762 764 597 595 600 592 777 681 595 683 595 786 591 598 788 598 678 678 680 683 683 677 684 687 774 683 687 691 691 687 683 690 698 781 786 780 784 690 688 690 692 686

Tree=0
num_leaves=6
num_cat=0
split_feature=0 83 0 0 0
split_gain=327.652 128.355 10.1242 6.15197 1.41548
threshold=0.027717743237030704 -4.451171521312556e-08 0.2416809668236358 0.0027252966123013007 0.72985600894286018
decision_type=2 2 2 2 2
left_child=1 3 -2 -1 -4
right_child=2 -3 4 -5 -6
leaf_value=0.30444803943415977 0.35310675836252348 0.20041874550758987 0.37766421156571284 0.32576326705944053 0.38321083523588145
leaf_weight=47 34 26 176 121 332
leaf_count=47 34 26 176 121 332
internal_value=0.359767 0.303801 0.379521 0.3198 0.381289
internal_weight=0 194 542 168 508
internal_count=736 194 542 168 508
is_linear=0
shrinkage=1


Tree=1
num_leaves=6
num_cat=0
split_feature=19 17 80 3 109
split_gain=291.292 110.069 5.04573 4.48225 1.23166
threshold=2.2780285164013122e-05 1.0000000180025095e-35 -1.2987073181840339e-05 0.47410367915295165 -0.00014375423082069999
decision_type=2 2 2 2 2
left_child=1 -1 -3 4 -2
right_child=3 2 -4 -5 -6
leaf_value=-0.14885356140136718 0.017172432774780217 -0.024945635159136888 -0.042732087310736744 -0.0021048936345007107 0.022312666733323792
leaf_weight=25 182 59 123 23 324
leaf_count=25 182 59 123 23 324
internal_value=0 -0.0504791 -0.0369661 0.0194826 0.0204638
internal_weight=0 207 182 529 506
internal_count=736 207 182 529 506
is_linear=0
shrinkage=0.05


Tree=2
num_leaves=6
num_cat=0
split_feature=0 83 0 0 0
split_gain=267.795 105.552 8.18862 5.37341 1.38679
threshold=0.027717743237030704 -4.451171521312556e-08 0.19563160165846358 0.0027252966123013007 0.7169333671078234
decision_type=2 2 2 2 2
left_child=1 3 -2 -1 -4
right_child=2 -3 4 -5 -6
leaf_value=-0.050434999072805367 -0.0089813395506805841 -0.14434598730160639 0.015711975557594328 -0.030514137286785221 0.021160550393341554
leaf_weight=47 27 26 179 121 336
leaf_count=47 27 26 179 121 336
internal_value=0 -0.0505961 0.0178596 -0.0360872 0.0192668
internal_weight=0 194 542 168 515
internal_count=736 194 542 168 515
is_linear=0
shrinkage=0.05


Tree=3
num_leaves=6
num_cat=0
split_feature=0 0 0 0 0
split_gain=241.754 96.4128 6.31967 5.88002 0.98231
threshold=0.031950930494812353 1.0000000180025095e-35 0.0018564113738867502 0.33242750421742867 0.77153073730940036
decision_type=2 2 2 2 2
left_child=1 -1 -3 -2 -5
right_child=3 2 -4 4 -6
leaf_value=-0.14135662317276002 -0.0032391308016623509 -0.054150450952125319 -0.029843783452578473 0.015657446821851117 0.020229256106394589
leaf_weight=24 33 33 141 186 319
leaf_count=24 33 33 141 186 319
internal_value=0 -0.0474116 -0.0344537 0.0172092 0.0185454
internal_weight=0 198 174 538 505
internal_count=736 198 174 538 505
is_linear=0
shrinkage=0.05


Tree=4
num_leaves=6
num_cat=0
split_feature=0 83 0 0 0
split_gain=218.34 85.4065 7.78059 4.31563 1.18267
threshold=0.019244693729176154 -4.451171521312556e-08 0.19563160165846358 0.0030580355462496004 0.60883212180660962
decision_type=2 2 2 2 2
left_child=1 3 -2 -1 -4
right_child=2 -3 4 -5 -6
leaf_value=-0.04449000479998412 -0.0087971857190132143 -0.13039626066501325 0.011810059817507865 -0.027256409179519964 0.018424858050099736
leaf_weight=54 30 26 80 111 435
leaf_count=54 30 26 80 111 435
internal_value=0 -0.0461687 0.0159554 -0.0328965 0.0173973
internal_weight=0 191 545 165 515
internal_count=736 191 545 165 515
is_linear=0
shrinkage=0.05


Tree=5
num_leaves=6
num_cat=0
split_feature=0 0 0 0 0
split_gain=180.828 68.1397 4.98307 3.9438 0.7724
threshold=0.035439741457751507 9.9571921047428023e-05 0.004333352747692751 0.33242750421742867 0.78970399448024964
decision_type=2 2 2 2 2
left_child=1 -1 -3 -2 -5
right_child=3 2 -4 4 -6
leaf_value=-0.1214553335438604 -0.0016499886830006879 -0.039614584135848126 -0.022425450405524096 0.014288593526116484 0.018307797012752609
leaf_weight=23 31 74 98 197 304
leaf_count=23 31 74 98 197 304
internal_value=0 -0.040629 -0.0298208 0.0156565 0.0167274
internal_weight=0 195 172 532 501
internal_count=727 195 172 532 501
is_linear=0
shrinkage=0.05


Tree=6
num_leaves=6
num_cat=0
split_feature=0 0 0 0 0
split_gain=163.201 61.2202 5.81558 4.0709 0.742227
threshold=0.031950930494812353 1.0000000180025095e-35 0.0018564113738867502 0.2416809668236358 0.7443620324641359
decision_type=2 2 2 2 2
left_child=1 -1 -3 -2 -5
right_child=3 2 -4 4 -6
leaf_value=-0.12169620990753174 -0.0031202937165896102 -0.047182705336146886 -0.024599897016492421 0.013297211625129798 0.017287235546891936
leaf_weight=20 30 36 137 183 321
leaf_count=20 30 36 137 183 321
internal_value=0 -0.038874 -0.0292992 0.0147734 0.0158385
internal_weight=0 193 173 534 504
internal_count=727 193 173 534 504
is_linear=0
shrinkage=0.05


Tree=7
num_leaves=6
num_cat=0
split_feature=0 0 0 0 0
split_gain=147.456 54.0793 5.64276 3.61719 0.821658
threshold=0.019244693729176154 9.9571921047428023e-05 0.19563160165846358 0.0022174683441251505 0.5686184925417368
decision_type=2 2 2 2 2
left_child=1 -1 -2 -3 -4
right_child=2 3 4 -5 -6
leaf_value=-0.10978370853092359 -0.0070524530545357737 -0.041348728066996528 0.009420350454747678 -0.023716367706055605 0.015648543494371513
leaf_weight=23 31 38 60 124 451
leaf_count=23 31 38 60 124 451
internal_value=0 -0.0380384 0.0136607 -0.0278524 0.0149172
internal_weight=0 185 542 162 511
internal_count=727 185 542 162 511
is_linear=0
shrinkage=0.05


Tree=8
num_leaves=6
num_cat=0
split_feature=0 0 0 0 0
split_gain=133.146 48.5043 6.00108 4.15561 0.754081
threshold=0.018306732017929702 1.0000000180025095e-35 0.19563160165846358 0.0012623227045992502 0.65155606176458103
decision_type=2 2 2 2 2
left_child=1 -1 -2 -3 -4
right_child=2 3 4 -5 -6
leaf_value=-0.11012221574783326 -0.0072297409422961735 -0.043382442720008622 0.010482729516855074 -0.023483126767678188 0.015171544535539636
leaf_weight=20 35 33 109 128 402
leaf_count=20 35 33 109 128 402
internal_value=0 -0.0366846 0.0127995 -0.0275619 0.0141714
internal_weight=0 181 546 161 511
internal_count=727 181 546 161 511
is_linear=0
shrinkage=0.05


Tree=9
num_leaves=6
num_cat=0
split_feature=0 0 0 0 0
split_gain=120.248 42.8102 6.95434 3.4618 0.81231
threshold=0.014425955732284852 1.0000000180025095e-35 0.10180731177447037 0.0012623227045992502 0.54514686470286111
decision_type=2 2 2 2 2
left_child=1 -1 -2 -3 -4
right_child=2 3 4 -5 -6
leaf_value=-0.10461610555648804 -0.0087796817493845571 -0.041213319337729259 0.0080175708173849305 -0.022943602520818555 0.014119815913586166
leaf_weight=20 38 33 62 121 453
leaf_count=20 38 33 62 121 453
internal_value=0 -0.0357962 0.0118621 -0.0268585 0.0133852
internal_weight=0 174 553 154 515
internal_count=727 174 553 154 515
is_linear=0
shrinkage=0.05


Tree=10
num_leaves=6
num_cat=0
split_feature=19 17 80 14 12
split_gain=115.492 39.5151 2.84849 2.07708 0.65201
threshold=8.468805186783204e-06 1.0000000180025095e-35 -1.084167445570461e-05 0.0020694832728893504 -0.57458178103108792
decision_type=2 2 2 2 2
left_child=1 -1 -3 -2 -5
right_child=3 2 -4 4 -6
leaf_value=-0.094043134995128799 -0.0022165101108839735 -0.015510602183640004 -0.028929886164079457 0.010755044537160648 0.014355806058103389
leaf_weight=23 24 60 116 218 297
leaf_count=23 24 60 116 218 297
internal_value=0 -0.0324095 -0.0243551 0.0121616 0.0128316
internal_weight=0 199 176 539 515
internal_count=738 199 176 539 515
is_linear=0
shrinkage=0.05


Tree=11
num_leaves=6
num_cat=0
split_feature=19 83 80 18 12
split_gain=104.231 35.9034 2.15103 1.87518 0.481743
threshold=8.468805186783204e-06 -4.451171521312556e-08 -1.084167445570461e-05 8.2423706677549777e-05 -0.56769725086616163
decision_type=2 2 2 2 2
left_child=1 2 -1 -2 -5
right_child=3 -3 -4 4 -6
leaf_value=-0.014735072242716949 0.0006905196678220622 -0.084392622996259617 -0.026467099273577335 0.010520186350106053 0.013662306323596643
leaf_weight=60 37 27 112 209 293
leaf_count=60 37 27 112 209 293
internal_value=0 -0.030789 -0.0223745 0.0115535 0.0123541
internal_weight=0 199 172 539 502
internal_count=738 199 172 539 502
is_linear=0
shrinkage=0.05


Tree=12
num_leaves=7
num_cat=0
split_feature=0 0 0 0 0 12
split_gain=95.6479 31.669 9.48621 1.98552 0.67168 0.13248
threshold=0.0093593720298917518 1.0000000180025095e-35 0.10180731177447037 0.0012623227045992502 0.5686184925417368 -0.79134575333491164
decision_type=2 2 2 2 2 2
left_child=1 -1 5 -3 -4 -2
right_child=2 3 4 -5 -6 -7
leaf_value=-0.090463513135910043 -0.0068621545754097126 -0.036078349369413718 0.006729644903134613 -0.02205533322935202 0.01219663182516461 -0.011584770702051396
leaf_weight=22 27 34 64 98 460 33
leaf_count=22 27 34 64 98 460 33
internal_value=0 -0.0349239 0.00937256 -0.0256673 0.0115289 -0.00945959
internal_weight=0 154 584 132 524 60
internal_count=738 154 584 132 524 60
is_linear=0
shrinkage=0.05


Tree=13
num_leaves=6
num_cat=0
split_feature=19 83 80 19 100
split_gain=84.9067 29.3366 1.75893 1.5544 0.500245
threshold=8.468805186783204e-06 -4.451171521312556e-08 -1.084167445570461e-05 8.4602120207420109e-05 -0.00046948475070399993
decision_type=2 2 2 2 2
left_child=1 2 -1 -2 -5
right_child=3 -3 -4 4 -6
leaf_value=-0.013274345546960831 -0.0017473852103576063 -0.076242778367466402 -0.023883324389212899 0.0088393183619094387 0.012135633469066201
leaf_weight=60 25 27 112 174 340
leaf_count=60 25 27 112 174 340
internal_value=0 -0.0277887 -0.0201825 0.0104276 0.0110198
internal_weight=0 199 172 539 514
internal_count=738 199 172 539 514
is_linear=0
shrinkage=0.05


Tree=14
num_leaves=7
num_cat=0
split_feature=0 0 0 0 0 12
split_gain=78.3917 26.1938 7.65497 1.67888 0.565301 0.101919
threshold=0.0093593720298917518 1.0000000180025095e-35 0.10180731177447037 0.0012623227045992502 0.59300421551274496 -0.79134575333491164
decision_type=2 2 2 2 2 2
left_child=1 -1 5 -3 -4 -2
right_child=2 3 4 -5 -6 -7
leaf_value=-0.082128196954727173 -0.0061541354719169992 -0.032772268705508291 0.0063069892568617227 -0.019877480487434235 0.011077228709396009 -0.0102963740062533
leaf_weight=22 27 34 72 98 452 33
leaf_count=22 27 34 72 98 452 33
internal_value=0 -0.0316173 0.00848471 -0.0231989 0.0104218 -0.00843237
internal_weight=0 154 584 132 524 60
internal_count=738 154 584 132 524 60
is_linear=0
shrinkage=0.05


Tree=15
num_leaves=6
num_cat=0
split_feature=14 17 14 22 12
split_gain=70.2224 26.6145 2.83945 1.13391 0.45121
threshold=0.00019634866628945002 1.0000000180025095e-35 0.0018581338793217503 5.528355461671219e-06 -0.59486329436942242
decision_type=2 2 2 2 2
left_child=1 -1 -2 -3 -4
right_child=2 3 4 -5 -6
leaf_value=-0.074620224922895426 -0.0061672777121892638 -0.024505641473637475 0.0081162266462913493 -0.015899263687431813 0.011172436671079818
leaf_weight=25 29 62 204 100 296
leaf_count=25 29 62 204 100 296
internal_value=0 -0.0266031 0.00904329 -0.0191931 0.0099255
internal_weight=0 187 529 162 500
internal_count=716 187 529 162 500
is_linear=0
shrinkage=0.05


Tree=16
num_leaves=6
num_cat=0
split_feature=19 17 17 20 12
split_gain=63.7618 27.1322 1.28327 1.28108 0.360645
threshold=8.468805186783204e-06 1.0000000180025095e-35 0.0061313722106128505 2.3076225593389378e-05 -0.5155997096807613
decision_type=2 2 2 2 2
left_child=1 -1 -3 -2 -5
right_child=3 2 -4 4 -6
leaf_value=-0.07429077625274659 -0.0016646976612887726 -0.019572338250032822 -0.0083437083709624518 0.0080345768702838726 0.010753920297640407
leaf_weight=24 27 142 31 223 269
leaf_count=24 27 142 31 223 269
internal_value=0 -0.0244716 -0.0175603 0.00893944 0.00952137
internal_weight=0 197 173 519 492
internal_count=716 197 173 519 492
is_linear=0
shrinkage=0.05


Tree=17
num_leaves=7
num_cat=0
split_feature=0 0 0 0 0 101
split_gain=58.4311 21.1607 5.60377 1.28579 0.421758 0.0570363
threshold=0.0093593720298917518 1.0000000180025095e-35 0.092109241501033209 0.0023863041151419005 0.52746533952959451 -3.6314907892764438e-05
decision_type=2 2 2 2 2 2
left_child=1 -1 5 -3 -4 -2
right_child=2 3 4 -5 -6 -7
leaf_value=-0.070576238632202151 -0.0093193003191397745 -0.026020791350553435 0.0046835113641394022 -0.015739911514248823 0.0094384650922322705 -0.0061437742589342016
leaf_weight=24 26 48 52 83 452 31
leaf_count=24 26 48 52 83 452 31
internal_value=0 -0.0274145 0.00726733 -0.019507 0.00894787 -0.00759226
internal_weight=0 155 561 131 504 57
internal_count=716 155 561 131 504 57
is_linear=0
shrinkage=0.05


Tree=18
num_leaves=7
num_cat=0
split_feature=0 0 0 0 0 101
split_gain=52.7341 19.1465 5.0585 0.861208 0.400874 0.0436536
threshold=0.0093593720298917518 9.9571921047428023e-05 0.067575575243036604 0.0023863041151419005 0.5151007976078702 -2.6757295248262536e-05
decision_type=2 2 2 2 2 2
left_child=1 -1 5 -3 -4 -2
right_child=2 3 4 -5 -6 -7
leaf_value=-0.064306061135398024 -0.0088533354206727106 -0.023542727033297222 0.0042354103822726764 -0.014952915890074997 0.0089520068204664918 -0.0060541810467839244
leaf_weight=27 26 45 50 83 455 30
leaf_count=27 26 45 50 83 455 30
internal_value=0 -0.0260437 0.00690396 -0.0179728 0.00848502 -0.00735379
internal_weight=0 155 561 128 505 56
internal_count=716 155 561 128 505 56
is_linear=0
shrinkage=0.05


Tree=19
num_leaves=6
num_cat=0
split_feature=85 17 14 14 12
split_gain=46.9198 20.0627 1.08962 1.07809 0.297567
threshold=-5.8056230414878393e-06 1.0000000180025095e-35 0.0020694832728893504 7.0917356798355901e-06 -0.5155997096807613
decision_type=2 2 2 2 2
left_child=2 -2 -1 -3 -4
right_child=1 3 4 -5 -6
leaf_value=-0.0027359318220987919 -0.06383212208747864 -0.019456297255955737 0.0068355687463293431 -0.011514133762102575 0.0092967007267652398
leaf_weight=24 24 77 226 96 269
leaf_count=24 24 77 226 96 269
internal_value=0 -0.0209922 0.00766857 -0.0150491 0.00817303
internal_weight=0 197 519 173 495
internal_count=716 197 519 173 495
is_linear=0
shrinkage=0.05


Tree=20
num_leaves=7
num_cat=0
split_feature=0 0 0 0 0 51
split_gain=41.9718 14.5139 3.51373 0.760869 0.372674 0.137685
threshold=0.0093593720298917518 9.9571921047428023e-05 0.10180731177447037 0.0023863041151419005 0.6733774211154071 3.1838007907677282e-05
decision_type=2 2 2 2 2 2
left_child=1 -1 5 -3 -4 -2
right_child=2 3 4 -5 -6 -7
leaf_value=-0.057439610820550185 -0.002354324703898143 -0.021987934298813346 0.005518859064706793 -0.013593169023473579 0.0085313089990190095 -0.0071368446518831402
leaf_weight=26 27 40 143 83 364 34
leaf_count=26 27 40 143 83 364 34
internal_value=0 -0.0234979 0.00631756 -0.0163232 0.00768164 -0.00501999
internal_weight=0 149 568 123 507 61
internal_count=717 149 568 123 507 61
is_linear=0
shrinkage=0.05


Tree=21
num_leaves=7
num_cat=0
split_feature=0 0 0 0 0 47
split_gain=37.8795 13.0988 3.17114 0.696259 0.338302 0.129034
threshold=0.0093593720298917518 9.9571921047428023e-05 0.10180731177447037 0.0018564113738867502 0.6820228016248876 7.3199167851523901e-05
decision_type=2 2 2 2 2 2
left_child=1 -1 5 -3 -4 -2
right_child=2 3 4 -5 -6 -7
leaf_value=-0.054567627035654515 -0.0064352278644219038 -0.021987625908467076 0.0053779981423263687 -0.013323331365118858 0.0081665898654556552 -0.0015952092670236846
leaf_weight=26 40 31 158 92 349 21
leaf_count=26 40 31 158 92 349 21
internal_value=0 -0.022323 0.00600168 -0.015507 0.00729756 -0.00476899
internal_weight=0 149 568 123 507 61
internal_count=717 149 568 123 507 61
is_linear=0
shrinkage=0.05


Tree=22
num_leaves=6
num_cat=0
split_feature=85 17 3 22 12
split_gain=32.5382 11.3649 0.836586 0.742063 0.278797
threshold=-2.7614179755415044e-06 1.0000000180025095e-35 0.54342073037849403 7.1805997428121983e-06 -0.4784338715402579
decision_type=2 2 2 2 2
left_child=2 -2 4 -3 -1
right_child=1 3 -4 -5 -6
leaf_value=0.0056740752691881585 -0.050736778844957767 -0.01682509382034799 -0.0031090658294322731 -0.010080370411213319 0.0080167696026026049
leaf_weight=253 23 76 22 88 255
leaf_count=253 23 76 22 88 255
internal_value=0 -0.0178221 0.00643664 -0.013206 0.00685003
internal_weight=0 187 530 164 508
internal_count=717 187 530 164 508
is_linear=0
shrinkage=0.05


Tree=23
num_leaves=7
num_cat=0
split_feature=0 0 0 0 13 0
split_gain=31.1586 10.828 2.56143 0.603855 0.420711 0.194348
threshold=0.0093593720298917518 9.9571921047428023e-05 0.40118932312924921 0.0023863041151419005 0.0045844375944960507 0.89691488628933003
decision_type=2 2 2 2 2 2
left_child=1 -1 4 -3 -2 -4
right_child=2 3 5 -5 -6 -7
leaf_value=-0.049563267827033998 -0.0058220853875490261 -0.019095960296690466 0.0057886021092851117 -0.011617369819656914 0.0014186997132908021 0.0077894214318093074
leaf_weight=26 47 40 235 83 35 251
leaf_count=26 47 40 235 83 35 251
internal_value=0 -0.0202465 0.00544275 -0.0140494 -0.00273151 0.00682195
internal_weight=0 149 568 123 82 486
internal_count=717 149 568 123 82 486
is_linear=0
shrinkage=0.05


Tree=24
num_leaves=7
num_cat=0
split_feature=0 0 0 0 79 12
split_gain=28.1206 9.78842 2.31169 0.904505 0.379691 0.175403
threshold=0.0093593720298917518 1.0000000180025095e-35 0.40118932312924921 0.00097871351975265019 -0.0032280420842424992 -0.39324375533127992
decision_type=2 2 2 2 2 2
left_child=1 -1 4 -3 -2 -4
right_child=2 3 5 -5 -6 -7
leaf_value=-0.050025153160095218 0.0013477647354427193 -0.023660293817520144 0.0055031964626415806 -0.012075977166679418 -0.0055309812304256689 0.0074037538200616843
leaf_weight=22 35 20 236 107 47 250
leaf_count=22 35 20 236 107 47 250
internal_value=0 -0.0192342 0.00517061 -0.0139003 -0.00259493 0.00648085
internal_weight=0 149 568 127 82 486
internal_count=717 149 568 127 82 486
is_linear=0
shrinkage=0.05


Tree=25
num_leaves=6
num_cat=0
split_feature=19 17 22 14 12
split_gain=24.5181 10.0258 0.781301 0.624663 0.153582
threshold=8.468805186783204e-06 1.0000000180025095e-35 1.4023175399569536e-05 0.0032539918163578502 -0.45550031404302704
decision_type=2 2 2 2 2
left_child=1 -1 -3 -2 -5
right_child=3 2 -4 4 -6
leaf_value=-0.047523894906044008 -0.0011495249412291741 -0.013398115452723342 -0.0064758357856678026 0.0051108160124417271 0.0068634679946512319
leaf_weight=21 32 119 62 232 271
leaf_count=21 32 119 62 232 271
internal_value=0 -0.0148212 -0.0110269 0.00562416 0.00605509
internal_weight=0 202 181 535 503
internal_count=737 202 181 535 503
is_linear=0
shrinkage=0.05


Tree=26
num_leaves=7
num_cat=0
split_feature=0 0 0 0 0 101
split_gain=22.802 7.8494 2.1611 0.502736 0.178597 0.0736551
threshold=0.0093593720298917518 9.9571921047428023e-05 0.10180731177447037 0.0023863041151419005 0.62579916903989352 -3.706084849459643e-05
decision_type=2 2 2 2 2 2
left_child=1 -1 5 -3 -4 -2
right_child=2 3 4 -5 -6 -7
leaf_value=-0.042573975563049316 -0.005691277947432051 -0.01630955139795939 0.0035435867530328258 -0.0097998469896700205 0.0061020619261802902 -0.0023574172745685321
leaf_weight=25 30 45 81 87 432 37
leaf_count=25 30 45 81 87 432 37
internal_value=0 -0.0168845 0.0045951 -0.0120191 0.00569809 -0.00385019
internal_weight=0 157 580 132 513 67
internal_count=737 157 580 132 513 67
is_linear=0
shrinkage=0.05


Tree=27
num_leaves=7
num_cat=0
split_feature=0 0 0 0 91 2
split_gain=20.5788 7.08408 1.95337 0.45372 0.190151 0.0682716
threshold=0.0093593720298917518 9.9571921047428023e-05 0.092109241501033209 0.0023863041151419005 -0.049117208807060046 0.0048070048664829506
decision_type=2 2 2 2 2 2
left_child=1 -1 5 -3 -4 -2
right_child=2 3 4 -5 -6 -7
leaf_value=-0.040445276200771332 -0.0016192560644066407 -0.015494073496924507 0.002654206630438893 -0.0093098545768137645 0.0057158080707101723 -0.0051108681896169274
leaf_weight=25 21 45 57 87 460 42
leaf_count=25 21 45 57 87 460 42
internal_value=0 -0.0160403 0.00436535 -0.0114181 0.00537826 -0.003947
internal_weight=0 157 580 132 517 63
internal_count=737 157 580 132 517 63
is_linear=0
shrinkage=0.05


Tree=28
num_leaves=7
num_cat=0
split_feature=0 0 0 0 0 0
split_gain=18.5813 6.25643 2.01731 0.597711 0.173431 0.0419561
threshold=0.0077520544446614001 1.0000000180025095e-35 0.092109241501033209 0.00096946399872175021 0.49639509435026091 0.014425955732284852
decision_type=2 2 2 2 2 2
left_child=1 -1 5 -3 -4 -2
right_child=2 3 4 -5 -6 -7
leaf_value=-0.040996739268302919 -0.0051247057867132954 -0.019513258710503578 0.0019890249099173561 -0.01010991987695388 0.0053781163221334714 -0.0026754958229824244
leaf_weight=21 36 20 41 109 476 34
leaf_count=21 36 20 41 109 476 34
internal_value=0 -0.0156879 0.0040308 -0.0115678 0.00510935 -0.00393509
internal_weight=0 150 587 129 517 70
internal_count=737 150 587 129 517 70
is_linear=0
shrinkage=0.05


Tree=29
num_leaves=6
num_cat=0
split_feature=19 17 22 3 103
split_gain=16.3024 6.76406 0.544817 0.430757 0.151513
threshold=8.468805186783204e-06 1.0000000180025095e-35 7.2549364098689296e-06 0.51167265618486235 -1.4266504046359393e-06
decision_type=2 2 2 2 2
left_child=1 -1 -3 4 -2
right_child=3 2 -4 -5 -6
leaf_value=-0.038946902751922613 0.0038996463397411129 -0.012121350867434955 -0.0065818733696201906 -0.0026133782218676063 0.0056270322775364753
leaf_weight=21 227 78 103 20 288
leaf_count=21 227 78 103 20 288
internal_value=0 -0.0120856 -0.00896905 0.00458605 0.00486564
internal_weight=0 202 181 535 515
internal_count=737 202 181 535 515
is_linear=0
shrinkage=0.05


Tree=30
num_leaves=7
num_cat=0
split_feature=0 0 0 13 16 0
split_gain=14.2098 4.55798 1.97211 0.208073 0.157584 0.115424
threshold=0.0068426213804446004 9.9571921047428023e-05 0.40118932312924921 0.0045844375944960507 4.6118233990790734e-06 0.91673293690682967
decision_type=2 2 2 2 2 2
left_child=1 -1 3 -2 -3 -4
right_child=2 4 5 -5 -6 -7
leaf_value=-0.0347211666405201 -0.0041631427035373576 -0.012739984927380958 0.0040441810843148988 0.00067229748251520507 -0.0086603012534656708 0.0055581741749231982
leaf_weight=24 73 41 239 32 56 266
leaf_count=24 73 41 239 32 56 266
internal_value=0 -0.0152118 0.00354531 -0.00268948 -0.0103847 0.00484165
internal_weight=0 121 610 105 97 505
internal_count=731 121 610 105 97 505
is_linear=0
shrinkage=0.05


Tree=31
num_leaves=7
num_cat=0
split_feature=0 0 0 0 13 12
split_gain=12.8244 4.1514 1.77983 0.267714 0.187786 0.104192
threshold=0.0068426213804446004 1.0000000180025095e-35 0.40118932312924921 0.00098376806881435015 0.0045844375944960507 -0.39324375533127992
decision_type=2 2 2 2 2 2
left_child=1 -1 4 -3 -2 -4
right_child=2 3 5 -5 -6 -7
leaf_value=-0.035263499617576598 -0.0039549855437219046 -0.015354289149954207 0.0038358469874861371 -0.0090110376430675397 0.00063868264014672611 0.0052749483067709123
leaf_weight=20 73 21 237 80 32 268
leaf_count=20 73 21 237 80 32 268
internal_value=0 -0.0144512 0.00336804 -0.0103299 -0.00255501 0.00459957
internal_weight=0 121 610 101 105 505
internal_count=731 121 610 101 105 505
is_linear=0
shrinkage=0.05


Tree=32
num_leaves=7
num_cat=0
split_feature=0 0 0 0 94 0
split_gain=11.5867 4.11036 1.1708 0.193477 0.134896 0.0906247
threshold=0.0093593720298917518 0.00047170325593170006 0.43120713670286265 0.0038379105220520504 -4.7326595355759897e-05 0.92271854008417697
decision_type=2 2 2 2 2 2
left_child=1 -1 4 -3 -2 -4
right_child=2 3 5 -5 -6 -7
leaf_value=-0.030953994333744052 0.0016645034664266166 -0.010663343460432122 0.0036777839649110161 -0.0065430451280854901 -0.0029200916025301387 0.0050217128274115648
leaf_weight=25 21 56 239 58 68 264
leaf_count=25 21 56 239 58 68 264
internal_value=0 -0.0125935 0.00344782 -0.00856705 -0.00183833 0.00438315
internal_weight=0 139 592 114 89 503
internal_count=731 139 592 114 89 503
is_linear=0
shrinkage=0.05


Tree=33
num_leaves=7
num_cat=0
split_feature=0 0 0 0 79 92
split_gain=10.4638 3.42308 1.44397 0.215971 0.164329 0.082058
threshold=0.0068426213804446004 1.0000000180025095e-35 0.43120713670286265 0.00099662103356075037 -0.0032280420842424992 -0.00026660473786509995
decision_type=2 2 2 2 2 2
left_child=1 -1 4 -3 -2 -4
right_child=2 3 5 -5 -6 -7
leaf_value=-0.031952622532844546 0.00063870030006749892 -0.013453034218400717 0.0034454947375264521 -0.0080208071398657644 -0.0035697052673092245 0.0047316248346372007
leaf_weight=20 34 24 222 77 73 281
leaf_count=20 34 24 222 77 73 281
internal_value=0 -0.0130539 0.00304199 -0.00931163 -0.00223245 0.00416399
internal_weight=0 121 610 101 107 503
internal_count=731 121 610 101 107 503
is_linear=0
shrinkage=0.05


Tree=34
num_leaves=7
num_cat=0
split_feature=0 0 0 0 94 0
split_gain=9.44852 3.36846 0.949968 0.160525 0.113121 0.0746228
threshold=0.0093593720298917518 0.00047170325593170006 0.43120713670286265 0.0038379105220520504 -4.7326595355759897e-05 0.93084688636313884
decision_type=2 2 2 2 2 2
left_child=1 -1 4 -3 -2 -4
right_child=2 3 5 -5 -6 -7
leaf_value=-0.02799365922808647 0.0015593632201974592 -0.0096369821312172078 0.0033382480404519988 -0.0058839214066493109 -0.0026389236278619673 0.0045563787017382828
leaf_weight=25 21 56 248 58 68 255
leaf_count=25 21 56 248 58 68 255
internal_value=0 -0.0113725 0.00311328 -0.00772753 -0.00164832 0.00395579
internal_weight=0 139 592 114 89 503
internal_count=731 139 592 114 89 503
is_linear=0
shrinkage=0.05


Tree=35
num_leaves=7
num_cat=0
split_feature=86 83 45 17 44 86
split_gain=8.52476 2.36981 0.317136 0.258118 0.121183 0.0569101
threshold=-1.3927211102117321e-06 -7.1032613652958531e-09 0.00010000064385216449 0.0069082508070724006 0.0023349957919542503 -4.3991415658186607e-05
decision_type=2 2 2 2 2 2
left_child=2 3 4 -2 -1 -4
right_child=1 -3 5 -5 -6 -7
leaf_value=0.0038747888354486539 -0.0071499485009651935 -0.021409470996549052 0.00093388716872457576 -0.0014564087756140077 -9.833618882112207e-05 -0.0027129790186882019
leaf_weight=475 148 31 23 23 20 20
leaf_count=475 148 31 23 23 20 20
internal_value=0 -0.00869002 0.00335646 -0.00638415 0.00371426 -0.00076233
internal_weight=0 202 538 171 495 43
internal_count=740 202 538 171 495 43
is_linear=0
shrinkage=0.05


Tree=36
num_leaves=7
num_cat=0
split_feature=0 83 0 24 0 24
split_gain=8.67221 2.89758 1.24746 0.14208 0.10754 0.0689372
threshold=0.0054187909239771506 -7.1032613652958531e-09 0.43120713670286265 0.0012716553473071004 0.0012623227045992502 0.0012716553473071004
decision_type=2 2 2 2 2 2
left_child=1 4 3 -2 -1 -4
right_child=2 -3 5 -5 -6 -7
leaf_value=-0.010951201700501973 -0.0031421930770110604 -0.027601175506909686 0.0040544530869845085 0.00084232061790923292 -0.0072579219580104909 0.0028458044354920278
leaf_weight=27 88 24 306 30 73 192
leaf_count=27 88 24 306 30 73 192
internal_value=0 -0.0119995 0.0024932 -0.00212918 -0.00825511 0.00358847
internal_weight=0 124 616 118 100 498
internal_count=740 124 616 118 100 498
is_linear=0
shrinkage=0.05


Tree=37
num_leaves=7
num_cat=0
split_feature=0 0 0 13 0 105
split_gain=7.82667 2.57717 1.12583 0.153856 0.12395 0.0647617
threshold=0.0054187909239771506 1.0000000180025095e-35 0.43120713670286265 0.0045844375944960507 0.00098376806881435015 -1.2937912987815749e-07
decision_type=2 2 2 2 2 2
left_child=1 -1 3 -2 -3 -4
right_child=2 4 5 -5 -6 -7
leaf_value=-0.026504775881767275 -0.0031476737830020926 -0.011378474781910579 0.0032894077721545845 0.00087488085476004277 -0.0070623023062944407 0.006126509110132853
leaf_weight=23 85 21 477 33 80 21
leaf_count=23 85 21 477 33 80 21
internal_value=0 -0.0113995 0.00236854 -0.00202272 -0.00795972 0.00340904
internal_weight=0 124 616 118 101 498
internal_count=740 124 616 118 101 498
is_linear=0
shrinkage=0.05


Tree=38
num_leaves=7
num_cat=0
split_feature=0 83 0 79 0 0
split_gain=7.06357 2.36591 1.01627 0.146634 0.0884126 0.0626925
threshold=0.0054187909239771506 -7.1032613652958531e-09 0.44653745508232418 -0.0032280420842424992 0.0012623227045992502 0.98502989876695735
decision_type=2 2 2 2 2 2
left_child=1 4 3 -2 -1 -4
right_child=2 -3 5 -5 -6 -7
leaf_value=-0.0098906680665634301 0.00081702875613700601 -0.024927391732732455 0.0031387459790628209 -0.002990290142616312 -0.0065419107216270009 0.0059964597783982755
leaf_weight=27 36 24 475 85 73 20
leaf_count=27 36 24 475 85 73 20
internal_value=0 -0.0108296 0.00225012 -0.00185753 -0.00744608 0.00325421
internal_weight=0 124 616 121 100 495
internal_count=740 124 616 121 100 495
is_linear=0
shrinkage=0.05


Tree=39
num_leaves=7
num_cat=0
split_feature=0 83 0 0 13 80
split_gain=6.37975 2.40276 0.608618 0.135099 0.105889 0.056003
threshold=0.0077520544446614001 -7.1032613652958531e-09 0.4594315081411906 0.0038379105220520504 0.0045844375944960507 -0.00074303024836524991
decision_type=2 2 2 2 2 2
left_child=1 3 4 -1 -2 -4
right_child=2 -3 5 -5 -6 -7
leaf_value=-0.0079378121490798776 -0.0024631653172885615 -0.023681022847692173 0.0030129626888829551 -0.0046417195831650292 0.00078774618233965583 0.005714728422462941
leaf_weight=67 60 24 468 58 43 20
leaf_count=67 60 24 468 58 43 20
internal_value=0 -0.00919059 0.00238654 -0.00640843 -0.00110599 0.00312369
internal_weight=0 149 591 125 103 488
internal_count=740 149 591 125 103 488
is_linear=0
shrinkage=0.05


Tree=40
num_leaves=7
num_cat=0
split_feature=0 0 0 91 0 2
split_gain=5.70986 1.74228 0.896445 0.119587 0.0910626 0.0494654
threshold=0.0050417344278146014 1.0000000180025095e-35 0.050545932994493108 -0.027987230206322999 0.00097871351975265019 0.0048070048664829506
decision_type=2 2 2 2 2 2
left_child=1 -1 5 -4 -3 -2
right_child=2 4 3 -5 -6 -7
leaf_value=-0.022749118506908417 -0.0013040239138496052 -0.01006890954006286 0.0010602890095678854 0.0030898140730616984 -0.0062670175045255634 -0.0036366107647635921
leaf_weight=23 41 21 87 438 63 51
leaf_count=23 41 21 87 438 63 51
internal_value=0 -0.0105561 0.00195568 0.00275349 -0.00721749 -0.00259709
internal_weight=0 107 617 525 84 92
internal_count=724 107 617 525 84 92
is_linear=0
shrinkage=0.05


Tree=41
num_leaves=7
num_cat=0
split_feature=0 0 0 91 0 2
split_gain=5.15315 1.57241 0.809042 0.108139 0.082184 0.0446426
threshold=0.0050417344278146014 1.0000000180025095e-35 0.050545932994493108 -0.026765146112233698 0.00097871351975265019 0.0048070048664829506
decision_type=2 2 2 2 2 2
left_child=1 -1 5 -4 -3 -2
right_child=2 4 3 -5 -6 -7
leaf_value=-0.021611662209033967 -0.0012388226949530314 -0.0095654637685843886 0.0010381896955611108 0.0029422240248271106 -0.0059536666446734993 -0.0034547802574439522
leaf_weight=23 41 21 90 435 63 51
leaf_count=23 41 21 90 435 63 51
internal_value=0 -0.0100283 0.00185789 0.00261582 -0.00685662 -0.00246723
internal_weight=0 107 617 525 84 92
internal_count=724 107 617 525 84 92
is_linear=0
shrinkage=0.05


Tree=42
num_leaves=7
num_cat=0
split_feature=0 0 0 28 0 105
split_gain=4.65345 1.47655 0.660388 0.0872427 0.0829522 0.0531973
threshold=0.0054187909239771506 1.0000000180025095e-35 0.44653745508232418 4.8562328487956691e-05 0.00097871351975265019 -1.3415319937270694e-07
decision_type=2 2 2 2 2 2
left_child=1 -1 3 -2 -3 -4
right_child=2 4 5 -5 -6 -7
leaf_value=-0.020531079173088076 -0.0020920730077172395 -0.0090871906972357207 0.0025437509895505517 0.0011143468423850007 -0.0054982111937757856 0.0050601752898232506
leaf_weight=23 99 21 463 27 69 22
leaf_count=23 99 21 463 27 69 22
internal_value=0 -0.00922498 0.00182005 -0.00140498 -0.00633564 0.0026579
internal_weight=0 113 611 126 90 485
internal_count=724 113 611 126 90 485
is_linear=0
shrinkage=0.05


Tree=43
num_leaves=7
num_cat=0
split_feature=0 0 0 25 0 35
split_gain=4.20154 1.2796 0.660921 0.0925621 0.0666158 0.0380914
threshold=0.0050417344278146014 1.0000000180025095e-35 0.050545932994493108 0.013707362683651502 0.00097871351975265019 5.3849709906215382e-05
decision_type=2 2 2 2 2 2
left_child=1 -1 5 -4 -3 -2
right_child=2 4 3 -5 -6 -7
leaf_value=-0.019504524767398834 -0.0012991891480050983 -0.0086328311867657163 0.0028080919793503391 0.0013732031946201905 -0.0053810727501672415 -0.0033417156124154906
leaf_weight=23 50 21 362 163 63 42
leaf_count=23 50 21 362 163 63 42
internal_value=0 -0.00905515 0.00167755 0.00236259 -0.00619401 -0.00223165
internal_weight=0 107 617 525 84 92
internal_count=724 107 617 525 84 92
is_linear=0
shrinkage=0.05


Tree=44
num_leaves=7
num_cat=0
split_feature=0 0 0 28 0 0
split_gain=3.79406 1.20167 0.544556 0.0795241 0.0672776 0.04825
threshold=0.0054187909239771506 1.0000000180025095e-35 0.4594315081411906 4.8562328487956691e-05 0.00097871351975265019 0.98502989876695735
decision_type=2 2 2 2 2 2
left_child=1 -1 3 -2 -3 -4
right_child=2 4 5 -5 -6 -7
leaf_value=-0.018529298901557922 -0.0019029415470684383 -0.008201189463337262 0.0023257786989634996 0.00089983358929577456 -0.0049690341360975011 0.0048346881195902823
leaf_weight=23 99 21 458 34 69 20
leaf_count=23 99 21 458 34 69 20
internal_value=0 -0.00832975 0.00164338 -0.00118644 -0.0057232 0.00243075
internal_weight=0 113 611 133 90 478
internal_count=724 113 611 133 90 478
is_linear=0
shrinkage=0.05


Tree=45
num_leaves=7
num_cat=0
split_feature=0 0 0 30 131 0
split_gain=3.30997 1.08863 0.280176 0.065971 0.0494723 0.0325142
threshold=0.0077520544446614001 0.00073784709451965005 0.47986577192047836 5.4370012400869383e-05 -2.8787965161540988e-09 0.0039678603703598011
decision_type=2 2 2 2 2 2
left_child=1 -1 3 -2 -4 -3
right_child=2 5 4 -5 -6 -7
leaf_value=-0.014582090023340603 -0.0011199325116467661 -0.0050873191790147265 0.0022267099199951559 0.0020717287888692227 0.0047644451726228006 -0.0033680650477551605
leaf_weight=33 85 55 483 20 20 55
leaf_count=33 85 55 483 20 20 55
internal_value=0 -0.00661717 0.00183722 -0.000511997 0.00232761 -0.00422769
internal_weight=0 143 608 105 503 110
internal_count=751 143 608 105 503 110
is_linear=0
shrinkage=0.05


Tree=46
num_leaves=7
num_cat=0
split_feature=20 80 83 102 12 12
split_gain=2.6231 0.725852 0.607758 0.164844 0.0689335 0.0344716
threshold=1.0203292928315185e-05 -2.6202974101050824e-08 -4.451171521312556e-08 -9.8852478332922717e-08 -0.70676167581053118 -0.089350809113731833
decision_type=2 2 2 2 2 2
left_child=1 3 -3 -1 -2 -6
right_child=4 2 -4 -5 5 -7
leaf_value=-0.0032174472887817511 0.0013299737539962456 -0.0052855901149383121 -0.015217502869199963 0.0016826985072111713 0.0023610315974506124 0.0045017179660499099
leaf_weight=121 208 43 24 20 315 20
leaf_count=121 208 43 24 20 315 20
internal_value=0 -0.00455845 -0.00884329 -0.00252239 0.00204492 0.00248883
internal_weight=0 208 67 141 543 335
internal_count=751 208 67 141 543 335
is_linear=0
shrinkage=0.05


Tree=47
num_leaves=7
num_cat=0
split_feature=0 0 0 2 131 23
split_gain=2.73075 0.893828 0.223988 0.0548491 0.0446085 0.0373027
threshold=0.0077520544446614001 0.0004921406894725001 0.47986577192047836 0.0049176323782622504 -2.8787965161540988e-09 0.0024215031031999006
decision_type=2 2 2 2 2 2
left_child=1 -1 3 -2 -4 -3
right_child=2 5 4 -5 -6 -7
leaf_value=-0.013683668815841278 0.0015092827379703522 -0.0048914050433917777 0.0020100831680817388 -0.0011054073658530027 0.0044198457710444934 -0.0030744344208454878
leaf_weight=30 27 56 483 78 20 57
leaf_count=30 27 56 483 78 20 57
internal_value=0 -0.00601169 0.00166743 -0.000433058 0.0021059 -0.00397488
internal_weight=0 143 608 105 503 113
internal_count=751 143 608 105 503 113
is_linear=0
shrinkage=0.05


Tree=48
num_leaves=7
num_cat=0
split_feature=0 0 0 13 0 131
split_gain=2.46679 0.758427 0.258944 0.0503362 0.0486978 0.0402592
threshold=0.0068426213804446004 9.9571921047428023e-05 0.47986577192047836 0.0045844375944960507 0.0019757966134777505 -2.8787965161540988e-09
decision_type=2 2 2 2 2 2
left_child=1 -1 3 -2 -3 -4
right_child=2 4 5 -5 -6 -7
leaf_value=-0.014305419938476838 -0.001550498658207289 -0.0058948432744452446 0.001909579055511063 0.00052233494023783817 -0.0035852057494323805 0.0041988534294068814
leaf_weight=23 64 33 483 54 74 20
leaf_count=23 64 33 483 54 74 20
internal_value=0 -0.00606815 0.00150608 -0.000601914 -0.00429752 0.0020006
internal_weight=0 130 621 118 107 503
internal_count=751 130 621 118 107 503
is_linear=0
shrinkage=0.05


Tree=49
num_leaves=7
num_cat=0
split_feature=0 0 0 96 4 0
split_gain=2.22634 0.740091 0.182216 0.0504223 0.0395126 0.0251678
threshold=0.0077520544446614001 0.00073784709451965005 0.49185460429375899 -4.6531519033335001e-05 0.00096126587340745009 0.0048923725900756505
decision_type=2 2 2 2 2 2
left_child=1 -1 3 -2 -4 -3
right_child=2 5 4 -5 -6 -7
leaf_value=-0.0119954884221608 0.0016115497608843725 -0.0040524383048143459 0.0038452196270227432 -0.0009498908524071877 0.0018058024107625609 -0.0024957191827914877
leaf_weight=33 25 68 25 83 475 42
leaf_count=33 25 68 25 83 475 42
internal_value=0 -0.00542823 0.00150548 -0.000356965 0.00190777 -0.00345805
internal_weight=0 143 608 108 500 110
internal_count=751 143 608 108 500 110
is_linear=0
shrinkage=0.05


Tree=50
num_leaves=7
num_cat=0
split_feature=0 0 0 13 23 104
split_gain=2.14168 0.682974 0.282216 0.0568524 0.044114 0.0413184
threshold=0.0054187909239771506 9.9571921047428023e-05 0.4594315081411906 0.0045844375944960507 0.0024215031031999006 -1.2231597230850979e-06
decision_type=2 2 2 2 2 2
left_child=1 -1 3 -2 -3 -4
right_child=2 4 5 -5 -6 -7
leaf_value=-0.013683172380146776 -0.001667108461167376 -0.0050265261262166698 0.0016852519990018155 0.0005823534969622838 -0.0029354205095144209 0.0039520049600728921
leaf_weight=23 81 61 471 43 43 21
leaf_count=23 81 61 471 43 43 21
internal_value=0 -0.00588625 0.00124473 -0.000887053 -0.00416193 0.001782
internal_weight=0 127 616 124 104 492
internal_count=743 127 616 124 104 492
is_linear=0
shrinkage=0.05


Tree=51
num_leaves=7
num_cat=0
split_feature=0 0 0 13 89 104
split_gain=1.93286 0.616384 0.2547 0.0513093 0.0388485 0.0372899
threshold=0.0054187909239771506 9.9571921047428023e-05 0.4594315081411906 0.0045844375944960507 -0.00010075298115723573 -1.2231597230850979e-06
decision_type=2 2 2 2 2 2
left_child=1 -1 3 -2 -3 -4
right_child=2 4 5 -5 -6 -7
leaf_value=-0.012999012580384378 -0.001583753034841114 -0.0029300169677150493 0.0016009893492773778 0.00055323581160167986 -0.0048659688285128642 0.0037544046528637412
leaf_weight=23 81 49 471 43 55 21
leaf_count=23 81 49 471 43 55 21
internal_value=0 -0.00559194 0.00118249 -0.0008427 -0.00395384 0.0016929
internal_weight=0 127 616 124 104 492
internal_count=743 127 616 124 104 492
is_linear=0
shrinkage=0.05


Tree=52
num_leaves=7
num_cat=0
split_feature=0 0 0 96 2 23
split_gain=1.74441 0.556287 0.22988 0.0490423 0.0381808 0.0363915
threshold=0.0054187909239771506 9.9571921047428023e-05 0.47986577192047836 -6.0609187369237986e-05 0.0057024610154460011 0.0024215031031999006
decision_type=2 2 2 2 2 2
left_child=1 -1 3 -2 -4 -3
right_child=2 5 4 -5 -6 -7
leaf_value=-0.012349062623537105 0.0013856810491151093 -0.0045414224389146588 0.0037574381707236172 -0.0012084754377113158 0.0015266188137774538 -0.0026421486508361128
leaf_weight=23 22 61 20 106 468 43
leaf_count=23 22 61 20 106 468 43
internal_value=0 -0.00531234 0.00112337 -0.000762605 0.00161805 -0.00375615
internal_weight=0 127 616 128 488 104
internal_count=743 127 616 128 488 104
is_linear=0
shrinkage=0.05


Tree=53
num_leaves=7
num_cat=0
split_feature=0 0 0 96 39 5
split_gain=1.57433 0.505482 0.207812 0.0456733 0.0358671 0.0201275
threshold=0.0054187909239771506 0.0004921406894725001 0.4594315081411906 -6.0609187369237986e-05 5.9817511800579699e-07 0.0015392513031116503
decision_type=2 2 2 2 2 2
left_child=1 -1 3 -2 -4 -3
right_child=2 5 4 -5 -6 -7
leaf_value=-0.010597783002641893 0.0013630897277921794 -0.0019263941286639732 0.0035500329342626393 -0.0011954011074371876 0.0014380977314060472 -0.0036489496101952488
leaf_weight=31 21 22 21 103 471 74
leaf_count=31 21 22 21 103 471 74
internal_value=0 -0.00504673 0.0010672 -0.000762108 0.00152824 -0.0032542
internal_weight=0 127 616 124 492 96
internal_count=743 127 616 124 492 96
is_linear=0
shrinkage=0.05


Tree=54
num_leaves=7
num_cat=0
split_feature=0 0 0 79 0 2
split_gain=1.42229 0.493862 0.150445 0.0400558 0.0349451 0.0332496
threshold=0.0068426213804446004 9.9571921047428023e-05 0.50644748504009118 -0.0032280420842424992 0.0012623227045992502 0.0057024610154460011
decision_type=2 2 2 2 2 2
left_child=1 -1 3 -2 -3 -4
right_child=2 4 5 -5 -6 -7
leaf_value=-0.011201720150268596 0.0004934645963473131 -0.0046664133481681344 0.0034818218694999815 -0.0012931244045260551 -0.0026903443625831808 0.0013989186259047864
leaf_weight=23 59 30 20 67 88 456
leaf_count=23 59 30 20 67 88 456
internal_value=0 -0.00449917 0.00107976 -0.000456547 -0.00319273 0.00148644
internal_weight=0 141 602 126 118 476
internal_count=743 141 602 126 118 476
is_linear=0
shrinkage=0.05


Tree=55
num_leaves=7
num_cat=0
split_feature=0 0 0 2 90 17
split_gain=1.44927 0.405163 0.201372 0.0566731 0.0504329 0.0148822
threshold=0.0047799443568966506 1.0000000180025095e-35 0.031950930494812353 0.0048070048664829506 -0.00077808256892609995 8.60944330118299e-06
decision_type=2 2 2 2 2 2
left_child=1 -1 3 -2 -4 -3
right_child=2 5 4 -5 -6 -7
leaf_value=-0.011072087287902833 -5.7778226464313077e-05 -0.0028598115297740903 0.00067201390095457706 -0.0025403227895084354 0.0016795532306882945 -0.0042888838797807693
leaf_weight=25 47 29 210 45 304 49
leaf_count=25 47 29 210 45 304 49
internal_value=0 -0.00553293 0.000882305 -0.00127207 0.00126791 -0.00375756
internal_weight=0 103 606 92 514 78
internal_count=709 103 606 92 514 78
is_linear=0
shrinkage=0.05


Tree=56
num_leaves=7
num_cat=0
split_feature=18 17 34 14 14 2
split_gain=1.07257 0.609201 0.077755 0.0594173 0.0349956 0.0342935
threshold=1.7549066872889301e-06 1.0000000180025095e-35 0.0027759142517399006 5.7932577199684675e-05 0.0032539918163578502 0.0048070048664829506
decision_type=2 2 2 2 2 2
left_child=1 -1 5 -3 -4 -2
right_child=2 3 4 -5 -6 -7
leaf_value=-0.010389248453653776 0.0032821055764899309 -0.0027017561526880562 -0.0018870495368584828 -0.00049934049914931739 0.00036502271887793147 0.0012974847272139392
leaf_weight=26 23 121 23 41 69 406
leaf_count=26 23 121 23 41 69 406
internal_value=0 -0.00328461 0.00112102 -0.00214435 -0.000197995 0.00140389
internal_weight=0 188 521 162 92 429
internal_count=709 188 521 162 92 429
is_linear=0
shrinkage=0.05


Tree=57
num_leaves=7
num_cat=0
split_feature=0 0 0 56 103 5
split_gain=1.20634 0.323761 0.162508 0.0395723 0.0320492 0.0244031
threshold=0.0047799443568966506 1.0000000180025095e-35 0.49185460429375899 5.2603699240534234e-06 -1.9223920599938705e-07 0.75377360797978332
decision_type=2 2 2 2 2 2
left_child=1 -1 3 -2 -4 -3
right_child=2 5 4 -5 -6 -7
leaf_value=-0.0099990211427211772 5.9524924365012513e-05 -0.0029061123811905936 0.0011852873791246292 -0.0015896770966074038 0.0032322179549373687 -0.0048714366910809822
leaf_weight=25 88 56 436 62 20 22
leaf_count=25 88 56 436 62 20 22
internal_value=0 -0.00504747 0.000805459 -0.000622145 0.00127507 -0.00346043
internal_weight=0 103 606 150 456 78
internal_count=709 103 606 150 456 78
is_linear=0
shrinkage=0.05


Tree=58
num_leaves=7
num_cat=0
split_feature=0 0 0 56 39 5
split_gain=1.08872 0.292195 0.146773 0.0385865 0.0304211 0.0220238
threshold=0.0047799443568966506 1.0000000180025095e-35 0.50644748504009118 5.2603699240534234e-06 6.2182208359421318e-07 0.75377360797978332
decision_type=2 2 2 2 2 2
left_child=1 -1 3 -2 -4 -3
right_child=2 5 4 -5 -6 -7
leaf_value=-0.009499070048332215 8.3626040317800045e-05 -0.0027608067778471328 0.0031370644026901574 -0.0015101932608822903 0.0011417789198622161 -0.004627864807844162
leaf_weight=25 98 56 20 62 426 22
leaf_count=25 98 56 20 62 426 22
internal_value=0 -0.0047951 0.000765186 -0.000533979 0.00123125 -0.00328741
internal_weight=0 103 606 160 446 78
internal_count=709 103 606 160 446 78
is_linear=0
shrinkage=0.05


Tree=59
num_leaves=7
num_cat=0
split_feature=0 0 0 2 39 17
split_gain=0.982572 0.263706 0.133384 0.0518778 0.0452917 0.0125574
threshold=0.0047799443568966506 1.0000000180025095e-35 0.031950930494812353 0.0048070048664829506 2.8963578835701037e-07 8.60944330118299e-06
decision_type=2 2 2 2 2 2
left_child=1 -1 3 -2 -4 -3
right_child=2 5 4 -5 -6 -7
leaf_value=-0.0090241163969039927 0.00013534057181962628 -0.0022983871689387435 0.0033148690110205541 -0.002239856111765322 0.00094388970420658058 -0.0036111033616625537
leaf_weight=25 47 29 21 45 493 49
leaf_count=25 47 29 21 45 493 49
internal_value=0 -0.00455534 0.000726926 -0.00102644 0.00104076 -0.00312304
internal_weight=0 103 606 92 514 78
internal_count=709 103 606 92 514 78
is_linear=0
shrinkage=0.05


Tree=60
num_leaves=5
num_cat=0
split_feature=0 0 5 113
split_gain=0.777523 0.320022 0.0723664 0.0413606
threshold=0.00073784709451965005 0.014425955732284852 0.00098497960672605024 -1.0882258916596842e-05
decision_type=2 2 2 2
left_child=-1 2 -2 -3
right_child=1 3 -4 -5
leaf_value=-0.0072412308486592449 0.0010016664086530606 0.00024023200001445301 -0.0021583375476659445 0.0011702736580276167
leaf_weight=36 21 178 132 364
leaf_count=36 21 178 132 364
internal_value=0 0.000294785 -0.00172461 0.000864836
internal_weight=0 695 153 542
internal_count=731 695 153 542
is_linear=0
shrinkage=0.05


Tree=61
num_leaves=5
num_cat=0
split_feature=0 14 2 12
split_gain=0.701715 0.290064 0.0394933 0.0229475
threshold=0.00073784709451965005 0.00055821985967510008 0.0048070048664829506 -0.9493895655864627
decision_type=2 2 2 2
left_child=-1 2 -2 -3
right_child=1 3 -4 -5
leaf_value=-0.006879169185089672 -0.00090020166947911298 0.00034574659943902795 -0.0024498011343894177 0.0010891250918829947
leaf_weight=36 115 144 64 372
leaf_count=36 115 144 64 372
internal_value=0 0.000280045 -0.00145425 0.000881671
internal_weight=0 695 179 516
internal_count=731 695 179 516
is_linear=0
shrinkage=0.05


Tree=62
num_leaves=5
num_cat=0
split_feature=0 0 128 100
split_gain=0.633298 0.263957 0.0494855 0.0359013
threshold=0.00073784709451965005 0.014425955732284852 -8.7314669903847075e-08 -0.0028035181137224495
decision_type=2 2 2 2
left_child=-1 2 -2 -3
right_child=1 3 -4 -5
leaf_value=-0.0065352108455651141 -0.0019166518626675532 -7.7057625237626569e-05 0.00075090692378580574 0.00097612924370917324
leaf_weight=36 133 99 20 443
leaf_count=36 133 99 20 443
internal_value=0 0.000266043 -0.00156795 0.000783757
internal_weight=0 695 153 542
internal_count=731 695 153 542
is_linear=0
shrinkage=0.05


Tree=63
num_leaves=5
num_cat=0
split_feature=0 0 5 34
split_gain=0.571551 0.238221 0.0619861 0.0325829
threshold=0.00073784709451965005 0.014425955732284852 0.00098497960672605024 0.0034996771891095007
decision_type=2 2 2 2
left_child=-1 2 -2 -3
right_child=1 3 -4 -5
leaf_value=-0.0062084501143544919 0.0010336297730516111 0.00090470545362122598 -0.0018909693640042945 -0.0001939480504029522
leaf_weight=36 21 463 132 79
leaf_count=36 21 463 132 79
internal_value=0 0.000252741 -0.00148955 0.00074457
internal_weight=0 695 153 542
internal_count=731 695 153 542
is_linear=0
shrinkage=0.05


Tree=64
num_leaves=7
num_cat=0
split_feature=14 5 5 12 100 105
split_gain=0.47535 0.211893 0.0617193 0.0183139 0.00582944 0.00251997
threshold=0.00055821985967510008 0.97874275823604628 0.00076447647642760011 -0.31876048327071704 -0.0060300208316060996 -1.852217491971992e-07
decision_type=2 2 2 2 2 2
left_child=1 2 -1 4 -2 -5
right_child=3 -3 -4 5 -6 -7
leaf_value=0.0011003570775279688 -0.00014234791038743975 -0.0062695164233446121 -0.0017747036097543537 0.0011373333228498418 0.0005662389236965595 0.00064052735065945005
leaf_weight=21 33 26 168 213 241 29
leaf_count=21 33 26 168 213 241 29
internal_value=0 -0.00203744 -0.00145525 0.00076084 0.000480898 0.0010778
internal_weight=0 215 189 516 274 242
internal_count=731 215 189 516 274 242
is_linear=0
shrinkage=0.05


Tree=65
num_leaves=6
num_cat=0
split_feature=0 14 2 9 0
split_gain=0.504569 0.185385 0.0324659 0.0271599 0.017288
threshold=0.00094750908310085012 0.00055821985967510008 0.0048070048664829506 1.0000000180025095e-35 0.93547675167951139
decision_type=2 2 2 2 2
left_child=3 2 -2 -1 -3
right_child=1 4 -4 -5 -6
leaf_value=-0.006836978420615196 -0.00071274850325041706 0.00044733543417932188 -0.0022010604892524761 -0.0042312216269783679 0.0010317346662214993
leaf_weight=20 106 277 56 20 233
leaf_count=20 106 277 56 20 233
internal_value=0 0.000246273 -0.00122723 -0.0055341 0.000714326
internal_weight=0 672 162 40 510
internal_count=712 672 162 40 510
is_linear=0
shrinkage=0.05


Tree=66
num_leaves=5
num_cat=0
split_feature=0 14 5 0
split_gain=0.455802 0.174268 0.0287757 0.0156024
threshold=0.00073784709451965005 0.00055821985967510008 0.00098497960672605024 0.93547675167951139
decision_type=2 2 2 2
left_child=-1 2 -2 -3
right_child=1 3 -4 -5
leaf_value=-0.0054779669521628207 0.00037175803072750569 0.00042496866227348466 -0.0014698225941570595 0.00098014788749533352
leaf_weight=37 25 277 140 233
leaf_count=37 25 277 140 233
internal_value=0 0.000221644 -0.0011908 0.000678609
internal_weight=0 675 165 510
internal_count=712 675 165 510
is_linear=0
shrinkage=0.05


Tree=67
num_leaves=6
num_cat=0
split_feature=0 80 5 5 12
split_gain=0.411643 0.150925 0.0438911 0.0263406 0.0150817
threshold=0.00094750908310085012 -0.00043770539499904995 0.00049659836164210006 0.88968437426273694 -0.9725457986114141
decision_type=2 2 2 2 2
left_child=3 4 -3 -1 -2
right_child=1 2 -4 -5 -6
leaf_value=-0.0037154509499669076 0.00016950265316991136 0.0010922712032333949 -0.0014084703922998308 -0.0062816033884882929 0.00080181677768393917
leaf_weight=20 125 20 143 20 384
leaf_count=20 125 20 143 20 384
internal_value=0 0.000222499 -0.00110163 -0.00499853 0.000646533
internal_weight=0 672 163 40 509
internal_count=712 672 163 40 509
is_linear=0
shrinkage=0.05


Tree=68
num_leaves=5
num_cat=0
split_feature=0 80 5 0
split_gain=0.372026 0.141825 0.0403599 0.0141647
threshold=0.00073784709451965005 -0.00043770539499904995 0.00049659836164210006 0.93547675167951139
decision_type=2 2 2 2
left_child=-1 3 -3 -2
right_child=1 2 -4 -5
leaf_value=-0.0049489405182366435 0.00037661609998802673 0.0010376575827831403 -0.0013573556916775464 0.00090702666364673524
leaf_weight=37 281 20 146 228
leaf_count=37 281 20 146 228
internal_value=0 0.000200312 -0.0010688 0.000614207
internal_weight=0 675 166 509
internal_count=712 675 166 509
is_linear=0
shrinkage=0.05


Tree=69
num_leaves=7
num_cat=0
split_feature=80 5 5 101 18 12
split_gain=0.299308 0.105133 0.0694383 0.0130586 0.00684231 0.00293623
threshold=-0.00043770539499904995 0.98540755143164449 0.00049659836164210006 -6.1237388889549656e-05 0.00013839931718300004 -0.23203673306064027
decision_type=2 2 2 2 2 2
left_child=3 2 -2 4 -1 -5
right_child=1 -3 -4 5 -6 -7
leaf_value=-0.00048724273780222853 0.0013237382814457472 -0.0051291480474174025 -0.0016710825097784748 0.00060658008206802253 0.00037404228279700868 0.00090949437346555184
leaf_weight=27 22 20 161 144 158 180
leaf_count=27 22 20 161 144 158 180
internal_value=0 -0.00168722 -0.00131105 0.000583496 0.000248341 0.000774866
internal_weight=0 203 183 509 185 324
internal_count=712 203 183 509 185 324
is_linear=0
shrinkage=0.05


Tree=70
num_leaves=5
num_cat=0
split_feature=0 0 5 3
split_gain=0.289376 0.123133 0.0264319 0.0217763
threshold=0.0004921406894725001 0.014425955732284852 0.00098961128499625039 0.44165071500803083
decision_type=2 2 2 2
left_child=-1 2 -2 -3
right_child=1 3 -4 -5
leaf_value=-0.0047486842159302003 0.00057661521132104101 0.00060101286280632514 -0.0013331662836153005 -0.00082959855353692546
leaf_weight=31 21 532 132 28
leaf_count=31 21 532 132 28
internal_value=0 0.000186032 -0.00107104 0.000529482
internal_weight=0 713 153 560
internal_count=744 713 153 560
is_linear=0
shrinkage=0.05


Tree=71
num_leaves=5
num_cat=0
split_feature=0 0 5 100
split_gain=0.261162 0.111127 0.0238548 0.0207947
threshold=0.0004921406894725001 0.014425955732284852 0.00098961128499625039 -0.00059251984317414987
decision_type=2 2 2 2
left_child=-1 2 -2 -3
right_child=1 3 -4 -5
leaf_value=-0.0045112499606705476 0.00054778444602908124 9.2634994145564679e-05 -0.0012665079547194624 0.00072922498422127913
leaf_weight=31 21 199 132 361
leaf_count=31 21 199 132 361
internal_value=0 0.000176731 -0.00101749 0.000503008
internal_weight=0 713 153 560
internal_count=744 713 153 560
is_linear=0
shrinkage=0.05


Tree=72
num_leaves=7
num_cat=0
split_feature=85 17 22 12 100 2
split_gain=0.201713 0.0768869 0.0252037 0.0105548 0.00524752 0.00139583
threshold=-4.4176378729316902e-05 1.0000000180025095e-35 3.8222026013588196e-05 -0.28628355922711712 -0.0060300208316060996 0.0060522165523656515
decision_type=2 2 2 2 2 2
left_child=3 -2 -3 4 -1 -5
right_child=1 2 -4 5 -6 -7
leaf_value=-0.00028088243923389891 -0.0037526019391537248 -0.0012118953209470161 0.00031077425016767601 0.0004052911967543575 0.00038704524608167254 0.00080862047420445806
leaf_weight=33 28 154 33 24 270 202
leaf_count=33 28 154 33 24 270 202
internal_value=0 -0.00130907 -0.000943189 0.000507186 0.000314301 0.000765789
internal_weight=0 215 187 529 303 226
internal_count=744 215 187 529 303 226
is_linear=0
shrinkage=0.05


Tree=73
num_leaves=5
num_cat=0
split_feature=0 0 5 100
split_gain=0.219874 0.0898402 0.0220359 0.0181476
threshold=0.0004921406894725001 0.014425955732284852 0.00098961128499625039 -0.0028035181137224495
decision_type=2 2 2 2
left_child=-1 2 -2 -3
right_child=1 3 -4 -5
leaf_value=-0.0041390365049723656 0.00059308861520895298 -0.00015097236306012361 -0.0011506625654047558 0.0005893258455834929
leaf_weight=31 21 101 132 459
leaf_count=31 21 101 132 459
internal_value=0 0.00016244 -0.000911324 0.000455808
internal_weight=0 713 153 560
internal_count=744 713 153 560
is_linear=0
shrinkage=0.05


Tree=74
num_leaves=6
num_cat=0
split_feature=0 0 3 41 5
split_gain=0.20094 0.0794959 0.0302886 0.0294501 0.0203695
threshold=0.0047799443568966506 1.0000000180025095e-35 0.54342073037849403 4.3444434024305485e-06 0.0019610284637933003
decision_type=2 2 2 2 2
left_child=1 -1 3 -2 -3
right_child=2 4 -4 -5 -6
leaf_value=-0.0048355063512211761 0.00050744721807575598 4.6130595728755003e-06 -0.0015598260852996084 -0.0004940660704382668 -0.0018418156674207715
leaf_weight=21 538 20 21 85 59
leaf_count=21 538 20 21 85 59
internal_value=0 -0.0021012 0.000307849 0.000370804 -0.00137437
internal_weight=0 100 644 623 79
internal_count=744 100 644 623 79
is_linear=0
shrinkage=0.05


Tree=75
num_leaves=6
num_cat=0
split_feature=0 0 2 0 17
split_gain=0.216297 0.075979 0.0722845 0.028611 0.0146585
threshold=0.0048923725900756505 1.0000000180025095e-35 0.0028862945430819507 0.031950930494812353 4.3247316350552206e-06
decision_type=2 2 2 2 2
left_child=1 -1 -2 -4 -3
right_child=2 4 3 -5 -6
leaf_value=-0.0045959132638844578 0.0030114978919020641 -0.00022742172865116079 -0.00064711004935602166 0.0004423074448383869 -0.0016932176535853862
leaf_weight=22 26 23 68 530 66
leaf_count=22 26 23 68 530 66
internal_value=0 -0.0019648 0.000430638 0.000318427 -0.00131442
internal_weight=0 111 624 598 89
internal_count=735 111 624 598 89
is_linear=0
shrinkage=0.05


Tree=76
num_leaves=6
num_cat=0
split_feature=0 0 2 14 5
split_gain=0.195208 0.0685711 0.0652368 0.0280921 0.0155189
threshold=0.0048923725900756505 1.0000000180025095e-35 0.0028862945430819507 0.00047071977227270003 0.0019460078673438502
decision_type=2 2 2 2 2
left_child=1 -1 -2 -4 -3
right_child=2 4 3 -5 -6
leaf_value=-0.0043661176142367449 0.0028609229623375891 -2.234384184703231e-05 -0.00063115176743221916 0.0004282927213932973 -0.0016041599241928624
leaf_weight=22 26 20 71 527 69
leaf_count=22 26 20 71 527 69
internal_value=0 -0.00186656 0.000409107 0.000302506 -0.0012487
internal_weight=0 111 624 598 89
internal_count=735 111 624 598 89
is_linear=0
shrinkage=0.05


Tree=77
num_leaves=6
num_cat=0
split_feature=0 0 2 14 5
split_gain=0.176176 0.0618854 0.0588762 0.0253531 0.0140058
threshold=0.0048923725900756505 1.0000000180025095e-35 0.0028862945430819507 0.00047071977227270003 0.0019460078673438502
decision_type=2 2 2 2 2
left_child=1 -1 -2 -4 -3
right_child=2 4 3 -5 -6
leaf_value=-0.0041478118097240278 0.0027178768648774658 -2.1226638928055764e-05 -0.00059959417720190848 0.00040687808325854443 -0.0015239519133752185
leaf_weight=22 26 20 71 527 69
leaf_count=22 26 20 71 527 69
internal_value=0 -0.00177323 0.000388651 0.000287381 -0.00118626
internal_weight=0 111 624 598 89
internal_count=735 111 624 598 89
is_linear=0
shrinkage=0.05


Tree=78
num_leaves=6
num_cat=0
split_feature=0 2 0 0 62
split_gain=0.160081 0.0721964 0.0625163 0.0185217 0.0128034
threshold=0.0064615685589852504 0.0028862945430819507 1.0000000180025095e-35 0.65628343872560613 5.926514443842764e-07
decision_type=2 2 2 2 2
left_child=2 -2 -1 -3 -4
right_child=1 3 4 -5 -6
leaf_value=-0.0039404211735183546 0.0032874977642980718 -0.00012663385611293572 0.00012155770440585912 0.00048893732973805592 -0.0012742740395681367
leaf_weight=22 21 175 20 405 92
leaf_count=22 21 175 20 405 92
internal_value=0 0.000407481 -0.00150367 0.000303205 -0.00102502
internal_weight=0 601 134 580 112
internal_count=735 601 134 580 112
is_linear=0
shrinkage=0.05


Tree=79
num_leaves=6
num_cat=0
split_feature=0 0 12 3 5
split_gain=0.144513 0.0492113 0.0308224 0.0179285 0.012901
threshold=0.0047799443568966506 1.0000000180025095e-35 -0.089350809113731833 0.54342073037849403 0.0019460078673438502
decision_type=2 2 2 2 2
left_child=1 -1 3 -2 -3
right_child=2 4 -4 -5 -6
leaf_value=-0.0037434002215212046 0.00033360176737797274 1.9121295772492888e-05 0.0022783727086812182 -0.0011887037043925375 -0.0014304645318285718
leaf_weight=22 587 20 20 20 66
leaf_count=22 587 20 20 20 66
internal_value=0 -0.00163318 0.000347078 0.000283443 -0.00109335
internal_weight=0 108 627 607 86
internal_count=735 108 627 607 86
is_linear=0
shrinkage=0.05


Tree=80
num_leaves=6
num_cat=0
split_feature=0 14 21 3 127
split_gain=0.124976 0.0544395 0.0522996 0.0274435 0.0170733
threshold=0.0064615685589852504 2.8204577727381722e-05 1.684608038207935e-06 0.57961910708075648 -4.6888420838040601e-07
decision_type=2 2 2 2 2
left_child=2 -2 -1 -3 -4
right_child=1 3 4 -5 -6
leaf_value=-0.0031212028712616306 0.0027242172978355446 0.00031092095742895817 -0.0011356762957964034 -0.0015308323593455414 0.00046832904585504109
leaf_weight=32 23 549 79 21 21
leaf_count=32 23 549 79 21 21
internal_value=0 0.0003393 -0.00136183 0.000243067 -0.000798835
internal_weight=0 593 132 570 100
internal_count=725 593 132 570 100
is_linear=0
shrinkage=0.05


Tree=81
num_leaves=6
num_cat=0
split_feature=0 14 21 80 10
split_gain=0.112791 0.0495057 0.0472003 0.0309161 0.0164769
threshold=0.0064615685589852504 5.027564726121693e-05 1.684608038207935e-06 -0.00043770539499904995 0.0014723927267051003
decision_type=2 2 2 2 2
left_child=2 -2 -1 -3 -4
right_child=1 3 4 -5 -6
leaf_value=-0.0029651426666532643 0.0023014179914025591 0.00032739817964429728 0.00048594021618122329 -0.0010252724113461622 -0.0010897985725115418
leaf_weight=32 30 517 21 46 79
leaf_count=32 30 517 21 46 79
internal_value=0 0.000322335 -0.00129374 0.000216878 -0.000758893
internal_weight=0 593 132 563 100
internal_count=725 593 132 563 100
is_linear=0
shrinkage=0.05


Tree=82
num_leaves=7
num_cat=0
split_feature=5 12 17 11 17 17
split_gain=0.0999868 0.0727825 0.0503635 0.0368128 0.0137307 0.00799021
threshold=0.040505650738598305 -0.084427114050911883 0.00050471647966445008 0.0037042176036680002 0.0092025680745313528 4.3065783953628849e-05
decision_type=2 2 2 2 2 2
left_child=1 3 5 -1 -4 -2
right_child=2 -3 4 -5 -6 -7
leaf_value=0.00036617554892771789 -0.0033315484750677245 0.0032590535092458595 -0.00092446828851682438 -0.0007145844765894234 0.00055787301195474965 -0.0019506956648547202
leaf_weight=487 22 20 61 94 21 20
leaf_count=487 22 20 61 94 21 20
internal_value=0 0.000293407 -0.00126601 0.000191319 -0.000544844 -0.002674
internal_weight=0 601 124 581 82 42
internal_count=725 601 124 581 82 42
is_linear=0
shrinkage=0.05


Tree=83
num_leaves=6
num_cat=0
split_feature=0 14 0 91 5
split_gain=0.0922552 0.046192 0.035607 0.0244262 0.00967805
threshold=0.0064615685589852504 5.027564726121693e-05 1.0000000180025095e-35 -0.10109839528457754 0.0015186163586087002
decision_type=2 2 2 2 2
left_child=2 -2 -1 -3 -4
right_child=1 3 4 -5 -6
leaf_value=-0.0030581078359058927 0.0022031643240916312 -0.0013381972431670875 0.00012612735947848045 0.00026059265122203081 -0.0010450403469619916
leaf_weight=21 30 25 22 538 89
leaf_count=21 30 25 22 538 89
internal_value=0 0.000291465 -0.00117011 0.000189598 -0.000812917
internal_weight=0 593 132 563 111
internal_count=725 593 132 563 111
is_linear=0
shrinkage=0.05


Tree=84
num_leaves=6
num_cat=0
split_feature=5 12 0 129 83
split_gain=0.0846282 0.0656516 0.046644 0.028269 0.00990503
threshold=0.040505650738598305 -0.084427114050911883 0.00073784709451965005 -1.1716130312587624e-05 -0.005949234101130749
decision_type=2 2 2 2 2
left_child=1 3 -2 -1 -4
right_child=2 -3 4 -5 -6
leaf_value=-0.00069401352996880446 -0.0028817567400013407 0.0030860875709186075 0.00033959059524238996 0.00031288537007876586 -0.00089263680374268963
leaf_weight=81 30 20 21 500 73
leaf_count=81 30 20 21 500 73
internal_value=0 0.000269466 -0.00116519 0.000172509 -0.000617352
internal_weight=0 601 124 581 94
internal_count=725 601 124 581 94
is_linear=0
shrinkage=0.05


Tree=85
num_leaves=6
num_cat=0
split_feature=0 14 0 80 129
split_gain=0.0863835 0.0493787 0.0314762 0.018413 0.0101764
threshold=0.0064615685589852504 3.3306180116860611e-05 1.0000000180025095e-35 -0.00043770539499904995 -1.8011065474778564e-05
decision_type=2 2 2 2 2
left_child=2 -2 -1 -3 -4
right_child=1 3 4 -5 -6
leaf_value=-0.002806825336554776 0.0025501186713011957 0.0002786024950671196 -0.0010994104055642214 -0.00067389596099798972 -6.9051336613483737e-05
leaf_weight=23 23 540 76 56 35
leaf_count=23 23 540 76 56 35
internal_value=0 0.000276833 -0.00112335 0.000189106 -0.000774522
internal_weight=0 619 134 596 111
internal_count=753 619 134 596 111
is_linear=0
shrinkage=0.05


Tree=86
num_leaves=6
num_cat=0
split_feature=0 2 0 14 129
split_gain=0.0790761 0.0665614 0.0308352 0.0220919 0.00682702
threshold=0.0077520544446614001 0.0033768123226771505 1.0000000180025095e-35 0.00047071977227270003 -1.8011065474778564e-05
decision_type=2 2 2 2 2
left_child=2 -2 -1 -3 -4
right_child=1 3 4 -5 -6
leaf_value=-0.0026664839976507683 0.0029872872977152426 -0.00113602805766277 -0.00090613900531479887 0.00025764584493693317 -0.00010671893235396696
leaf_weight=23 22 30 96 545 37
leaf_count=23 22 30 96 545 37
internal_value=0 0.000288202 -0.000976071 0.000184932 -0.000683744
internal_weight=0 597 156 575 133
internal_count=753 597 156 575 133
is_linear=0
shrinkage=0.05


Tree=87
num_leaves=6
num_cat=0
split_feature=0 2 21 80 129
split_gain=0.0713844 0.0300706 0.0264249 0.0213285 0.0167288
threshold=0.0047799443568966506 0.0028862945430819507 1.684608038207935e-06 -0.00043770539499904995 -1.8011065474778564e-05
decision_type=2 2 2 2 2
left_child=2 -2 -1 -3 -4
right_child=1 3 4 -5 -6
leaf_value=-0.0023061774079022666 0.0016683648537282889 0.0002507084366782478 -0.0012736205014445617 -0.0006492223262709255 0.00029551690667145082
leaf_weight=35 34 539 41 75 29
leaf_count=35 34 539 41 75 29
internal_value=0 0.000220933 -0.00118443 0.000140782 -0.000623549
internal_weight=0 648 105 614 70
internal_count=753 648 105 614 70
is_linear=0
shrinkage=0.05


Tree=88
num_leaves=6
num_cat=0
split_feature=0 2 0 14 5
split_gain=0.06552 0.05772 0.0252332 0.0186201 0.0063945
threshold=0.0077520544446614001 0.0033768123226771505 1.0000000180025095e-35 0.00047071977227270003 0.0012599048316626002
decision_type=2 2 2 2 2
left_child=2 -2 -1 -3 -4
right_child=1 3 4 -5 -6
leaf_value=-0.0024178509721937387 0.0027755736230491578 -0.001046765541638403 0.00013395659676145602 0.00023272350831162722 -0.00078276793269403493
leaf_weight=23 22 30 23 545 110
leaf_count=23 22 30 23 545 110
internal_value=0 0.000262134 -0.00088868 0.000165968 -0.000624237
internal_weight=0 597 156 575 133
internal_count=753 597 156 575 133
is_linear=0
shrinkage=0.05


Tree=89
num_leaves=6
num_cat=0
split_feature=0 38 5 0 109
split_gain=0.0597284 0.0555782 0.0289566 0.0279189 0.0111783
threshold=0.018306732017929702 5.487167867186246e-07 0.00098497960672605024 0.00073784709451965005 -0.0029376831106913497
decision_type=2 2 2 2 2
left_child=2 -2 -1 -4 -3
right_child=1 4 3 -5 -6
leaf_value=0.0010199271713472195 0.0028730550312320701 -0.00052325364742137031 -0.0022304952144622803 -0.00063205913296076157 0.0002616423220657929
leaf_weight=21 20 50 34 139 489
leaf_count=21 20 50 34 139 489
internal_value=0 0.000284869 -0.000733374 -0.000946203 0.000188832
internal_weight=0 559 194 173 539
internal_count=753 559 194 173 539
is_linear=0
shrinkage=0.05


Tree=90
num_leaves=6
num_cat=0
split_feature=18 131 5 16 12
split_gain=0.0504646 0.0358164 0.0172497 0.00854405 0.00392134
threshold=0.00018851247830945002 -4.3483421275240339e-09 0.97874275823604628 0.00028476391697960011 -0.28628355922711712
decision_type=2 2 2 2 2
left_child=2 4 3 -1 -2
right_child=1 -3 -4 -5 -6
leaf_value=-0.00059652680991263869 0.00010432979759359106 0.0023284916599302301 -0.0018232001804624979 -4.5451717131668795e-05 0.00041715972261954456
leaf_weight=172 206 22 22 119 195
leaf_count=172 206 22 22 119 195
internal_value=0 0.00036422 -0.000473232 -0.000371173 0.000256454
internal_weight=0 423 313 291 401
internal_count=736 423 313 291 401
is_linear=0
shrinkage=0.05


Tree=91
num_leaves=7
num_cat=0
split_feature=0 19 21 109 0 9
split_gain=0.0612338 0.075592 0.0176298 0.00876255 0.00548889 0.00446401
threshold=0.017101378183747105 2.2780285164013122e-05 1.684608038207935e-06 -0.0029945288808383495 0.00097871351975265019 0.36205725115771786
decision_type=2 2 2 2 2 2
left_child=2 -2 4 -3 -1 -4
right_child=1 3 5 -5 -6 -7
leaf_value=-0.0021931735231824545 0.0032895539881428702 -0.00044539456306396188 -0.00063084490150383012 0.00022661650994410573 -0.0010605969183961862 0.00014392909149385313
leaf_weight=23 20 54 120 477 20 22
leaf_count=23 20 54 120 477 20 22
internal_value=0 0.000271934 -0.000779405 0.000158276 -0.00166639 -0.000510809
internal_weight=0 551 185 531 43 142
internal_count=736 551 185 531 43 142
is_linear=0
shrinkage=0.05


Tree=92
num_leaves=7
num_cat=0
split_feature=20 19 21 50 5 92
split_gain=0.0417538 0.0338655 0.0212682 0.011193 0.00698431 0.00621312
threshold=8.2188278314611551e-06 9.3541716939064191e-05 1.684608038207935e-06 0.0013347898352320002 0.070062049723066663 -0.00094387405341064985
decision_type=2 2 2 2 2 2
left_child=2 -2 4 -4 -1 -3
right_child=1 5 3 -5 -6 -7
leaf_value=-0.00073707559257110754 0.0022668071029693241 -5.7562055102578827e-05 -0.00044545475774741914 0.00081905973682296464 -0.0018871996043757959 0.00030571308211386708
leaf_weight=22 20 189 140 20 33 312
leaf_count=22 20 189 140 20 33 312
internal_value=0 0.000249212 -0.000578957 -0.00028739 -0.00142715 0.000168669
internal_weight=0 521 215 160 55 501
internal_count=736 521 215 160 55 501
is_linear=0
shrinkage=0.05


Tree=93
num_leaves=7
num_cat=0
split_feature=0 19 21 0 0 0
split_gain=0.0506922 0.0682988 0.0142302 0.00816043 0.00466342 0.00413243
threshold=0.017101378183747105 2.2780285164013122e-05 1.684608038207935e-06 0.66429448272019564 0.00097871351975265019 0.00098376806881435015
decision_type=2 2 2 2 2 2
left_child=2 -2 4 -3 -1 -4
right_child=1 3 5 -5 -6 -7
leaf_value=-0.0019916552321418471 0.003115721218418912 -0.00018665820071802944 0.00017956421887945561 0.00025718746105792727 -0.00094771079235215442 -0.00058026283408373492
leaf_weight=23 20 141 21 390 20 121
leaf_count=23 20 141 21 390 20 121
internal_value=0 0.000247366 -0.000709207 0.00013933 -0.0015061 -0.000467894
internal_weight=0 551 185 531 43 142
internal_count=736 551 185 531 43 142
is_linear=0
shrinkage=0.05


Tree=94
num_leaves=7
num_cat=0
split_feature=0 85 21 34 0 0
split_gain=0.0457498 0.0616396 0.0128428 0.00738979 0.00420873 0.00372952
threshold=0.017101378183747105 -5.8056230414878393e-06 1.684608038207935e-06 0.0067716871413466507 0.00097871351975265019 0.00098376806881435015
decision_type=2 2 2 2 2 2
left_child=2 3 4 -2 -1 -4
right_child=1 -3 5 -5 -6 -7
leaf_value=-0.0018920724037224832 0.00017114216220163005 0.0029599351785418553 0.0001705860220161932 -0.00076483057260206405 -0.00090032522630281166 -0.00055124969827780924
leaf_weight=23 509 20 21 22 20 121
leaf_count=23 509 20 21 22 20 121
internal_value=0 0.000234998 -0.000673746 0.000132364 -0.00143079 -0.000444499
internal_weight=0 551 185 531 43 142
internal_count=736 551 185 531 43 142
is_linear=0
shrinkage=0.05


Tree=95
num_leaves=6
num_cat=0
split_feature=5 80 0 43 87
split_gain=0.0380192 0.0459651 0.0188635 0.0157455 0.0053521
threshold=0.040505650738598305 -6.3956555088259261e-07 0.00073784709451965005 0.0055807175435124015 -5.9969159289286318e-05
decision_type=2 2 2 2 2
left_child=1 3 -2 -1 -4
right_child=2 -3 4 -5 -6
leaf_value=0.00015376234043791516 -0.0018353606378960032 0.0024856805896325525 -1.0901644683062015e-05 -0.0012741681279294426 -0.00075692693996111393
leaf_weight=556 31 21 44 20 53
leaf_count=556 31 21 44 20 53
internal_value=0 0.000187953 -0.000761664 0.000104181 -0.000418524
internal_weight=0 597 128 576 97
internal_count=725 597 128 576 97
is_linear=0
shrinkage=0.05


Tree=96
num_leaves=6
num_cat=0
split_feature=5 12 0 43 87
split_gain=0.0343123 0.0547381 0.0170243 0.0140028 0.00483027
threshold=0.040505650738598305 -0.081659468200054486 0.00073784709451965005 0.0055807175435124015 -5.9969159289286318e-05
decision_type=2 2 2 2 2
left_child=1 3 -2 -1 -4
right_child=2 -3 4 -5 -6
leaf_value=0.0001360930684055246 -0.0017435925945098842 0.0027501379640307282 -1.0356554279992866e-05 -0.0012104597127472517 -0.00071908058977536514
leaf_weight=557 31 20 44 20 53
leaf_count=557 31 20 44 20 53
internal_value=0 0.000178555 -0.000723581 8.94188e-05 -0.000397598
internal_weight=0 597 128 577 97
internal_count=725 597 128 577 97
is_linear=0
shrinkage=0.05


Tree=97
num_leaves=6
num_cat=0
split_feature=5 12 0 109 87
split_gain=0.0309669 0.0494011 0.0153645 0.0127118 0.00435932
threshold=0.040505650738598305 -0.081659468200054486 0.00073784709451965005 -0.0054407431200312996 -5.9969159289286318e-05
decision_type=2 2 2 2 2
left_child=1 3 -2 -1 -4
right_child=2 -3 4 -5 -6
leaf_value=-0.0010415812756643086 -0.0016564129660236499 0.0026126310299150646 -9.8387291390364151e-06 0.0001338388109539997 -0.00068312656822974607
leaf_weight=24 31 20 44 553 53
leaf_count=24 31 20 44 553 53
internal_value=0 0.000169627 -0.000687402 8.49479e-05 -0.000377718
internal_weight=0 597 128 577 97
internal_count=725 597 128 577 97
is_linear=0
shrinkage=0.05


Tree=98
num_leaves=6
num_cat=0
split_feature=5 12 0 109 87
split_gain=0.0279476 0.0445845 0.0138664 0.0114724 0.00393428
threshold=0.040505650738598305 -0.081659468200054486 0.00073784709451965005 -0.0054407431200312996 -5.9969159289286318e-05
decision_type=2 2 2 2 2
left_child=1 3 -2 -1 -4
right_child=2 -3 4 -5 -6
leaf_value=-0.00098950221872655679 -0.0015735923151125111 0.0024819994461722675 -9.3467884157276301e-06 0.00012714687358106734 -0.00064897022917339555
leaf_weight=24 31 20 44 553 53
leaf_count=24 31 20 44 553 53
internal_value=0 0.000161146 -0.000653032 8.07005e-05 -0.000358832
internal_weight=0 597 128 577 97
internal_count=725 597 128 577 97
is_linear=0
shrinkage=0.05


Tree=99
num_leaves=6
num_cat=0
split_feature=0 19 0 43 0
split_gain=0.0254964 0.024341 0.0109053 0.00722617 0.00490537
threshold=0.66429448272019564 0.00019182318241035002 0.00094750908310085012 0.0061368337912264511 0.98502989876695735
decision_type=2 2 2 2 2
left_child=2 -2 -1 -4 -3
right_child=1 4 3 -5 -6
leaf_value=-0.0010842311039316254 0.0019948793433286482 0.00024754368260050734 -0.00012932248134294688 -0.0010907383946081003 -0.00055801512949983591
leaf_weight=39 20 343 282 21 20
leaf_count=39 20 343 282 21 20
internal_value=0 0.000296723 -0.00029725 -0.000195955 0.00020316
internal_weight=0 383 342 303 363
internal_count=725 383 342 303 363
is_linear=0
shrinkage=0.05


end of trees

feature_importances:
element_1=260
element_6=31
mixing_entropy=25
element_1_element_3=20
element_3=19
element_1_element_6=18
phs_element_1_element_3=13
element_1_element_8=12
phs_element_1_element_6=11
element_1_element_2=8
element_4=7
element_1_element_10=7
phs_element_3_element_4=6
element_1_element_11=5
phs_element_4_element_5=5
element_1_element_7=4
phs_element_1_element_2=4
phs_element_1_element_8=4
phs_element_1_element_10=4
phs_element_2_element_4=4
phs_element_3_element_5=4
phs_element_6_element_12=4
phs_element_7_element_9=4
element_1_element_9=3
element_1_element_12=3
element_3_element_4=3
element_3_element_9=3
element_4_element_5=3
phs_element_2_element_9=3
phs_element_3_element_9=3
element_10=2
element_1_element_5=2
element_2_element_3=2
element_2_element_7=2
element_5_element_11=2
phs_element_1_element_9=2
phs_element_2_element_5=2
phs_element_2_element_7=2
phs_element_3_element_7=2
phs_element_3_element_8=2
element_5=1
element_11=1
element_12=1
element_2_element_4=1
element_2_element_9=1
element_3_element_5=1
element_3_element_8=1
element_3_element_11=1
element_4_element_6=1
element_4_element_7=1
element_4_element_9=1
element_4_element_12=1
element_5_element_6=1
element_6_element_11=1
phs_element_1_element_12=1
phs_element_2_element_3=1
phs_element_3_element_6=1
phs_element_4_element_9=1
phs_element_6_element_10=1
phs_element_6_element_11=1

parameters:
[boosting: gbdt]
[objective: regression]
[metric: l1,l2]
[tree_learner: serial]
[device_type: cpu]
[data: ]
[valid: ]
[num_iterations: 100]
[learning_rate: 0.05]
[num_leaves: 7]
[num_threads: 0]
[deterministic: 0]
[force_col_wise: 0]
[force_row_wise: 0]
[histogram_pool_size: -1]
[max_depth: 3]
[min_data_in_leaf: 20]
[min_sum_hessian_in_leaf: 0.001]
[bagging_fraction: 0.8]
[pos_bagging_fraction: 1]
[neg_bagging_fraction: 1]
[bagging_freq: 5]
[bagging_seed: 3]
[feature_fraction: 0.8]
[feature_fraction_bynode: 1]
[feature_fraction_seed: 2]
[extra_trees: 0]
[extra_seed: 6]
[early_stopping_round: 20]
[first_metric_only: 0]
[max_delta_step: 0]
[lambda_l1: 0]
[lambda_l2: 0]
[linear_lambda: 0]
[min_gain_to_split: 0]
[drop_rate: 0.1]
[max_drop: 50]
[skip_drop: 0.5]
[xgboost_dart_mode: 0]
[uniform_drop: 0]
[drop_seed: 4]
[top_rate: 0.2]
[other_rate: 0.1]
[min_data_per_group: 100]
[max_cat_threshold: 32]
[cat_l2: 10]
[cat_smooth: 10]
[max_cat_to_onehot: 4]
[top_k: 20]
[monotone_constraints: ]
[monotone_constraints_method: basic]
[monotone_penalty: 0]
[feature_contri: ]
[forcedsplits_filename: ]
[refit_decay_rate: 0.9]
[cegb_tradeoff: 1]
[cegb_penalty_split: 0]
[cegb_penalty_feature_lazy: ]
[cegb_penalty_feature_coupled: ]
[path_smooth: 0]
[interaction_constraints: ]
[verbosity: -1]
[saved_feature_importance_type: 0]
[linear_tree: 0]
[max_bin: 255]
[max_bin_by_feature: ]
[min_data_in_bin: 3]
[bin_construct_sample_cnt: 200000]
[data_random_seed: 1]
[is_enable_sparse: 1]
[enable_bundle: 1]
[use_missing: 1]
[zero_as_missing: 0]
[feature_pre_filter: 1]
[pre_partition: 0]
[two_round: 0]
[header: 0]
[label_column: ]
[weight_column: ]
[group_column: ]
[ignore_column: ]
[categorical_feature: ]
[forcedbins_filename: ]
[precise_float_parser: 0]
[objective_seed: 5]
[num_class: 1]
[is_unbalance: 0]
[scale_pos_weight: 1]
[sigmoid: 1]
[boost_from_average: 1]
[reg_sqrt: 0]
[alpha: 0.9]
[fair_c: 1]
[poisson_max_delta_step: 0.7]
[tweedie_variance_power: 1.5]
[lambdarank_truncation_level: 30]
[lambdarank_norm: 1]
[label_gain: ]
[eval_at: ]
[multi_error_top_k: 1]
[auc_mu_weights: ]
[num_machines: 1]
[local_listen_port: 12400]
[time_out: 120]
[machine_list_filename: ]
[machines: ]
[gpu_platform_id: -1]
[gpu_device_id: -1]
[gpu_use_dp: 0]
[num_gpu: 1]

end of parameters

pandas_categorical:[]
