tree
version=v3
num_class=1
num_tree_per_iteration=1
label_index=0
max_feature_idx=144
objective=regression
feature_names=element_1 element_2 element_3 element_4 element_5 element_6 element_7 element_8 element_9 element_10 element_11 element_12 mixing_entropy element_1_element_2 element_1_element_3 element_1_element_4 element_1_element_5 element_1_element_6 element_1_element_7 element_1_element_8 element_1_element_9 element_1_element_10 element_1_element_11 element_1_element_12 element_2_element_3 element_2_element_4 element_2_element_5 element_2_element_6 element_2_element_7 element_2_element_8 element_2_element_9 element_2_element_10 element_2_element_11 element_2_element_12 element_3_element_4 element_3_element_5 element_3_element_6 element_3_element_7 element_3_element_8 element_3_element_9 element_3_element_10 element_3_element_11 element_3_element_12 element_4_element_5 element_4_element_6 element_4_element_7 element_4_element_8 element_4_element_9 element_4_element_10 element_4_element_11 element_4_element_12 element_5_element_6 element_5_element_7 element_5_element_8 element_5_element_9 element_5_element_10 element_5_element_11 element_5_element_12 element_6_element_7 element_6_element_8 element_6_element_9 element_6_element_10 element_6_element_11 element_6_element_12 element_7_element_8 element_7_element_9 element_7_element_10 element_7_element_11 element_7_element_12 element_8_element_9 element_8_element_10 element_8_element_11 element_8_element_12 element_9_element_10 element_9_element_11 element_9_element_12 element_10_element_11 element_10_element_12 element_11_element_12 phs_element_1_element_2 phs_element_1_element_3 phs_element_1_element_4 phs_element_1_element_5 phs_element_1_element_6 phs_element_1_element_7 phs_element_1_element_8 phs_element_1_element_9 phs_element_1_element_10 phs_element_1_element_11 phs_element_1_element_12 phs_element_2_element_3 phs_element_2_element_4 phs_element_2_element_5 phs_element_2_element_6 phs_element_2_element_7 phs_element_2_element_8 phs_element_2_element_9 phs_element_2_element_10 phs_element_2_element_11 phs_element_2_element_12 phs_element_3_element_4 phs_element_3_element_5 phs_element_3_element_6 phs_element_3_element_7 phs_element_3_element_8 phs_element_3_element_9 phs_element_3_element_10 phs_element_3_element_11 phs_element_3_element_12 phs_element_4_element_5 phs_element_4_element_6 phs_element_4_element_7 phs_element_4_element_8 phs_element_4_element_9 phs_element_4_element_10 phs_element_4_element_11 phs_element_4_element_12 phs_element_5_element_6 phs_element_5_element_7 phs_element_5_element_8 phs_element_5_element_9 phs_element_5_element_10 phs_element_5_element_11 phs_element_5_element_12 phs_element_6_element_7 phs_element_6_element_8 phs_element_6_element_9 phs_element_6_element_10 phs_element_6_element_11 phs_element_6_element_12 phs_element_7_element_8 phs_element_7_element_9 phs_element_7_element_10 phs_element_7_element_11 phs_element_7_element_12 phs_element_8_element_9 phs_element_8_element_10 phs_element_8_element_11 phs_element_8_element_12 phs_element_9_element_10 phs_element_9_element_11 phs_element_9_element_12 phs_element_10_element_11 phs_element_10_element_12 phs_element_11_element_12
feature_infos=[-1:0.99935042222555337] [-1:0.34859494893033172] [-1:0.4134129536058796] [-1:0.98512461826421038] [-1:0.19047619047619041] [-1:0.99999600001599998] [-1:0.015675619186957802] [-1:0.036499950675742299] [-1:0.0036529680365296] [-1:0.99491930663478778] [-1:0.0144230769230769] [-1:0.99591674136042241] [-1.2653916817585864:0] [-0.99084030266825962:1] [-0.98696368812746604:1] [-0.99183592194344883:1] [-0.99084030266825962:1] [-0.99997500062498434:1] [-0.99935042222555337:1] [-0.99183592194344883:1] [-0.99183592194344883:1] [-0.99183592194344883:1] [-0.99024681528662417:1] [-0.98756837394331176:1] [-0.34859494893033172:1] [-0.72584517185867203:1] [-0.3449227373068432:1] [-0.99995000199992001:1] [-0.3008876184744998:1] [-0.34859494893033172:1] [-0.25889967637540451:1] [-0.89905362776025244:1] [-0.29861145672622302:1] [-0.9799019607843138:1] [-0.71598336304218646:1] [-0.15107166462090449:1] [-0.99959949937421755:1] [-0.064757851889541598:1] [-0.15107166462090449:1] [-0.092781592132120894:1] [-0.45070422535211269:1] [-0.1295336787564767:1] [-0.98513379583746274:1] [-0.80804099329917234:1] [-0.98234766131445117:1] [-0.72584517185867203:1] [-0.73102755060081326:1] [-0.72584517185867203:1] [-0.89905362776025244:1] [-0.71598336304218646:1] [-0.9799019607843138:1] [-0.99997500062498434:1] [-0.11235955056179769:1] [-0.19047619047619041:1] [-0.0846040334481062:1] [-0.39733206288708911:1] [-0.19047619047619041:1] [-0.98756837394331176:1] [-0.9999299481616396:1] [-0.99995000199992001:1] [-0.99993000349982497:1] [-0.9999299481616396:1] [-0.99997500062498434:1] [-0.99995000199992001:1] [-0.033382425135002398:1] [-0.015675619186957802:1] [-0.40445089501693271:1] [-0.0152268805197441:1] [-0.98256410256410243:1] [-0.014864730948369801:1] [-0.45070422535211269:1] [-0.023683731098560701:1] [-0.98214285714285721:1] [-0.45070422535211269:1] [-0.0144230769230769:1] [-0.98513379583746274:1] [-0.89905362776025244:1] [-0.98756837394331176:1] [-0.98513379583746274:1] [-0.7141645175676552:0.49040239983151568] [-0.97745031808759741:0.64816722957467454] [-0.71429825237499844:0.54580149659212773] [-0.88961216324089576:0.63720764907987937] [-0.78708520707178176:0.67689956635539306] [-0.84833973292502507:0.67563691078655996] [-0.85113897475748723:0.6704255410048916] [-0.99276062820104027:0.6704255410048916] [-0.78708520707178176:0.71812945707971176] [-0.7724950732164666:0.71812945707971176] [-0.99276062820104027:0.71812945707971176] [-0.8593785702923985:0.29342101045965296] [-0.64893594500298024:0.54608043459323807] [-0.78613198348384317:0.31372691609531234] [-0.92230684341441393:0.52958411232611402] [-0.8593785702923985:0.33570803160202622] [-0.89461956848632895:0.33570803160202622] [-0.85843006355694418:0.31372691609531234] [-0.89461956848632895:0.29054934824303474] [-0.89461956848632895:0.29342101045965296] [-0.88417075699698933:0.41926219303909368] [-0.7180531318651806:0.56973564305601698] [-0.87465105846843227:0.13688442026870098] [-0.77929813423490535:0.57075625953684472] [-0.8593785702923985:0.073553007395115375] [-0.89605523880755089:0.13688442026870098] [-1.1173039335344017:0.055212438372724847] [-0.63034609289995747:0.35166570484701376] [-1.1721040825515214:0.11460507433905819] [-1.1721040825515214:0.4923432941989318] [-0.90608930941613297:0.61292049759554978] [-0.7557376276381722:0.61292049759554978] [-0.74678498157933426:0.63264777440015618] [-0.90608930941613297:0.60812971650317982] [-0.86684511132329789:0.52291047922446476] [-0.80512779805473134:0.63264777440015618] [-0.89368884146248273:0.61292049759554978] [-0.89368884146248273:0.60812971650317982] [-1.0870982880625624:0.50434081784047224] [-0.90385100806532348:0.075154717555412781] [-1.0870982880625624:0.13279016726235965] [-1.2547870001827515:0.065308330949493537] [-1.0147412035723191:0.22190275323446387] [-1.0685733786255114:0.13279016726235965] [-0.87465105846843227:0.37913029291330019] [-1.1978092132228371:0.57075625953684472] [-1.1978092132228371:0.59206035006421653] [-1.1978092132228371:0.59206035006421653] [-1.1249446906364229:0.35315010326442264] [-1.1978092132228371:0.5889319017556599] [-1.1978092132228371:0.59206035006421653] [-1.2536297065824238:0.023490575625549348] [-1.1978092132228371:0.008481156311926627] [-1.0371674476314265:0.28647155734299157] [-1.1978092132228371:0.0077035300538079903] [-1.1978092132228371:0.54174025571193407] [-1.1978092132228371:0.0043787243984520817] [-1.1705582147981517:0.27891483407181389] [-1.1978092132228371:0.023490575625549348] [-1.1978092132228371:0.53514437406730953] [-0.99411688533849285:0.35166570484701376] [-1.1978092132228371:0.0077035300538079903] [-1.1978092132228371:0.33097030944079664] [-1.1649289617979606:0.27654286489373964] [-1.1649289617979606:0.45082298918191238] [-1.1978092132228371:0.53514437406730953]
tree_sizes=1301 1334 1336 1257 1339 1336 1345 1336 1338 992 1343 1090 1261 1350 1350 1257 834 1256 1175 1351 833 1455 1450 1360 1276 1359 1363 1106 1446 1272 1104 1360 1360 1365 1375 1373 1383 1380 1289 1473 1374 1203 1375 1196 1027 1203 1204 1296 1123 1108 1393 1397 1387 850 936 937 939 951 1036 1131 1120 1037 1125 1223 1035 1041 851 942 1051 1129 1040 937 1046 945 959 1386 1398 1124 1222 1225 950 945 759 854 769 676 1034 680 767 1028 956 956 937 766 774 773 776 868 680 676

Tree=0
num_leaves=14
num_cat=0
split_feature=0 7 19 38 0 12 0 12 0 85 105 0 0
split_gain=223.747 93.456 36.198 30.9969 21.9003 5.76099 5.28092 4.21227 1.49695 1.03406 0.648198 0.313834 0.127399
threshold=0.56647707985267803 9.8574086533465393e-05 -0.00028042009310404994 -0.0058376207270946492 0.83384435769976351 -0.32537897316718162 0.28133165577943814 -0.48191258332880699 0.6950250301018529 -0.00027408166430224545 -5.9074946616014332e-07 0.96185732856086048 0.63554559170823521
decision_type=2 2 2 2 2 2 2 2 2 2 2 2 2
left_child=1 3 5 -1 8 -3 -4 -5 12 10 -6 -11 -2
right_child=4 2 6 7 9 -7 -8 -9 -10 11 -12 -13 -14
leaf_value=0.3357985864009238 0.33753060407577162 0.34335134952415103 0.29408348655589622 0.28720795093365714 0.36409851546769839 0.37475605954988006 0.32400553818689609 0.26944145544108788 0.35321697712680838 0.37129691753177052 0.37230111143853728 0.37843410141017447 0.3419770210131946
leaf_weight=23 24 23 30 45 37 40 29 129 34 20 69 67 49
leaf_count=23 24 23 30 45 37 40 29 129 34 20 69 67 49
internal_value=0.331875 0.302544 0.336934 0.281247 0.362695 0.363291 0.308791 0.274036 0.344551 0.372754 0.369438 0.376793 0.340515
internal_weight=0 319 122 197 300 63 59 174 107 193 106 87 73
internal_count=619 319 122 197 300 63 59 174 107 193 106 87 73
is_linear=0
shrinkage=1


Tree=1
num_leaves=14
num_cat=0
split_feature=0 7 19 69 0 12 12 3 0 86 90 58 0
split_gain=201.932 84.344 32.6703 27.3888 19.765 5.14741 4.45023 4.09773 1.351 0.936334 0.682384 0.675012 0.114977
threshold=0.56647707985267803 9.8574086533465393e-05 -0.00028486648826704994 -1.0000000180025095e-35 0.83384435769976351 -0.26641238563326824 -0.32537897316718162 0.45420652985939486 0.6950250301018529 -6.2893923175059085e-05 -1.5333493506067775e-05 1.0000000180025095e-35 0.63554559170823521
decision_type=2 2 2 2 2 2 2 2 2 2 2 2 2
left_child=1 3 6 -1 8 -5 -3 -4 12 10 -6 -11 -2
right_child=4 2 7 5 9 -7 -8 -9 -10 11 -12 -13 -14
leaf_value=0.0044845934914933012 0.0053726361909260355 0.011850534826517106 -0.011777000454631412 -0.04627748839687975 0.027928041932838307 -0.063430447911107274 0.040736820381134749 -0.03927478142082691 0.020274690779692989 0.043255415558815007 0.03869642644159256 0.03517699203320912 0.0095967323652335589
leaf_weight=22 24 20 42 89 28 86 40 20 34 99 31 35 49
leaf_count=22 24 20 42 89 28 86 40 20 34 99 31 35 49
internal_value=0 -0.0278643 0.00480618 -0.0480967 0.0292786 -0.0547069 0.0311081 -0.0206473 0.0120423 0.0388345 0.033586 0.0411454 0.00820799
internal_weight=0 319 122 197 300 175 60 62 107 193 59 134 73
internal_count=619 319 122 197 300 175 60 62 107 193 59 134 73
is_linear=0
shrinkage=0.05


Tree=2
num_leaves=14
num_cat=0
split_feature=0 7 0 38 0 12 0 12 0 104 35 0 0
split_gain=182.244 76.1205 28.6741 25.9302 17.8379 5.66079 5.31446 3.52789 1.22044 0.911318 0.645291 0.274311 0.114519
threshold=0.56647707985267803 9.8574086533465393e-05 0.0016656330084778004 -0.0058376207270946492 0.83384435769976351 -0.32537897316718162 0.28133165577943814 -0.48191258332880699 0.70267118669539064 -2.9266640743795154e-06 3.492920559167675e-05 0.9613625525167061 0.63554559170823521
decision_type=2 2 2 2 2 2 2 2 2 2 2 2 2
left_child=1 3 5 -1 8 -3 -4 -5 12 10 -6 -11 -2
right_child=4 2 6 7 9 -7 -8 -9 -10 11 -12 -13 -14
leaf_value=0.0042023933371124061 0.0051040042502184715 0.008731572244029779 -0.037713015465824694 -0.040232813689443807 0.028929163302694051 0.03869997771456838 -0.0068873262354012203 -0.056492090929848283 0.019615231384523216 0.035611739470845179 0.036955990546172664 0.042149407460409051 0.0092924117457632918
leaf_weight=23 24 26 27 45 42 40 29 129 32 21 62 68 51
leaf_count=23 24 26 27 45 42 40 29 129 32 21 62 68 51
internal_value=0 -0.0264711 0.00456587 -0.0456919 0.0278147 0.0268942 -0.0217497 -0.0522871 0.0114402 0.0368928 0.0337144 0.0406068 0.00795212
internal_weight=0 319 122 197 300 66 56 174 107 193 104 89 75
internal_count=619 319 122 197 300 66 56 174 107 193 104 89 75
is_linear=0
shrinkage=0.05


Tree=3
num_leaves=13
num_cat=0
split_feature=0 7 0 38 0 0 12 12 0 29 38 82
split_gain=164.475 68.8262 27.0821 23.692 16.0987 5.18216 5.04809 3.44735 1.10415 0.852787 0.503093 0.111243
threshold=0.56647707985267803 1.0000000180025095e-35 0.0016656330084778004 -0.0058376207270946492 0.83384435769976351 0.28133165577943814 -0.32537897316718162 -0.43602720971088754 0.6950250301018529 4.330762515476839e-05 2.8285527883375844e-05 -0.0046704036387782612
decision_type=2 2 2 2 2 2 2 2 2 2 2 2
left_child=1 3 6 -1 8 -4 -3 -5 11 10 -6 -2
right_child=4 2 5 7 9 -7 -8 -9 -10 -11 -12 -13
leaf_value=0.003992273213098879 0.0054230516259041106 0.0082949936676483885 -0.036699720365660535 -0.039852939971855711 0.038420565798878675 -0.0065429601176031707 0.036458871663525343 -0.054959096591759085 0.018310555969091022 0.027986472078732085 0.032209945696851483 0.0093271062382169669
leaf_weight=23 36 26 28 56 112 29 41 116 34 35 46 37
leaf_count=23 36 26 28 56 112 29 41 116 34 35 46 37
internal_value=0 -0.0251475 0.00397698 -0.0436677 0.0264239 -0.0213568 0.0255296 -0.0500408 0.0108681 0.0350481 0.0366124 0.00740182
internal_weight=0 319 124 195 300 57 67 172 107 193 158 73
internal_count=619 319 124 195 300 57 67 172 107 193 158 73
is_linear=0
shrinkage=0.05


Tree=4
num_leaves=14
num_cat=0
split_feature=0 7 0 69 0 0 12 12 0 105 130 12 1
split_gain=148.439 62.1157 24.4416 21.4955 14.5291 4.69894 4.5559 4.49052 0.998424 0.793823 0.699114 0.358513 0.107965
threshold=0.56647707985267803 1.0000000180025095e-35 0.0016656330084778004 -1.0000000180025095e-35 0.83384435769976351 0.18435732772649058 -0.32537897316718162 -0.26641238563326824 0.70267118669539064 -5.9074946616014332e-07 -1.613888616892911e-07 -0.18527375210453942 0.20614210303866257
decision_type=2 2 2 2 2 2 2 2 2 2 2 2 2
left_child=1 3 6 -1 8 -4 -3 -5 12 10 -6 -11 -2
right_child=4 2 5 7 9 -7 -8 -9 -10 11 -12 -13 -14
leaf_value=0.0050676718862219293 0.0085113058239221582 0.0078802439599083025 -0.037122828451295692 -0.039578194993684132 0.021688114106655124 -0.0080461582761596553 0.03463592903302392 -0.055696032781686104 0.017718942230567337 0.03149333677214125 0.033756612737973528 0.036835414984009489 0.0044870264679193498
leaf_weight=22 50 26 24 89 24 33 41 84 32 46 24 99 25
leaf_count=22 50 26 24 89 24 33 41 84 32 46 24 99 25
internal_value=0 -0.0238901 0.00377813 -0.0414843 0.0251027 -0.020289 0.0242531 -0.0474042 0.0103247 0.0332957 0.0277224 0.0351407 0.00716988
internal_weight=0 319 124 195 300 57 67 173 107 193 48 145 75
internal_count=619 319 124 195 300 57 67 173 107 193 48 145 75
is_linear=0
shrinkage=0.05


Tree=5
num_leaves=14
num_cat=0
split_feature=0 0 7 0 0 6 12 12 0 0 53 104 1
split_gain=146.931 47.4114 22.0573 13.765 13.5165 12.6196 4.05387 3.36349 1.45354 0.529451 0.237622 0.212988 0.0749602
threshold=0.56647707985267803 -1.0000000180025095e-35 0.00028372971174460009 0.79848097056394296 0.18435732772649058 8.2362911726522277e-05 -0.21712601640994841 -0.48191258332880699 0.94191450377334929 0.67966295295394474 9.8821302293661529e-06 -3.4693750552299716e-06 0.20614210303866257
decision_type=2 2 2 2 2 2 2 2 2 2 2 2 2
left_child=1 2 5 9 7 -1 -4 -3 10 12 -5 -10 -2
right_child=3 4 6 8 -6 -7 -8 -9 11 -11 -12 -13 -14
leaf_value=-0.042791478284474077 0.0074181558032120985 -0.035007178836635185 0.0066079529002308849 0.021092766294112573 -0.0093241305628907877 0.0068028458434602496 0.034826673524720332 -0.050180801688915214 0.032186394011321139 0.013819222787723823 0.028153280168771746 0.03579466131425673 0.003743629918798157
leaf_weight=29 35 56 20 26 32 23 35 105 73 34 22 93 23
leaf_count=29 35 56 20 26 32 23 35 105 73 34 22 93 23
internal_value=0 -0.0242038 0.00249164 0.0250388 -0.0390039 -0.0208555 0.0245653 -0.044903 0.031992 0.00886514 0.0243288 0.0342079 0.00596102
internal_weight=0 300 107 306 193 52 55 161 214 92 48 166 58
internal_count=606 300 107 306 193 52 55 161 214 92 48 166 58
is_linear=0
shrinkage=0.05


Tree=6
num_leaves=14
num_cat=0
split_feature=0 0 7 0 0 8 12 12 0 0 131 113 28
split_gain=132.605 42.7888 19.9067 12.4229 12.1986 11.3235 3.65862 3.07348 1.31182 0.47783 0.221877 0.216284 0.0701073
threshold=0.56647707985267803 -1.0000000180025095e-35 0.00028372971174460009 0.79848097056394296 0.18435732772649058 4.7731734375187032e-05 -0.21712601640994841 -0.38232815798574199 0.94191450377334929 0.67966295295394474 -2.2900950366328338e-08 -3.4525818069543784e-07 7.4712331231332875e-05
decision_type=2 2 2 2 2 2 2 2 2 2 2 2 2
left_child=1 2 5 9 7 -1 -4 -3 11 12 -10 -5 -2
right_child=3 4 6 8 -6 -7 -8 -9 10 -11 -12 -13 -14
leaf_value=-0.039016596612430392 0.0071760059729444256 -0.035619599381579631 0.0062775553017854688 0.019306696951389313 -0.0088579239847604192 0.0085357835826774444 0.033085341623851232 -0.049438640415077895 0.028605427742004398 0.01312826177214875 0.033356044244240317 0.026072379339624335 0.0036657517775893211
leaf_weight=31 33 79 20 21 32 21 35 82 30 34 136 27 25
leaf_count=31 33 79 20 21 32 21 35 82 30 34 136 27 25
internal_value=0 -0.0229937 0.00236706 0.0237869 -0.0370537 -0.0198128 0.0233371 -0.0426579 0.0303924 0.00842188 0.0324975 0.0231124 0.00566297
internal_weight=0 300 107 306 193 52 55 161 214 92 166 48 58
internal_count=606 300 107 306 193 52 55 161 214 92 166 48 58
is_linear=0
shrinkage=0.05


Tree=7
num_leaves=14
num_cat=0
split_feature=0 14 14 0 12 19 12 1 0 0 53 131 1
split_gain=119.676 38.9103 21.977 11.2128 8.36197 4.49789 2.76681 1.49079 1.06881 0.519647 0.245205 0.200244 0.0647013
threshold=0.56647707985267803 -0.0078074357601396497 0.0015962719768252245 0.80399832346150391 -0.40253631141164881 -0.00028042009310404994 -0.48191258332880699 0.0029632702911571505 0.94191450377334929 0.67966295295394474 9.8821302293661529e-06 -2.2900950366328338e-08 0.20614210303866257
decision_type=2 2 2 2 2 2 2 2 2 2 2 2 2
left_child=1 4 6 9 -1 -4 -3 -6 10 12 -5 -10 -2
right_child=3 2 5 8 7 -7 -8 -9 11 -11 -12 -13 -14
leaf_value=-0.009109753325130001 0.0067335794014590127 -0.031487889806381786 0.014029903742484749 0.01888377207517624 0.014934143722057341 -0.015543544782041056 -0.045331238951313045 0.034008291718505682 0.027175156871477764 0.012963344579612887 0.026311496049165731 0.031688241507200635 0.0033197438020421115
leaf_weight=33 35 52 20 25 20 36 118 21 30 37 20 136 23
leaf_count=33 35 52 20 25 20 36 118 21 30 37 20 136 23
internal_value=0 -0.021844 -0.0321479 0.0225976 0.0096248 -0.0049816 -0.0410968 0.0247038 0.0290198 0.0083334 0.022185 0.0308726 0.00537982
internal_weight=0 300 226 306 74 56 170 41 211 95 45 166 58
internal_count=606 300 226 306 74 56 170 41 211 95 45 166 58
is_linear=0
shrinkage=0.05


Tree=8
num_leaves=14
num_cat=0
split_feature=0 0 85 0 0 85 86 9 0 0 38 64 0
split_gain=108.008 35.2124 16.2426 10.1318 10.0009 9.50204 3.36955 2.04639 1.0641 0.386361 0.201028 0.19023 0.0602272
threshold=0.56647707985267803 -1.0000000180025095e-35 1.0000000180025095e-35 0.79848097056394296 0.18435732772649058 -0.00055264602484650545 6.3483140884310296e-05 0.055268083958273359 0.94191450377334929 0.67966295295394474 1.3805705288507424e-05 9.2255357483393888e-07 0.63554559170823521
decision_type=2 2 2 2 2 2 2 2 2 2 2 2 2
left_child=1 2 5 9 7 -1 -4 -3 10 12 -5 -10 -2
right_child=3 4 6 8 -6 -7 -8 -9 11 -11 -12 -13 -14
leaf_value=0.0022520813625305893 0.0031232567989955776 -0.041388309348461244 0.028511769422575047 0.0178998664021492 -0.0079766081413254145 -0.042721533710541937 0.0039234805852174761 -0.02726269926351961 0.03040852407782765 0.011823681303683449 0.024393995309417899 0.026675145514309408 0.0064169433074338089
leaf_weight=24 23 129 38 26 32 23 22 32 118 34 22 48 35
leaf_count=24 23 129 38 26 32 23 22 32 118 34 22 48 35
internal_value=0 -0.0207518 0.00225438 0.0214677 -0.0335065 -0.0197563 0.0194961 -0.0385807 0.0274331 0.00759166 0.0208763 0.029329 0.00511083
internal_weight=0 300 107 306 193 47 60 161 214 92 48 166 58
internal_count=606 300 107 306 193 47 60 161 214 92 48 166 58
is_linear=0
shrinkage=0.05


Tree=9
num_leaves=10
num_cat=0
split_feature=9 5 3 11 3 9 12 12 12
split_gain=87.977 32.8872 19.7496 11.017 2.82674 2.53807 0.521005 0.208932 0.201859
threshold=0.00023585835463380315 0.19459250933828903 0.20016863665299814 0.00097033143865410008 0.37643956942860307 0.055268083958273359 -0.14635842922810574 -0.39508004685301584 -0.65969528824196233
decision_type=2 2 2 2 2 2 2 2 2
left_child=1 2 3 -1 -4 6 7 -2 -7
right_child=5 -3 4 -5 -6 8 -8 -9 -10
leaf_value=0.019431644659637225 -0.035360121044019859 -0.038670262531377377 -0.0052835495152976364 -0.018647144455462696 -0.029233652014623992 -0.022687902241013944 -0.047563914537429808 -0.04135017489662042 -0.029791763331741095
leaf_weight=378 24 32 28 20 22 20 25 37 20
leaf_count=378 24 32 28 20 22 20 25 37 20
internal_value=0 0.0102994 0.0137972 0.0175181 -0.0158216 -0.0366452 -0.0414849 -0.0389934 -0.0262398
internal_weight=0 480 448 398 50 126 86 61 40
internal_count=606 480 448 398 50 126 86 61 40
is_linear=0
shrinkage=0.05


Tree=10
num_leaves=14
num_cat=0
split_feature=0 0 9 0 12 7 20 12 12 4 58 0 79
split_gain=87.4949 37.8261 16.6931 9.2991 6.34815 4.20295 1.95027 0.699656 0.683727 0.852374 0.418813 0.280595 0.103184
threshold=0.49672776658690493 -1.0000000180025095e-35 0.00069155685089695009 0.78316505825239691 -0.4697974526844893 0.0011533029385913003 1.3680085839072928e-05 -0.14492525156026106 -0.21372980109233716 0.0043910547534012001 1.0000000180025095e-35 0.68877190101789021 -0.12968308783705959
decision_type=2 2 2 2 2 2 2 2 2 2 2 2 2
left_child=1 2 5 11 6 -1 -3 -6 9 -5 -10 12 -2
right_child=3 4 -4 8 7 -7 -8 -9 10 -11 -12 -13 -14
leaf_value=0.0036361764818429948 0.0011053535547530787 -0.026080110986701779 -0.037083746120333674 0.011229229420423509 -0.036210041023688772 0.02523304937753781 -0.0089945861462341712 -0.043981866880009574 0.027553884599890027 0.02328290023586967 0.021168995648622513 0.010292979265036792 0.005156965422528712
leaf_weight=50 22 61 20 20 73 41 23 48 105 55 34 23 55
leaf_count=50 22 61 20 20 73 41 23 48 105 55 34 23 55
internal_value=0 -0.0192327 0.00427648 0.0180342 -0.0319621 0.0133666 -0.0214019 -0.0392931 0.0239161 0.0200686 0.0259921 0.00544689 0.00399936
internal_weight=0 316 111 314 205 91 84 121 214 75 139 100 77
internal_count=630 316 111 314 205 91 84 121 214 75 139 100 77
is_linear=0
shrinkage=0.05


Tree=11
num_leaves=11
num_cat=0
split_feature=9 7 8 65 3 3 105 9 9 77
split_gain=73.513 20.477 15.0092 16.5525 7.68614 7.55302 2.46449 1.8021 0.533976 0.363629
threshold=4.9960036108132054e-16 0.00096821043196235006 4.7731734375187032e-05 -0.00013640618437844998 0.051818353578488359 0.29923984197216746 -1.0917276783780339e-06 0.0047603185178134505 0.17767876280836783 0.00095204084993188119
decision_type=2 2 2 2 2 2 2 2 2 2
left_child=1 2 3 -1 6 -4 -3 9 -9 -2
right_child=7 4 5 -5 -6 -7 -8 8 -10 -11
leaf_value=0.010349346750952079 -0.034951608890996265 0.006453870998128601 0.011692712039205131 -0.034147451092538077 -0.0097933898724260789 -0.018574514922996364 0.023783220033112326 -0.031104300996741736 -0.021952476365757839 -0.042114499452951794
leaf_weight=33 34 23 146 57 21 24 190 37 28 37
leaf_count=33 34 23 146 57 21 24 190 37 28 37
internal_value=0 0.00833616 -0.00132126 -0.017832 0.0190666 0.00741969 0.021912 -0.0331774 -0.027162 -0.0386844
internal_weight=0 494 260 90 234 170 213 136 65 71
internal_count=630 494 260 90 234 170 213 136 65 71
is_linear=0
shrinkage=0.05


Tree=12
num_leaves=13
num_cat=0
split_feature=0 0 61 0 80 37 76 85 4 0 0 79
split_gain=71.6725 31.147 13.8802 7.92313 4.73107 3.77711 0.898973 0.641172 0.780519 0.473509 0.240645 0.092344
threshold=0.49672776658690493 -1.0000000180025095e-35 1.4770396038389774e-06 0.78316505825239691 -0.000364337587642374 8.9422576181325529e-07 2.2957900715711964e-05 -0.00027408166430224545 0.0034482758955400004 0.93888659487925408 0.68877190101789021 -0.12968308783705959
decision_type=2 2 2 2 2 2 2 2 2 2 2 2
left_child=1 2 5 10 -3 -1 -6 8 -5 -9 11 -2
right_child=3 4 -4 7 6 -7 -8 9 -10 -11 -12 -13
leaf_value=0.0010162386670708656 0.00062690594614568087 -0.01277083377983119 -0.032675599626132416 0.01117834219088157 -0.034565646131522958 0.021629957132041456 -0.025978222722187638 0.017794294133782387 0.021326505086488194 0.026395790856331588 0.0091930910459031238 0.0044598021231253039
leaf_weight=40 22 37 21 24 128 50 40 20 90 80 23 55
leaf_count=40 22 37 21 24 128 50 40 20 90 80 23 55
internal_value=0 -0.0174054 0.00392757 0.016324 -0.0289564 0.0124683 -0.032521 0.0217533 0.01919 0.0246755 0.00470522 0.00336469
internal_weight=0 316 111 314 205 90 168 214 114 100 100 77
internal_count=630 316 111 314 205 90 168 214 114 100 100 77
is_linear=0
shrinkage=0.05


Tree=13
num_leaves=14
num_cat=0
split_feature=0 0 9 0 12 19 80 12 85 4 0 0 79
split_gain=64.6844 28.1102 12.5387 7.15063 4.89811 3.31812 1.5154 0.603419 0.578657 0.704419 0.427342 0.217182 0.0833405
threshold=0.49672776658690493 -1.0000000180025095e-35 0.00069155685089695009 0.78316505825239691 -0.4697974526844893 -0.0010510990479420499 -0.0019708303066801247 -0.23126147759019308 -0.00027408166430224545 0.0034482758955400004 0.93888659487925408 0.68877190101789021 -0.12968308783705959
decision_type=2 2 2 2 2 2 2 2 2 2 2 2 2
left_child=1 2 5 11 6 -1 -3 -6 9 -5 -10 12 -2
right_child=3 4 -4 8 7 -7 -8 -9 10 -11 -12 -13 -14
leaf_value=0.022153021413378601 0.00059556067201562909 -0.0062190573604311798 -0.032114822342991831 0.010619425773620607 -0.029740498796105387 0.0029636874347925188 -0.021986762867163636 -0.036911140004513975 0.016904579550027849 0.020260179887215297 0.025076001109555365 0.0087334365138541092 0.0042368121013383981
leaf_weight=41 22 20 20 24 50 50 64 71 20 90 80 23 55
leaf_count=41 22 20 20 24 50 50 64 71 20 90 80 23 55
internal_value=0 -0.0165351 0.00373119 0.0155078 -0.0275085 0.0116094 -0.0182325 -0.0339481 0.0206657 0.0182305 0.0234417 0.00446996 0.00319645
internal_weight=0 316 111 314 205 91 84 121 214 114 100 100 77
internal_count=630 316 111 314 205 91 84 121 214 114 100 100 77
is_linear=0
shrinkage=0.05


Tree=14
num_leaves=14
num_cat=0
split_feature=0 0 61 0 12 8 20 12 85 16 0 0 0
split_gain=58.3777 25.3695 11.4407 6.45344 4.42054 2.92796 1.37731 0.559777 0.522238 0.714906 0.385676 0.196007 0.0807963
threshold=0.49672776658690493 -1.0000000180025095e-35 1.4770396038389774e-06 0.78316505825239691 -0.4697974526844893 4.7731734375187032e-05 1.3680085839072928e-05 -0.14492525156026106 -0.00027408166430224545 0.0038017445377186367 0.93888659487925408 0.68877190101789021 0.63554559170823521
decision_type=2 2 2 2 2 2 2 2 2 2 2 2 2
left_child=1 2 5 11 6 -1 -3 -6 9 -5 -10 12 -2
right_child=3 4 -4 8 7 -7 -8 -9 10 -11 -12 -13 -14
leaf_value=-0.0024772974903936739 0.00095289928310727384 -0.021252302449104973 -0.029686639528898967 0.012839338660240174 -0.029492981078690046 0.017202542544830415 -0.0068942091602366418 -0.036444634664803743 0.016059350408613681 0.020818770607002081 0.023822200624272229 0.0082967646905909419 0.0042955535852039857
leaf_weight=27 29 61 21 50 73 63 23 48 20 64 80 23 48
leaf_count=27 29 61 21 50 73 63 23 48 20 64 80 23 48
internal_value=0 -0.0157083 0.00354463 0.0147324 -0.0261331 0.0112986 -0.0173209 -0.0322507 0.0196324 0.017319 0.0222696 0.00424646 0.00303663
internal_weight=0 316 111 314 205 90 84 121 214 114 100 100 77
internal_count=630 316 111 314 205 90 84 121 214 114 100 100 77
is_linear=0
shrinkage=0.05


Tree=15
num_leaves=13
num_cat=0
split_feature=0 7 38 12 0 12 112 85 16 0 92 0
split_gain=47.3161 22.5682 8.15213 7.66357 5.07406 1.90282 1.62175 0.805751 1.0818 0.386177 0.103672 0.050977
threshold=0.51194040254627782 0.00014363126065095004 -0.0058376207270946492 -0.24471966270583298 0.8388769971973703 -0.24765973618721429 -6.7391333467677305e-05 -0.00027408166430224545 0.0037905689683301554 0.6950250301018529 -0.0015016270742953103 0.96635546538221462
decision_type=2 2 2 2 2 2 2 2 2 2 2 2
left_child=1 2 -1 6 9 -4 -3 8 -6 10 -2 -9
right_child=4 3 5 -5 7 -7 -8 11 -10 -11 -12 -13
leaf_value=0.002928729760258094 0.0010496447290721778 -0.013392361793119242 -0.023462831026610037 0.023031651728919578 0.010627617457738291 -0.034300635464167527 0.0014604518172563986 0.020074366458824704 0.020731745825873484 0.0093625886475338649 0.0049360542747308505 0.022892671209924362
leaf_weight=23 37 34 81 35 52 81 40 21 54 34 32 68
leaf_count=23 37 34 81 35 52 81 40 21 54 34 32 68
internal_value=0 -0.0142935 -0.0249269 0.003754 0.0139783 -0.0288817 -0.00536381 0.0187201 0.015775 0.00500115 0.00285204 0.0222277
internal_weight=0 294 185 109 298 162 74 195 106 103 69 89
internal_count=592 294 185 109 298 162 74 195 106 103 69 89
is_linear=0
shrinkage=0.05


Tree=16
num_leaves=8
num_cat=0
split_feature=9 5 11 12 12 26 42
split_gain=39.7773 18.6733 10.4242 9.98887 1.42069 0.275869 0.150681
threshold=4.9960036108132054e-16 0.19459250933828903 0.0014715079277489002 -0.40253631141164881 -0.57690783732706541 1.3370413501364359e-17 0.00089609218908754307
decision_type=2 2 2 2 2 2 2
left_child=1 2 3 -1 -2 6 -6
right_child=4 -3 -4 -5 5 -7 -8
leaf_value=0.0016662003394897437 -0.01772005910820821 -0.026810990388576803 -0.019667889951760401 0.017672719302123437 -0.025967140123248102 -0.034132592723919795 -0.031379998028278351
leaf_weight=161 34 39 29 247 36 26 20
leaf_count=161 34 39 29 247 36 26 20
internal_value=0 0.00633912 0.0092976 0.0113564 -0.0263133 -0.0298764 -0.0279003
internal_weight=0 476 437 408 116 82 56
internal_count=592 476 437 408 116 82 56
is_linear=0
shrinkage=0.05


Tree=17
num_leaves=13
num_cat=0
split_feature=0 7 38 12 0 12 3 85 16 0 92 0
split_gain=39.1654 18.2411 6.59113 6.48295 4.37938 1.69109 1.62036 0.718096 0.973783 0.386754 0.0703335 0.0428851
threshold=0.49672776658690493 0.00014363126065095004 -0.0058376207270946492 -0.24471966270583298 0.8388769971973703 -0.24765973618721429 0.20316049441777767 -0.00027408166430224545 0.0037905689683301554 0.6950250301018529 -0.0015016270742953103 0.96782878778430026
decision_type=2 2 2 2 2 2 2 2 2 2 2 2
left_child=1 2 -1 6 9 -4 -3 8 -6 10 -2 -9
right_child=4 3 5 -5 7 -7 -8 11 -10 -11 -12 -13
leaf_value=0.0029501429166306149 0.00095829123105758279 0.0019135157914004393 -0.02110819289299809 0.020996433028153013 0.0092844094794530142 -0.031325263261542093 -0.013425310765601215 0.018503540217876435 0.018870805907580588 0.008858192065621124 0.0040230642305687072 0.020945610082708302
leaf_weight=22 39 36 81 35 52 81 33 25 54 34 36 64
leaf_count=22 39 36 81 35 52 81 33 25 54 34 36 64
internal_value=0 -0.013269 -0.0227294 0.00346852 0.0124615 -0.0262167 -0.00542244 0.0169483 0.014168 0.0044347 0.00242938 0.0202596
internal_weight=0 288 184 104 304 162 69 195 106 109 75 89
internal_count=592 288 184 104 304 162 69 195 106 109 75 89
is_linear=0
shrinkage=0.05


Tree=18
num_leaves=12
num_cat=0
split_feature=0 7 12 69 0 12 3 39 6 0 92
split_gain=35.3468 16.4626 5.85086 5.64455 3.96438 2.17884 1.46238 0.61274 0.406518 0.396625 0.0691719
threshold=0.49672776658690493 0.00014363126065095004 -0.24471966270583298 -1.0000000180025095e-35 0.8490427689240746 -0.24765973618721429 0.20316049441777767 3.5409765158965027e-06 0.00024579083571420001 0.70267118669539064 -0.0015016270742953103
decision_type=2 2 2 2 2 2 2 2 2 2 2
left_child=1 3 6 -1 9 -5 -3 8 -6 10 -2
right_child=4 2 -4 5 7 -7 -8 -9 -10 -11 -12
leaf_value=0.0021712096831337973 0.00091037672275725082 0.0018178400505955022 0.019946611576846671 -0.019162962630570657 0.014279202331921884 -0.030763761887821973 -0.012754045378868329 0.010639362839552073 0.019639663623335461 0.0087473907197515178 0.0039078555357838539
leaf_weight=22 39 36 35 83 56 79 33 39 96 36 38
leaf_count=22 39 36 35 83 56 79 33 39 96 36 38
internal_value=0 -0.0126056 0.0032951 -0.0215929 0.0118384 -0.0248201 -0.00515132 0.0162303 0.0176648 0.00441513 0.00238965
internal_weight=0 288 104 184 304 162 69 191 152 113 77
internal_count=592 288 104 184 304 162 69 191 152 113 77
is_linear=0
shrinkage=0.05


Tree=19
num_leaves=14
num_cat=0
split_feature=0 14 14 0 80 34 69 82 85 16 0 92 0
split_gain=31.917 13.6345 6.15001 3.29942 2.56192 1.35988 1.13777 0.84852 0.657147 0.933039 0.323335 0.0765421 0.0257319
threshold=0.51194040254627782 -0.0078074357601396497 0.0029757526903062652 0.8490427689240746 0.0055350265762472229 7.6349335691348973e-06 1.3246648858136201e-08 0.0010454964434491345 -0.00027408166430224545 0.0037905689683301554 0.73473166769947784 -0.0015016270742953103 0.9748732619752587
decision_type=2 2 2 2 2 2 2 2 2 2 2 2 2
left_child=1 4 5 10 7 -3 -4 -1 9 -5 11 -2 -10
right_child=3 2 6 8 -6 -7 -8 -9 12 -11 -12 -13 -14
leaf_value=0.020847128331661226 0.0011507765748179875 -0.025244250235609653 -0.010467509832233192 0.0080004071100400042 -0.0044401223585009576 -0.015321196801960469 0.0047991536297978697 0.0069025021605193613 0.017850216974814734 0.017472222612167781 0.0087553149269473159 0.0043254124571732878 0.01957928572709744
leaf_weight=24 39 123 23 52 30 48 26 20 48 52 31 37 39
leaf_count=24 39 123 23 52 30 48 26 20 48 52 31 37 39
internal_value=0 -0.011739 -0.0179838 0.0114809 0.00682672 -0.0224588 -0.00236683 0.0145087 0.0154187 0.0127363 0.00445173 0.00269632 0.0186253
internal_weight=0 294 220 298 74 171 49 44 191 104 107 76 87
internal_count=592 294 220 298 74 171 49 44 191 104 107 76 87
is_linear=0
shrinkage=0.05


Tree=20
num_leaves=8
num_cat=0
split_feature=9 5 11 12 12 21 11
split_gain=27.9356 14.2888 9.73035 6.71602 1.62168 0.329175 0.11835
threshold=4.9960036108132054e-16 0.63138224110937158 0.0034693158988537503 -0.40253631141164881 -0.55750876003665439 5.2931087976598837e-05 0.94957694079798249
decision_type=2 2 2 2 2 2 2
left_child=1 2 3 -1 -2 6 -6
right_child=4 -3 -4 -5 5 -7 -8
leaf_value=0.0019708494164818978 -0.012112236477653771 -0.025868733183426019 -0.016817011080078176 0.015044230025350339 -0.024860652777794246 -0.019672913239760836 -0.029126712988162863
leaf_weight=161 34 34 37 252 37 22 29
leaf_count=161 34 34 37 252 37 22 29
internal_value=0 0.00538572 0.00774716 0.00994783 -0.0213864 -0.0249696 -0.0267351
internal_weight=0 484 450 413 122 88 66
internal_count=606 484 450 413 122 88 66
is_linear=0
shrinkage=0.05


Tree=21
num_leaves=15
num_cat=0
split_feature=0 7 85 0 0 12 12 12 95 101 36 39 118 0
split_gain=28.9714 12.7156 6.07057 5.86607 3.16026 1.70958 0.945123 0.670565 0.539733 0.752686 0.366409 0.0763185 0.0866045 0.0410975
threshold=0.51194040254627782 1.0000000180025095e-35 -0.00055264602484650545 0.00094555134962870011 0.76222484906542742 -0.48191258332880699 -0.83196458983048116 -0.32537897316718162 -7.1872177587676124e-06 -6.7170708875322497e-06 3.7562649843538088e-05 2.6934437743735293e-06 -2.7147531707641342e-06 0.6661263716915119
decision_type=2 2 2 2 2 2 2 2 2 2 2 2 2 2
left_child=1 2 -1 7 11 -4 -5 -3 9 -6 -10 13 -13 -2
right_child=4 3 5 6 8 -7 -8 -9 10 -11 -12 12 -14 -15
leaf_value=0.007484110309742391 0.0027941031561654417 0.0064952918582341888 -0.013780267864465715 -0.0040785394189879294 0.014203041129642064 -0.02471966313039884 -0.018661151337437332 0.017518401739967836 0.016526765546397024 0.0021052909269928931 0.0094374820590019236 -0.00078654513206510325 0.0036101992989036567 0.0057680307457653379
leaf_weight=20 21 22 50 25 36 125 20 37 138 20 21 21 24 26
leaf_count=20 21 22 50 25 36 125 20 37 138 20 21 21 24 26
internal_value=0 -0.0110816 -0.0186117 0.00303741 0.0107852 -0.0215941 -0.0105597 0.0134081 0.0141037 0.00988242 0.0155904 0.00303013 0.00155839 0.00443925
internal_weight=0 299 195 104 307 175 45 59 215 56 159 92 45 47
internal_count=606 299 195 104 307 175 45 59 215 56 159 92 45 47
is_linear=0
shrinkage=0.05


Tree=22
num_leaves=15
num_cat=0
split_feature=0 14 80 0 37 84 12 5 95 29 60 47 24 1
split_gain=26.1637 11.3332 4.54583 3.08316 2.2112 1.68891 1.21807 0.818239 0.487109 0.693918 0.333654 0.0730028 0.0639808 0.0375107
threshold=0.49672776658690493 -0.005557517052228649 -0.00088421830480146508 0.76222484906542742 8.9422576181325529e-07 0.00010261487591431107 -0.56082257362756482 0.0029241761178251508 -7.1872177587676124e-06 5.8495084037785582e-05 1.0000000180025095e-35 1.5508110110490934e-05 0.003235497211746131 0.19990915862288475
decision_type=2 2 2 2 2 2 2 2 2 2 2 2 2 2
left_child=1 4 7 11 -1 -6 -4 -3 9 -5 -10 13 -13 -2
right_child=3 2 6 8 5 -7 -8 -9 10 -11 -12 12 -14 -15
leaf_value=-0.0066789733401189256 0.0050430995659553448 0.0037663018521429462 -0.012133218052194399 0.0022028376836152304 0.018792613956611606 0.0002707241475582123 -0.022746123889969154 -0.0090211718295026451 0.01627229040043544 0.013699569915022171 0.011221041793570571 0.0031946202232079075 -0.00053836831454342853 0.0022827813730691561
leaf_weight=24 32 22 34 21 32 20 132 29 113 35 46 22 24 20
leaf_count=24 32 22 34 21 32 20 132 29 113 35 46 22 24 20
internal_value=0 -0.0107416 -0.0165612 0.0100482 0.00587477 0.0116688 -0.0205724 -0.00350501 0.0133985 0.0093883 0.0148109 0.00269791 0.00124697 0.00398144
internal_weight=0 293 217 313 76 52 166 51 215 56 159 98 46 52
internal_count=606 293 217 313 76 52 166 51 215 56 159 98 46 52
is_linear=0
shrinkage=0.05


Tree=23
num_leaves=14
num_cat=0
split_feature=0 7 85 0 0 12 2 12 81 29 20 82 0
split_gain=23.6138 10.4898 5.09525 5.05741 2.6811 1.35307 0.73194 0.520928 0.503166 0.457711 0.0608685 0.0702739 0.0264958
threshold=0.50853187536048583 1.0000000180025095e-35 -0.00055264602484650545 0.00094555134962870011 0.75134261853858353 -0.38232815798574199 0.013120620259346601 -0.32537897316718162 -0.0044251189819672319 4.330762515476839e-05 9.6183759540781829e-05 -0.0046704036387782612 0.65429705433041352
decision_type=2 2 2 2 2 2 2 2 2 2 2 2 2
left_child=1 2 -1 7 10 -4 -5 -3 -6 -10 12 -12 -2
right_child=4 3 5 6 8 -7 -8 -9 9 -11 11 -13 -14
leaf_value=0.0069715229608118537 0.0024439961387543009 0.006288718753917651 -0.014237362238160078 -0.016247719580955482 0.0054416056383739817 -0.023250704255409628 -0.0031690683154738512 0.016004388240744939 0.014697230092020003 0.0089147820052775471 -0.00075841512298211464 0.0030678628411502967 0.004958526883274317
leaf_weight=20 20 22 69 23 22 105 20 37 154 44 24 24 22
leaf_count=20 20 22 69 23 22 105 20 37 154 44 24 24 22
internal_value=0 -0.0101042 -0.0169292 0.00287682 0.00964108 -0.0196764 -0.0101646 0.0123816 0.0126152 0.0134122 0.00237105 0.00115472 0.00376113
internal_weight=0 296 194 102 310 174 43 59 220 198 90 48 42
internal_count=606 296 194 102 310 174 43 59 220 198 90 48 42
is_linear=0
shrinkage=0.05


Tree=24
num_leaves=13
num_cat=0
split_feature=0 7 0 85 0 12 7 81 29 0 120 29
split_gain=21.3169 9.36891 4.67077 4.59847 2.5159 1.24601 0.477888 0.454107 0.413085 0.399342 0.0532288 0.0586391
threshold=0.49672776658690493 1.0000000180025095e-35 0.00094555134962870011 -0.00055264602484650545 0.75134261853858353 -0.20426452029273559 0.00076370821594500015 -0.0044251189819672319 4.330762515476839e-05 0.13989949432138077 -2.0665502826466081e-06 5.0605123318749907e-05
decision_type=2 2 2 2 2 2 2 2 2 2 2 2
left_child=1 3 6 -1 10 -5 -3 -6 -9 -4 -2 -12
right_child=4 2 9 5 7 -7 -8 8 -10 -11 11 -13
leaf_value=0.0066229465417563917 0.00030493969593576534 0.0054786877520382402 -0.015365636236965657 -0.015137769311082131 0.0051695253361355173 -0.023728671856224539 0.014984992657525419 0.013962368670754233 0.0084690428254279217 -0.0053738606488332157 0.0010316505101509393 0.004104021493708942
leaf_weight=20 27 20 20 102 22 72 39 154 44 20 25 41
leaf_count=20 27 20 20 102 22 72 39 154 44 20 25 41
internal_value=0 -0.00969577 0.00282019 -0.0160828 0.00906985 -0.0186926 0.0117625 0.0119844 0.0127416 -0.0103697 0.00217516 0.00294024
internal_weight=0 293 99 194 313 174 59 220 198 40 93 66
internal_count=606 293 99 194 313 174 59 220 198 40 93 66
is_linear=0
shrinkage=0.05


Tree=25
num_leaves=14
num_cat=0
split_feature=0 0 7 1 0 12 12 105 82 12 12 0 131
split_gain=17.6011 8.17071 4.16309 3.97782 2.20558 1.45015 0.503822 0.436215 0.895146 0.357211 0.315369 0.19371 0.0566508
threshold=0.44684686665640544 -1.0000000180025095e-35 0.00033635649855075006 0.0029680931818281504 0.8388769971973703 -0.83821134389486029 -0.20300483302550293 -6.4379720926799013e-07 -0.0010655868524897672 -0.16567610353093787 -0.22730809694054685 0.71652854306212477 -1.0350118940443844e-07
decision_type=2 2 2 2 2 2 2 2 2 2 2 2 2
left_child=1 2 3 -1 11 -3 -7 8 -6 -4 -9 12 -2
right_child=4 5 9 -5 7 6 -8 10 -10 -11 -12 -13 -14
leaf_value=-0.018346119851476567 0.0039762882769785145 -0.0039705564774086943 0.0071667159581556925 0.0082403970998711894 0.013875987075946547 -0.015114196095495455 -0.020961590404393243 0.0069989834512983046 -0.00073957003653049472 0.01579335459197561 0.013606233226474694 0.0063135285170808925 0.001077213914929113
leaf_weight=34 22 23 20 24 22 93 61 21 20 30 129 31 72
leaf_count=34 22 23 20 24 22 93 61 21 20 30 129 31 72
internal_value=0 -0.00906829 0.00176978 -0.0073448 0.00805495 -0.0156814 -0.0174304 0.0114201 0.0069162 0.0123427 0.0126812 0.00288606 0.00175572
internal_weight=0 285 108 58 317 177 154 192 42 50 150 125 94
internal_count=602 285 108 58 317 177 154 192 42 50 150 125 94
is_linear=0
shrinkage=0.05


Tree=26
num_leaves=14
num_cat=0
split_feature=0 0 7 1 0 12 9 39 12 18 2 0 39
split_gain=15.885 7.37406 3.75719 3.58998 1.99054 1.30876 0.511922 0.480562 0.322383 0.265657 0.220481 0.0971138 0.0785054
threshold=0.44684686665640544 -1.0000000180025095e-35 0.00033635649855075006 0.0029680931818281504 0.8388769971973703 -0.83821134389486029 0.0047603185178134505 3.9344178866065407e-06 -0.16567610353093787 0.00018845210376530186 0.0097092192758286011 0.75134261853858353 5.1521397124951393e-06
decision_type=2 2 2 2 2 2 2 2 2 2 2 2 2
left_child=1 2 3 -1 10 -3 -7 9 -4 -6 11 -2 -12
right_child=4 5 8 -5 7 6 -8 -9 -10 -11 12 -13 -14
leaf_value=-0.017428813669282724 0.0031524040484024831 -0.0037720286778336314 0.0068083801772445447 0.0078283772454597056 0.0085461046455836878 -0.018237638463792595 -0.011608589426256144 0.0054566977436051652 0.015003686823571722 0.013223178299844394 -8.9408972067758449e-05 0.0076504085212945943 0.0032563785999594041
leaf_weight=34 24 23 20 24 41 115 39 34 30 117 50 24 27
leaf_count=34 24 23 20 24 41 115 39 34 30 117 50 24 27
internal_value=0 -0.00861488 0.00168129 -0.00697756 0.00765221 -0.0148973 -0.0165589 0.0108491 0.0117256 0.0120095 0.00274175 0.00540141 0.00108379
internal_weight=0 285 108 58 317 177 154 192 50 158 125 48 77
internal_count=602 285 108 58 317 177 154 192 50 158 125 48 77
is_linear=0
shrinkage=0.05


Tree=27
num_leaves=11
num_cat=0
split_feature=11 5 45 9 14 5 20 11 89 143
split_gain=14.0497 8.43067 2.01682 2.47534 1.3495 0.677034 0.675404 0.240705 0.0530576 0.0501107
threshold=0.0014715079277489002 0.53511062120833586 2.631911442056151e-06 1.0000000180025095e-35 0.00035071337377882121 0.93617052272236168 0.00021406348893779529 0.91030878426181638 -0.00065202221704924732 -0.00016620815494065299
decision_type=2 2 2 2 2 2 2 2 2 2
left_child=1 2 3 -1 7 -3 -4 9 -9 -2
right_child=4 5 6 -5 -6 -7 -8 8 -10 -11
leaf_value=0.0097343254418399972 -0.01408393245190382 -0.010179043724516256 -0.0010224032981604265 -0.0067060259878635418 -0.0053157288348302245 -0.021419369251955124 0.007405059156759132 -0.019612334227120436 -0.022963323266733261 -0.017541999098929492
leaf_weight=272 20 37 102 25 24 21 31 27 21 22
leaf_count=272 20 37 102 25 24 21 31 27 21 22
internal_value=0 0.00364534 0.00605897 0.00835046 -0.0158504 -0.0142488 0.000941892 -0.0186596 -0.0210784 -0.0158953
internal_weight=0 488 430 297 114 58 133 90 48 42
internal_count=602 488 430 297 114 58 133 90 48 42
is_linear=0
shrinkage=0.05


Tree=28
num_leaves=15
num_cat=0
split_feature=0 37 12 7 0 19 5 9 85 14 2 54 0 30
split_gain=13.1175 6.11194 2.85987 2.63804 1.59279 1.33046 0.89159 0.718307 0.406807 0.743343 0.168933 0.0978109 0.078255 0.0188263
threshold=0.46749528222583808 8.9422576181325529e-07 -0.24471966270583298 1.0000000180025095e-35 0.864082545865129 -0.00028042009310404994 0.0019987509916164505 0.0032298815805133006 -0.00027408166430224545 0.0095861545969837675 0.0097092192758286011 1.3343357829641715e-06 0.73473166769947784 6.1101645498203129e-07
decision_type=2 2 2 2 2 2 2 2 2 2 2 2 2 2
left_child=1 3 6 7 10 -5 -3 -1 9 -6 12 -12 -2 -10
right_child=4 2 -4 5 8 -7 -8 -9 13 -11 11 -13 -14 -15
leaf_value=-0.017402629439103683 0.0026673854794353248 0.0026066830219781921 0.014780125213520868 0.0065428880818444671 0.011015677211126167 -0.010480014167048714 -0.011472696559080347 -0.010291537151743586 0.012868784898609827 0.0019275740214756557 0.0031476783134755403 -0.0004999460186809302 0.0066219696710849629 0.011207625346825175
leaf_weight=112 22 23 35 24 63 22 22 52 66 35 34 40 29 23
leaf_count=112 22 23 35 24 63 22 22 52 66 35 34 40 29 23
internal_value=0 -0.00769975 0.00406073 -0.0121799 0.00707151 -0.0015985 -0.00427657 -0.0151479 0.00999234 0.00776993 0.00270194 0.00117599 0.00491607 0.0124395
internal_weight=0 290 80 210 312 46 45 164 187 98 125 74 51 89
internal_count=602 290 80 210 312 46 45 164 187 98 125 74 51 89
is_linear=0
shrinkage=0.05


Tree=29
num_leaves=13
num_cat=0
split_feature=0 37 12 1 0 12 5 39 39 2 54 0
split_gain=11.847 5.61289 2.54004 2.52776 1.51707 0.926846 0.852754 0.417142 0.265477 0.163966 0.084134 0.0710654
threshold=0.44684686665640544 8.9422576181325529e-07 -0.24471966270583298 0.0089290174999684026 0.864082545865129 -0.57690783732706541 0.0019987509916164505 3.9344178866065407e-06 2.3702203600003358e-06 0.0097092192758286011 1.3343357829641715e-06 0.75134261853858353
decision_type=2 2 2 2 2 2 2 2 2 2 2 2
left_child=1 3 6 5 9 -1 -3 8 -6 11 -11 -2
right_child=4 2 -4 -5 7 -7 -8 -9 -10 10 -12 -13
leaf_value=-0.0061148938527631185 0.002690608473494649 0.0029276701289096051 0.01404111900499889 0.0017175221516905976 0.0092729314861141818 -0.015628479474357197 -0.011321424435646762 0.0043912612353310442 0.013868305899880149 0.0027283610555490379 -0.00053740900688486668 0.0064299635589122779
leaf_weight=31 24 21 35 30 110 147 21 33 44 38 41 27
leaf_count=31 24 21 35 30 110 147 21 33 44 38 41 27
internal_value=0 -0.00743948 0.00409312 -0.0117088 0.00660873 -0.0139716 -0.00419688 0.00949272 0.0105859 0.00246021 0.00103347 0.00467027
internal_weight=0 285 77 208 317 178 42 187 154 130 79 51
internal_count=602 285 77 208 317 178 42 187 154 130 79 51
is_linear=0
shrinkage=0.05


Tree=30
num_leaves=11
num_cat=0
split_feature=11 5 3 3 61 80 81 5 89 16
split_gain=10.574 5.88855 2.4311 1.65091 0.998557 0.565472 0.558686 0.301228 0.139179 0.154033
threshold=0.0019550819924186004 0.0096094967893094515 0.051818353578488359 0.037277651682058106 1.0000000180025095e-35 -5.4223911565894416e-05 -0.016546945238468884 0.85675282907852091 -5.3991542382598183e-05 7.3187300061807421e-05
decision_type=2 2 2 2 2 2 2 2 2 2
left_child=1 2 4 7 -1 -2 -4 -3 9 -7
right_child=5 3 6 -5 -6 8 -8 -9 -10 -11
leaf_value=0.0084113086029343944 -0.0076336599141359337 -0.0099668272926161702 0.00053512222459202344 0.00020019420994418292 -0.0026247092099352318 -0.01677342633761111 -0.0087789793598598669 -0.017305728305002738 -0.019850462786853314 -0.011442128717899323
leaf_weight=300 25 27 69 34 22 42 21 29 20 20
leaf_count=300 25 27 69 34 22 42 21 29 20 20
internal_value=0 0.00309572 0.00562673 -0.00849071 0.00765729 -0.0142166 -0.00163817 -0.0137673 -0.0162236 -0.0150537
internal_weight=0 502 412 90 322 107 90 56 82 62
internal_count=609 502 412 90 322 107 90 56 82 62
is_linear=0
shrinkage=0.05


Tree=31
num_leaves=14
num_cat=0
split_feature=0 7 3 0 85 17 9 39 130 18 2 13 0
split_gain=10.387 4.4123 2.13872 1.31166 1.27396 0.742762 0.735059 0.366982 0.632975 0.216665 0.129318 0.0836 0.0420913
threshold=0.44684686665640544 1.0000000180025095e-35 0.20316049441777767 0.864082545865129 -0.00055264602484650545 2.8119649991923874e-05 0.10840440770652626 3.5409765158965027e-06 -1.5038104373299198e-07 0.00018845210376530186 0.0097092192758286011 0.11846677022342089 0.68340867201487399
decision_type=2 2 2 2 2 2 2 2 2 2 2 2 2
left_child=1 4 5 10 -1 -3 -6 9 -9 -5 12 -12 -2
right_child=3 2 -4 7 6 -7 -8 8 -10 -11 11 -13 -14
leaf_value=-4.8720162539255053e-05 0.0023034977688803338 0.01026391778251208 -0.010041141961550306 0.0065543870736912979 -0.014677267484088888 -0.001316660990123637 -0.0057697407213189375 -0.0019757770001888274 0.010603720769286156 0.010782952303195308 0.0027931590064933214 -0.00040877196378015144 0.0051942342207493154
leaf_weight=21 20 45 27 41 134 20 28 20 20 116 36 47 34
leaf_count=21 20 45 27 41 134 20 28 20 20 116 36 47 34
internal_value=0 -0.00714508 0.00178731 0.00597643 -0.0116357 0.00670066 -0.0131377 0.0085894 0.00431397 0.00967868 0.00221909 0.000980017 0.00412359
internal_weight=0 275 92 334 183 65 162 197 40 157 137 83 54
internal_count=609 275 92 334 183 65 162 197 40 157 137 83 54
is_linear=0
shrinkage=0.05


Tree=32
num_leaves=14
num_cat=0
split_feature=0 7 3 0 85 83 9 4 82 2 13 85 0
split_gain=9.37425 3.9821 1.93019 1.18377 1.14975 0.670343 0.663391 0.347291 1.65177 0.116709 0.075449 0.072324 0.0379874
threshold=0.44684686665640544 1.0000000180025095e-35 0.20316049441777767 0.864082545865129 -0.00055264602484650545 -1.0000000180025095e-35 0.10840440770652626 0.0039339104590445503 -0.00054344650090564048 0.0097092192758286011 0.11846677022342089 -0.00032924605955649363 0.68340867201487399
decision_type=2 2 2 2 2 2 2 2 2 2 2 2 2
left_child=1 4 5 9 -1 -3 -6 8 -5 12 -11 -9 -2
right_child=3 2 -4 7 6 -7 -8 11 -10 10 -12 -13 -14
leaf_value=-4.6284292780217672e-05 0.002188322861911729 -0.001250827957992442 -0.009539084697435439 -0.0056544506031533945 -0.013943404049626483 0.0097507218292189977 -0.0054812537414753552 0.011867896571408871 0.0095494416728615777 0.0026535010547377169 -0.00038833337330675512 0.0090839829880232908 0.0049345225136836661
leaf_weight=21 20 20 27 23 134 45 28 43 80 36 47 51 34
leaf_count=21 20 20 27 23 134 45 28 43 80 36 47 51 34
internal_value=0 -0.00678783 0.00169794 0.00567761 -0.0110539 0.00636563 -0.0124808 0.00815993 0.0061544 0.00210814 0.000931016 0.0103575 0.00391741
internal_weight=0 275 92 334 183 65 162 197 103 137 83 94 54
internal_count=609 275 92 334 183 65 162 197 103 137 83 94 54
is_linear=0
shrinkage=0.05


Tree=33
num_leaves=14
num_cat=0
split_feature=0 0 61 96 0 9 43 39 54 8 2 4 0
split_gain=8.47144 3.731 2.25771 1.29102 1.13406 0.489664 0.339161 0.327817 0.608387 0.2009 0.105303 0.0798867 0.0454817
threshold=0.36171840429244023 -1.0000000180025095e-35 1.9451671955931909e-06 -1.0209457006705867e-05 0.864082545865129 0.10840440770652626 0.00042070889168293989 3.5409765158965027e-06 1.4358412672466492e-06 9.8534307097116307e-05 0.0097092192758286011 0.0097423172279250524 0.67582723265650324
decision_type=2 2 2 2 2 2 2 2 2 2 2 2 2
left_child=1 2 3 -1 10 6 -3 9 -9 -6 12 -12 -2
right_child=4 5 -4 -5 7 -7 -8 8 -10 -11 11 -13 -14
leaf_value=-0.005794457323472238 0.001681752760487143 -0.013469537851753935 -0.013234161123612219 0.0086415131088993426 0.0059597346848911711 -0.0045767749388081333 -0.007247534484809472 -0.002455290369689465 0.0098774627968668954 0.0099151684170854949 0.0017489030152477974 -0.0016410278563853355 0.0046555813502184009
leaf_weight=21 20 116 22 59 45 24 27 20 20 112 63 24 36
leaf_count=21 20 116 22 59 45 24 27 20 20 112 63 24 36
internal_value=0 -0.00658356 0.000951119 0.00485207 0.00529165 -0.0111856 -0.0122948 0.00775193 0.00371109 0.00878145 0.00190232 0.00081375 0.0035935
internal_weight=0 269 102 80 340 167 143 197 40 157 143 87 56
internal_count=609 269 102 80 340 167 143 197 40 157 143 87 56
is_linear=0
shrinkage=0.05


Tree=34
num_leaves=14
num_cat=0
split_feature=0 0 61 96 0 110 104 4 32 0 52 4 4
split_gain=7.64547 3.36723 2.03759 1.16515 1.02349 0.529989 0.319141 0.684114 0.204681 0.098423 0.0802879 0.0359615 0.0150411
threshold=0.36171840429244023 -1.0000000180025095e-35 1.9451671955931909e-06 -1.0209457006705867e-05 0.864082545865129 -0.027635456675114047 -1.9476241361029769e-06 0.0039339104590445503 4.928770211027814e-08 0.63554559170823521 3.7917056008671543e-06 0.0088652974639814516 0.0039339104590445503
decision_type=2 2 2 2 2 2 2 2 2 2 2 2 2
left_child=1 2 3 -1 9 -3 7 -6 -7 11 -11 -2 -8
right_child=4 5 -4 -5 6 8 12 -9 -10 10 -12 -13 -14
leaf_value=-0.0055047344294421024 -0.0016240665945224464 -0.0029898974671959881 -0.012572453128681941 0.0082094373355098699 0.002039440538062424 -0.010800415040417151 0.010514577229817709 0.0095909536642543348 -0.015690178051590922 0.0038078429402723431 0.00069139572423732574 0.0011130799803261955 0.0091111278959683014
leaf_weight=21 20 20 22 59 61 121 42 59 26 62 31 30 35
leaf_count=21 20 20 22 59 61 121 42 59 26 62 31 30 35
internal_value=0 -0.00625438 0.000903563 0.00460947 0.00502707 -0.0106263 0.00736433 0.00575227 -0.0116653 0.00180721 0.00276903 1.82214e-05 0.00987665
internal_weight=0 269 102 80 340 167 197 120 147 143 93 50 77
internal_count=609 269 102 80 340 167 197 120 147 143 93 50 77
is_linear=0
shrinkage=0.05


Tree=35
num_leaves=14
num_cat=0
split_feature=0 6 44 18 37 12 12 103 0 111 0 119 85
split_gain=7.56569 3.39243 2.28347 1.60423 1.53353 0.760897 0.645743 0.378905 0.573531 0.301813 0.293168 0.2417 0.159737
threshold=0.63554559170823521 0.00013805505076905001 0.001501418970902861 -0.00018792870916714996 -0.0059856687898088489 -0.24765973618721429 -0.24858114194243089 -5.1524340665205334e-07 0.96909215463823195 -1.341622315689481e-06 0.92271854008417697 -2.5707699483098161e-06 -0.00043837426167432349
decision_type=2 2 2 2 2 2 2 2 2 2 2 2 2
left_child=1 4 3 -3 -1 -6 9 8 -8 11 -11 -2 -9
right_child=6 2 -4 -5 5 -7 7 12 -10 10 -12 -13 -14
leaf_value=0.00051341428212860294 0.003960590675706044 0.010881128316503709 -0.010203427809756249 -0.0014844878263972408 -0.0078742704416723246 -0.014611244586606821 0.010576560145074672 0.013066445564230283 -0.00039253750672707196 0.0035358063271269204 0.010949915423989296 -0.00240048087933766 0.0088024737631402367
leaf_weight=36 32 54 33 51 95 75 22 30 26 40 20 28 82
leaf_count=36 32 54 33 51 95 75 22 30 26 40 20 28 82
internal_value=0 -0.00479726 0.00126927 0.00487497 -0.00886124 -0.0108465 0.00627225 0.00835172 0.00463497 0.00349963 0.00600718 0.000992091 0.00994461
internal_weight=0 344 138 105 206 170 280 160 48 120 60 60 112
internal_count=624 344 138 105 206 170 280 160 48 120 60 60 112
is_linear=0
shrinkage=0.05


Tree=36
num_leaves=14
num_cat=0
split_feature=0 0 18 7 0 104 100 76 141 84 2 4 0
split_gain=6.86581 3.40274 1.84012 1.64096 0.916725 0.566194 0.510212 0.304943 0.201111 0.249172 0.0889272 0.0854739 0.0234664
threshold=0.46749528222583808 -1.0000000180025095e-35 -0.00018792870916714996 0.00028372971174460009 0.88924266506088412 -4.3306920584355919e-07 -0.0036235142850990685 2.2957900715711964e-05 -1.0000000180025095e-35 -2.7064533161556436e-05 0.0097092192758286011 0.0097423172279250524 0.70267118669539064
decision_type=2 2 2 2 2 2 2 2 2 2 2 2 2
left_child=1 2 5 -4 10 -1 -3 -8 -6 -10 12 -12 -2
right_child=4 6 3 -5 8 -7 7 -9 9 -11 11 -13 -14
leaf_value=0.0040392639710464416 0.0023358812399601448 -0.0024605716354786779 -0.013669111242947672 0.005380934105487541 0.010842217444568068 0.014082260361022276 -0.010991997267813126 -0.0057166724027517962 0.0054682510093264627 0.010001088146652494 0.0019819883705951787 -0.0018085869331844152 0.0045191382290795451
leaf_weight=36 20 26 26 20 37 23 141 34 109 42 58 20 32
leaf_count=36 20 26 26 20 37 23 141 34 109 42 58 20 32
internal_value=0 -0.00518525 0.00210978 -0.00538648 0.00530617 0.00795433 -0.00899609 -0.00996708 0.00753855 0.00672904 0.0020778 0.00101005 0.00367942
internal_weight=0 306 105 46 318 59 201 175 188 151 130 78 52
internal_count=624 306 105 46 318 59 201 175 188 151 130 78 52
is_linear=0
shrinkage=0.05


Tree=37
num_leaves=14
num_cat=0
split_feature=0 14 8 12 0 12 39 27 126 24 65 27 95
split_gain=6.1964 3.12078 1.32558 0.895295 0.827344 0.736192 0.346807 0.196845 0.851115 0.0753417 0.0824082 0.0392146 0.0367078
threshold=0.46749528222583808 -0.0078074357601396497 0.00019313441157240002 -0.45196609300242813 0.88924266506088412 -0.26641238563326824 1.1529754880427485e-06 8.5640037261837425e-06 -1.2005002319432558e-20 0.0029080694281410761 6.0091085682070749e-08 4.2199401717056349e-05 -0.00017760598137193384
decision_type=2 2 2 2 2 2 2 2 2 2 2 2 2
left_child=1 3 5 -1 9 -3 -5 8 -6 12 -11 -9 -2
right_child=4 2 -4 6 7 -7 -8 11 -10 10 -12 -13 -14
leaf_value=-0.0036675242850413691 0.0011911737348418684 -0.0066163650045105576 0.0023668823381220658 0.0026714239991270008 -0.003342645633965731 -0.01271219309312345 0.011171514987945557 0.011330243293195964 0.0078049946607661848 0.0025780466488666007 -0.0012605146155692639 0.0085006986260414124 0.0036987434188766339
leaf_weight=26 20 115 28 20 20 87 30 24 119 27 29 25 54
leaf_count=26 20 115 28 20 20 87 30 24 119 27 29 25 54
internal_value=0 -0.00492599 -0.00782857 0.00385814 0.00504086 -0.0092418 0.00777148 0.00716162 0.00620102 0.00197391 0.00059022 0.0098866 0.00302102
internal_weight=0 306 230 76 318 202 50 188 139 130 56 49 74
internal_count=624 306 230 76 318 202 50 188 139 130 56 49 74
is_linear=0
shrinkage=0.05


Tree=38
num_leaves=13
num_cat=0
split_feature=0 14 8 12 12 12 86 105 20 17 7 86
split_gain=5.59225 2.81651 1.19634 0.808004 0.754415 0.664413 0.371261 0.307212 0.277387 0.19657 0.191183 0.105017
threshold=0.46749528222583808 -0.0078074357601396497 0.00019313441157240002 -0.45196609300242813 -0.24858114194243089 -0.26641238563326824 1.6876051859130236e-05 -5.9074946616014332e-07 0.00020451876391108103 0.002417837598622971 0.0013900828156095501 -0.00011093992178682347
decision_type=2 2 2 2 2 2 2 2 2 2 2 2
left_child=1 3 5 -1 8 -3 -5 -6 10 -9 -2 -10
right_child=4 2 -4 6 7 -7 -8 9 11 -11 -12 -13
leaf_value=-0.0034841480476853364 0.0019667272003409402 -0.0062855467688211278 0.0022485383320599794 0.0023198352572286413 0.0023462481244846626 -0.012076583558201105 0.011049265510820111 0.0091208789514860625 0.003532980876376054 0.0042007928341627121 -0.0033370627284360433 0.0082767876703292147
leaf_weight=26 89 115 28 21 27 87 29 108 28 25 21 20
leaf_count=26 89 115 28 21 27 87 29 108 28 25 21 20
internal_value=0 -0.00467969 -0.00743714 0.00366523 0.00478881 -0.00877971 0.0073829 0.0072089 0.0023381 0.00819605 0.000954185 0.00550957
internal_weight=0 306 230 76 318 202 50 160 158 133 110 48
internal_count=624 306 230 76 318 202 50 160 158 133 110 48
is_linear=0
shrinkage=0.05


Tree=39
num_leaves=15
num_cat=0
split_feature=0 0 18 7 12 12 104 127 103 0 20 7 85 86
split_gain=5.047 2.58392 1.54395 1.32015 0.763284 0.680859 0.539648 0.327466 0.319344 0.506606 0.250342 0.172543 0.149248 0.0947781
threshold=0.46749528222583808 -1.0000000180025095e-35 -0.00018792870916714996 0.00028372971174460009 -0.83821134389486029 -0.24858114194243089 -4.3306920584355919e-07 0.0082402521565567866 -5.1524340665205334e-07 0.96909215463823195 0.00020451876391108103 0.0013900828156095501 -0.00043837426167432349 -0.00011093992178682347
decision_type=2 2 2 2 2 2 2 2 2 2 2 2 2 2
left_child=1 2 6 -4 -3 10 -1 -6 9 -7 11 -2 -10 -12
right_child=5 4 3 -5 7 8 -8 -9 12 -11 13 -13 -14 -15
leaf_value=0.0034426921706957126 0.0018683908614486957 -0.00068570911753340624 -0.012384262172361979 0.0047024767921539021 -0.0099363372620270667 0.0090204887769439017 0.013247437207230732 -0.0032643360861887537 0.011328403378526371 -0.0012887795097552815 0.0033563317664499792 -0.0031702096681068986 0.0072068010797587834 0.0078629484865814451
leaf_weight=36 89 32 26 20 148 22 23 21 30 26 28 21 82 20
leaf_count=36 89 32 26 20 148 22 23 21 30 26 28 21 82 20
internal_value=0 -0.0044457 0.0019113 -0.00495525 -0.00776653 0.00454937 0.00726488 -0.00910727 0.00684845 0.0034363 0.00222119 0.000906476 0.0083108 0.00523409
internal_weight=0 306 105 46 201 318 59 169 160 48 158 110 112 48
internal_count=624 306 105 46 201 318 59 169 160 48 158 110 112 48
is_linear=0
shrinkage=0.05


Tree=40
num_leaves=14
num_cat=0
split_feature=0 53 11 5 12 89 0 1 14 16 130 20 19
split_gain=4.92899 2.32299 0.855073 0.844254 0.794579 0.476458 0.372143 0.328901 0.301593 0.402834 0.149405 0.124453 0.212233
threshold=0.63554559170823521 1.9270820254031342e-07 0.00097033143865410008 0.85675282907852091 -0.24471966270583298 -5.5042168585513646e-07 0.94191450377334929 0.037072472602850605 0.0095861545969837675 0.0037905689683301554 -1.0867573125542626e-07 0.00024895988240059621 0.00092314433828070779
decision_type=2 2 2 2 2 2 2 2 2 2 2 2 2
left_child=1 2 3 -1 7 -4 11 -3 10 -10 -8 12 -2
right_child=6 4 5 -5 -6 -7 8 -9 9 -11 -12 -13 -14
leaf_value=-0.0020111563777056884 0.0033363713852563644 -0.005265337520278991 -0.0086526396591216342 -0.011855795700103046 0.009158194639944826 -0.017338211629539729 0.010479903380785671 0.0017133955248237517 -0.00068252589553594598 0.007313846548398336 0.0066299733306680406 0.0064056668709963557 -0.0023674987120709074
leaf_weight=98 73 25 75 28 29 20 42 52 28 36 63 20 21
leaf_count=98 73 25 75 28 29 20 42 52 28 36 63 20 21
internal_value=0 -0.00398079 -0.0068994 -0.00419885 0.00210425 -0.0104812 0.00503174 -0.000552427 0.0065209 0.00381543 0.00816995 0.00282413 0.0020621
internal_weight=0 327 221 126 106 95 283 77 169 64 105 114 94
internal_count=610 327 221 126 106 95 283 77 169 64 105 114 94
is_linear=0
shrinkage=0.05


Tree=41
num_leaves=12
num_cat=0
split_feature=0 53 135 12 2 0 1 105 104 20 54
split_gain=4.44841 2.0965 0.779441 0.717107 0.604515 0.335859 0.296834 0.26438 0.237152 0.112974 0.128191
threshold=0.63554559170823521 1.9270820254031342e-07 2.3200077307348502e-05 -0.24471966270583298 0.013815450793567751 0.94191450377334929 0.037072472602850605 -6.8170424024546506e-07 -4.2826071392345299e-06 0.00021599531915238827 1.2027414872132623e-07
decision_type=2 2 2 2 2 2 2 2 2 2 2
left_child=1 2 4 6 -1 9 -3 -7 -9 10 -2
right_child=5 3 -4 -5 -6 7 -8 8 -10 -11 -12
leaf_value=-0.0086274036346945509 0.004353512055240572 -0.0050020706905052068 0.0017598242713138463 0.008700284946324497 6.8727961700895561e-07 0.0021029429277405142 0.0016277257621718144 0.010448275659328854 0.0058383009415500023 0.0050476793366085208 0.00014286884812178208
leaf_weight=173 28 25 25 29 23 32 52 39 98 35 51
leaf_count=173 28 25 25 29 23 32 52 39 98 35 51
internal_value=0 -0.00378175 -0.00655443 0.00199904 -0.00761492 0.00478015 -0.000524806 0.00619485 0.00715063 0.00268292 0.00163525
internal_weight=0 327 221 106 196 283 77 169 137 114 79
internal_count=610 327 221 106 196 283 77 169 137 114 79
is_linear=0
shrinkage=0.05


Tree=42
num_leaves=14
num_cat=0
split_feature=0 7 38 19 9 3 0 14 16 24 135 36 7
split_gain=4.01469 2.23702 0.839934 0.813532 0.458387 0.379362 0.303113 0.262207 0.366548 0.163955 0.117031 0.109767 0.183367
threshold=0.63554559170823521 1.0000000180025095e-35 -0.0098902264099856481 -0.0010510990479420499 0.10840440770652626 0.28115056497838725 0.94191450377334929 0.0095861545969837675 0.0037905689683301554 2.3816583032347811e-05 -1.1529899857661012e-07 1.0838516697484388e-05 0.0014716041080321
decision_type=2 2 2 2 2 2 2 2 2 2 2 2 2
left_child=1 2 -1 9 -4 -5 11 10 -9 -3 -8 12 -2
right_child=6 3 4 5 -6 -7 7 8 -10 -11 -12 -13 -14
leaf_value=0.0022559163404035974 0.0029274934818886325 0.0098142323239396034 -0.009320231142675283 0.00073515539763555418 -0.0027001666338492217 -0.006668476263682048 0.0095942426759463087 -0.00092811291771275652 0.0066996158618066043 0.0036845408938825132 0.0061395366083491941 0.0051449501095339658 -0.0025573665648698806
leaf_weight=22 64 24 143 62 32 24 39 28 36 20 66 30 20
leaf_count=22 64 24 143 62 32 24 39 28 36 20 66 30 20
internal_value=0 -0.00359266 -0.00695212 0.00149822 -0.00810971 -0.00133097 0.00454115 0.00588511 0.00336248 0.00702801 0.00742271 0.00254878 0.00162157
internal_weight=0 327 197 130 175 86 283 169 64 44 105 114 84
internal_count=610 327 197 130 175 86 283 169 64 44 105 114 84
is_linear=0
shrinkage=0.05


Tree=43
num_leaves=12
num_cat=0
split_feature=0 7 12 38 12 3 13 75 16 4 16
split_gain=3.62326 2.01891 0.77415 0.75804 0.529086 0.35698 0.281958 0.211758 0.189743 0.0637691 0.027344
threshold=0.63554559170823521 1.0000000180025095e-35 -0.21712601640994841 -0.0098902264099856481 -0.20590312303736938 0.28115056497838725 0.12045164972951936 1.0000000180025095e-35 0.0029035999490820536 0.0096156158100038514 0.0037905689683301554
decision_type=2 2 2 2 2 2 2 2 2 2 2
left_child=1 3 5 -1 -5 -3 7 8 -2 -8 -9
right_child=6 2 -4 4 -6 -7 9 10 -10 -11 -12
leaf_value=0.0021431205138056119 0.0072273288582733203 0.00077167323880842817 0.0073171620567639671 -0.0053232995110447517 -0.010878780261302989 -0.0063350523744399355 0.0023626776847608943 0.0095124693214893342 0.0034570220676594533 -0.0013623307924717665 0.0070092047409464914
leaf_weight=22 43 67 39 100 75 24 27 20 149 20 24
leaf_count=22 43 67 39 100 75 24 27 20 149 20 24
internal_value=0 -0.00341303 0.00142331 -0.00660452 -0.00770422 -0.00110263 0.00431409 0.0050184 0.00430141 0.000777568 0.00814705
internal_weight=0 327 130 197 175 91 283 236 192 47 44
internal_count=610 327 130 197 175 91 283 236 192 47 44
is_linear=0
shrinkage=0.05


Tree=44
num_leaves=10
num_cat=0
split_feature=10 11 107 5 12 124 14 12 11
split_gain=3.31567 1.14641 1.05886 1.03215 0.917916 0.693176 0.393815 0.372149 0.129307
threshold=6.106226635438362e-16 0.0020193309399012004 -7.7126376794451722e-06 0.0058206065158664015 -0.28048830094023658 -1.4158638749662517e-06 5.738942354403762e-05 -0.12722523066875177 0.88436850566910741
decision_type=2 2 2 2 2 2 2 2 2
left_child=1 3 -2 4 -1 -5 -3 8 -4
right_child=2 6 7 5 -6 -7 -8 -9 -10
leaf_value=0.00083156474430433162 0.0011880506040348163 -0.010595558206772521 -0.0060575658719365794 0.0021103088710285526 0.0059772765344347466 -0.0076424468188945735 -0.0010229672823863273 -0.015304575115442276 -0.010143097983125378
leaf_weight=143 31 21 45 38 220 35 22 21 34
leaf_count=143 31 21 45 38 220 35 22 21 34
internal_value=0 0.00209104 -0.00688567 0.00285922 0.00395018 -0.00256567 -0.00569795 -0.00938852 -0.0078159
internal_weight=0 479 131 436 363 73 43 100 79
internal_count=610 479 131 436 363 73 43 100 79
is_linear=0
shrinkage=0.05


Tree=45
num_leaves=12
num_cat=0
split_feature=11 5 1 12 62 12 12 1 89 1 101
split_gain=3.38941 1.66125 0.918171 0.815315 0.640297 0.529349 0.430826 0.355213 0.30152 0.182102 0.0314094
threshold=0.0019550819924186004 0.0058206065158664015 1.0000000180025095e-35 -0.3971843094015613 1.0000000180025095e-35 -0.55750876003665439 -0.48191258332880699 0.23249952025946138 -4.9299755494233386e-05 0.20691508490063343 -1.7112273980887166e-06
decision_type=2 2 2 2 2 2 2 2 2 2 2
left_child=1 3 5 7 -5 -3 -2 -1 10 -4 -8
right_child=6 2 9 4 -6 -7 8 -9 -10 -11 -12
leaf_value=0.0015206518468643619 -0.0033225547868567401 -0.0010723512439819222 0.0045302077796939696 0.0060421565248231805 -0.0022341121382151662 -0.01068644092543187 -0.0088361451007200019 -0.0054609516021710911 -0.015060934200882913 -0.0015241207213282748 -0.006362541658537728
leaf_weight=106 39 22 27 231 26 41 33 22 20 23 21
leaf_count=106 39 22 27 231 26 41 33 22 20 23 21
internal_value=0 0.00201651 -0.00331394 0.00358104 0.00520487 -0.00732914 -0.00757526 0.000320689 -0.00981655 0.00174522 -0.00787419
internal_weight=0 498 113 385 257 63 113 128 74 50 54
internal_count=611 498 113 385 257 63 113 128 74 50 54
is_linear=0
shrinkage=0.05


Tree=46
num_leaves=12
num_cat=0
split_feature=11 5 27 12 55 12 12 79 89 27 23
split_gain=3.05895 1.49928 0.82865 0.735822 0.585889 0.477738 0.388821 0.301417 0.272122 0.160156 0.040719
threshold=0.0019550819924186004 0.0058206065158664015 3.6717362656580036e-17 -0.3971843094015613 1.0000000180025095e-35 -0.55750876003665439 -0.48191258332880699 0.14991022681150298 -4.9299755494233386e-05 0.0024113026674683897 0.0042358842189567708
decision_type=2 2 2 2 2 2 2 2 2 2 2
left_child=1 3 5 7 -5 -3 -2 -1 10 -4 -8
right_child=6 2 9 4 -6 -7 8 -9 -10 -11 -12
leaf_value=0.0013487782700664227 -0.0031564270349171684 -0.001018733594735915 0.0048504057155117734 0.0056567645242035199 -0.0030584637785241718 -0.010152118859767188 -0.0058245734946632925 -0.005333615123527125 -0.014307887610048057 -0.00085039769848143417 -0.0086189135443419228
leaf_weight=108 39 22 22 236 21 41 22 20 20 28 32
leaf_count=108 39 22 22 236 21 41 22 20 20 28 32
internal_value=0 0.00191569 -0.00314824 0.00340199 0.00494463 -0.00696268 -0.0071965 0.000304654 -0.00932572 0.00165796 -0.00748048
internal_weight=0 498 113 385 257 63 113 128 74 50 54
internal_count=611 498 113 385 257 63 113 128 74 50 54
is_linear=0
shrinkage=0.05


Tree=47
num_leaves=13
num_cat=0
split_feature=0 7 44 69 34 79 86 0 104 104 111 0
split_gain=2.6749 1.30875 0.963166 0.746164 0.397443 0.295971 0.21126 0.320331 0.213768 0.357106 0.211207 0.14097
threshold=0.60597714324359564 0.00047602051445270007 0.0013922238191683397 -1.0000000180025095e-35 0.00047641158814301258 -0.014042459188144753 -6.2893923175059085e-05 0.96014077284329535 -4.4459780395771453e-06 -2.9266640743795154e-06 -2.285486295400644e-06 0.96288495049261213
decision_type=2 2 2 2 2 2 2 2 2 2 2 2
left_child=1 3 5 -1 -5 -3 7 10 11 -10 -2 -8
right_child=6 2 -4 4 -6 -7 8 -9 9 -11 -12 -13
leaf_value=0.0020379336998303187 0.00064660766890839395 0.00030959703269466197 -0.0074409660301171243 -0.0072550406702940572 -0.0012991298835806769 0.0073860273618871972 0.0050117236568410356 -0.0036086927744604295 -0.0017928137779235839 0.0049308796715427268 0.0052009598839121238 0.010058062866330148
leaf_weight=32 46 22 20 159 34 45 31 21 25 94 57 25
leaf_count=32 46 22 20 159 34 45 31 21 25 94 57 25
internal_value=0 -0.0030197 0.00218808 -0.00503337 -0.00620581 0.00506242 0.00359837 0.00201948 0.00471713 0.00351834 0.00316698 0.00726455
internal_weight=0 312 87 225 193 67 299 124 175 119 103 56
internal_count=611 312 87 225 193 67 299 124 175 119 103 56
is_linear=0
shrinkage=0.05


Tree=48
num_leaves=11
num_cat=0
split_feature=11 7 135 12 44 12 12 19 89 23
split_gain=2.54558 1.04172 0.709486 0.654545 0.627392 0.602918 0.328685 0.283467 0.246132 0.0366788
threshold=0.0019550819924186004 0.00047602051445270007 1.0000000180025095e-35 -0.14900696384580234 0.00021836505325665924 -0.2402909364493539 -0.48191258332880699 6.0498312539442537e-05 -4.9299755494233386e-05 0.0042358842189567708
decision_type=2 2 2 2 2 2 2 2 2 2
left_child=1 2 3 -1 7 -4 -2 -3 9 -8
right_child=6 4 5 -5 -6 -7 8 -9 -10 -11
leaf_value=-0.0011762963973322056 -0.0028526130511473198 0.0079678844690862852 -0.00052791655620151173 -0.009418710585563414 -0.0031830952320403109 0.0092053342682237808 -0.0051982880993322895 0.0036813772760255826 -0.013263077940791845 -0.0078503758180886504
leaf_weight=108 39 47 41 31 30 26 22 215 20 32
leaf_count=108 39 47 41 31 30 26 22 215 20 32
internal_value=0 0.00174532 -0.00097731 -0.00301453 0.00366607 0.00324917 -0.00656715 0.00445033 -0.00852481 -0.0067699
internal_weight=0 498 206 139 292 67 113 262 74 54
internal_count=611 498 206 139 292 67 113 262 74 54
is_linear=0
shrinkage=0.05


Tree=49
num_leaves=11
num_cat=0
split_feature=11 5 1 1 10 12 12 23 1 12
split_gain=2.30505 1.18219 0.711299 0.629732 0.490205 0.412177 0.321378 0.174728 0.155399 0.0216094
threshold=0.0020193309399012004 0.0058206065158664015 1.0000000180025095e-35 0.23249952025946138 1.0000000180025095e-35 -0.55750876003665439 -0.48191258332880699 0.0016871688801005202 0.20691508490063343 -0.24471966270583298
decision_type=2 2 2 2 2 2 2 2 2 2
left_child=1 3 5 4 -1 -3 -2 -8 -4 -9
right_child=6 2 8 -5 -6 -7 7 9 -10 -11
leaf_value=0.0040477864636870265 -0.0027099824483649664 -0.00069559204169887708 0.0042430431926967927 -0.0052524088511497462 -0.0022576198967940667 -0.0091099921180758364 -0.012320406408980489 -0.00562457103620876 -0.0013498042608894732 -0.0077026673255424054
leaf_weight=330 39 22 27 22 34 43 20 22 23 29
leaf_count=330 39 22 27 22 34 43 20 22 23 29
internal_value=0 0.00163661 -0.00281318 0.00296233 0.00345882 -0.00626204 -0.0063565 -0.00835952 0.00167033 -0.00680623
internal_weight=0 501 115 386 364 65 110 71 50 51
internal_count=611 501 115 386 364 65 110 71 50 51
is_linear=0
shrinkage=0.05


Tree=50
num_leaves=14
num_cat=0
split_feature=0 14 96 80 69 8 105 39 69 7 7 130 80
split_gain=1.79079 1.01594 0.855572 0.632323 0.562927 0.390955 0.352897 0.366538 0.95845 0.192483 0.186937 0.203154 0.111079
threshold=0.63554559170823521 -0.0049709319214650488 -1.1265133461980353e-05 -0.00088421830480146508 -1.0000000180025095e-35 7.7751692148348504e-05 -6.4379720926799013e-07 7.0611760710010761e-06 6.893763064954311e-07 1.0000000180025095e-35 0.0015532472612072503 -5.0570573967442343e-08 -0.00089836470692291465
decision_type=2 2 2 2 2 2 2 2 2 2 2 2 2
left_child=1 2 -1 9 -4 -5 7 8 -2 -3 11 -8 -12
right_child=6 3 4 5 -6 -7 10 -9 -10 -11 12 -13 -14
leaf_value=-0.0057200395060741961 0.0024738558050871017 -0.0038109211637804823 0.012055516684804821 -0.0049134591905462474 0.0019887449719556949 -0.01238021333469078 -0.0013018011590465904 0.0062007295064783344 -0.0095036265723731222 0.0012976280886774745 0.0068320970742830212 0.0043909883632468772 0.003626093376343223
leaf_weight=24 61 28 21 142 41 20 25 24 23 54 70 42 44
leaf_count=24 61 28 21 142 41 20 25 24 23 54 70 42 44
internal_value=0 -0.00237735 0.00229562 -0.00402438 0.00539846 -0.00583528 0.00301319 0.00075129 -0.000805693 -0.000446755 0.00436283 0.00226681 0.00559469
internal_weight=0 330 86 244 62 162 289 108 84 82 181 67 114
internal_count=619 330 86 244 62 162 289 108 84 82 181 67 114
is_linear=0
shrinkage=0.05


Tree=51
num_leaves=14
num_cat=0
split_feature=0 14 96 14 69 39 105 39 69 7 105 105 16
split_gain=1.61619 0.916888 0.772154 0.508317 0.508041 0.375547 0.31849 0.330801 0.865001 0.208586 0.175166 0.201606 0.0501918
threshold=0.63554559170823521 -0.0049709319214650488 -1.1265133461980353e-05 0.0029757526903062652 -1.0000000180025095e-35 5.1943317162665668e-07 -6.4379720926799013e-07 7.0611760710010761e-06 6.893763064954311e-07 0.00075274779794680011 -3.2278413183088965e-07 -1.9603678905682514e-07 0.0038380894587366292
decision_type=2 2 2 2 2 2 2 2 2 2 2 2 2
left_child=1 2 -1 5 -4 -3 7 8 -2 -5 12 -12 -8
right_child=6 3 4 9 -6 -7 10 -9 -10 -11 11 -13 -14
leaf_value=-0.0054340376916419096 0.002350163007380258 -0.0044556187457921032 0.01145274090758037 -0.0022062675940676358 0.001889307783325998 -0.011600660621410325 0.0076407616173050242 0.0058906930469674991 -0.0090284455000706337 0.0034463840730798744 -0.001355186872006882 0.0040114599528412028 0.0045008391793817286
leaf_weight=24 61 148 21 51 41 21 35 24 23 24 21 105 20
leaf_count=24 61 148 21 51 41 21 35 24 23 24 21 105 20
internal_value=0 -0.00225848 0.00218084 -0.00382316 0.00512854 -0.00534346 0.00286253 0.000713725 -0.000765408 -0.000397419 0.00414468 0.00311702 0.00649897
internal_weight=0 330 86 244 62 169 289 108 84 75 181 126 55
internal_count=619 330 86 244 62 169 289 108 84 75 181 126 55
is_linear=0
shrinkage=0.05


Tree=52
num_leaves=14
num_cat=0
split_feature=0 14 96 80 69 6 84 2 69 38 4 84 12
split_gain=1.45861 0.827491 0.696869 0.522936 0.458507 0.362647 0.293735 0.433089 0.727502 0.29388 0.154562 0.149461 0.108946
threshold=0.63554559170823521 -0.0049709319214650488 -1.1265133461980353e-05 -0.00088421830480146508 -1.0000000180025095e-35 3.8857805861880484e-16 -5.8254258204965257e-05 0.0097092192758286011 5.9166787917346233e-07 3.2163608862182782e-05 0.0050169538936638012 -2.7064533161556436e-05 -0.47541134047963601
decision_type=2 2 2 2 2 2 2 2 2 2 2 2 2
left_child=1 2 -1 10 -4 -5 7 12 -9 11 -3 -8 -2
right_child=6 3 4 5 -6 -7 9 8 -10 -11 -12 -13 -14
leaf_value=-0.0051623357841511586 0.0019449252170998966 0.0020753087094312326 0.010880103905635354 -0.0041280353875503741 0.0017948423239697771 -0.010141895606272645 0.0012742072408713525 0.0017644726038456727 -0.0099646583339199433 0.0083544900965397111 -0.0022988913908667872 0.0047074082455682486 0.0059492992429897706
leaf_weight=24 41 36 21 131 41 31 61 39 20 33 46 66 29
leaf_count=24 41 36 21 131 41 31 61 39 20 33 46 66 29
internal_value=0 -0.00214556 0.0020718 -0.00363201 0.00487211 -0.00527884 0.0027194 0.000944131 -0.0022115 0.00415071 -0.000378511 0.00305839 0.00360388
internal_weight=0 330 86 244 62 162 289 129 59 160 82 127 70
internal_count=619 330 86 244 62 162 289 129 59 160 82 127 70
is_linear=0
shrinkage=0.05


Tree=53
num_leaves=8
num_cat=0
split_feature=11 5 3 19 89 14 128
split_gain=1.27633 1.0111 0.832711 0.650222 0.340548 0.224889 0.0840662
threshold=0.00097033143865410008 0.81832714928554529 0.28115056497838725 0.0059903983086808102 -2.0224120829087531e-05 0.00040332208359628957 -4.190065966709461e-07
decision_type=2 2 2 2 2 2 2
left_child=1 2 3 -1 5 6 -2
right_child=4 -3 -4 -5 -6 -7 -8
leaf_value=0.0016652154042320528 -0.0063142256010905841 -0.0076787930152689421 -0.0079437588003375345 0.0085006568458323422 -0.0094899990802837751 0.0015876172785647216 -0.0028564030817972547
leaf_weight=412 32 30 21 38 27 20 39
leaf_count=412 32 30 21 38 27 20 39
internal_value=0 0.00122138 0.00178827 0.00224243 -0.00455875 -0.00309563 -0.00441486
internal_weight=0 501 471 450 118 91 71
internal_count=619 501 471 450 118 91 71
is_linear=0
shrinkage=0.05


Tree=54
num_leaves=9
num_cat=0
split_feature=10 3 5 19 12 107 22 5
split_gain=1.17273 0.915334 0.713473 0.743666 0.668089 0.366055 0.188336 0.11553
threshold=1.0000000180025095e-35 0.31169576681361694 0.0058206065158664015 0.0059903983086808102 -0.33036142867316226 -6.5449596228948542e-06 1.2120407919169992e-05 0.0019777533308886004
decision_type=2 2 2 2 2 2 2 2
left_child=1 2 3 -1 -4 -2 7 -7
right_child=5 -3 4 -5 -6 6 -8 -9
leaf_value=0.0020653790300329731 0.00076154700311070137 -0.0084242469271766426 0.00044317265705866435 0.010043391500948929 -0.0093818781874991444 -0.0088787848730721777 -0.0017850151656853873 -0.0049937648801133038
leaf_weight=335 33 23 62 32 24 31 29 50
leaf_count=335 33 23 62 32 24 31 29 50
internal_value=0 0.0013064 0.00180045 0.00276101 -0.0022987 -0.0038571 -0.00524269 -0.00648062
internal_weight=0 476 453 367 86 143 110 81
internal_count=619 476 453 367 86 143 110 81
is_linear=0
shrinkage=0.05


Tree=55
num_leaves=9
num_cat=0
split_feature=11 27 45 85 89 0 4 23
split_gain=1.31026 0.625301 0.549007 0.51361 0.335097 0.11032 0.0877875 0.0151473
threshold=0.0020193309399012004 -0.21942710170813137 0.00011238335002491035 -0.0086693429324416742 -2.0224120829087531e-05 0.0082246432148591515 0.0039360394461449002 0.0039018641805003422
decision_type=2 2 2 2 2 2 2 2
left_child=1 -1 3 -3 5 7 -7 -2
right_child=4 2 -4 -5 -6 6 -8 -9
leaf_value=-0.0070928983877158978 -0.0040267845260955042 0.0097571191898896369 -0.0055472196823057648 0.001566472728338565 -0.010587574865203351 -0.0041925975435879084 0.00021359558629158596 -0.005765984291511198
leaf_weight=22 21 20 26 445 20 20 26 31
leaf_count=22 21 20 26 445 20 20 26 31
internal_value=0 0.0011539 0.00152341 0.00191876 -0.00468947 -0.00348578 -0.00170214 -0.00506362
internal_weight=0 513 491 465 118 98 46 52
internal_count=631 513 491 465 118 98 46 52
is_linear=0
shrinkage=0.05


Tree=56
num_leaves=9
num_cat=0
split_feature=11 27 45 19 89 0 89 0
split_gain=1.18251 0.564335 0.495479 0.608554 0.302425 0.0995639 0.0863447 0.0122927
threshold=0.0020193309399012004 -0.21942710170813137 0.00011238335002491035 0.0059903983086808102 -2.0224120829087531e-05 0.0082246432148591515 -0.0014639428026769514 0.0048330785489283509
decision_type=2 2 2 2 2 2 2 2
left_child=1 -1 3 -3 5 7 -7 -2
right_child=4 2 -4 -5 -6 6 -8 -9
leaf_value=-0.006738253591836176 -0.004011513501405716 0.0012909917924572197 -0.0052698587497266441 0.0079747873352135762 -0.010058196100872011 -0.0035169618757208811 0.00085287323738157293 -0.0055501759328224045
leaf_weight=22 25 428 26 37 20 26 20 27
leaf_count=22 25 428 26 37 20 26 20 27
internal_value=0 0.00109621 0.00144724 0.00182282 -0.004455 -0.00331149 -0.00161703 -0.00481043
internal_weight=0 513 491 465 118 98 46 52
internal_count=631 513 491 465 118 98 46 52
is_linear=0
shrinkage=0.05


Tree=57
num_leaves=9
num_cat=0
split_feature=11 27 105 85 54 89 108 42
split_gain=1.06722 0.509312 0.467839 0.712124 0.37491 0.272938 0.0810811 0.234881
threshold=0.0020193309399012004 -0.21942710170813137 -6.8170424024546506e-07 -0.00043837426167432349 1.3810840802962901e-06 -2.0224120829087531e-05 -2.0369473374555159e-05 0.0008650798805187066
decision_type=2 2 2 2 2 2 2 2
left_child=1 -1 4 -4 -3 6 7 -2
right_child=5 2 3 -5 -6 -7 -8 -9
leaf_value=-0.0064013407713818284 0.0023126792284892876 -0.0036487711736382074 0.0074970634310837772 0.0013923449167739174 0.0010789487405006937 -0.0095552864842466095 -0.005603499913471751 -0.0040465266830375735
leaf_weight=22 20 66 59 251 115 20 25 53
leaf_count=22 20 66 59 251 115 20 25 53
internal_value=0 0.0010414 0.00137488 0.00255421 -0.000644971 -0.00423225 -0.00314592 -0.00230428
internal_weight=0 513 491 310 181 118 98 73
internal_count=631 513 491 310 181 118 98 73
is_linear=0
shrinkage=0.05


Tree=58
num_leaves=10
num_cat=0
split_feature=11 27 3 21 89 135 0 89 23
split_gain=0.963162 0.459654 0.441531 0.525725 0.246327 0.229505 0.0835638 0.0772948 0.0123174
threshold=0.0020193309399012004 -0.21942710170813137 0.051818353578488359 1.6208410144096214e-16 -2.0224120829087531e-05 -7.305376794857878e-08 0.0082246432148591515 -0.0014639428026769514 0.0039018641805003422
decision_type=2 2 2 2 2 2 2 2 2
left_child=1 -1 3 -3 6 -4 8 -8 -2
right_child=4 2 5 -5 -6 -7 7 -9 -10
leaf_value=-0.0060812737882687627 -0.0034268757062298916 0.002896113669080152 0.0010750810751882715 -0.0027659140891355882 -0.0090775219700299208 -0.0032618928453520138 -0.0032338797567053219 0.0009006131312344224 -0.004995220551087011
leaf_weight=22 21 321 56 47 20 67 26 20 31
leaf_count=22 21 321 56 47 20 67 26 20 31
internal_value=0 0.000989326 0.00130613 0.00217297 -0.00402064 -0.00128734 -0.00298862 -0.00143627 -0.00436185
internal_weight=0 513 491 368 118 123 98 46 52
internal_count=631 513 491 368 118 123 98 46 52
is_linear=0
shrinkage=0.05


Tree=59
num_leaves=11
num_cat=0
split_feature=11 25 86 86 86 86 89 0 35 106
split_gain=0.869253 0.438237 0.476867 0.451112 0.690068 0.575548 0.22231 0.0754163 0.0791657 0.0117726
threshold=0.0020193309399012004 0.039020650671782488 -1.0692046080277063e-05 1.0000000180025095e-35 -1.4029927308392195e-05 8.8983296403350823e-05 -2.0224120829087531e-05 0.0082246432148591515 1.2277632556855646e-05 -1.4821386018260636e-07
decision_type=2 2 2 2 2 2 2 2 2 2
left_child=1 3 -3 4 -1 -5 7 9 -9 -2
right_child=6 2 -4 5 -6 -7 -8 8 -10 -11
leaf_value=0.0018127054732589344 -0.0035489938250975687 0.00087600343324469802 -0.0081782122859014924 0.0089248322927188584 -0.0034773878035290785 0.001539806798540962 -0.0086236460506916059 0.0010005408350843936 -0.0031836921801396572 -0.0050953806657344104
leaf_weight=258 32 33 26 41 81 74 20 20 26 20
leaf_count=258 32 33 26 41 81 74 20 20 26 20
internal_value=0 0.00093986 -0.00311399 0.00146668 0.000548701 0.00417273 -0.00381961 -0.00283919 -0.00136446 -0.00414376
internal_weight=0 513 59 454 339 115 118 98 46 52
internal_count=631 513 59 454 339 115 118 98 46 52
is_linear=0
shrinkage=0.05


Tree=60
num_leaves=11
num_cat=0
split_feature=0 97 5 8 53 85 36 14 12 21
split_gain=0.983972 0.425721 0.380616 0.364153 0.206439 0.167675 0.118763 0.112644 0.104082 0.04021
threshold=0.94191450377334929 -1.2862706890505382e-09 0.72129000971728741 0.00029664056775240003 1.7990713609433039e-05 -0.00029647232423244562 3.1840112981102235e-18 0.0096290524282720332 -0.27550908475653052 4.6834179254638255e-06
decision_type=2 2 2 2 2 2 2 2 2 2
left_child=1 9 3 -3 5 7 -7 -2 -4 -1
right_child=4 2 8 -5 -6 6 -8 -9 -10 -11
leaf_value=-0.0040880867532299215 0.0045519965442104475 -0.00061053966931942356 -0.0074375528842210775 0.0041950341277859279 -0.00077341823652386668 0.0038216155347606494 -0.00052019179399524415 0.0091598757675715858 -0.0026627259897068142 -0.006982406841901441
leaf_weight=24 36 318 21 45 25 63 21 21 25 24
leaf_count=24 36 318 21 45 25 63 21 21 25 24
internal_value=0 -0.00108058 -0.00055778 -1.48074e-05 0.00341405 0.0041565 0.00273616 0.00624964 -0.00484254 -0.00553525
internal_weight=0 457 409 363 166 141 84 57 46 48
internal_count=623 457 409 363 166 141 84 57 46 48
is_linear=0
shrinkage=0.05


Tree=61
num_leaves=10
num_cat=0
split_feature=6 18 12 45 94 25 19 69 4
split_gain=0.749598 0.716332 0.695955 0.654562 0.463486 0.354391 0.332668 0.141159 0.0484739
threshold=0.00014794238344715001 -0.32362450225219336 -0.10175574576133321 0.00011238335002491035 -3.0564171013137164e-05 0.00055388797392304592 0.0067691534588317139 2.1032289135025694e-07 0.0048079234689726007
decision_type=2 2 2 2 2 2 2 2 2
left_child=1 8 5 4 7 -3 -6 -2 -1
right_child=3 2 -4 -5 6 -7 -8 -9 -10
leaf_value=0.0050822839987548912 0.00020900242770849318 -0.0010126106440183445 -0.0094545974261372508 -0.0072793345409445463 0.0026899321236012862 -0.0079813486818845081 0.0094214226934127513 -0.004338811381742181 0.0019459754362677424
leaf_weight=22 91 139 38 20 223 21 20 21 28
leaf_count=22 91 139 38 20 223 21 20 21 28
internal_value=0 -0.00202153 -0.0033719 0.0015216 0.00201743 -0.00192726 0.00324396 -0.000643713 0.00332595
internal_weight=0 248 198 375 355 160 243 112 50
internal_count=623 248 198 375 355 160 243 112 50
is_linear=0
shrinkage=0.05


Tree=62
num_leaves=11
num_cat=0
split_feature=0 97 39 39 0 53 36 93 105 90
split_gain=0.804811 0.371953 0.362304 0.275469 0.244928 0.18953 0.132993 0.300954 0.149001 0.0407991
threshold=0.94191450377334929 -1.2862706890505382e-09 -0.00013957465147695 4.105729581540172e-07 0.00099588179101820027 1.7990713609433039e-05 1.0000000180025095e-35 -1.2990644050065435e-06 -5.6593256590302132e-07 -6.3209979203414484e-08
decision_type=2 2 2 2 2 2 2 2 2 2
left_child=1 9 4 -4 -3 6 8 -8 -2 -1
right_child=5 2 3 -5 -6 -7 7 -9 -10 -11
leaf_value=-0.0038004448252300232 0.0086661905981600292 0.0059638165976139135 -0.0029482656055991887 -1.8639321497175841e-05 0.00018670246230782184 -0.00092490485310554513 0.00538124287419993 -0.003005159879103303 0.0038287546443872347 -0.0067260637911121281
leaf_weight=26 20 32 134 200 43 25 23 20 78 22
leaf_count=26 20 32 134 200 43 25 23 20 78 22
internal_value=0 -0.000977484 -0.000488814 -0.001194 0.0026516 0.00308741 0.00379881 0.00148059 0.00481599 -0.00514135
internal_weight=0 457 409 334 75 166 141 43 98 48
internal_count=623 457 409 334 75 166 141 43 98 48
is_linear=0
shrinkage=0.05


Tree=63
num_leaves=12
num_cat=0
split_feature=6 18 12 12 96 25 85 52 82 28 4
split_gain=0.616067 0.615978 0.624697 0.555274 0.364706 0.323353 0.310434 0.225113 0.327259 0.178867 0.0425699
threshold=0.00014794238344715001 -0.32362450225219336 -0.10175574576133321 -0.28349908662524365 -5.9178027257360606e-07 0.00055388797392304592 -0.00032924605955649363 1.0263084553215476e-06 0.00065190994429347078 5.6368516971248775e-05 0.0048079234689726007
decision_type=2 2 2 2 2 2 2 2 2 2 2
left_child=1 10 5 7 -5 -3 -6 8 -2 -9 -1
right_child=3 2 -4 4 6 -7 -8 9 -10 -11 -12
leaf_value=0.0047715775012461981 -0.0084337302634958176 -0.00084295242121560407 -0.0088482046205746508 -0.0020165657957217525 0.0074903884988126099 -0.0074995406227008933 0.0027378067341835605 0.0027050458095354423 0.00031149691001147685 -0.00099371683334342482 0.0018324679431056473
leaf_weight=22 20 139 38 28 49 21 115 52 23 88 28
leaf_count=22 20 139 38 28 49 21 115 52 23 88 28
internal_value=0 -0.0018331 -0.00308532 0.00137898 0.00325736 -0.00171663 0.00415779 -0.000591775 -0.00375605 0.000380109 0.00312568
internal_weight=0 248 198 375 192 160 164 183 43 140 50
internal_count=623 248 198 375 192 160 164 183 43 140 50
is_linear=0
shrinkage=0.05


Tree=64
num_leaves=10
num_cat=0
split_feature=0 32 27 8 33 53 85 85 2
split_gain=0.643137 0.333659 0.340942 0.272708 0.234386 0.173034 0.133271 0.103626 0.0944546
threshold=0.94191450377334929 2.2059013202438143e-18 -0.25147561207115726 0.00029664056775240003 4.0540067807648404e-06 1.7990713609433039e-05 -0.00029647232423244562 -0.00024532172023256191 0.0099137503961243007
decision_type=2 2 2 2 2 2 2 2 2
left_child=1 2 -1 -4 -3 6 8 -8 -2
right_child=5 4 3 -5 -6 -7 7 -9 -10
leaf_value=-0.0065923205355093595 0.0037521137930323478 -0.0084126881860277572 -0.00054715024677861083 0.0035184151609428229 -0.0016538116049246287 -0.0010728854089975357 -0.00096721584908664225 0.0031560338575218339 0.0079715864821558909
leaf_weight=21 36 23 337 47 29 25 20 64 21
leaf_count=21 36 23 337 47 29 25 20 64 21
internal_value=0 -0.0008729 -0.000388797 -4.9542e-05 -0.00464331 0.00276084 0.00344058 0.00217431 0.00530666
internal_weight=0 457 405 384 52 166 141 84 57
internal_count=623 457 405 384 52 166 141 84 57
is_linear=0
shrinkage=0.05


Tree=65
num_leaves=10
num_cat=0
split_feature=57 105 85 14 112 19 18 5 21
split_gain=0.707019 0.40043 0.602524 0.363583 0.285557 0.199833 0.187493 0.106851 0.073687
threshold=2.9054664882810914e-05 -7.1087069294788517e-07 -0.0022335859831909351 0.0037162763026138555 0.0016816693131007884 0.001855058436294932 1.7573514171808719e-05 0.00098113819635560029 1.6628409834630271e-06
decision_type=2 2 2 2 2 2 2 2 2
left_child=1 4 -3 -4 5 -1 7 -2 -9
right_child=6 2 3 -5 -6 -7 -8 8 -10
leaf_value=0.00086601653336025467 -0.0016426045979772296 0.010135897575475445 -9.2840858778799889e-05 0.0033105864075417693 -0.0063104453008799334 -0.003712132506382962 0.00056485626052811067 -0.008163821732714063 -0.0043968040565446507
leaf_weight=116 21 22 160 154 21 30 22 21 34
leaf_count=116 21 22 160 154 21 30 22 21 34
internal_value=0 0.00114223 0.0021368 0.00157636 -0.000858835 -7.4699e-05 -0.00349999 -0.00467666 -0.00583512
internal_weight=0 503 336 314 167 146 98 76 55
internal_count=601 503 336 314 167 146 98 76 55
is_linear=0
shrinkage=0.05


Tree=66
num_leaves=8
num_cat=0
split_feature=11 3 85 86 27 142 16
split_gain=0.645619 0.357887 0.378098 0.361473 0.312789 0.0688945 0.00592937
threshold=0.82414918375607138 0.20016863665299814 -0.012812042451663046 -1.0692046080277063e-05 -0.23584234659117351 -5.1821510289823546e-07 2.0312735581244429e-05
decision_type=2 2 2 2 2 2 2
left_child=1 2 -1 -3 -4 -2 -7
right_child=5 3 4 -5 -6 6 -8
leaf_value=0.0081097685243003061 -0.0068289744357268025 0.001415293230569785 -0.0050283279002178464 -0.0062362246991445628 0.001365729796142157 -0.0026836043177172544 -0.0039011194393970073
leaf_weight=20 21 29 20 33 438 20 20
leaf_count=20 21 29 20 33 438 20 20
internal_value=0 0.00091679 0.00138037 -0.00265729 0.00108651 -0.00450988 -0.00329236
internal_weight=0 540 478 62 458 61 40
internal_count=601 540 478 62 458 61 40
is_linear=0
shrinkage=0.05


Tree=67
num_leaves=9
num_cat=0
split_feature=11 25 86 64 0 69 142 11
split_gain=0.582672 0.337797 0.500196 0.333325 0.515048 0.252226 0.0621773 0.00545531
threshold=0.82414918375607138 0.039020650671782488 -1.0692046080277063e-05 -0.00018987968199789997 0.0040282065733699508 1.6360277785995531e-06 -5.1821510289823546e-07 0.96558604820947391
decision_type=2 2 2 2 2 2 2 2
left_child=1 3 -3 4 -1 -5 -2 -8
right_child=6 2 -4 5 -6 -7 7 -9
leaf_value=0.010454666488247154 -0.0064875257068446705 0.0017402158151422296 -0.0068401078072686987 0.0002271546777806926 0.0019647451308264863 0.0047469256789875493 -0.0025438285223208369 -0.0037116589909419423
leaf_weight=23 21 35 33 335 80 34 20 20
leaf_count=23 21 35 33 335 80 34 20 20
internal_value=0 0.00087095 -0.00242376 0.00134561 0.00386055 0.000643611 -0.00428439 -0.00312774
internal_weight=0 540 68 472 103 369 61 40
internal_count=601 540 68 472 103 369 61 40
is_linear=0
shrinkage=0.05


Tree=68
num_leaves=10
num_cat=0
split_feature=57 105 85 7 49 53 5 89 144
split_gain=0.558103 0.352745 0.479298 0.309687 0.221806 0.296688 0.151528 0.0760452 0.0226493
threshold=2.9054664882810914e-05 -7.1087069294788517e-07 -0.0022335859831909351 0.00028844767678485006 5.7620310318357036e-19 2.0727402786479835e-06 0.00097301590908225016 -2.0224120829087531e-05 -0.00020834130763472538
decision_type=2 2 2 2 2 2 2 2 2
left_child=1 4 -3 -4 5 -1 -2 8 -8
right_child=6 2 3 -5 -6 -7 7 -9 -10
leaf_value=-0.0034123665144484821 -0.00048382591772159296 0.0090707219353961671 -0.00043164363752601695 0.0027563354183040129 -0.0052181109581142665 0.0014713394271287448 -0.0045198079021204086 -0.0070437369668590174 -0.0021975892180177785
leaf_weight=46 35 22 130 184 25 96 21 21 21
leaf_count=46 35 22 130 184 25 96 21 21 21
internal_value=0 0.00100285 0.00193633 0.00143647 -0.000875288 -0.000110706 -0.00312161 -0.00458704 -0.0033587
internal_weight=0 503 336 314 167 142 98 63 42
internal_count=601 503 336 314 167 142 98 63 42
is_linear=0
shrinkage=0.05


Tree=69
num_leaves=11
num_cat=0
split_feature=57 105 2 19 8 112 19 18 5 21
split_gain=0.503688 0.318353 0.475998 0.392779 0.249592 0.243184 0.196743 0.140199 0.0841465 0.0725444
threshold=2.9054664882810914e-05 -7.1087069294788517e-07 0.0049312664066311507 0.0061828426554036775 0.00019184745659400003 0.0016816693131007884 0.001855058436294932 1.7573514171808719e-05 0.00098113819635560029 1.6628409834630271e-06
decision_type=2 2 2 2 2 2 2 2 2 2
left_child=1 5 4 -4 -3 6 -1 8 -2 -10
right_child=7 2 3 -5 -6 -7 -8 -9 9 -11
leaf_value=0.00082551523872035476 -0.0012905453830691321 -0.002119615522193878 0.0026641601198002973 0.010054287395905704 0.00223738862690947 -0.0058624322503982558 -0.003717102749894063 0.00054946788004599516 -0.007321643215116292 -0.0035839463104767838
leaf_weight=116 21 84 178 20 54 21 30 22 21 34
leaf_count=116 21 84 178 20 54 21 30 22 21 34
internal_value=0 0.00095271 0.00183952 0.00341064 -0.000414701 -0.000831523 -0.000107899 -0.00296553 -0.00398303 -0.00501107
internal_weight=0 503 336 198 138 167 146 98 76 55
internal_count=601 503 336 198 138 167 146 98 76 55
is_linear=0
shrinkage=0.05


Tree=70
num_leaves=10
num_cat=0
split_feature=10 137 70 85 7 88 62 80 63
split_gain=0.570472 0.344116 0.322965 0.293335 0.247199 0.183854 0.211131 0.156879 0.0395356
threshold=1.0000000180025095e-35 -1.2429279094688696e-19 8.5353258193175974e-19 -0.00086515640366574282 0.0020537975886708005 -5.2220711315841255e-07 2.8568371075522946e-06 -0.0019708303066801247 0.00049338842534689094
decision_type=2 2 2 2 2 2 2 2 2
left_child=2 -2 3 7 -5 8 -7 -1 -3
right_child=1 5 -4 4 -6 6 -8 -9 -10
leaf_value=0.002318274550690638 0.0029952137322239157 -0.0012126325063306737 -0.0045328149093418488 -3.1427652258017341e-05 0.0029289288728487801 -0.01020257451105863 -0.0031044342756186699 0.008208472513360902 -0.0033875973706017251
leaf_weight=26 22 37 27 302 92 20 22 20 48
leaf_count=26 22 37 27 302 92 20 22 20 48
internal_value=0 -0.00277803 0.000775222 0.00110094 0.000659823 -0.00377812 -0.0064845 0.00487923 -0.00244085
internal_weight=0 149 467 440 394 127 42 46 85
internal_count=616 149 467 440 394 127 42 46 85
is_linear=0
shrinkage=0.05


Tree=71
num_leaves=9
num_cat=0
split_feature=56 5 3 20 16 24 129 11
split_gain=0.51519 0.318644 0.284101 0.331514 0.298425 0.248076 0.176804 0.0379285
threshold=7.6653308531504661e-19 0.72129000971728741 0.22397890364345757 1.1969771192766748e-05 0.020174689611670318 7.4458072391245773e-05 -1.0745193730660604e-05 0.91030878426181638
decision_type=2 2 2 2 2 2 2 2
left_child=1 2 4 -4 -1 6 7 -2
right_child=5 -3 3 -5 -6 -7 -8 -9
leaf_value=0.0010579422350359654 -0.0013702276007582746 -0.0042770629448275416 -0.0070168474982695087 0.001383563384357937 0.0070409138983284882 0.0011010364941155006 -0.0075046525176229147 -0.0038493028382718983
leaf_weight=396 27 31 23 24 22 28 29 36
leaf_count=396 27 31 23 24 22 28 29 36
internal_value=0 0.000631198 0.000958416 -0.00272728 0.00137284 -0.00301981 -0.00427398 -0.00278684
internal_weight=0 496 465 47 418 120 92 63
internal_count=616 496 465 47 418 120 92 63
is_linear=0
shrinkage=0.05


Tree=72
num_leaves=10
num_cat=0
split_feature=10 137 70 53 53 88 128 34 40
split_gain=0.474834 0.300481 0.28765 0.302234 0.591283 0.165571 0.190505 0.162061 0.037063
threshold=1.0000000180025095e-35 -1.2429279094688696e-19 8.5353258193175974e-19 6.0618759142692379e-06 5.0649432083089828e-06 -5.2220711315841255e-07 -2.8106830183168047e-07 -0.012115146020245148 2.2726941062612631e-05
decision_type=2 2 2 2 2 2 2 2 2
left_child=2 -2 3 4 -1 8 -7 -5 -3
right_child=1 5 -4 7 -6 6 -8 -9 -10
leaf_value=0.00061998910657946134 0.0028611432824453172 -0.0028161377605376028 -0.004301334494354065 -0.0013550269288922815 -0.0079701463247395365 -0.002825765896440399 -0.0095682820444926639 0.003034120370815371 -0.0004323464532552118
leaf_weight=224 22 63 27 24 22 22 20 170 22
leaf_count=224 22 63 27 24 22 22 20 170 22
internal_value=0 -0.00253366 0.00070809 0.00101549 -0.000148234 -0.0034682 -0.00603649 0.00249113 -0.00219916
internal_weight=0 149 467 440 246 127 42 194 85
internal_count=616 149 467 440 246 127 42 194 85
is_linear=0
shrinkage=0.05


Tree=73
num_leaves=9
num_cat=0
split_feature=56 85 12 19 7 24 129 11
split_gain=0.436331 0.276302 0.318231 0.278358 0.395269 0.213803 0.163214 0.0333068
threshold=7.6653308531504661e-19 -0.00093593656137786819 -0.33036142867316226 0.0033842206992601757 0.0020537975886708005 7.4458072391245773e-05 -1.0745193730660604e-05 0.91030878426181638
decision_type=2 2 2 2 2 2 2 2
left_child=1 2 -1 4 -3 6 7 -2
right_child=5 3 -4 -5 -6 -7 -8 -9
leaf_value=0.00020216894821108633 -0.0011856510393381879 -0.0002152257999885603 0.0084325618723042964 -0.0050383659390111774 0.0037639318806261726 0.0010479436980209099 -0.007046018545676408 -0.0035087822765086057
leaf_weight=24 27 349 23 24 76 28 29 36
leaf_count=24 27 349 23 24 76 28 29 36
internal_value=0 0.000582309 0.00422981 0.000200499 0.000496341 -0.00277767 -0.00394199 -0.00251315
internal_weight=0 496 47 449 425 120 92 63
internal_count=616 496 47 449 425 120 92 63
is_linear=0
shrinkage=0.05


Tree=74
num_leaves=9
num_cat=0
split_feature=10 137 70 19 2 19 88 129
split_gain=0.397202 0.266122 0.256628 0.281251 0.354905 0.228671 0.150044 0.0411471
threshold=1.0000000180025095e-35 -1.2429279094688696e-19 8.5353258193175974e-19 0.0020001761012186634 0.0098951133649436019 -0.00033714369348489997 -4.6748579796369957e-07 -0.00021714118526350694
decision_type=2 2 2 2 2 2 2 2
left_child=2 -2 3 5 -5 -1 7 -3
right_child=1 6 -4 4 -6 -7 -8 -9
leaf_value=0.0022066535800167211 0.0027606191473420372 -0.0032361309533007442 -0.0040830590098199469 0.001131895224115755 0.0074199300834580373 -0.00060746322836829512 -0.0057774534271373299 -0.0010647772074662499
leaf_weight=104 22 40 27 66 34 236 39 48
leaf_count=104 22 40 27 66 34 236 39 48
internal_value=0 -0.00231639 0.000648546 0.000938894 0.00326983 0.000253325 -0.00319587 -0.00205176
internal_weight=0 149 467 440 100 340 127 88
internal_count=616 149 467 440 100 340 127 88
is_linear=0
shrinkage=0.05


Tree=75
num_leaves=14
num_cat=0
split_feature=8 131 130 4 12 12 59 88 0 13 96 1 12
split_gain=0.442172 0.448899 0.384672 0.543182 0.314313 0.241472 0.21388 0.19389 0.153612 0.131675 0.115626 0.0938864 0.0617832
threshold=0.00019184745659400003 9.3439095683731074e-06 -2.0282817231929255e-07 0.0039339104590445503 -0.12722523066875177 -0.32537897316718162 5.7962587306342107e-06 0.0013766238800822302 0.00048496616643650003 0.011639905230872931 -1.184939806311687e-05 0.17451196574417518 -0.58747584194403146
decision_type=2 2 2 2 2 2 2 2 2 2 2 2 2
left_child=1 4 3 -2 7 9 -7 -1 -6 -4 -3 -5 -12
right_child=2 10 5 11 8 6 -8 -9 -10 -11 12 -13 -14
leaf_value=-0.0022609559175290283 -0.00863721423194788 -0.0013341630806237284 -0.002682357519266329 0.0030436572820270579 -0.0090814513746987693 0.0045137047383865467 -0.0011073162220418453 0.0019917369700124254 -0.0036876503716815607 0.0019478286589112354 0.00076692313072271648 -0.0014512824468381172 0.0042161903633559884
leaf_weight=165 21 21 28 26 22 110 20 32 33 34 20 21 37
leaf_count=165 21 21 28 26 22 110 20 32 33 34 20 21 37
internal_value=0 -0.00147723 0.00127984 -0.00195181 -0.0025032 0.00242438 0.00364893 -0.00157016 -0.00584517 -0.000143223 0.00183744 0.00103528 0.00300592
internal_weight=0 330 260 68 252 192 130 197 55 62 78 47 57
internal_count=590 330 260 68 252 192 130 197 55 62 78 47 57
is_linear=0
shrinkage=0.05
