tree
version=v3
num_class=1
num_tree_per_iteration=1
label_index=0
max_feature_idx=144
objective=regression
feature_names=element_1 element_2 element_3 element_4 element_5 element_6 element_7 element_8 element_9 element_10 element_11 element_12 mixing_entropy element_1_element_2 element_1_element_3 element_1_element_4 element_1_element_5 element_1_element_6 element_1_element_7 element_1_element_8 element_1_element_9 element_1_element_10 element_1_element_11 element_1_element_12 element_2_element_3 element_2_element_4 element_2_element_5 element_2_element_6 element_2_element_7 element_2_element_8 element_2_element_9 element_2_element_10 element_2_element_11 element_2_element_12 element_3_element_4 element_3_element_5 element_3_element_6 element_3_element_7 element_3_element_8 element_3_element_9 element_3_element_10 element_3_element_11 element_3_element_12 element_4_element_5 element_4_element_6 element_4_element_7 element_4_element_8 element_4_element_9 element_4_element_10 element_4_element_11 element_4_element_12 element_5_element_6 element_5_element_7 element_5_element_8 element_5_element_9 element_5_element_10 element_5_element_11 element_5_element_12 element_6_element_7 element_6_element_8 element_6_element_9 element_6_element_10 element_6_element_11 element_6_element_12 element_7_element_8 element_7_element_9 element_7_element_10 element_7_element_11 element_7_element_12 element_8_element_9 element_8_element_10 element_8_element_11 element_8_element_12 element_9_element_10 element_9_element_11 element_9_element_12 element_10_element_11 element_10_element_12 element_11_element_12 phs_element_1_element_2 phs_element_1_element_3 phs_element_1_element_4 phs_element_1_element_5 phs_element_1_element_6 phs_element_1_element_7 phs_element_1_element_8 phs_element_1_element_9 phs_element_1_element_10 phs_element_1_element_11 phs_element_1_element_12 phs_element_2_element_3 phs_element_2_element_4 phs_element_2_element_5 phs_element_2_element_6 phs_element_2_element_7 phs_element_2_element_8 phs_element_2_element_9 phs_element_2_element_10 phs_element_2_element_11 phs_element_2_element_12 phs_element_3_element_4 phs_element_3_element_5 phs_element_3_element_6 phs_element_3_element_7 phs_element_3_element_8 phs_element_3_element_9 phs_element_3_element_10 phs_element_3_element_11 phs_element_3_element_12 phs_element_4_element_5 phs_element_4_element_6 phs_element_4_element_7 phs_element_4_element_8 phs_element_4_element_9 phs_element_4_element_10 phs_element_4_element_11 phs_element_4_element_12 phs_element_5_element_6 phs_element_5_element_7 phs_element_5_element_8 phs_element_5_element_9 phs_element_5_element_10 phs_element_5_element_11 phs_element_5_element_12 phs_element_6_element_7 phs_element_6_element_8 phs_element_6_element_9 phs_element_6_element_10 phs_element_6_element_11 phs_element_6_element_12 phs_element_7_element_8 phs_element_7_element_9 phs_element_7_element_10 phs_element_7_element_11 phs_element_7_element_12 phs_element_8_element_9 phs_element_8_element_10 phs_element_8_element_11 phs_element_8_element_12 phs_element_9_element_10 phs_element_9_element_11 phs_element_9_element_12 phs_element_10_element_11 phs_element_10_element_12 phs_element_11_element_12
feature_infos=[-1:0.99935042222555337] [-1:0.30282637954239572] [-1:0.4134129536058796] [-1:0.98512461826421038] [-1:0.16877637130801679] [-1:0.99999600001599998] [-1:0.0154067378800328] [-1:0.036499950675742299] [-1:0.0033425651800209999] [-1:0.99992000639948797] [-1:0.010456273764258501] [-1:0.99285146942017477] [-1.2799904438803349:0] [-0.98809878012496277:1] [-0.98692292450960961:1] [-0.98692292450960961:1] [-0.98775187672856557:1] [-0.99997500062498434:1] [-0.99935042222555337:1] [-0.9859322369724588:1] [-0.98648515339844123:1] [-0.98809878012496277:1] [-0.98809878012496277:1] [-0.98756837394331176:1] [-0.25889967637540451:1] [-0.72584517185867203:1] [-0.30282637954239572:1] [-0.99950024987506236:1] [-0.2705627705627705:1] [-0.28853089685020439:1] [-0.28853089685020439:1] [-0.99992000639948797:1] [-0.28449502133712651:1] [-0.99186669311644515:1] [-0.63543641122845018:1] [-0.15107166462090449:1] [-0.99959949937421755:1] [-0.064757851889541598:1] [-0.15107166462090449:1] [-0.092781592132120894:1] [-0.99992000639948797:1] [-0.093492894540014901:1] [-0.99186669311644515:1] [-0.64878224602234691:1] [-0.98234766131445117:1] [-0.73639033205330928:1] [-0.67700279994985169:1] [-0.72584517185867203:1] [-0.89905362776025244:1] [-0.73639033205330928:1] [-0.98169223156853036:1] [-0.99997500062498434:1] [-0.1051625239005736:1] [-0.073277967757694101:1] [-0.12851023322227509:1] [-0.39733206288708911:1] [-0.1051625239005736:1] [-0.98756837394331176:1] [-0.98809523809523803:1] [-0.98611111111111116:1] [-0.98340874811463042:1] [-0.98779134295227522:1] [-0.99997500062498434:1] [-0.99400539514437003:1] [-0.026757046022119101:1] [-0.0033425651800209999:1] [-0.40445089501693271:1] [-0.010456273764258501:1] [-0.98425196850393704:1] [-0.0114427386287784:1] [-0.38862559241706163:1] [-0.029498525073746298:1] [-0.98274111675126896:1] [-0.43416705993393101:1] [-0.010456273764258501:1] [-0.99186669311644515:1] [-0.89905362776025244:1] [-0.98756837394331176:1] [-0.98513379583746274:1] [-0.7141645175676552:0.49219823078439212] [-0.97745031808759741:0.70450983788596133] [-0.58380671686028474:0.54497109819476597] [-0.77533287494282899:0.63241157076919341] [-0.81235106753686137:0.67689956635539306] [-0.92827898260770181:0.65624298348906451] [-0.83136564775217792:0.64503159408703659] [-0.97745031808759741:0.63901412211362263] [-0.81235106753686137:0.67689956635539306] [-0.92370771237299187:0.70450983788596133] [-0.92827898260770181:0.70450983788596133] [-0.8593785702923985:0.29342101045965296] [-1.0040785125151468:0.54608043459323807] [-0.90727316369760702:0.30497735105005835] [-0.92230684341441393:0.5501800068576147] [-1.0040785125151468:0.2809402366676419] [-0.89461956848632895:0.27407615194958279] [-0.85843006355694418:0.28926962680502305] [-0.89461956848632895:0.34844733767648928] [-1.0040785125151468:0.34321259191294656] [-0.88417075699698933:0.30497735105005835] [-0.68694619900095177:0.59350889075577706] [-1.04896372809375:0.13688442026870098] [-1.0726273059488054:0.52671407820208327] [-1.0726273059488054:0.042150956729282624] [-0.89605523880755089:0.13688442026870098] [-1.1173039335344017:0.055212438372724847] [-1.0887920600914731:0.35166570484701376] [-1.1721040825515214:0.10266421603395991] [-1.1721040825515214:0.39888854185435585] [-0.90608930941613297:0.61292049759554978] [-0.8074969759504701:0.61292049759554978] [-1.0040785125151468:0.58640248708218301] [-0.90608930941613297:0.70334126376873785] [-0.89579462306693425:0.59350889075577706] [-0.88315188775549114:0.59350889075577706] [-1.0040785125151468:0.61292049759554978] [-0.89368884146248273:0.70334126376873785] [-1.1230422770394033:0.50764944379048182] [-1.1230422770394033:0.065308330949493537] [-1.0856617057836448:0.065308330949493537] [-1.1230422770394033:0.065308330949493537] [-1.1842586035085196:0.19153836597899671] [-1.0980964546992358:0.065308330949493537] [-1.1842586035085196:0.37913029291330019] [-1.1978092132228371:0.5501800068576147] [-1.1978092132228371:0.59206035006421653] [-1.1978092132228371:0.59206035006421653] [-1.1249446906364229:0.50179053297686904] [-1.1978092132228371:0.5889319017556599] [-1.1978092132228371:0.59206035006421653] [-1.1978092132228371:0.023490575625549348] [-1.1978092132228371:0.0016926025851291186] [-1.0883379729301454:0.34844733767648928] [-1.1978092132228371:0.0077035300538079903] [-1.1978092132228371:0.37913029291330019] [-1.1978092132228371:0.0052103659508183717] [-1.1705582147981517:0.29535447630328349] [-1.1978092132228371:0.027448435242310165] [-1.1978092132228371:0.37913029291330019] [-1.0887920600914731:0.35166570484701376] [-1.1978092132228371:0.0077035300538079903] [-1.1978092132228371:0.39888854185435585] [-1.2063922605740076:0.34844733767648928] [-1.1842586035085196:0.32335668690711422] [-1.1978092132228371:0.47293014969358982]
tree_sizes=885 911 912 1255 916 1174 1082 1175 1159 918 912 1101 837 925 833 919 920 1280 923 918 750 752 1283 757 749 927 1453 932 926 844 746 755 759 756 930 844 748 762 755 762 675 670 1387 677 673 669 669 1390 666 670 578 581 583 748 586 585 668 584 677 583 677 585 589 679 680 1015 926 933 1028 1017

Tree=0
num_leaves=9
num_cat=0
split_feature=5 9 0 11 0 12 0 101
split_gain=124.467 67.2889 29.0114 8.90666 3.01016 2.79532 1.72807 0.417068
threshold=0.30158845485867952 0.00048320964361520005 0.00048449623775990004 0.0020040100280822003 0.0050929465996702511 -0.063248380449142258 0.0023419717537364005 -3.0570146961748188e-06
decision_type=2 2 2 2 2 2 2 2
left_child=1 3 -2 5 -4 -1 -3 -8
right_child=2 6 4 -5 -6 -7 7 -9
leaf_value=0.3922841956229508 0.26281089271666869 0.32761169065171175 0.32232022934575283 0.3641078480371206 0.34736253736123562 0.37359987365906555 0.3492861178998945 0.34009881137940973
leaf_weight=428 21 24 28 32 21 21 21 30
leaf_count=428 21 24 28 32 21 21 21 30
internal_value=0.373706 0.382725 0.31198 0.389594 0.333053 0.39141 0.338675 0.343882
internal_weight=0 556 70 481 49 449 75 51
internal_count=626 556 70 481 49 449 75 51
is_linear=0
shrinkage=1


Tree=1
num_leaves=9
num_cat=0
split_feature=5 9 83 11 0 27 0 0
split_gain=112.331 60.7283 27.0078 8.03827 2.82682 2.66092 1.55959 0.381641
threshold=0.30158845485867952 0.00048320964361520005 -2.3467246013820536e-05 0.0020040100280822003 0.0050929465996702511 0.0060796219163951042 0.0023419717537364005 0.0094791401410382527
decision_type=2 2 2 2 2 2 2 2
left_child=1 3 4 5 -2 -1 -3 -8
right_child=2 6 -4 -5 -6 -7 7 -9
leaf_value=0.017649884834138801 -0.049114295634730111 -0.04378990512341261 -0.1077459797821939 -0.009118555020540953 -0.025026600701468334 -0.0010081286262720822 -0.031807417254294118 -0.022948371376842261
leaf_weight=429 29 24 20 32 21 20 31 20
leaf_count=429 29 24 20 32 21 20 31 20
internal_value=0 0.00856815 -0.0586399 0.0150932 -0.0389975 0.0168188 -0.0332794 -0.0283333
internal_weight=0 556 70 481 50 449 75 51
internal_count=626 556 70 481 50 449 75 51
is_linear=0
shrinkage=0.05


Tree=2
num_leaves=9
num_cat=0
split_feature=5 9 17 10 3 0 0 101
split_gain=101.379 54.8073 24.4338 7.18541 3.18858 2.54755 1.40753 0.36485
threshold=0.30158845485867952 0.00048320964361520005 0.00039632005560046962 4.9960036108132054e-16 0.30070196584082426 0.0053156705948588512 0.0023419717537364005 -3.0570146961748188e-06
decision_type=2 2 2 2 2 2 2 2
left_child=1 3 -2 4 -1 -4 -3 -8
right_child=2 6 5 -5 -6 -7 7 -9
leaf_value=0.01693317603184339 -0.10241540041854023 -0.041600408963859081 -0.046240013539791111 -0.009356106308599314 -0.0014399126525968314 -0.023202231004834178 -0.021861943334252353 -0.030454889337221781
leaf_weight=426 20 24 30 30 25 20 21 30
leaf_count=426 20 24 30 30 25 20 21 30
internal_value=0 0.00813974 -0.0557079 0.0143386 0.0159147 -0.0370249 -0.0316154 -0.0269166
internal_weight=0 556 70 481 451 50 75 51
internal_count=626 556 70 481 451 50 75 51
is_linear=0
shrinkage=0.05


Tree=3
num_leaves=13
num_cat=0
split_feature=0 7 85 0 85 0 12 3 85 7 16 0
split_gain=87.5107 46.3144 19.5735 32.2657 6.04598 1.38458 0.522618 0.420732 0.186411 0.341151 0.117401 0.00564974
threshold=0.10936627462565941 0.00027844961507970007 -2.3035075058985728e-08 1.0000000180025095e-35 4.7701798494817971e-05 0.78696811994506299 -0.26684503833902168 0.25671944755602633 -0.00024952500832429943 0.0022652242828423504 0.0076012146784928481 0.97913085160748747
decision_type=2 2 2 2 2 2 2 2 2 2 2 2
left_child=1 2 -1 -4 -3 7 -6 10 9 -7 -2 -10
right_child=5 4 3 -5 6 8 -8 -9 11 -11 -12 -13
leaf_value=0.0065152519423028708 0.014590558048555666 -0.014656033311039211 -0.094861412614583973 -0.032595181499885759 0.01076951160688292 0.01445180423119489 0.020363888926804068 0.006516058050328866 0.020446847831564294 0.019521397932579645 0.010794389305206445 0.02133873597933696
leaf_weight=23 94 20 25 124 22 51 40 24 56 95 26 26
leaf_count=23 94 20 25 124 22 51 40 24 56 95 26 26
internal_value=0 -0.0216737 -0.0364156 -0.0430425 0.00924834 0.0163977 0.0169594 0.0125594 0.018822 0.0177505 0.0137681 0.0207296
internal_weight=0 254 172 149 82 372 62 144 228 146 120 82
internal_count=626 254 172 149 82 372 62 144 228 146 120 82
is_linear=0
shrinkage=0.05


Tree=4
num_leaves=9
num_cat=0
split_feature=5 9 83 11 12 0 0 101
split_gain=84.0016 44.1017 20.6438 6.27831 2.36482 2.25903 1.19156 0.463108
threshold=0.30158845485867952 0.00048320964361520005 -2.3467246013820536e-05 0.0020040100280822003 -0.063248380449142258 0.0039877049408423007 0.0018917087332171003 -3.0570146961748188e-06
decision_type=2 2 2 2 2 2 2 2
left_child=1 3 5 4 -1 -2 -3 -8
right_child=2 6 -4 -5 -6 -7 7 -9
leaf_value=0.015290911826258852 -0.042964530070977558 -0.038366253319240755 -0.093649410940706737 -0.0084355640341527757 -0.0018945245515732539 -0.02155407787385312 -0.018745552011850207 -0.028169259149581197
leaf_weight=428 28 21 20 32 21 22 22 32
leaf_count=428 28 21 20 32 21 22 22 32
internal_value=0 0.00740158 -0.0507169 0.0129621 0.0144871 -0.0335439 -0.0282601 -0.02433
internal_weight=0 556 70 481 449 50 75 54
internal_count=626 556 70 481 449 50 75 54
is_linear=0
shrinkage=0.05


Tree=5
num_leaves=12
num_cat=0
split_feature=0 12 0 0 7 0 3 82 4 16 0
split_gain=81.3895 46.9126 32.6958 11.641 4.59678 1.24262 0.495027 0.256138 0.518188 0.248593 0.00761584
threshold=0.096505527811485706 -0.040610253299213618 -1.0000000180025095e-35 0.0012269558883581501 0.00027844961507970007 0.78696811994506299 0.25671944755602633 -0.00059888012374903217 0.0039328466459373516 0.0069730464943040171 0.97913085160748747
decision_type=2 2 2 2 2 2 2 2 2 2 2
left_child=1 2 4 -4 -1 6 9 8 -7 -2 -9
right_child=5 -3 3 -5 -6 7 -8 10 -10 -11 -12
leaf_value=-0.0082130165537819266 0.013897840950845017 -0.095583377480506895 -0.066530142985284327 -0.02525230842905167 0.015186037272825593 0.0083181200176477427 0.0050465626086896431 0.018741308682058987 0.017189608129762834 0.0081706680978337939 0.019650967283682388
leaf_weight=32 90 20 20 117 61 20 26 76 93 24 33
leaf_count=32 90 20 20 117 61 20 26 76 93 24 33
internal_value=0 -0.022133 -0.015746 -0.0312783 0.00713475 0.0149611 0.0112722 0.0172875 0.0156194 0.0126921 0.0190167
internal_weight=0 250 230 137 93 362 140 222 113 114 109
internal_count=612 250 230 137 93 362 140 222 113 114 109
is_linear=0
shrinkage=0.05


Tree=6
num_leaves=11
num_cat=0
split_feature=0 12 0 0 7 0 12 13 1 12
split_gain=73.4606 41.9805 30.6654 9.95689 4.14859 1.48099 0.495796 0.320633 0.2435 0.00474402
threshold=0.051520005389693806 -0.040610253299213618 -1.0000000180025095e-35 0.0012269558883581501 0.00027844961507970007 0.5582427811709566 -0.16779821861646649 0.091392092973772709 0.18366901647536701 -0.081473597081753737
decision_type=2 2 2 2 2 2 2 2 2 2
left_child=1 2 4 -4 -1 7 8 -2 -7 -8
right_child=5 -3 3 -5 -6 6 9 -9 -10 -11
leaf_value=-0.0078023656271398074 0.0030502149835228923 -0.090804211962968118 -0.063203635830432189 -0.024903975194320083 0.01442673524963807 0.014797764101572203 0.018037739357887172 0.011120447665452957 0.010699764023656431 0.018900904953479767
leaf_weight=32 32 20 20 112 61 171 78 20 46 20
leaf_count=32 32 20 20 112 61 171 78 20 46 20
internal_value=0 -0.0213839 -0.0152132 -0.030707 0.00677801 0.0139716 0.0152621 0.00615415 0.0139291 0.0182139
internal_weight=0 245 225 132 93 367 315 52 217 98
internal_count=612 245 225 132 93 367 315 52 217 98
is_linear=0
shrinkage=0.05


Tree=7
num_leaves=12
num_cat=0
split_feature=0 12 0 0 6 0 3 16 82 4 0
split_gain=66.3362 38.2031 26.6494 9.47451 3.99633 1.01341 0.412144 0.220441 0.213692 0.465734 0.00590152
threshold=0.096505527811485706 -0.040610253299213618 -1.0000000180025095e-35 0.0012269558883581501 9.5170178862150336e-05 0.78696811994506299 0.25671944755602633 0.0069730464943040171 -0.00059888012374903217 0.0039328466459373516 0.97913085160748747
decision_type=2 2 2 2 2 2 2 2 2 2 2
left_child=1 2 4 -4 -1 6 7 -2 9 -7 -10
right_child=5 -3 3 -5 -6 8 -8 -9 10 -11 -12
leaf_value=-0.0063121203836557036 0.012606581559197772 -0.0862639983277768 -0.060043452833779154 -0.022804225433585991 0.014864032808691264 0.0071623255312442784 0.0044949750451800915 0.0072134413756430151 0.016944847765721773 0.015572820523733733 0.017745606330308049
leaf_weight=37 90 20 20 117 56 20 26 24 76 93 33
leaf_count=37 90 20 20 117 56 20 26 24 76 93 33
internal_value=0 -0.0199816 -0.0142179 -0.0282406 0.00643911 0.013507 0.0101756 0.0114712 0.0156078 0.0140842 0.0171873
internal_weight=0 250 230 137 93 362 140 114 222 113 109
internal_count=612 250 230 137 93 362 140 114 222 113 109
is_linear=0
shrinkage=0.05


Tree=8
num_leaves=12
num_cat=0
split_feature=0 0 0 85 0 0 1 69 0 1 0
split_gain=59.9563 34.82 43.4169 7.36386 2.27764 1.19259 0.375693 0.309911 0.246116 0.241039 0.177464
threshold=0.051520005389693806 -1.0000000180025095e-35 0.0004939158273179001 1.0000000180025095e-35 0.0094791401410382527 0.5582427811709566 0.18366901647536701 2.4306600892623904e-07 0.40966093376756613 0.22227372212471744 0.9716878971100279
decision_type=2 2 2 2 2 2 2 2 2 2 2
left_child=1 3 -3 -1 -4 8 10 -5 -2 -8 -7
right_child=5 2 4 7 -6 6 9 -9 -10 -11 -12
leaf_value=-0.01462105787226132 0.0012561885383911432 -0.10318338938057424 -0.028632511152502371 0.010744498947443551 -0.014400044527082219 0.013688649762170921 0.0056557222136429386 0.017780406259257218 0.0083267080364748843 0.012922010719776153 0.016541081608126038
leaf_weight=35 20 20 85 34 42 193 21 29 32 25 76
leaf_count=35 20 20 85 34 42 193 21 29 32 25 76
internal_value=0 -0.0193185 -0.0347091 0.00376743 -0.0239257 0.0126224 0.0137805 0.0139832 0.00560728 0.00960479 0.0144945
internal_weight=0 245 147 98 127 367 315 63 52 46 269
internal_count=612 245 147 98 127 367 315 63 52 46 269
is_linear=0
shrinkage=0.05


Tree=9
num_leaves=9
num_cat=0
split_feature=5 9 83 10 3 23 83 63
split_gain=53.1912 28.3848 20.1553 5.62372 1.84031 1.48803 0.931653 0.291528
threshold=0.049182124534082654 0.00048320964361520005 -2.3467246013820536e-05 3.8857805861880484e-16 0.30070196584082426 9.9106183137548399e-09 -0.0018662462953743673 0.0009647200671755806
decision_type=2 2 2 2 2 2 2 2
left_child=1 3 6 4 -1 -3 -2 -7
right_child=2 5 -4 -5 -6 7 -8 -9
leaf_value=0.012142633580986191 -0.015688623514558589 -0.034554529254851134 -0.082582584582269192 -0.010735899798812405 -0.0013360534967095765 -0.015190394668995091 -0.029083210470921855 -0.022983657848089936
leaf_weight=408 21 23 20 31 27 24 34 24
leaf_count=408 21 23 20 31 27 24 34 24
internal_value=0 0.00535266 -0.0395992 0.00983972 0.011306 -0.0240976 -0.0239689 -0.019087
internal_weight=0 537 75 466 435 71 55 48
internal_count=612 537 75 466 435 71 55 48
is_linear=0
shrinkage=0.05


Tree=10
num_leaves=9
num_cat=0
split_feature=5 9 0 10 0 3 17 63
split_gain=55.0715 24.2341 20.2841 6.20629 2.28784 1.78892 1.21551 0.232056
threshold=0.53511062120833586 0.00048320964361520005 9.9794724385148342e-05 3.8857805861880484e-16 0.0018917087332171003 0.3380399437956268 0.0042897518370452357 0.0009647200671755806
decision_type=2 2 2 2 2 2 2 2
left_child=1 3 -2 5 -3 -1 -4 -6
right_child=2 4 6 -5 7 -7 -8 -9
leaf_value=0.011062753300892708 -0.080653485689650889 -0.037561258599162102 -0.029465471538049837 -0.011179857804543442 -0.01325580133125186 -0.0038763839973225481 -0.014013610237743708 -0.020419608536534586
leaf_weight=438 22 20 35 36 20 21 20 26
leaf_count=438 22 20 35 36 20 21 20 26
internal_value=0 0.00501668 -0.0400771 0.00881133 -0.0234432 0.0103793 -0.0238466 -0.0173049
internal_weight=0 561 77 495 66 459 55 46
internal_count=638 561 77 495 66 459 55 46
is_linear=0
shrinkage=0.05


Tree=11
num_leaves=11
num_cat=0
split_feature=8 39 16 16 3 16 126 16 8 4
split_gain=45.1853 30.8296 10.6541 9.63963 2.16773 1.84469 1.01944 0.73828 0.5179 0.0666817
threshold=3.5447126323075658e-05 -0.0034928044743732993 1.336096320508605e-06 -1.0000000180025095e-35 0.30070196584082426 0.00050553052591408704 -4.4488006140731739e-06 0.00088411065470042963 0.00019256737401395003 0.0061881514755231003
decision_type=2 2 2 2 2 2 2 2 2 2
left_child=1 7 3 -3 6 -4 -2 -1 -8 -9
right_child=4 2 5 -5 -6 -7 8 9 -10 -11
leaf_value=0.0029968650529867617 -5.3378194570541383e-05 -0.01987675937424813 -0.020051220384444679 -0.052997800239196084 -0.0032699641659213554 -0.0021343892998993397 0.0085120942145586031 0.014948750972747804 0.012769616758823397 0.011075331903994083
leaf_weight=29 20 35 51 59 29 20 100 25 250 20
leaf_count=29 20 35 51 59 29 20 100 25 250 20
internal_value=0 -0.0175972 -0.0296234 -0.0406655 0.00989403 -0.0150042 0.0109258 0.00921803 0.0115532 0.0132272
internal_weight=0 239 165 94 399 71 370 74 350 45
internal_count=638 239 165 94 399 71 370 74 350 45
is_linear=0
shrinkage=0.05


Tree=12
num_leaves=8
num_cat=0
split_feature=5 10 61 0 36 67 61
split_gain=45.6409 27.0087 7.39562 4.89838 4.55445 2.38468 1.79749
threshold=0.94935929825737764 3.8857805861880484e-16 2.4548799087068467e-07 0.017561745477814753 -0.00054266215461504989 -0.0014720328209868998 -0.0009339808235862998
decision_type=2 2 2 2 2 2 2
left_child=1 2 6 5 -4 -3 -1
right_child=-2 3 4 -5 -6 -7 -8
leaf_value=-0.0032165094501882176 -0.068025971762835979 -0.039092718511819842 0.0046274259034544225 0.0029165783364857949 -0.028340111431581057 -0.019765293580639071 0.010087911703459481
leaf_weight=27 24 20 20 21 22 79 425
leaf_count=27 24 20 20 21 22 79 425
internal_value=0 0.0022598 0.00742831 -0.0190172 -0.0126413 -0.0236698 0.00929318
internal_weight=0 614 494 120 42 99 452
internal_count=638 614 494 120 42 99 452
is_linear=0
shrinkage=0.05


Tree=13
num_leaves=9
num_cat=0
split_feature=12 9 10 80 0 128 10 0
split_gain=40.6314 29.8415 6.58761 4.04744 2.74658 1.64434 1.40948 0.659224
threshold=-0.040610253299213618 0.00048320964361520005 3.8857805861880484e-16 -1.8521926710581473e-05 0.0018917087332171003 0.0006182984068932129 0.0019508397702054502 0.0095142978338666525
decision_type=2 2 2 2 2 2 2 2
left_child=1 2 5 -4 6 -1 -3 -6
right_child=-2 4 3 -5 7 -7 -8 -9
leaf_value=0.0097155945713835214 -0.0656125466460767 -0.022693765684962272 0.0049997144463387409 -0.024405736118555069 -0.018734462806308756 -0.0037282052803978638 -0.041465281881392008 -0.0079624239995609979
leaf_weight=435 23 20 22 25 49 24 20 20
leaf_count=435 23 20 22 25 49 24 20 20
internal_value=0 0.00207519 0.00718707 -0.0106415 -0.0216552 0.00901265 -0.0320795 -0.0156121
internal_weight=0 615 506 47 109 459 40 69
internal_count=638 615 506 47 109 459 40 69
is_linear=0
shrinkage=0.05


Tree=14
num_leaves=8
num_cat=0
split_feature=5 10 61 2 41 76 44
split_gain=38.497 21.9964 6.12728 5.91813 4.17697 1.97714 1.66291
threshold=0.94935929825737764 3.8857805861880484e-16 3.3443762919275632e-07 0.006765588627625301 3.3299172571770338e-05 0.00017603756422774456 0.0022120515603830065
decision_type=2 2 2 2 2 2 2
left_child=1 2 6 -4 5 -3 -1
right_child=-2 4 3 -5 -6 -7 -8
leaf_value=0.0093895414954622419 -0.062469617595585683 -0.01716027790287011 -0.030302302965096069 0.0077017026057001198 0.0025685152716257357 -0.033056364760354714 -0.0010554615452530839
leaf_weight=411 24 71 21 20 22 27 42
leaf_count=411 24 71 21 20 22 27 42
internal_value=0 0.00208154 0.00674587 -0.0117638 -0.01712 -0.0215398 0.00842113
internal_weight=0 614 494 41 120 98 453
internal_count=638 614 494 41 120 98 453
is_linear=0
shrinkage=0.05


Tree=15
num_leaves=9
num_cat=0
split_feature=5 17 10 133 9 44 16 0
split_gain=30.358 11.9106 11.3126 3.15321 3.05807 1.79891 0.935914 0.929241
threshold=0.049182124534082654 0.00039632005560046962 3.8857805861880484e-16 -9.3144023193641438e-20 9.999625025234313e-07 0.0022120515603830065 2.1612052680577012e-05 0.0039877049408423007
decision_type=2 2 2 2 2 2 2 2
left_child=2 -2 4 -4 5 -1 -5 -3
right_child=1 7 3 6 -6 -7 -8 -9
leaf_value=0.0091567873551843242 -0.063261158801615244 -0.024289582062650611 0.003529332662001252 -0.025413087418963833 -0.011915516989538447 -0.0017394804173991793 -0.012549623664325247 -0.010911801643669606
leaf_weight=386 20 27 20 31 20 42 26 25
leaf_count=386 20 27 20 31 20 42 26 25
internal_value=0 -0.03047 0.0041517 -0.0135521 0.00719453 0.00808753 -0.0195455 -0.017858
internal_weight=0 72 525 77 448 428 57 52
internal_count=597 72 525 77 448 428 57 52
is_linear=0
shrinkage=0.05


Tree=16
num_leaves=9
num_cat=0
split_feature=5 10 83 11 41 3 82 83
split_gain=27.4971 10.7748 9.4646 3.06987 2.93433 1.5692 0.886665 0.697032
threshold=0.30158845485867952 3.8857805861880484e-16 -2.8852369225093944e-05 0.018234258478614301 1.8631400986492778e-05 0.3350842925791086 -2.2821570485048295e-06 -0.00088460922368206643
decision_type=2 2 2 2 2 2 2 2
left_child=1 3 7 5 6 -1 -3 -2
right_child=2 4 -4 -5 -6 -7 -8 -9
leaf_value=0.0083906210561775982 -0.011724278573756634 -0.012765331784894149 -0.059011405780911443 -0.012350275269709528 0.0034704173170030123 -0.0053182760888541292 -0.02492846693715145 -0.023905078507959844
leaf_weight=408 23 31 20 20 20 22 29 24
leaf_count=408 23 31 20 20 20 22 29 24
internal_value=0 0.00379269 -0.0302031 0.00679859 -0.0131155 0.00768924 -0.0186442 -0.0179443
internal_weight=0 530 67 450 80 430 60 47
internal_count=597 530 67 450 80 430 60 47
is_linear=0
shrinkage=0.05


Tree=17
num_leaves=13
num_cat=0
split_feature=0 12 0 0 37 0 64 64 131 24 0 58
split_gain=24.0611 16.0207 9.71774 3.37621 2.48616 0.504347 0.288181 0.432938 0.150259 0.309648 0.0434484 0.0259744
threshold=0.18007453470476534 -0.040610253299213618 -1.0000000180025095e-35 0.0018917087332171003 1.2187006218174221e-06 0.78696811994506299 2.9019719322470389e-07 3.9182576097249712e-07 -1.583317570343746e-08 0.0030866421415871033 0.61467133790412409 7.3398730721515399e-07
decision_type=2 2 2 2 2 2 2 2 2 2 2 2
left_child=1 2 4 -4 -1 8 11 -8 9 -2 -10 -7
right_child=5 -3 3 -5 -6 6 7 -9 10 -11 -12 -13
leaf_value=-0.0042807762835012832 0.001081382599497576 -0.054938097484409809 -0.033174234055555786 -0.013049101638829426 0.011985917567896347 0.011571437628431755 0.0015606649592518809 0.0095112971147569298 0.0063639054913073789 0.0073027940467000011 0.0094637101945968787 0.013628297634422779
leaf_weight=46 36 20 26 105 48 66 20 119 20 45 26 20
leaf_count=46 36 20 26 105 48 66 20 119 20 45 26 20
internal_value=0 -0.0120532 -0.00824123 -0.0170434 0.00402562 0.00835292 0.00977484 0.00836732 0.00583378 0.00453772 0.00811597 0.0120498
internal_weight=0 245 225 131 94 352 225 139 127 81 46 86
internal_count=597 245 225 131 94 352 225 139 127 81 46 86
is_linear=0
shrinkage=0.05


Tree=18
num_leaves=9
num_cat=0
split_feature=5 17 10 82 61 3 128 17
split_gain=22.7717 9.05287 8.92615 2.49644 2.2667 1.7542 0.776097 0.569444
threshold=0.30158845485867952 0.0004216952412692629 3.8857805861880484e-16 -0.00058203003499959815 3.3443762919275632e-07 0.3380399437956268 -1.8240537948656365e-07 0.0038680022233685148
decision_type=2 2 2 2 2 2 2 2
left_child=2 -2 4 -4 5 -1 -5 -3
right_child=1 7 3 6 -6 -7 -8 -9
leaf_value=0.0078772662897223147 -0.055660188961774118 -0.020442397004136675 0.0028668612419139772 -0.012785475858745976 -0.0070902173096934959 -0.0069492254180312605 -0.024644301814789122 -0.0093723813160544352
leaf_weight=399 20 26 21 37 30 21 22 21
leaf_count=399 20 26 21 37 30 21 22 21
internal_value=0 -0.0274855 0.00345161 -0.0119379 0.00618753 0.00713594 -0.0172074 -0.0154962
internal_weight=0 67 530 80 450 420 59 47
internal_count=597 67 530 80 450 420 59 47
is_linear=0
shrinkage=0.05


Tree=19
num_leaves=9
num_cat=0
split_feature=5 17 10 11 41 3 16 17
split_gain=20.5514 8.17022 8.05585 2.42885 2.33257 1.18296 0.785485 0.513923
threshold=0.30158845485867952 0.0004216952412692629 3.8857805861880484e-16 0.018234258478614301 1.8631400986492778e-05 0.3350842925791086 2.1612052680577012e-05 0.0038680022233685148
decision_type=2 2 2 2 2 2 2 2
left_child=2 -2 3 5 6 -1 -4 -3
right_child=1 7 4 -5 -6 -7 -8 -9
leaf_value=0.0072793518642748833 -0.05287717932835221 -0.019420277012082248 -0.021273047279785663 -0.011154552533225797 0.0034467554651200771 -0.0046234069725456231 -0.0097281928675679065 -0.0089037622502517143
leaf_weight=408 20 26 34 20 20 22 26 21
leaf_count=408 20 26 34 20 20 22 26 21
internal_value=0 -0.0261112 0.00327903 0.00587815 -0.011341 0.00667037 -0.0162703 -0.0147214
internal_weight=0 67 530 450 80 430 60 47
internal_count=597 67 530 450 80 430 60 47
is_linear=0
shrinkage=0.05


Tree=20
num_leaves=7
num_cat=0
split_feature=12 9 5 76 3 22
split_gain=19.2487 16.9268 2.98378 2.34954 0.996096 0.282318
threshold=-0.033583683169541495 0.00048320964361520005 0.30158845485867952 0.00017603756422774456 0.25671944755602633 1.4976103429736894e-05
decision_type=2 2 2 2 2 2
left_child=1 2 4 5 -1 -3
right_child=-2 3 -4 -5 -6 -7
leaf_value=0.0073664830846383303 -0.048084365241229533 -0.013372854273155578 -0.011360883332478505 -0.028484310070052744 -0.001781159885285888 -0.006527408696711064
leaf_weight=425 20 61 24 28 32 20
leaf_count=425 20 61 24 28 32 20
internal_value=0 0.00179194 0.00582349 -0.0159987 0.00672595 -0.0116826
internal_weight=0 590 481 109 457 81
internal_count=610 590 481 109 457 81
is_linear=0
shrinkage=0.05


Tree=21
num_leaves=7
num_cat=0
split_feature=12 9 5 0 11 0
split_gain=17.3719 15.2764 2.69286 2.22482 0.924261 0.609825
threshold=-0.033583683169541495 0.00048320964361520005 0.30158845485867952 0.00071291486346725011 0.0020040100280822003 0.0096656322777184511
decision_type=2 2 2 2 2 2
left_child=1 2 4 -3 -1 -5
right_child=-2 3 -4 5 -6 -7
leaf_value=0.0069641103651613386 -0.045680146403610705 -0.029821691032321681 -0.010792839158481608 -0.013966458304511273 -0.0024118944969294329 -0.0040342826026608233
leaf_weight=429 20 21 24 68 28 20
leaf_count=429 20 21 24 68 28 20
internal_value=0 0.00170234 0.00553231 -0.0151987 0.00638965 -0.0117091
internal_weight=0 590 481 109 457 88
internal_count=610 590 481 109 457 88
is_linear=0
shrinkage=0.05


Tree=22
num_leaves=13
num_cat=0
split_feature=0 0 0 61 2 0 0 64 64 86 0 58
split_gain=15.8323 11.8673 15.6801 5.55196 0.660365 0.619556 0.432049 0.246492 0.414858 0.161723 0.116083 0.0541252
threshold=0.039655569984344059 -1.0000000180025095e-35 0.00071291486346725011 3.3443762919275632e-07 -1.0000000180025095e-35 0.78696811994506299 0.0096656322777184511 2.9019719322470389e-07 4.3919373940295402e-07 -0.00017701784599282396 0.5582427811709566 7.1964898698051389e-07
decision_type=2 2 2 2 2 2 2 2 2 2 2 2
left_child=1 3 -3 4 -1 9 -4 11 -9 -2 -11 -7
right_child=5 2 6 -5 -6 7 -8 8 -10 10 -12 -13
leaf_value=0.015907140218076252 0.00018555932556805403 -0.059497402289084025 -0.014123261375569327 -0.021065984931774438 0.0056890033767558641 0.0097190848326888582 -0.0067678063548205856 0.00032271828502416616 0.0080620377100715356 0.0029366222502408075 0.0060635643053642465 0.01273547772318125
leaf_weight=21 23 21 86 20 64 58 26 20 129 51 71 20
leaf_count=21 23 21 86 20 64 58 26 20 129 51 71 20
internal_value=0 -0.00992934 -0.0198497 0.00263644 0.00821348 0.00658447 -0.0124157 0.0082153 0.0070232 0.00403137 0.0047564 0.0104925
internal_weight=0 238 133 105 85 372 112 227 149 145 122 78
internal_count=610 238 133 105 85 372 112 227 149 145 122 78
is_linear=0
shrinkage=0.05


Tree=23
num_leaves=7
num_cat=0
split_feature=5 10 22 87 76 44
split_gain=14.5252 9.834 2.99954 2.20085 1.88338 0.653402
threshold=0.94935929825737764 3.8857805861880484e-16 0.00011385832179138204 -5.9950248769188557e-09 0.00017603756422774456 0.0022120515603830065
decision_type=2 2 2 2 2 2
left_child=1 3 4 -1 -3 -5
right_child=-2 2 -4 5 -6 -7
leaf_value=-0.0069833273906422418 -0.040727188739748232 -0.010444186090646934 0.0066561735142022377 0.0065334501396924665 -0.025844374606687644 3.7410296499729156e-05
leaf_weight=36 21 75 20 388 27 43
leaf_count=36 21 75 20 388 27 43
internal_value=0 0.00159117 -0.0110491 0.00489334 -0.0145207 0.00588535
internal_weight=0 589 122 467 102 431
internal_count=610 589 122 467 102 431
is_linear=0
shrinkage=0.05


Tree=24
num_leaves=7
num_cat=0
split_feature=12 9 0 5 3 0
split_gain=13.739 11.2481 1.87045 1.85919 0.812814 0.484666
threshold=-0.033583683169541495 0.00048320964361520005 0.00048449623775990004 0.30158845485867952 0.25671944755602633 0.0096656322777184511
decision_type=2 2 2 2 2 2
left_child=1 3 -3 4 -1 -4
right_child=-2 2 5 -5 -6 -7
leaf_value=0.0060865690146079841 -0.040628642034716909 -0.026810184163041414 -0.011874893591131854 -0.0087691731353212784 -0.0021767468584585003 -0.0030350021552294493
leaf_weight=425 20 20 69 24 32 20
leaf_count=425 20 20 69 24 32 20
internal_value=0 0.00150916 -0.0129933 0.00479558 0.00550796 -0.0098884
internal_weight=0 590 109 481 457 89
internal_count=610 590 109 481 457 89
is_linear=0
shrinkage=0.05


Tree=25
num_leaves=9
num_cat=0
split_feature=5 0 10 22 11 46 127 0
split_gain=11.3381 6.37019 4.44519 2.05455 1.40816 1.06256 0.727643 0.355331
threshold=0.30158845485867952 0.00048449623775990004 1.0000000180025095e-35 4.1809634743288921e-05 0.015006675031112502 0.00030501612768148672 1.0000000180025095e-35 0.0055914005718897012
decision_type=2 2 2 2 2 2 2 2
left_child=2 -2 4 6 5 -1 -4 -3
right_child=1 7 3 -5 -6 -7 -8 -9
leaf_value=0.0059778627042914798 -0.042266558378469203 -0.012478291067693915 -0.0088119259104132656 0.0055821219193083905 -0.0084013445232994852 -0.0024849235531646851 -0.020355766452848912 -0.0042513729073107246
leaf_weight=389 20 35 43 21 20 41 20 21
leaf_count=389 20 35 43 21 20 41 20 21
internal_value=0 -0.0180441 0.00259677 -0.00796195 0.00456773 0.00517095 -0.0124766 -0.0093932
internal_weight=0 76 534 84 450 430 63 56
internal_count=610 76 534 84 450 430 63 56
is_linear=0
shrinkage=0.05


Tree=26
num_leaves=15
num_cat=0
split_feature=0 7 2 83 3 14 0 12 104 104 30 79 124 0
split_gain=10.2086 7.2443 2.96043 6.22116 1.47649 1.15217 0.503834 0.252456 0.236246 0.653497 0.178828 0.205687 0.0474765 0.020877
threshold=0.039655569984344059 1.0000000180025095e-35 1.0000000180025095e-35 -1.0000000180025095e-35 0.042877865943077256 2.4996452496785458e-11 0.78696811994506299 -0.1837829061554033 -3.1857790272318595e-06 -4.3681427675941779e-06 1.1318431020157466e-05 -0.11923512809296431 -7.1818425787660882e-08 0.65968403978124202
decision_type=2 2 2 2 2 2 2 2 2 2 2 2 2 2
left_child=1 2 3 -1 7 -4 10 -3 9 -8 13 -12 -10 -2
right_child=6 4 5 -5 -6 -7 8 -9 12 -11 11 -13 -14 -15
leaf_value=-0.0094224350671801311 0.0045564411871248127 0.0037744324831735527 0.002466294754828726 -0.038531318799622599 -0.0069484686394306744 -0.011057173799250336 0.007523146143648774 0.010574231946315522 0.010863524427016576 -0.00063316985738999922 0.0047994380843426505 -9.070684156212651e-06 0.008143704296911464 0.0065731069516567963
leaf_weight=45 33 21 21 31 22 63 96 39 21 33 35 61 68 21
leaf_count=45 33 21 21 31 22 63 96 39 21 33 35 61 68 21
internal_value=0 -0.00795247 -0.0141456 -0.0212958 0.00413161 -0.00767631 0.00526918 0.0081943 0.00680382 0.00543665 0.00303883 0.00174403 0.00878546 0.0053407
internal_weight=0 242 160 76 82 84 368 60 218 129 150 96 89 54
internal_count=610 242 160 76 82 84 368 60 218 129 150 96 89 54
is_linear=0
shrinkage=0.05


Tree=27
num_leaves=9
num_cat=0
split_feature=5 17 9 143 46 87 17 55
split_gain=9.48317 5.38277 4.06601 1.4246 1.10839 0.62095 0.306317 0.224495
threshold=0.30158845485867952 0.0004216952412692629 0.00048320964361520005 1.0000000180025095e-35 0.00018159017323009965 -8.4734241408837363e-07 0.0043568669589981101 6.9910860297855349e-06
decision_type=2 2 2 2 2 2 2 2
left_child=2 -2 3 4 -1 7 -3 -4
right_child=1 6 5 -5 -6 -7 -8 -9
leaf_value=0.0055805295813531833 -0.038768646484240887 -0.011414711930389915 -0.0016738028358668092 -0.0086995273518065616 -0.0018851967267038531 -0.015587180899456144 -0.0037762536379020843 -0.0089169728853132416
leaf_weight=389 20 35 20 21 57 24 21 23
leaf_count=389 20 35 20 21 57 24 21 23
internal_value=0 -0.0165025 0.00237457 0.00402715 0.00462639 -0.00914416 -0.00855029 -0.00554806
internal_weight=0 76 534 467 446 67 56 43
internal_count=610 76 534 467 446 67 56 43
is_linear=0
shrinkage=0.05


Tree=28
num_leaves=9
num_cat=0
split_feature=5 0 9 77 3 143 0 77
split_gain=8.55857 4.85795 3.66957 1.2857 1.17156 0.623688 0.283714 0.190719
threshold=0.30158845485867952 0.00048449623775990004 0.00048320964361520005 -1.0000000180025095e-35 0.25671944755602633 -6.0875694932056534e-07 0.0055914005718897012 0.0019532917980069338
decision_type=2 2 2 2 2 2 2 2
left_child=2 -2 3 -1 -5 7 -3 -4
right_child=1 6 5 4 -6 -7 -8 -9
leaf_value=-0.0082645512141642126 -0.03683021397097036 -0.010879489577741229 -0.0026775846759287212 0.0051994317972784854 -0.0037691999678645519 -0.016082158181816339 -0.003528252415846856 -0.0090840703319935573
leaf_weight=21 20 35 26 406 40 20 21 21
leaf_count=21 20 35 26 406 40 20 21 21
internal_value=0 -0.0156774 0.00225584 0.00382579 0.00439507 -0.00868695 -0.00812278 -0.00554006
internal_weight=0 76 534 467 446 67 56 47
internal_count=610 76 534 467 446 67 56 47
is_linear=0
shrinkage=0.05


Tree=29
num_leaves=8
num_cat=0
split_feature=10 0 5 61 88 12 21
split_gain=7.82812 5.48258 1.89202 1.32748 1.31258 0.572515 0.300326
threshold=1.0000000180025095e-35 9.9794724385148342e-05 0.561731668641402 3.3443762919275632e-07 -6.3451606881924773e-05 -0.16620851625168948 1.7362772883476941e-06
decision_type=2 2 2 2 2 2 2
left_child=2 -2 3 5 -3 -1 -6
right_child=1 4 -4 -5 6 -7 -8
leaf_value=0.0033249716683451309 -0.032805852478613028 0.0049350855475164615 -0.01126418597996235 -0.0060653051797999076 -0.013341451467946172 0.0074012128282184442 -0.006906504014676268
leaf_weight=299 23 22 22 32 25 121 66
leaf_count=299 23 22 22 32 25 121 66
internal_value=0 -0.0105539 0.00305445 0.00375138 -0.00602472 0.00449932 -0.00867435
internal_weight=0 136 474 452 113 420 91
internal_count=610 136 474 452 113 420 91
is_linear=0
shrinkage=0.05


Tree=30
num_leaves=7
num_cat=0
split_feature=5 10 88 61 11 3
split_gain=13.1165 4.73231 2.01344 1.20836 1.20084 1.14168
threshold=0.94935929825737764 0.0014598626568789502 -6.3451606881924773e-05 0.089462432014968798 0.79321686188869045 0.25671944755602633
decision_type=2 2 2 2 2 2
left_child=1 4 -3 -4 5 -1
right_child=-2 2 3 -5 -6 -7
leaf_value=0.0050310094150020478 -0.035384673461318017 0.0063361070207541897 -0.007802102214837861 -0.021694608526304365 -0.0071757271808261681 -0.0041271721692504107
leaf_weight=424 25 21 72 20 24 37
leaf_count=424 25 21 72 20 24 37
internal_value=0 0.00158134 -0.0076335 -0.0108222 0.0037283 0.00429597
internal_weight=0 598 113 92 485 461
internal_count=623 598 113 92 485 461
is_linear=0
shrinkage=0.05


Tree=31
num_leaves=7
num_cat=0
split_feature=5 9 2 57 3 17
split_gain=11.8377 4.60233 1.36187 1.2242 0.988619 0.378526
threshold=0.94935929825737764 0.00048320964361520005 -1.0000000180025095e-35 0.00024665899046006322 0.25671944755602633 -0.0018979943853569498
decision_type=2 2 2 2 2 2
left_child=1 3 -3 4 -1 -4
right_child=-2 2 5 -5 -6 -7
leaf_value=0.0048857471469160065 -0.03361543983221054 -0.019499106528237463 0.00098677038215100777 -0.0069594959871700189 -0.0035334926973997712 -0.0068006598006960161
leaf_weight=423 25 20 20 26 38 71
leaf_count=423 25 20 20 26 38 71
internal_value=0 0.00150227 -0.00768553 0.00359641 0.00419175 -0.00508914
internal_weight=0 598 111 487 461 91
internal_count=623 598 111 487 461 91
is_linear=0
shrinkage=0.05


Tree=32
num_leaves=7
num_cat=0
split_feature=5 9 63 2 3 83
split_gain=10.6835 4.15361 1.82421 1.22908 0.804057 0.387076
threshold=0.94935929825737764 0.00048320964361520005 0.00054965054705039256 -1.0000000180025095e-35 0.11265370909739576 -1.9985792401615263e-08
decision_type=2 2 2 2 2 2
left_child=1 2 4 -3 -1 -5
right_child=-2 3 -4 5 -6 -7
leaf_value=0.0051534328228215031 -0.031934667784720663 -0.018524150964803993 -0.0083200599817979722 -0.0068416701788947022 -0.00048031266196630896 0.00046377445571124556
leaf_weight=380 25 20 31 66 76 25
leaf_count=380 25 20 31 66 76 25
internal_value=0 0.00142716 0.00341659 -0.00730125 0.00421448 -0.00483468
internal_weight=0 598 487 111 456 91
internal_count=623 598 487 111 456 91
is_linear=0
shrinkage=0.05


Tree=33
num_leaves=7
num_cat=0
split_feature=5 9 63 22 3 17
split_gain=9.64184 3.74863 1.64635 1.18973 0.725661 0.269377
threshold=0.94935929825737764 0.00048320964361520005 0.00054965054705039256 -0.0014165445091494997 0.11265370909739576 4.4992827860547343e-10
decision_type=2 2 2 2 2 2
left_child=1 2 4 -3 -1 -5
right_child=-2 3 -4 5 -6 -7
leaf_value=0.0048957612073986401 -0.030337933932431047 -0.017652490971210813 -0.0079040568081601963 0.00068184095667675145 -0.00045629705035887466 -0.005897877946096872
leaf_weight=380 25 21 31 20 76 70
leaf_count=380 25 21 31 20 76 70
internal_value=0 0.0013558 0.00324576 -0.00693619 0.00400375 -0.00443572
internal_weight=0 598 487 111 456 90
internal_count=623 598 487 111 456 90
is_linear=0
shrinkage=0.05


Tree=34
num_leaves=9
num_cat=0
split_feature=5 0 0 107 87 80 113 17
split_gain=8.70176 3.4788 2.91187 1.60076 1.24868 0.281545 0.16735 0.136837
threshold=0.94935929825737764 0.096505527811485706 -1.0000000180025095e-35 0.0005096260206885211 -8.1739681479753939e-08 -0.009035923921026574 -2.1791410388504414e-05 -0.78223266342355802
decision_type=2 2 2 2 2 2 2 2
left_child=1 2 3 -1 -4 6 -3 -7
right_child=-2 5 4 -5 -6 7 -8 -9
leaf_value=0.006358148642005278 -0.028821037369780245 -0.0017718389716551261 -0.0051034189107430515 -0.0092155419245717081 -0.015594890177613353 0.0078055294747981759 0.0036541404714807869 0.0045266421089445097
leaf_weight=77 25 27 92 21 41 36 30 274
leaf_count=77 25 27 92 21 41 36 30 274
internal_value=0 0.00128801 -0.00351885 0.00302093 -0.00833763 0.00431358 0.00108394 0.00490742
internal_weight=0 598 231 98 133 367 57 310
internal_count=623 598 231 98 133 367 57 310
is_linear=0
shrinkage=0.05


Tree=35
num_leaves=8
num_cat=0
split_feature=12 9 143 3 88 0 76
split_gain=5.19208 3.08328 1.08244 0.844177 0.828561 0.98382 0.464358
threshold=-0.040610253299213618 0.00048320964361520005 7.925466546803228e-05 0.25671944755602633 -8.2143010200170393e-07 0.0018917087332171003 4.3189128432539747e-06
decision_type=2 2 2 2 2 2 2
left_child=1 2 3 -1 6 -6 -3
right_child=-2 4 -4 -5 5 -7 -8
leaf_value=0.0039267606743159785 -0.023621274480088193 0.0030443986667142739 -0.0086080570006743084 -0.0034992252692020321 -0.02007712866528891 -0.0045820039475247976 -0.0059287576106093502
leaf_weight=431 22 21 20 42 20 21 46
leaf_count=431 22 21 20 42 20 21 46
internal_value=0 0.0011094 0.00278561 0.00326737 -0.00654218 -0.0121406 -0.00311628
internal_weight=0 601 493 473 108 41 67
internal_count=623 601 493 473 108 41 67
is_linear=0
shrinkage=0.05


Tree=36
num_leaves=7
num_cat=0
split_feature=5 10 5 10 11 3
split_gain=5.74693 3.46049 1.48253 1.0959 0.748964 0.731851
threshold=0.94935929825737764 0.0014598626568789502 0.00049102724027010015 0.0046896081546928007 0.79321686188869045 0.25671944755602633
decision_type=2 2 2 2 2 2
left_child=1 4 -3 -4 5 -1
right_child=-2 2 3 -5 -6 -7
leaf_value=0.0038413129918332804 -0.026144352965056895 -0.019432310785632581 -0.0088790265028364963 0.0028146811930293389 -0.0064136861335663577 -0.0030694743715381874
leaf_weight=436 20 20 51 33 21 42
leaf_count=436 20 20 51 33 21 42
internal_value=0 0.00109886 -0.007198 -0.00428507 0.00282807 0.00323409
internal_weight=0 603 104 84 499 478
internal_count=623 603 104 84 499 478
is_linear=0
shrinkage=0.05


Tree=37
num_leaves=7
num_cat=0
split_feature=12 10 84 21 89 3
split_gain=4.36836 2.62521 0.942776 0.70922 0.61077 0.514381
threshold=-0.040610253299213618 3.8857805861880484e-16 -3.9303489855804765e-07 1.7362772883476941e-06 -0.00065812116744453795 0.30070196584082426
decision_type=2 2 2 2 2 2
left_child=1 3 -3 5 -4 -1
right_child=-2 2 4 -5 -6 -7
leaf_value=0.0036561961056997046 -0.021670135076750408 0.0042214858997613198 -0.0018875864724959097 -0.0039090678141005097 -0.010375550427168275 -0.0032310723600074138
leaf_weight=416 22 20 31 38 67 29
leaf_count=416 22 20 31 38 67 29
internal_value=0 0.00101412 -0.00567159 0.00264748 -0.00769058 0.00320736
internal_weight=0 601 118 483 98 445
internal_count=623 601 118 483 98 445
is_linear=0
shrinkage=0.05


Tree=38
num_leaves=7
num_cat=0
split_feature=5 10 5 10 11 47
split_gain=4.8571 2.86006 1.29996 0.971469 0.631108 0.650674
threshold=0.94935929825737764 0.0014598626568789502 0.00049102724027010015 0.0046896081546928007 0.11941875958422506 2.8187711572245028e-05
decision_type=2 2 2 2 2 2
left_child=1 4 -3 -4 5 -1
right_child=-2 2 3 -5 -6 -7
leaf_value=0.0037453548369253756 -0.024039021740318276 -0.017992613916285337 -0.0081339823091220037 0.0028758817634573493 -0.0057013015262782577 -0.0013839519008585852
leaf_weight=404 20 20 51 33 22 73
leaf_count=404 20 20 51 33 22 73
internal_value=0 0.00100644 -0.00653636 -0.00380868 0.00257849 0.00296037
internal_weight=0 603 104 84 499 477
internal_count=623 603 104 84 499 477
is_linear=0
shrinkage=0.05


Tree=39
num_leaves=7
num_cat=0
split_feature=5 10 5 10 143 113
split_gain=4.38354 2.58121 1.17321 0.87675 0.607047 0.43754
threshold=0.94935929825737764 0.0014598626568789502 0.00049102724027010015 0.0046896081546928007 7.925466546803228e-05 -6.5764067750661509e-07
decision_type=2 2 2 2 2 2
left_child=1 4 -3 -4 5 -1
right_child=-2 2 3 -5 -6 -7
leaf_value=0.00060007486072387187 -0.022837070706300439 -0.017092983776237816 -0.0077272832649303421 0.0027320875983798142 -0.0060850429791025826 0.0038411727741123553
leaf_weight=153 20 20 51 33 20 326
leaf_count=153 20 20 51 33 20 326
internal_value=0 0.000956121 -0.00620954 -0.00361824 0.00244956 0.00280592
internal_weight=0 603 104 84 499 479
internal_count=623 603 104 84 499 479
is_linear=0
shrinkage=0.05


Tree=40
num_leaves=6
num_cat=0
split_feature=12 77 0 0 96
split_gain=5.84423 2.54076 1.26788 2.21258 0.284582
threshold=-0.040610253299213618 -0.059103586107776843 0.096505527811485706 -1.0000000180025095e-35 -7.6053035000110161e-07
decision_type=2 2 2 2 2
left_child=1 -1 3 -3 -4
right_child=-2 2 4 -5 -6
leaf_value=-0.016659146985039116 -0.025385181952945216 0.0043915074439077034 0.0015388348962202343 -0.0060995710009959445 0.0043771077544942976
leaf_weight=20 22 87 148 119 219
leaf_count=20 22 87 148 119 219
internal_value=0 0.00085896 0.00147041 -0.00166887 0.00323252
internal_weight=0 593 573 206 367
internal_count=615 593 573 206 367
is_linear=0
shrinkage=0.05


Tree=41
num_leaves=6
num_cat=0
split_feature=12 77 10 56 3
split_gain=5.27441 2.29304 1.20037 0.743971 0.432375
threshold=-0.040610253299213618 -0.059103586107776843 3.8857805861880484e-16 9.213502856516448e-06 0.25671944755602633
decision_type=2 2 2 2 2
left_child=1 -1 4 -4 -3
right_child=-2 2 3 -5 -6
leaf_value=-0.015826189760118722 -0.024115923504260454 0.002956982913936338 -0.0065240509137819416 0.0018199878702448173 -0.0029016667716752959
leaf_weight=20 22 427 68 44 34
leaf_count=20 22 427 68 44 34
internal_value=0 0.000816012 0.00139689 -0.00324604 0.00252489
internal_weight=0 593 573 112 461
internal_count=615 593 573 112 461
is_linear=0
shrinkage=0.05


Tree=42
num_leaves=14
num_cat=0
split_feature=0 0 17 7 0 5 104 64 6 101 101 52 64
split_gain=3.77717 4.18249 9.13754 0.811031 0.294797 0.265583 0.256456 0.188257 0.219487 0.163218 0.186195 0.0572106 0.0404793
threshold=0.012500011556963302 -1.0000000180025095e-35 4.4992827860547343e-10 0.00027844961507970007 0.76041634246747158 0.65988302819911138 -9.0453399881781588e-07 2.8883124487949049e-07 0.00024270077550205002 -1.0052747735497027e-05 -6.9143362496009174e-05 -0.00018716299071149997 -0.00016826816575209996
decision_type=2 2 2 2 2 2 2 2 2 2 2 2 2
left_child=1 3 -3 -1 9 -4 -5 12 -9 10 -2 -11 -6
right_child=4 2 5 6 7 -7 -8 8 -10 11 -12 -13 -14
leaf_value=-0.0038248667719445249 0.0010752112386398949 -0.037227527959341249 -0.0060759816626687682 0.003565302435752182 0.0049969341182573282 -0.00040791618577655286 0.010444418936967851 -0.0019293493192110744 0.0036048314549395298 0.0016841056291013957 -0.0041589303940002412 0.0050108939750186567 0.0072657500194119561
leaf_weight=34 89 27 62 42 66 31 20 21 122 24 21 28 28
leaf_count=34 89 27 62 42 66 31 20 21 122 24 21 28 28
internal_value=0 -0.00539775 -0.0116208 0.0023811 0.00281101 -0.00418663 0.00578437 0.00393465 0.00279212 0.00116716 7.5966e-05 0.00347545 0.00567275
internal_weight=0 216 120 96 399 93 62 237 143 162 110 52 94
internal_count=615 216 120 96 399 93 62 237 143 162 110 52 94
is_linear=0
shrinkage=0.05


Tree=43
num_leaves=6
num_cat=0
split_feature=12 77 0 0 96
split_gain=4.48947 1.98181 0.930881 1.72426 0.244558
threshold=-0.040610253299213618 -0.059103586107776843 0.096505527811485706 -1.0000000180025095e-35 -7.6053035000110161e-07
decision_type=2 2 2 2 2
left_child=1 -1 3 -3 -4
right_child=-2 2 4 -5 -6
leaf_value=-0.014717245697975161 -0.022247665527869356 0.0039544513243338865 0.0012341948008012167 -0.0053068531690211376 0.0038653186706349798
leaf_weight=20 22 87 148 119 219
leaf_count=20 22 87 148 119 219
internal_value=0 0.000754372 0.00129439 -0.00139553 0.00280427
internal_weight=0 593 573 206 367
internal_count=615 593 573 206 367
is_linear=0
shrinkage=0.05


Tree=44
num_leaves=6
num_cat=0
split_feature=12 77 10 110 3
split_gain=4.05174 1.78858 0.831695 0.712514 0.364457
threshold=-0.040610253299213618 -0.059103586107776843 3.8857805861880484e-16 -0.0013691472011949002 0.25671944755602633
decision_type=2 2 2 2 2
left_child=1 -1 4 -4 -3
right_child=-2 2 3 -5 -6
leaf_value=-0.013981383517384531 -0.021135282127017326 0.0025653095564043501 -0.009888070277632395 -0.0004422502779011983 -0.0028135537659502862
leaf_weight=20 22 427 26 86 34
leaf_count=20 22 427 26 86 34
internal_value=0 0.000716653 0.00122967 -0.00263503 0.0021686
internal_weight=0 593 573 112 461
internal_count=615 593 573 112 461
is_linear=0
shrinkage=0.05


Tree=45
num_leaves=6
num_cat=0
split_feature=12 9 17 8 6
split_gain=3.04267 1.95019 0.783167 0.603147 0.312316
threshold=-0.040610253299213618 0.063430108678832017 -0.64338327492142333 0.00019009690696195002 0.00019445990317490004
decision_type=2 2 2 2 2
left_child=1 2 4 -4 -1
right_child=-2 -3 3 -5 -6
leaf_value=0.012031956558071433 -0.018152753035114568 -0.010341044894979664 -0.00072715504791821296 0.0027125527582336374 0.0041846528300084175
leaf_weight=21 22 37 268 243 32
leaf_count=21 22 37 268 243 32
internal_value=0 0.000779092 0.0015086 0.000908557 0.00729396
internal_weight=0 601 564 511 53
internal_count=623 601 564 511 53
is_linear=0
shrinkage=0.05


Tree=46
num_leaves=6
num_cat=0
split_feature=12 9 17 63 6
split_gain=2.74601 1.76005 0.706808 0.550731 0.281865
threshold=-0.040610253299213618 0.063430108678832017 -0.64338327492142333 0.00043311080722891821 0.00019445990317490004
decision_type=2 2 2 2 2
left_child=1 2 4 -4 -1
right_child=-2 -3 3 -5 -6
leaf_value=0.011430358540798937 -0.017245115305889736 -0.0098239926709415958 0.0015171009776749503 -0.0032568913501953446 0.0039754201890900729
leaf_weight=21 22 37 441 70 32
leaf_count=21 22 37 441 70 32
internal_value=0 0.000740137 0.00143317 0.000863129 0.00692926
internal_weight=0 601 564 511 53
internal_count=623 601 564 511 53
is_linear=0
shrinkage=0.05


Tree=47
num_leaves=14
num_cat=0
split_feature=0 7 2 0 14 3 119 119 104 104 3 58 6
split_gain=1.83066 2.25439 2.09645 4.57694 0.729258 0.500854 0.320959 0.529737 0.327815 0.207599 0.112092 0.0978349 0.0713985
threshold=0.012500011556963302 1.0000000180025095e-35 1.0000000180025095e-35 9.9794724385148342e-05 4.1758644786898195e-07 0.023358700887079954 -1.3947162596352264e-06 -1.7029528181440612e-06 -8.8852168801884355e-06 -1.2700378086740509e-06 0.0024366755291041005 4.8729802484696339e-07 9.9621463250730948e-05
decision_type=2 2 2 2 2 2 2 2 2 2 2 2 2
left_child=1 2 3 -1 -4 9 7 8 -2 -3 12 -12 -8
right_child=6 5 4 -5 -6 -7 10 -9 -10 -11 11 -13 -14
leaf_value=-0.028188756406307219 -0.0006778121598202874 0.0037270835076924414 0.0051532124688562289 -0.0017453277270154405 -0.0050390824511716212 -0.0029243707568162962 0.0070508971308859501 -0.0056140428641811013 0.0034977190626835058 0.010220807166770101 0.0033790711171487568 -0.00038072857229659953 0.0039883373367508327
leaf_weight=30 81 32 26 36 54 21 26 28 112 20 62 24 71
leaf_count=30 81 32 26 36 54 21 26 28 112 20 62 24 71
internal_value=0 -0.00358151 -0.00716864 -0.0137651 -0.00172659 0.00359275 0.00209532 0.000812889 0.00174529 0.00622467 0.00364404 0.00232982 0.00480923
internal_weight=0 219 146 66 80 73 404 221 193 52 183 86 97
internal_count=623 219 146 66 80 73 404 221 193 52 183 86 97
is_linear=0
shrinkage=0.05


Tree=48
num_leaves=6
num_cat=0
split_feature=12 9 17 20 1
split_gain=2.29691 1.47392 0.641059 0.532479 0.314306
threshold=-0.040610253299213618 0.063430108678832017 -0.59606224337316649 0.0001919698038191606 0.0014265823759943503
decision_type=2 2 2 2 2
left_child=1 2 4 -4 -1
right_child=-2 -3 3 -5 -6
leaf_value=0.0113623508810997 -0.01577327051623301 -0.0089917425270746084 -0.00039420183939749704 0.003060439341219075 0.0036185663720396792
leaf_weight=20 22 37 340 166 38
leaf_count=20 22 37 340 166 38
internal_value=0 0.000675645 0.00130985 0.000739139 0.00628884
internal_weight=0 601 564 506 58
internal_count=623 601 564 506 58
is_linear=0
shrinkage=0.05


Tree=49
num_leaves=6
num_cat=0
split_feature=12 9 83 6 16
split_gain=2.07296 1.33022 0.584437 0.568632 0.318706
threshold=-0.040610253299213618 0.063430108678832017 0.021143372746567076 0.00023867025753780002 3.1266831363370563e-05
decision_type=2 2 2 2 2
left_child=1 2 3 -1 -4
right_child=-2 -3 4 -5 -6
leaf_value=-0.0015214095483411497 -0.014984606832943179 -0.0085421552585840631 0.01043083635370501 0.0019743875662873809 0.0032517721751131692
leaf_weight=190 22 37 22 300 52
leaf_count=190 22 37 22 300 52
internal_value=0 0.000641862 0.00124436 0.000618874 0.00538609
internal_weight=0 601 564 490 74
internal_count=623 601 564 490 74
is_linear=0
shrinkage=0.05


Tree=50
num_leaves=5
num_cat=0
split_feature=12 77 5 17
split_gain=2.5443 1.16147 1.04868 0.482978
threshold=-0.040610253299213618 -0.012508800064084448 0.79779615662191417 -0.59606224337316649
decision_type=2 2 2 2
left_child=1 -1 3 -3
right_child=-2 2 -4 -5
leaf_value=-0.010293566666465874 -0.017219571396708488 0.00574383038256201 -0.0081713833659887315 0.00091918771404250429
leaf_weight=24 21 58 30 491
leaf_count=24 21 58 30 491
internal_value=0 0.000484704 0.000931471 0.00142889
internal_weight=0 603 579 549
internal_count=624 603 579 549
is_linear=0
shrinkage=0.05


Tree=51
num_leaves=5
num_cat=0
split_feature=12 63 4 83
split_gain=2.29623 1.09052 0.711545 0.501793
threshold=-0.040610253299213618 -0.57283631961743542 0.029026944878775055 0.11721257547058093
decision_type=2 2 2 2
left_child=1 -1 3 -3
right_child=-2 2 -4 -5
leaf_value=-0.010466628009453416 -0.016358593106269838 0.00068977162643163242 -0.0081615903858272814 0.0054938621299921494
leaf_weight=22 21 499 21 61
leaf_count=22 21 499 21 61
internal_value=0 0.000460468 0.000874231 0.00121307
internal_weight=0 603 581 560
internal_count=624 603 581 560
is_linear=0
shrinkage=0.05


Tree=52
num_leaves=5
num_cat=0
split_feature=12 77 5 17
split_gain=2.07235 0.997563 0.959935 0.398511
threshold=-0.040610253299213618 -0.059103586107776843 0.79779615662191417 -0.19443990173370537
decision_type=2 2 2 2
left_child=1 -1 3 -3
right_child=-2 2 -4 -5
leaf_value=-0.010542515972338152 -0.015540663436764763 0.0049094689267613874 -0.0077472946696704433 0.00079559036369733136
leaf_weight=20 21 67 31 485
leaf_count=20 21 67 31 485
internal_value=0 0.000437445 0.000814116 0.00129492
internal_weight=0 603 583 552
internal_count=624 603 583 552
is_linear=0
shrinkage=0.05


Tree=53
num_leaves=7
num_cat=0
split_feature=5 17 59 17 128 1
split_gain=1.8424 2.92423 1.42274 0.554246 0.752504 0.361991
threshold=0.79779615662191417 0.0010154811286546257 0.50164449169192948 -0.61883878709458984 -2.6502467132102614e-05 0.0029234212454838002
decision_type=2 2 2 2 2 2
left_child=2 -2 3 5 -5 -1
right_child=1 -3 -4 4 -6 -7
leaf_value=0.011421045283786953 -0.02402318817563355 0.0026910722433101564 -0.011562674227373108 -0.0062189256998936874 0.0011835809147233711 0.0025459884070894788
leaf_weight=20 20 21 23 37 476 27
leaf_count=20 20 21 23 37 476 27
internal_value=0 -0.0103403 0.000625224 0.0011258 0.000649677 0.00632261
internal_weight=0 41 583 560 513 47
internal_count=624 41 583 560 513 47
is_linear=0
shrinkage=0.05


Tree=54
num_leaves=5
num_cat=0
split_feature=12 66 129 83
split_gain=1.75321 0.904249 0.999675 0.435407
threshold=-0.040610253299213618 -0.00097982370565649992 0.065547460800433846 0.11721257547058093
decision_type=2 2 2 2
left_child=1 -1 3 -3
right_child=-2 2 -4 -5
leaf_value=-0.0097890315732608243 -0.014292322595914207 0.00066829478525172155 -0.010212893744464964 0.0050795811091712308
leaf_weight=21 21 499 20 63
leaf_count=21 21 499 20 63
internal_value=0 0.000404088 0.000771881 0.0011628
internal_weight=0 603 582 562
internal_count=624 603 582 562
is_linear=0
shrinkage=0.05


Tree=55
num_leaves=5
num_cat=0
split_feature=5 144 14 20
split_gain=2.35213 1.23373 1.16474 0.610313
threshold=0.94935929825737764 0.0001253089018438892 0.54543133337905603 0.00018987712041737464
decision_type=2 2 2 2
left_child=1 2 3 -1
right_child=-2 -3 -4 -5
leaf_value=-0.00066406289822965243 -0.016279395280236548 -0.0086189542753143337 0.012480783262955292 0.0028778743800810646
leaf_weight=375 22 36 21 180
leaf_count=375 22 36 21 180
internal_value=0 0.000360797 0.000922032 0.000484674
internal_weight=0 612 576 555
internal_count=634 612 576 555
is_linear=0
shrinkage=0.05


Tree=56
num_leaves=6
num_cat=0
split_feature=5 64 0 0 112
split_gain=2.1228 1.21124 0.550203 1.13714 0.369177
threshold=0.94935929825737764 0.50002700499458119 -1.0000000180025095e-35 0.0096656322777184511 -3.0170782994273277e-06
decision_type=2 2 2 2 2
left_child=1 2 4 -4 -1
right_child=-2 -3 3 -5 -6
leaf_value=-0.0014826326863840223 -0.015465425530617888 -0.010435758328065276 -0.0049950756116906242 0.0012538547235526494 0.005872358146466708
leaf_weight=22 22 25 89 400 76
leaf_count=22 22 25 89 400 76
internal_value=0 0.000342757 0.000801808 0.000116524 0.00422124
internal_weight=0 612 587 489 98
internal_count=634 612 587 489 98
is_linear=0
shrinkage=0.05


Tree=57
num_leaves=5
num_cat=0
split_feature=12 77 5 47
split_gain=2.77195 1.14546 0.546945 0.411915
threshold=-0.033583683169541495 -0.059103586107776843 0.81472945181192846 2.8187711572245028e-05
decision_type=2 2 2 2
left_child=1 -1 3 -3
right_child=-2 2 -4 -5
leaf_value=-0.011368228134233506 -0.018513899631798267 0.0017395232505222021 -0.0056683313266764727 -0.0019676571895023078
leaf_weight=20 20 474 31 89
leaf_count=20 20 474 31 89
internal_value=0 0.000401188 0.000797465 0.00115349
internal_weight=0 614 594 563
internal_count=634 614 594 563
is_linear=0
shrinkage=0.05


Tree=58
num_leaves=6
num_cat=0
split_feature=12 77 47 0 46
split_gain=2.50169 1.03378 0.416583 0.599465 0.344549
threshold=-0.033583683169541495 -0.059103586107776843 2.8187711572245028e-05 -1.0000000180025095e-35 -1.0000000180025095e-35
decision_type=2 2 2 2 2
left_child=1 -1 3 -3 -4
right_child=-2 2 4 -5 -6
leaf_value=-0.010799816544749775 -0.017588203921914101 0.0053167452066075769 0.0021109901649620515 0.00057367779662051953 -0.0045089358423805997
leaf_weight=20 20 79 29 425 61
leaf_count=20 20 79 29 425 61
internal_value=0 0.000381129 0.000757592 0.00131713 -0.00237585
internal_weight=0 614 594 504 90
internal_count=634 614 594 504 90
is_linear=0
shrinkage=0.05


Tree=59
num_leaves=5
num_cat=0
split_feature=12 77 5 0
split_gain=2.25777 0.932988 0.492053 0.384888
threshold=-0.033583683169541495 -0.059103586107776843 0.81472945181192846 0.00095195870828125009
decision_type=2 2 2 2
left_child=1 -1 3 -3
right_child=-2 2 -4 -5
leaf_value=-0.0102598258969374 -0.016708793304860591 0.0038704205355606976 -0.0054130507941027323 0.00044983065039968319
leaf_weight=20 20 100 31 463
leaf_count=20 20 100 31 463
internal_value=0 0.000362073 0.000719712 0.0010574
internal_weight=0 614 594 563
internal_count=634 614 594 563
is_linear=0
shrinkage=0.05


Tree=60
num_leaves=6
num_cat=0
split_feature=60 14 0 14 119
split_gain=1.27559 0.976181 0.761614 1.11546 0.322382
threshold=-0.040407867916469144 0.54543133337905603 0.0095142978338666525 -0.00072957751820384986 -1.3947162596352264e-06
decision_type=2 2 2 2 2
left_child=-1 2 3 -2 -4
right_child=1 -3 4 -5 -6
leaf_value=-0.011707729214824559 0.0017203960302767569 0.011418575623870962 0.00029140936564578661 -0.006241178507079486 0.0030919957352635928
leaf_weight=21 87 21 216 89 196
leaf_count=21 87 21 216 89 196
internal_value=0 0.000825904 0.000447594 -0.00230563 0.00162373
internal_weight=0 609 588 176 412
internal_count=630 609 588 176 412
is_linear=0
shrinkage=0.05


Tree=61
num_leaves=5
num_cat=0
split_feature=60 14 27 19
split_gain=1.15122 0.881003 0.55568 0.436425
threshold=-0.040407867916469144 0.54543133337905603 0.0079742213107814042 0.002207478034127981
decision_type=2 2 2 2
left_child=-1 2 3 -2
right_child=1 -3 -4 -5
leaf_value=-0.011122343067212829 5.1517715685703384e-05 0.010847646697601748 -0.0068689909907989205 0.0035271480510555273
leaf_weight=21 450 21 25 113
leaf_count=21 450 21 25 113
internal_value=0 0.000784608 0.000425214 0.000749113
internal_weight=0 609 588 563
internal_count=630 609 588 563
is_linear=0
shrinkage=0.05


Tree=62
num_leaves=5
num_cat=0
split_feature=60 27 143 53
split_gain=1.03897 0.460542 0.404004 0.414112
threshold=-0.040407867916469144 0.0079742213107814042 0.0003869484744694149 -0.00098990768439594979
decision_type=2 2 2 2
left_child=-1 2 3 -2
right_child=1 -3 -4 -5
leaf_value=-0.010566225887409278 0.0040276024228789167 -0.0057655575497147556 -0.00493713709379167 0.00063662142711437975
leaf_weight=21 113 26 27 443
leaf_count=21 113 26 27 443
internal_value=0 0.000745378 0.00103575 0.0013258
internal_weight=0 609 583 556
internal_count=630 609 583 556
is_linear=0
shrinkage=0.05


Tree=63
num_leaves=6
num_cat=0
split_feature=60 14 18 18 11
split_gain=0.937673 0.790017 0.476939 1.58174 0.237737
threshold=-0.040407867916469144 0.54543133337905603 -0.00018961450756634998 1.0000000180025095e-35 0.00085863073429175011
decision_type=2 2 2 2 2
left_child=-1 2 4 -4 -2
right_child=1 -3 3 -5 -6
leaf_value=-0.010037914557670731 0.004071073598949755 0.010237357419932128 -0.0057394445330708485 0.0012207519831455601 -0.001645211138318039
leaf_weight=21 105 21 106 355 22
leaf_count=21 105 21 106 355 22
internal_value=0 0.000708109 0.000367779 -0.00037964 0.00308085
internal_weight=0 609 588 461 127
internal_count=630 609 588 461 127
is_linear=0
shrinkage=0.05


Tree=64
num_leaves=6
num_cat=0
split_feature=60 14 0 2 119
split_gain=0.84625 0.712991 0.613973 1.27082 0.286768
threshold=-0.040407867916469144 0.54543133337905603 0.0095142978338666525 1.0000000180025095e-35 -1.3947162596352264e-06
decision_type=2 2 2 2 2
left_child=-1 2 3 -2 -4
right_child=1 -3 4 -5 -6
leaf_value=-0.0095360189390790093 -0.0088672174112871295 0.0097254897268222919 0.00014881627723647636 0.00055382408886327456 0.0027901833302018293
leaf_weight=21 50 21 216 126 196
leaf_count=21 50 21 216 126 196
internal_value=0 0.000672704 0.00034939 -0.00212261 0.00140539
internal_weight=0 609 588 176 412
internal_count=630 609 588 176 412
is_linear=0
shrinkage=0.05


Tree=65
num_leaves=10
num_cat=0
split_feature=0 2 14 5 0 22 53 3 1
split_gain=1.83994 4.52988 3.67452 0.52609 0.335324 0.247024 0.204497 0.160557 0.0845997
threshold=1.0000000180025095e-35 0.001865888045847 0.54543133337905603 0.65988302819911138 0.0094791401410382527 2.6591711046133083e-06 1.3790136005698188e-06 0.021917162077003054 0.00070004768567300012
decision_type=2 2 2 2 2 2 2 2 2
left_child=1 2 -1 4 5 -2 -6 8 -3
right_child=3 7 -4 -5 6 -7 -8 -9 -10
leaf_value=-0.034004061349800656 -0.007755521647632122 0.0054636189390135856 -0.0050757306182514072 0.0064498289859526471 0.002310975474996512 -0.00097757788125152996 -6.0284781960717743e-05 -0.0020570125617086887 0.0012617626134306193
leaf_weight=21 20 23 23 37 141 41 256 20 25
leaf_count=21 20 23 23 37 141 41 256 20 25
internal_value=0 -0.00638179 -0.0188824 0.000714883 0.00025158 -0.00319985 0.000781901 0.00170687 0.00327515
internal_weight=0 112 44 495 458 61 397 68 48
internal_count=607 112 44 495 458 61 397 68 48
is_linear=0
shrinkage=0.05


Tree=66
num_leaves=9
num_cat=0
split_feature=0 2 14 12 88 63 3 1
split_gain=1.66055 4.08822 3.31626 0.400192 0.214443 0.20143 0.144903 0.0763513
threshold=1.0000000180025095e-35 0.001865888045847 0.54543133337905603 -0.063248380449142258 -2.5314821378334941e-05 4.2227779842844491e-06 0.021917162077003054 0.00070004768567300012
decision_type=2 2 2 2 2 2 2 2
left_child=1 2 -1 4 -2 -6 7 -3
right_child=3 6 -4 -5 5 -7 -8 -9
leaf_value=-0.03230385844196592 0.0045307222942436304 0.0051904380442979545 -0.0048219437168091133 0.0071194806541113754 0.0005623171521838133 -0.0023275672498534227 -0.0019541619275696576 0.0011986745254835114
leaf_weight=21 29 23 23 23 371 72 20 25
leaf_count=21 29 23 23 23 371 72 20 25
internal_value=0 -0.0060627 -0.0179383 0.000679139 0.000365309 9.26294e-05 0.00162152 0.00311139
internal_weight=0 112 44 495 472 443 68 48
internal_count=607 112 44 495 472 443 68 48
is_linear=0
shrinkage=0.05


Tree=67
num_leaves=9
num_cat=0
split_feature=0 7 12 12 84 67 0 80
split_gain=1.49864 3.7048 2.6928 0.361174 0.252764 0.211016 0.198194 0.0741751
threshold=1.0000000180025095e-35 0.00027844961507970007 -0.16064343981392468 -0.063248380449142258 7.3361298870819861e-05 2.9361865778844147e-19 0.0094791401410382527 0.00095620887917758778
decision_type=2 2 2 2 2 2 2 2
left_child=1 2 -1 5 7 6 -2 -3
right_child=3 4 -4 -5 -6 -7 -8 -9
leaf_value=-0.0058158324858932587 -0.0023902897199981716 0.0064832138223573565 -0.029688496231323198 0.0067635066564316337 -0.0025448215326468928 0.0040826709927724945 0.000512891754491603 0.0023602959893954298
leaf_weight=27 70 20 21 23 20 35 367 24
leaf_count=27 70 20 21 23 20 35 367 24
internal_value=0 -0.00575956 -0.0162601 0.000645182 0.00211586 0.000347043 4.78512e-05 0.00423435
internal_weight=0 112 48 495 64 472 437 44
internal_count=607 112 48 495 64 472 437 44
is_linear=0
shrinkage=0.05


Tree=68
num_leaves=10
num_cat=0
split_feature=0 80 80 5 0 22 53 5 6
split_gain=1.35252 3.44478 2.96706 0.467889 0.277266 0.23783 0.179116 0.119664 0.155017
threshold=1.0000000180025095e-35 0.00019520958053559351 -1.0000000180025095e-35 0.65988302819911138 0.0094791401410382527 2.6591711046133083e-06 1.3790136005698188e-06 0.0024702947076658504 0.00024807125842740008
decision_type=2 2 2 2 2 2 2 2 2
left_child=1 2 -1 4 5 -2 -6 8 -3
right_child=3 7 -4 -5 6 -7 -8 -9 -10
leaf_value=-0.0043319174502318243 -0.0074325395002961163 -0.0032885660743340855 -0.030664194449782373 0.0060213453734192894 0.0020892708191911505 -0.00078193257596888928 -0.00012996117820449627 0.0045987526797467756 0.0024749326296192261
leaf_weight=23 20 20 20 37 141 41 256 21 28
leaf_count=23 20 20 20 37 141 41 256 21 28
internal_value=0 -0.00547158 -0.0165795 0.000612923 0.000175998 -0.00296246 0.00065823 0.00145073 7.34748e-05
internal_weight=0 112 43 495 458 61 397 69 48
internal_count=607 112 43 495 458 61 397 69 48
is_linear=0
shrinkage=0.05


Tree=69
num_leaves=10
num_cat=0
split_feature=0 2 14 5 0 21 80 3 80
split_gain=1.22065 3.10891 2.67777 0.42227 0.25562 0.553501 0.176975 0.115972 0.0905266
threshold=1.0000000180025095e-35 0.00098643655814160025 0.54543133337905603 0.65988302819911138 0.084154800487286616 2.5095771366537454e-07 -0.0013325489583965559 0.021917162077003054 0.0015679864923558572
decision_type=2 2 2 2 2 2 2 2 2
left_child=1 2 -1 4 5 -2 -6 8 -3
right_child=3 7 -4 -5 6 -7 -8 -9 -10
leaf_value=-0.029130984246730808 -0.0091108998262577449 0.00074785395559889302 -0.0041153217918927908 0.0057202779716258312 8.9707737589991038e-06 -3.0906140412865344e-06 0.0023705010798635317 -0.0018303314177319408 0.0050686427802164955
leaf_weight=20 22 27 23 37 251 69 116 20 22
leaf_count=20 22 27 23 37 251 69 116 20 22
internal_value=0 -0.005198 -0.0157505 0.000582277 0.000167198 -0.00220498 0.000755395 0.0013782 0.0026878
internal_weight=0 112 43 495 458 91 367 69 49
internal_count=607 112 43 495 458 91 367 69 49
is_linear=0
shrinkage=0.05


end of trees

feature_importances:
element_1=91
element_6=43
mixing_entropy=35
element_4=28
element_11=24
element_10=21
element_1_element_6=20
element_12=11
element_1_element_3=11
element_10_element_12=11
phs_element_1_element_6=11
element_3=10
element_1_element_5=10
element_8=8
element_2=7
element_7=7
element_6_element_10=7
element_6_element_12=7
element_7_element_8=7
phs_element_1_element_3=7
element_1_element_11=6
element_6_element_9=5
phs_element_3_element_5=5
phs_element_3_element_8=5
phs_element_10_element_12=5
element_5=4
element_10_element_11=4
phs_element_1_element_5=4
phs_element_1_element_8=4
phs_element_1_element_11=4
phs_element_5_element_8=4
element_9=3
element_1_element_10=3
element_2_element_6=3
element_3_element_11=3
element_4_element_6=3
element_4_element_8=3
element_4_element_9=3
element_5_element_8=3
element_6_element_7=3
phs_element_1_element_10=3
phs_element_6_element_11=3
element_1_element_7=2
element_1_element_9=2
element_7_element_11=2
phs_element_1_element_7=2
phs_element_2_element_9=2
phs_element_4_element_9=2
element_1_element_2=1
element_1_element_8=1
element_1_element_12=1
element_2_element_3=1
element_2_element_9=1
element_3_element_6=1
element_3_element_7=1
element_3_element_9=1
element_5_element_7=1
element_5_element_10=1
element_5_element_11=1
element_5_element_12=1
element_6_element_8=1
element_7_element_10=1
element_8_element_9=1
phs_element_1_element_2=1
phs_element_1_element_9=1
phs_element_1_element_12=1
phs_element_3_element_11=1
phs_element_4_element_6=1
phs_element_4_element_8=1
phs_element_6_element_7=1
phs_element_6_element_9=1
phs_element_6_element_10=1
phs_element_6_element_12=1
phs_element_7_element_9=1
phs_element_7_element_11=1
phs_element_11_element_12=1

parameters:
[boosting: gbdt]
[objective: regression]
[metric: l1,l2]
[tree_learner: serial]
[device_type: cpu]
[data: ]
[valid: ]
[num_iterations: 100]
[learning_rate: 0.05]
[num_leaves: 15]
[num_threads: 0]
[deterministic: 0]
[force_col_wise: 0]
[force_row_wise: 0]
[histogram_pool_size: -1]
[max_depth: 4]
[min_data_in_leaf: 20]
[min_sum_hessian_in_leaf: 0.001]
[bagging_fraction: 0.8]
[pos_bagging_fraction: 1]
[neg_bagging_fraction: 1]
[bagging_freq: 5]
[bagging_seed: 3]
[feature_fraction: 0.8]
[feature_fraction_bynode: 1]
[feature_fraction_seed: 2]
[extra_trees: 0]
[extra_seed: 6]
[early_stopping_round: 20]
[first_metric_only: 0]
[max_delta_step: 0]
[lambda_l1: 0]
[lambda_l2: 0]
[linear_lambda: 0]
[min_gain_to_split: 0]
[drop_rate: 0.1]
[max_drop: 50]
[skip_drop: 0.5]
[xgboost_dart_mode: 0]
[uniform_drop: 0]
[drop_seed: 4]
[top_rate: 0.2]
[other_rate: 0.1]
[min_data_per_group: 100]
[max_cat_threshold: 32]
[cat_l2: 10]
[cat_smooth: 10]
[max_cat_to_onehot: 4]
[top_k: 20]
[monotone_constraints: ]
[monotone_constraints_method: basic]
[monotone_penalty: 0]
[feature_contri: ]
[forcedsplits_filename: ]
[refit_decay_rate: 0.9]
[cegb_tradeoff: 1]
[cegb_penalty_split: 0]
[cegb_penalty_feature_lazy: ]
[cegb_penalty_feature_coupled: ]
[path_smooth: 0]
[interaction_constraints: ]
[verbosity: -1]
[saved_feature_importance_type: 0]
[linear_tree: 0]
[max_bin: 255]
[max_bin_by_feature: ]
[min_data_in_bin: 3]
[bin_construct_sample_cnt: 200000]
[data_random_seed: 1]
[is_enable_sparse: 1]
[enable_bundle: 1]
[use_missing: 1]
[zero_as_missing: 0]
[feature_pre_filter: 1]
[pre_partition: 0]
[two_round: 0]
[header: 0]
[label_column: ]
[weight_column: ]
[group_column: ]
[ignore_column: ]
[categorical_feature: ]
[forcedbins_filename: ]
[precise_float_parser: 0]
[objective_seed: 5]
[num_class: 1]
[is_unbalance: 0]
[scale_pos_weight: 1]
[sigmoid: 1]
[boost_from_average: 1]
[reg_sqrt: 0]
[alpha: 0.9]
[fair_c: 1]
[poisson_max_delta_step: 0.7]
[tweedie_variance_power: 1.5]
[lambdarank_truncation_level: 30]
[lambdarank_norm: 1]
[label_gain: ]
[eval_at: ]
[multi_error_top_k: 1]
[auc_mu_weights: ]
[num_machines: 1]
[local_listen_port: 12400]
[time_out: 120]
[machine_list_filename: ]
[machines: ]
[gpu_platform_id: -1]
[gpu_device_id: -1]
[gpu_use_dp: 0]
[num_gpu: 1]

end of parameters

pandas_categorical:[]
