tree
version=v3
num_class=1
num_tree_per_iteration=1
label_index=0
max_feature_idx=144
objective=regression
feature_names=element_1 element_2 element_3 element_4 element_5 element_6 element_7 element_8 element_9 element_10 element_11 element_12 mixing_entropy element_1_element_2 element_1_element_3 element_1_element_4 element_1_element_5 element_1_element_6 element_1_element_7 element_1_element_8 element_1_element_9 element_1_element_10 element_1_element_11 element_1_element_12 element_2_element_3 element_2_element_4 element_2_element_5 element_2_element_6 element_2_element_7 element_2_element_8 element_2_element_9 element_2_element_10 element_2_element_11 element_2_element_12 element_3_element_4 element_3_element_5 element_3_element_6 element_3_element_7 element_3_element_8 element_3_element_9 element_3_element_10 element_3_element_11 element_3_element_12 element_4_element_5 element_4_element_6 element_4_element_7 element_4_element_8 element_4_element_9 element_4_element_10 element_4_element_11 element_4_element_12 element_5_element_6 element_5_element_7 element_5_element_8 element_5_element_9 element_5_element_10 element_5_element_11 element_5_element_12 element_6_element_7 element_6_element_8 element_6_element_9 element_6_element_10 element_6_element_11 element_6_element_12 element_7_element_8 element_7_element_9 element_7_element_10 element_7_element_11 element_7_element_12 element_8_element_9 element_8_element_10 element_8_element_11 element_8_element_12 element_9_element_10 element_9_element_11 element_9_element_12 element_10_element_11 element_10_element_12 element_11_element_12 phs_element_1_element_2 phs_element_1_element_3 phs_element_1_element_4 phs_element_1_element_5 phs_element_1_element_6 phs_element_1_element_7 phs_element_1_element_8 phs_element_1_element_9 phs_element_1_element_10 phs_element_1_element_11 phs_element_1_element_12 phs_element_2_element_3 phs_element_2_element_4 phs_element_2_element_5 phs_element_2_element_6 phs_element_2_element_7 phs_element_2_element_8 phs_element_2_element_9 phs_element_2_element_10 phs_element_2_element_11 phs_element_2_element_12 phs_element_3_element_4 phs_element_3_element_5 phs_element_3_element_6 phs_element_3_element_7 phs_element_3_element_8 phs_element_3_element_9 phs_element_3_element_10 phs_element_3_element_11 phs_element_3_element_12 phs_element_4_element_5 phs_element_4_element_6 phs_element_4_element_7 phs_element_4_element_8 phs_element_4_element_9 phs_element_4_element_10 phs_element_4_element_11 phs_element_4_element_12 phs_element_5_element_6 phs_element_5_element_7 phs_element_5_element_8 phs_element_5_element_9 phs_element_5_element_10 phs_element_5_element_11 phs_element_5_element_12 phs_element_6_element_7 phs_element_6_element_8 phs_element_6_element_9 phs_element_6_element_10 phs_element_6_element_11 phs_element_6_element_12 phs_element_7_element_8 phs_element_7_element_9 phs_element_7_element_10 phs_element_7_element_11 phs_element_7_element_12 phs_element_8_element_9 phs_element_8_element_10 phs_element_8_element_11 phs_element_8_element_12 phs_element_9_element_10 phs_element_9_element_11 phs_element_9_element_12 phs_element_10_element_11 phs_element_10_element_12 phs_element_11_element_12
feature_infos=[-1:0.99935042222555337] [-1:0.3449227373068432] [-1:0.4134129536058796] [-1:0.98512461826421038] [-1:0.16877637130801679] [-1:0.99997500062498434] [-1:0.015692017993513899] [-1:0.037486435829140699] [-1:0.0060850028084628001] [-1:0.99992000639948797] [-1:0.014677103718199601] [-1:0.99591674136042241] [-1.3124890170420334:-0.00019160717767404052] [-0.99084030266825962:1] [-0.98696368812746604:1] [-0.98696368812746604:1] [-0.99084030266825962:1] [-0.99997500062498434:1] [-0.99935042222555337:1] [-0.99084030266825962:1] [-0.98519622454048683:1] [-0.98809878012496277:1] [-0.98809878012496277:1] [-0.98726429065060717:1] [-0.25363705972434919:1] [-0.71189279731993305:1] [-0.3449227373068432:1] [-0.99995000199992001:1] [-0.3008876184744998:1] [-0.28853089685020439:1] [-0.28853089685020439:1] [-0.99992000639948797:1] [-0.29861145672622302:1] [-0.9907673979946392:1] [-0.71598336304218646:1] [-0.1009174311926605:1] [-0.99949982493872858:1] [-0.064757851889541598:1] [-0.0681796045582935:1] [-0.0828881930373917:1] [-0.99992000639948797:1] [-0.1295336787564767:1] [-0.98513379583746274:1] [-0.80804099329917234:1] [-0.99969915764139605:1] [-0.71598336304218646:1] [-0.73102755060081326:1] [-0.71189279731993305:1] [-0.99581423161251759:1] [-0.71598336304218646:1] [-0.9799019607843138:1] [-0.99997500062498434:1] [-0.1009174311926605:1] [-0.12851023322227509:1] [-0.073277967757694101:1] [-0.38009049773755649:1] [-0.12851023322227509:1] [-0.9907673979946392:1] [-0.98809523809523803:1] [-0.99995000199992001:1] [-0.99993000349982497:1] [-0.99988000839941205:1] [-0.99997500062498434:1] [-0.99995000199992001:1] [-0.033382425135002398:1] [-0.0033425651800209999:1] [-0.99581423161251759:1] [-0.015692017993513899:1] [-0.98425196850393704:1] [-0.010783256543476101:1] [-0.38476755687438169:1] [-0.0269251480883144:1] [-0.98274111675126896:1] [-0.40445089501693271:1] [-0.0144230769230769:1] [-0.98513379583746274:1] [-0.89905362776025244:1] [-0.98274111675126896:1] [-0.9907673979946392:1] [-0.7141645175676552:0.44542246192600987] [-0.69223353457121384:0.64816722957467454] [-0.71429825237499844:0.49007688995618698] [-0.88961216324089576:0.63720764907987937] [-0.84941819964897747:0.63944961405979361] [-0.92827898260770181:0.67563691078655996] [-0.85113897475748723:0.6704255410048916] [-0.92827898260770181:0.6704255410048916] [-0.81235106753686137:0.64325766679053675] [-0.77533287494282899:0.64258762082284604] [-0.92827898260770181:0.67563691078655996] [-0.8593785702923985:0.29342101045965296] [-0.94011544972655048:0.54608043459323807] [-0.81940150365536013:0.30497735105005835] [-0.92230684341441393:0.52958411232611402] [-0.8593785702923985:0.29054934824303474] [-0.89461956848632895:0.28563044644544555] [-0.94011544972655048:0.34659282468455532] [-0.89461956848632895:0.30497735105005835] [-0.94011544972655048:0.34659282468455532] [-0.94011544972655048:0.45404932578982954] [-0.68694619900095177:0.56973564305601698] [-0.87465105846843227:0.080637166379764605] [-1.0726273059488054:0.51118208728957726] [-1.0726273059488054:0.073553007395115375] [-0.89605523880755089:0.060170096273423866] [-1.2206327248630751:0.054585802368002569] [-1.2206327248630751:0.29535447630328349] [-1.1721040825515214:0.11460507433905819] [-1.1721040825515214:0.4923432941989318] [-0.75412097408191137:0.58640248708218301] [-0.7540955152824852:0.58640248708218301] [-0.74678498157933426:0.63264777440015618] [-0.82502626905776721:0.60812971650317982] [-0.94011544972655048:0.56858552449599742] [-0.88315188775549114:0.63264777440015618] [-0.94011544972655048:0.56973564305601698] [-0.94011544972655048:0.60812971650317982] [-1.1954459915800111:0.50764944379048182] [-1.1527833240429706:0.065308330949493537] [-1.1527833240429706:0.077707929385091537] [-1.1527833240429706:0.065308330949493537] [-1.1842586035085196:0.22190275323446387] [-1.1954459915800111:0.077707929385091537] [-1.1842586035085196:0.37913029291330019] [-1.1978092132228371:0.52958411232611402] [-1.1978092132228371:0.59206035006421653] [-1.1978092132228371:0.59206035006421653] [-1.1310704548784682:0.50179053297686904] [-1.1978092132228371:0.5889319017556599] [-1.1978092132228371:0.59206035006421653] [-1.1978092132228371:0.023490575625549348] [-1.1978092132228371:0.0016926025851291186] [-1.0371674476314265:0.28647155734299157] [-1.1978092132228371:0.0077035300538079903] [-1.1978092132228371:0.4923432941989318] [-1.1978092132228371:0.0052103659508183717] [-0.94990226329859562:0.29535447630328349] [-1.1978092132228371:0.023490575625549348] [-1.1978092132228371:0.50193566239851717] [-1.2206327248630751:0.28647155734299157] [-1.2458155300134672:0.0077035300538079903] [-1.1978092132228371:0.35724945368418898] [-0.89461956848632895:0.27711582895403108] [-1.1842586035085196:0.45082298918191238] [-1.1978092132228371:0.50193566239851717]
tree_sizes=966 997 993 1000 999 911 913 1172 912 913 1000 1096 1002 1190 922 1105 750 1014 1099 1184 839 751 837 754 753 847 848 753 843 851 758 834 839 758 846 1205 1289 1202 1119 1116 936 756 932 764 765 755 757 664 676 766 672 589 668 581 670 760 765 764 674 770 762 670 753 766 772 846 673 584 856 680 679 766 588 589 588 757 752 769 761 766 675 759 759 764 676 586 587 585 678 680 762 761 761 668 764 589 587 758

Tree=0
num_leaves=10
num_cat=0
split_feature=5 9 0 10 3 0 0 22 16
split_gain=126.365 71.8171 34.0326 18.0872 4.15535 3.92292 2.1655 0.644687 0.313361
threshold=0.049182124534082654 4.9960036108132054e-16 9.9552064272755166e-05 5.5511151231257837e-16 0.294412832081686 0.0088591153590941527 0.0035733643252482505 5.1320080250667919e-06 3.0553910067715053e-05
decision_type=2 2 2 2 2 2 2 2 2
left_child=1 3 -2 4 -1 7 -3 -4 -8
right_child=2 6 5 -5 -6 -7 8 -9 -10
leaf_value=0.32889918991768952 0.20845601687804405 0.2632575289868776 0.2587010909083946 0.28888946030606832 0.3111214394315252 0.28949033369347998 0.27629883379770553 0.27055076173171944 0.28451076058203101
leaf_weight=378 28 33 22 33 36 25 26 24 21
leaf_count=378 28 33 22 33 36 25 26 24 21
internal_value=0.306696 0.316705 0.255138 0.324514 0.327353 0.273548 0.273075 0.264884 0.279968
internal_weight=0 527 99 447 414 71 80 46 47
internal_count=626 527 99 447 414 71 80 46 47
is_linear=0
shrinkage=1


Tree=1
num_leaves=10
num_cat=0
split_feature=5 9 0 11 3 0 0 22 63
split_gain=114.045 64.8947 30.7144 17.8925 4.28162 3.54044 1.63812 0.58183 0.107653
threshold=0.049182124534082654 0.00039497592769625005 9.9552064272755166e-05 0.0088084441881809018 0.3586110129666934 0.0088591153590941527 0.0035733643252482505 5.1320080250667919e-06 0.0018235900570829509
decision_type=2 2 2 2 2 2 2 2 2
left_child=1 3 -2 4 -1 7 -3 -4 -8
right_child=2 6 5 -5 -6 -7 8 -9 -10
leaf_value=0.020139437616236655 -0.093328330226774725 -0.041275649238377815 -0.045595510879700839 -0.028239080925760347 -0.0035552403563633562 -0.016345729887485505 -0.024228681158274413 -0.034338323771953581 -0.029070915484970268
leaf_weight=408 28 32 22 21 20 25 24 24 22
leaf_count=408 28 32 22 21 20 25 24 24 22
internal_value=0 0.00950834 -0.0489804 0.0168213 0.0190322 -0.031491 -0.0325881 -0.0397222 -0.0265445
internal_weight=0 527 99 449 428 71 78 46 46
internal_count=626 527 99 449 428 71 78 46 46
is_linear=0
shrinkage=0.05


Tree=2
num_leaves=10
num_cat=0
split_feature=8 39 0 5 5 0 3 7 1
split_gain=103.407 52.9471 33.5411 19.4602 10.9692 7.86721 4.59304 1.53661 0.900504
threshold=2.9382553456250991e-05 -0.0048771908141485498 0.00070859405713910009 0.89057884743797222 0.032507132366595158 0.022063687613073705 0.3586110129666934 0.00024010449436135002 0.1931305316218275
decision_type=2 2 2 2 2 2 2 2 2
left_child=1 7 3 -3 6 -4 8 -1 -2
right_child=4 2 5 -5 -6 -7 -8 -9 -10
leaf_value=0.004857112346217037 0.020867638570982366 -0.047979504114081119 -0.030871257779345046 -0.11208972906693818 -0.019787381999194623 0.0031501253135502341 -0.0039087903770533483 0.021979308022970434 0.014253570517850301
leaf_weight=20 281 29 113 20 20 20 22 38 63
leaf_count=20 281 29 113 20 20 20 22 38 63
internal_value=0 -0.0255262 -0.0387838 -0.0741469 0.0162695 -0.0257553 0.0182399 0.0160751 0.0196563
internal_weight=0 240 182 49 386 133 366 58 344
internal_count=626 240 182 49 386 133 366 58 344
is_linear=0
shrinkage=0.05


Tree=3
num_leaves=10
num_cat=0
split_feature=8 39 0 12 126 0 3 7 1
split_gain=93.3245 47.7848 30.2709 16.6265 9.6485 7.10016 4.27279 1.38679 0.817556
threshold=2.9382553456250991e-05 -0.0048771908141485498 0.00070859405713910009 -0.18443778265167601 -8.9260969273318399e-06 0.022063687613073705 0.3586110129666934 0.00024010449436135002 0.1931305316218275
decision_type=2 2 2 2 2 2 2 2 2
left_child=1 7 3 -3 -2 -4 8 -1 -6
right_child=4 2 5 -5 6 -7 -8 -9 -10
leaf_value=0.0046142563782632356 -0.017500596245129906 -0.038173751224001705 -0.029327694900267948 -0.096730279584449755 0.019842980292980358 0.0029926189593970777 -0.0045429937009300505 0.020880342946360257 0.01354089260751766
leaf_weight=20 21 22 113 27 281 20 21 38 63
leaf_count=20 21 22 113 27 281 20 21 38 63
internal_value=0 -0.0242499 -0.0368446 -0.0704396 0.0154561 -0.0244675 0.0173522 0.0152713 0.0186888
internal_weight=0 240 182 49 386 133 365 58 344
internal_count=626 240 182 49 386 133 365 58 344
is_linear=0
shrinkage=0.05


Tree=4
num_leaves=10
num_cat=0
split_feature=5 9 0 11 0 10 0 22 16
split_gain=86.2017 47.4212 23.1285 13.8295 2.71054 2.53582 1.2216 0.473723 0.12861
threshold=0.049182124534082654 0.00039497592769625005 9.9552064272755166e-05 0.0088084441881809018 0.0095170768467159016 2.7755575615628918e-16 0.0035733643252482505 5.1320080250667919e-06 3.0553910067715053e-05
decision_type=2 2 2 2 2 2 2 2 2
left_child=1 3 -2 5 7 -1 -3 -4 -8
right_child=2 6 4 -5 -6 -7 8 -9 -10
leaf_value=0.017396596155249248 -0.081070363914061874 -0.035224227991420776 -0.039572525583207611 -0.025100370283637732 -0.013296823171169862 0.00066819355900709829 -0.024821803776117472 -0.029603455330316837 -0.019488639440387489
leaf_weight=404 28 32 22 21 23 24 26 26 20
leaf_count=404 28 32 22 21 23 24 26 26 20
internal_value=0 0.00826345 -0.0425867 0.0145148 -0.02741 0.0164586 -0.027722 -0.0341726 -0.022503
internal_weight=0 527 99 449 71 428 78 48 46
internal_count=626 527 99 449 71 428 78 48 46
is_linear=0
shrinkage=0.05


Tree=5
num_leaves=9
num_cat=0
split_feature=5 9 0 10 3 0 83 82
split_gain=79.6706 45.4471 26.7571 13.2555 3.05203 2.1245 2.02105 0.320164
threshold=0.53012055132149338 0.00039497592769625005 9.9552064272755166e-05 5.5511151231257837e-16 0.294412832081686 0.0023775078174473004 -0.0011179490719710273 -1.0845046502897704e-05
decision_type=2 2 2 2 2 2 2 2
left_child=1 3 -2 4 -1 -3 -4 -7
right_child=2 5 6 -5 -6 7 -8 -9
leaf_value=0.017200146332277812 -0.091522095546774249 -0.040852755086407781 -0.018050380902630943 -0.018405481092631817 0.0008984230248437774 -0.017190820937976244 -0.036883335534868569 -0.024971817195033417
leaf_weight=389 23 21 28 30 31 20 29 39
leaf_count=389 23 21 28 30 31 20 29 39
internal_value=0 0.00753003 -0.0460004 0.0137034 0.0159969 -0.0271953 -0.0276321 -0.0223342
internal_weight=0 530 80 450 420 80 57 59
internal_count=610 530 80 450 420 80 57 59
is_linear=0
shrinkage=0.05


Tree=6
num_leaves=9
num_cat=0
split_feature=5 9 0 10 3 14 83 80
split_gain=71.9027 41.0401 24.1483 12.0359 2.79583 2.06587 1.824 0.486827
threshold=0.53012055132149338 4.9960036108132054e-16 9.9552064272755166e-05 5.5511151231257837e-16 0.294412832081686 2.8913811892801602e-06 -0.0011179490719710273 -6.7548484789860336e-06
decision_type=2 2 2 2 2 2 2 2
left_child=1 3 -2 4 -1 -3 -4 -7
right_child=2 5 6 -5 -6 7 -8 -9
leaf_value=0.016458990276750244 -0.086945993534248811 -0.036096649017618519 -0.017147861713809626 -0.017485206552470725 0.00085350183709975215 -0.014794840270446408 -0.035039167979667933 -0.024380608648061755
leaf_weight=387 23 29 28 30 31 27 29 26
leaf_count=387 23 29 28 30 31 27 29 26
internal_value=0 0.00715353 -0.0437004 0.0131061 0.0153016 -0.0253678 -0.0262505 -0.0194973
internal_weight=0 530 80 448 418 82 57 53
internal_count=610 530 80 448 418 82 57 53
is_linear=0
shrinkage=0.05


Tree=7
num_leaves=12
num_cat=0
split_feature=0 14 12 14 6 12 19 19 12 6 79
split_gain=65.1492 41.9852 26.829 8.40686 1.1679 0.943156 0.345843 0.907466 0.26208 0.212344 0.0463989
threshold=0.10192841497726342 -0.0047041747260345495 -0.033583683169541495 5.3633757225354561e-06 0.00018950178089295001 -0.22424009156182104 0.0029038612199122063 0.001308517598267233 -0.32753858438231681 0.00039818824447850006 -0.00051471403009833376
decision_type=2 2 2 2 2 2 2 2 2 2 2
left_child=1 4 3 -3 -1 6 7 -2 -6 10 -7
right_child=5 2 -4 -5 8 9 -8 -9 -10 -11 -12
leaf_value=0.005101839173585177 0.013929279171687953 -0.035083122275410647 -0.084444695394486194 -0.0134061654410373 0.012752324799075725 0.018145694233933276 0.019401059299707413 0.0027506374532268161 0.02004855088889599 0.013941467375982376 0.020094887231603083
leaf_weight=32 134 83 20 97 20 49 20 21 32 21 81
leaf_count=32 134 83 20 97 20 49 20 21 32 21 81
internal_value=0 -0.0170469 -0.029506 -0.0234017 0.0126174 0.0157114 0.0132132 0.0124148 0.0172423 0.0186066 0.0193602
internal_weight=0 284 200 180 84 326 175 155 52 151 130
internal_count=610 284 200 180 84 326 175 155 52 151 130
is_linear=0
shrinkage=0.05


Tree=8
num_leaves=9
num_cat=0
split_feature=5 9 0 10 3 0 83 143
split_gain=59.2916 33.6533 20.6234 9.96198 2.33099 1.64407 1.46929 0.225564
threshold=0.53012055132149338 0.00039497592769625005 9.9552064272755166e-05 5.5511151231257837e-16 0.294412832081686 0.0023775078174473004 -0.0011179490719710273 -0.00018489708581871352
decision_type=2 2 2 2 2 2 2 2
left_child=1 3 -2 4 -1 -3 -4 -7
right_child=2 5 6 -5 -6 7 -8 -9
leaf_value=0.014845384010245455 -0.079651089757680898 -0.035402940408814525 -0.015390251151153021 -0.016029996220022442 0.00059884900767957013 -0.016641121016194426 -0.031447947169011781 -0.022980044571601826
leaf_weight=389 23 21 28 30 31 36 29 23
leaf_count=389 23 21 28 30 31 36 29 23
internal_value=0 0.00649327 -0.0396862 0.0118056 0.0137939 -0.0233885 -0.02356 -0.0191122
internal_weight=0 530 80 450 420 80 57 59
internal_count=610 530 80 450 420 80 57 59
is_linear=0
shrinkage=0.05


Tree=9
num_leaves=9
num_cat=0
split_feature=5 9 83 10 3 14 83 82
split_gain=53.5107 30.4073 18.6127 9.04604 2.1354 1.55491 1.32603 0.420545
threshold=0.53012055132149338 4.9960036108132054e-16 -9.8444994424043296e-09 5.5511151231257837e-16 0.294412832081686 2.8913811892801602e-06 -0.0011179490719710273 -1.0845046502897704e-05
decision_type=2 2 2 2 2 2 2 2
left_child=1 3 6 4 -1 -3 -2 -7
right_child=2 5 -4 -5 -6 7 -8 -9
leaf_value=0.014207243824555738 -0.014620738715997764 -0.031132608183242122 -0.07566853557591853 -0.01522849638015032 0.00056890659935532079 -0.011010496603557841 -0.029875549820155417 -0.020198945780143595
leaf_weight=387 28 29 23 30 31 20 29 33
leaf_count=387 28 29 23 30 31 20 29 33
internal_value=0 0.00616861 -0.0377018 0.0112924 0.0131958 -0.0218246 -0.022382 -0.0167316
internal_weight=0 530 80 448 418 82 57 53
internal_count=610 530 80 448 418 82 57 53
is_linear=0
shrinkage=0.05


Tree=10
num_leaves=10
num_cat=0
split_feature=5 9 12 11 36 3 0 142 0
split_gain=49.7038 30.1911 13.4713 6.03456 1.85345 1.69891 1.65884 0.626622 0.375464
threshold=0.082308916764454274 4.9960036108132054e-16 -0.17035149383122453 0.0088084441881809018 0.0029994315920846581 0.294412832081686 0.0031421166944655505 -0.00011898318313262328 0.0077335097575288005
decision_type=2 2 2 2 2 2 2 2 2
left_child=1 3 4 5 7 -1 -3 -2 -8
right_child=2 6 -4 -5 -6 -7 8 -9 -10
leaf_value=0.013621934151588964 -0.032838412406651869 -0.029303890430638871 -0.063605611789255195 -0.015391546515747907 -0.0090728962816120622 0.0018115358822273489 -0.017922910482327387 -0.021607575372413354 -0.009701462276279927
leaf_weight=394 23 31 26 20 21 33 41 27 21
leaf_count=394 23 31 26 20 21 33 41 27 21
internal_value=0 0.00605926 -0.0328141 0.0114519 -0.0215383 0.0127092 -0.0198601 -0.0267738 -0.0151382
internal_weight=0 540 97 447 71 427 93 50 62
internal_count=637 540 97 447 71 427 93 50 62
is_linear=0
shrinkage=0.05


Tree=11
num_leaves=11
num_cat=0
split_feature=8 39 2 22 126 3 80 7 28 7
split_gain=43.3178 26.5041 8.00025 8.00918 3.12241 1.64325 1.25723 0.546369 0.513135 0.0465838
threshold=2.9382553456250991e-05 -0.0048771908141485498 1.0000000180025095e-35 5.1320080250667919e-06 -6.878156097476594e-06 0.294412832081686 -2.9974629830299993e-05 0.00027949999373300002 7.48556509258369e-05 0.0014924630947830001
decision_type=2 2 2 2 2 2 2 2 2 2
left_child=1 7 3 -3 -2 8 -4 -1 -6 -9
right_child=4 2 6 -5 5 -7 -8 9 -10 -11
leaf_value=0.0052394613410433524 -0.0074640547856688506 -0.048116240664212793 -0.0050745166582055398 -0.014338900818704411 0.013765233041984695 0.00031034973050866812 -0.018906272503511942 0.013424220122396947 0.0083122313862629971 0.016691550736625992
leaf_weight=20 22 54 20 26 280 28 92 20 51 24
leaf_count=20 22 54 20 26 280 28 92 20 51 24
internal_value=0 -0.0157738 -0.0250623 -0.0371386 0.0108207 0.0119412 -0.0164363 0.0120917 0.012925 0.0152064
internal_weight=0 256 192 80 381 359 112 64 331 44
internal_count=637 256 192 80 381 359 112 64 331 44
is_linear=0
shrinkage=0.05


Tree=12
num_leaves=10
num_cat=0
split_feature=5 11 0 77 77 17 0 42 5
split_gain=41.3837 19.3457 10.6659 5.58784 2.28312 1.06896 0.731586 0.166697 0.10763
threshold=0.082308916764454274 0.014325953214338801 0.00070859405713910009 -0.00043608491888249998 1.0000000180025095e-35 0.006671943422791665 0.0031421166944655505 0.0034987939935089622 0.72704287487958219
decision_type=2 2 2 2 2 2 2 2 2
left_child=1 3 -2 -1 -5 8 -3 -8 -4
right_child=2 6 5 4 -6 -7 7 -9 -10
leaf_value=-0.015691823389248124 -0.05105666171104925 -0.02432388611972177 -0.024236172009259465 0.011580248828977346 -0.0042820387403480712 -0.0074851999478414664 -0.011611520989699232 -0.017088090519731244 -0.019048936832696203
leaf_weight=21 37 24 20 414 24 20 33 24 20
leaf_count=21 37 24 20 414 24 20 33 24 20
internal_value=0 0.00552752 -0.0299433 0.00950311 0.0107111 -0.0169234 -0.0170008 -0.0139174 -0.0216426
internal_weight=0 540 97 459 438 60 81 57 40
internal_count=637 540 97 459 438 60 81 57 40
is_linear=0
shrinkage=0.05


Tree=13
num_leaves=12
num_cat=0
split_feature=0 80 12 80 2 1 4 104 104 105 29
split_gain=37.1729 22.5179 12.9394 5.99826 4.19067 0.736091 0.548114 0.334511 0.40093 0.169005 0.127716
threshold=0.10192841497726342 0.00041838430310618018 -0.04175634845969195 -2.1714171899866506e-05 0.0061294262532056503 0.1931305316218275 0.0092554048235110025 -3.2471459804172549e-06 -4.5597522855428088e-06 -8.3414709981774408e-07 4.875129794358996e-05
decision_type=2 2 2 2 2 2 2 2 2 2 2
left_child=1 2 3 -1 -3 7 -7 8 -2 -6 -9
right_child=5 4 -4 -5 9 6 -8 10 -10 -11 -12
leaf_value=-0.0044587581809686465 0.012873969428719732 -0.012456116583198311 -0.059675062261521819 -0.023417503659165409 0.0096188624474135322 0.01053660566869535 0.00075715443362360415 0.015604738806291383 0.0069096922874450689 0.014832017848373586 0.011231442419812084
leaf_weight=61 109 20 20 132 22 38 23 101 38 53 20
leaf_count=61 109 20 20 132 22 38 23 101 38 53 20
internal_value=0 -0.0123637 -0.0213925 -0.0174254 0.00787989 0.0118065 0.00684927 0.0129348 0.0113322 0.0133028 0.0148819
internal_weight=0 308 213 193 95 329 61 268 147 75 121
internal_count=637 308 213 193 95 329 61 268 147 75 121
is_linear=0
shrinkage=0.05


Tree=14
num_leaves=9
num_cat=0
split_feature=5 11 12 77 21 2 77 51
split_gain=34.3379 15.6024 10.4646 5.47124 2.02407 1.21328 0.758559 0.111455
threshold=0.082308916764454274 0.11941875958422506 -0.17035149383122453 -0.00092880272541489986 2.4985506676308175e-07 1.0000000180025095e-35 0.00092261125584258512 1.0572994199268792e-05
decision_type=2 2 2 2 2 2 2 2
left_child=1 3 5 -1 -5 -2 -3 -8
right_child=2 6 -4 4 -6 -7 7 -9
leaf_value=-0.017163427979685366 -0.023967335434364422 -0.024076680110936818 -0.054415181766335786 0.010535690426211624 -0.0021572458831702964 -0.010893733185043351 -0.015315897860385192 -0.010686252313630226
leaf_weight=20 35 22 26 412 34 36 26 26
leaf_count=20 35 22 26 412 34 36 26 26
internal_value=0 0.00503398 -0.0272766 0.00842079 0.00956807 -0.0173385 -0.0162938 -0.0130011
internal_weight=0 540 97 466 446 71 74 52
internal_count=637 540 97 466 446 71 74 52
is_linear=0
shrinkage=0.05


Tree=15
num_leaves=11
num_cat=0
split_feature=0 12 0 0 61 12 13 6 16 81
split_gain=32.5192 21.8808 18.2266 7.58488 3.36876 0.766546 0.447096 0.265158 0.241363 0.0394652
threshold=0.052895345821334157 -0.028278243255886838 -1.0000000180025095e-35 0.00097490620418615008 3.3769030615445016e-07 -0.23234449461657378 0.15164952196232137 0.0003979109684054001 0.0032969668798085131 -0.00074377863665085156
decision_type=2 2 2 2 2 2 2 2 2 2
left_child=1 2 4 -4 -1 6 8 9 -2 -7
right_child=5 -3 3 -5 -6 7 -8 -9 -10 -11
leaf_value=0.013145522312380566 0.0064124512645166096 -0.062816927880048765 -0.047733030505478384 -0.01481565520753585 -0.0098559705616207798 0.012462057669957479 0.0020350976762446493 0.0082532241940498352 0.010924276791373705 0.014832780746934572
leaf_weight=78 41 20 20 140 20 21 22 20 107 107
leaf_count=78 41 20 20 140 20 21 22 20 107 107
internal_value=0 -0.0124351 -0.00852954 -0.0189303 0.00845134 0.0109763 0.00868577 0.0136073 0.00967438 0.0144438
internal_weight=0 278 258 160 98 318 170 148 148 128
internal_count=596 278 258 160 98 318 170 148 148 128
is_linear=0
shrinkage=0.05


Tree=16
num_leaves=7
num_cat=0
split_feature=12 10 9 82 22 3
split_gain=27.5333 23.6376 5.50197 4.21868 4.08324 1.34183
threshold=-0.028278243255886838 0.0009866313424318502 0.00068567269146420004 -0.00014689375742539735 1.6479295094872503e-06 0.294412832081686
decision_type=2 2 2 2 2 2
left_child=1 2 5 -3 -5 -1
right_child=-2 3 -4 4 -6 -7
leaf_value=0.010246572750008818 -0.056180779493990397 0.0052021474204957492 -0.0112387567272942 -0.039618206740401334 -0.015278238965887189 -0.00074491123358408611
leaf_weight=373 21 20 35 21 96 30
leaf_count=373 21 20 35 21 96 30
internal_value=0 0.00210716 0.00777687 -0.0160193 -0.019647 0.00942835
internal_weight=0 575 438 137 117 403
internal_count=596 575 438 137 117 403
is_linear=0
shrinkage=0.05


Tree=17
num_leaves=10
num_cat=0
split_feature=0 12 0 0 61 1 18 16 12
split_gain=26.8073 17.9059 15.5245 6.57959 2.69557 0.78392 0.490012 0.487633 0.263949
threshold=0.052895345821334157 -0.028278243255886838 -1.0000000180025095e-35 0.00097490620418615008 3.3769030615445016e-07 0.1931305316218275 0.00039194340484665968 0.0056762124644524738 -0.23234449461657378
decision_type=2 2 2 2 2 2 2 2 2
left_child=1 2 4 -4 -1 6 8 -7 -2
right_child=5 -3 3 -5 -6 7 -8 -9 -10
leaf_value=0.012113188551022457 0.009905809617512638 -0.056867040991783149 -0.044182640388607981 -0.013524165427453617 -0.0084621220640838154 0.0080533766867341219 0.0039849152280525728 -0.0016369470581412316 0.013253779448012808
leaf_weight=78 105 20 20 140 20 37 22 20 134
leaf_count=78 105 20 20 140 20 37 22 20 134
internal_value=0 -0.0112906 -0.00775756 -0.0173565 0.00791415 0.00996547 0.0111256 0.00465326 0.0117829
internal_weight=0 278 258 160 98 318 261 57 239
internal_count=596 278 258 160 98 318 261 57 239
is_linear=0
shrinkage=0.05


Tree=18
num_leaves=11
num_cat=0
split_feature=0 12 0 0 61 1 53 6 104 12
split_gain=24.1971 16.1141 14.1791 5.85505 2.43276 0.73597 0.474346 0.300077 0.408908 0.234404
threshold=0.050709391005280803 -0.028278243255886838 -1.0000000180025095e-35 0.00097490620418615008 3.3769030615445016e-07 0.1931305316218275 2.3212336298690501e-06 0.00039818824447850006 -2.9148968404554431e-06 -0.23234449461657378
decision_type=2 2 2 2 2 2 2 2 2 2
left_child=1 2 4 -4 -1 7 -7 9 -9 -2
right_child=5 -3 3 -5 -6 6 -8 8 -10 -11
leaf_value=0.011507529082397621 0.0092221868071993372 -0.054023689776659015 -0.04197350680828095 -0.01302612287387171 -0.0080390156945213675 0.0091532819386985573 8.8261103918475497e-05 0.0021605051082113514 0.011810683920269922 0.012591090370247613
leaf_weight=78 84 20 20 138 20 27 31 23 21 134
leaf_count=78 84 20 20 138 20 27 31 23 21 134
internal_value=0 -0.0107998 -0.00742292 -0.0166903 0.00751844 0.00940456 0.00430818 0.0105328 0.00676627 0.011293
internal_weight=0 276 256 158 98 320 58 262 44 218
internal_count=596 276 256 158 98 320 58 262 44 218
is_linear=0
shrinkage=0.05


Tree=19
num_leaves=12
num_cat=0
split_feature=0 14 5 10 1 16 125 6 104 3 19
split_gain=21.8573 13.9633 8.72502 3.99501 0.621609 0.439115 0.345281 0.289354 0.369039 0.173051 0.132127
threshold=0.091491447900733811 -0.0049726681781598987 0.96578793871639834 0.0048402176058191014 0.1931305316218275 0.0056762124644524738 0.00022576810445683334 0.00039818824447850006 -2.9148968404554431e-06 0.051731129871279403 -0.00028466401023469998
decision_type=2 2 2 2 2 2 2 2 2 2 2
left_child=1 6 3 -3 7 -6 10 9 -9 -2 -1
right_child=4 2 -4 -5 5 -7 -8 8 -10 -11 -12
leaf_value=0.011802891339804675 0.011415832041406093 -0.010456882446928174 -0.045258160835752889 -0.033660556961383141 0.0076128180656168196 -0.0016275006532669068 0.0023973092623054983 0.0020524798204069553 0.011220150157099679 0.0071351245364726151 0.0067587473616003996
leaf_weight=37 188 159 24 21 36 20 20 23 21 27 20
leaf_count=37 188 159 24 21 36 20 20 23 21 27 20
internal_value=0 -0.0100921 -0.0169398 -0.013164 0.00908942 0.0043127 0.00804972 0.0101222 0.00642796 0.0108783 0.010033
internal_weight=0 281 204 180 315 56 77 259 44 215 57
internal_count=596 281 204 180 315 56 77 259 44 215 57
is_linear=0
shrinkage=0.05


Tree=20
num_leaves=8
num_cat=0
split_feature=12 2 8 83 9 44 12
split_gain=26.6952 12.529 8.95657 3.1213 2.46364 1.41173 0.73711
threshold=-0.028278243255886838 0.0058441931946712012 2.9382553456250991e-05 -1.0000000180025095e-35 0.0008177740578851001 0.00059794469410672467 -0.17705306252196987
decision_type=2 2 2 2 2 2 2
left_child=1 2 3 -1 6 -4 -3
right_child=-2 4 5 -5 -6 -7 -8
leaf_value=-0.011519843753194437 -0.053683610649212544 0.0061460473972986991 0.0085190448848927614 -0.028450072209938972 -0.0098686963630219299 -0.0067886134795844561 0.011003185986963093
leaf_weight=96 23 235 61 38 21 20 117
leaf_count=96 23 235 61 38 21 20 117
internal_value=0 0.00122676 -0.0083866 -0.016321 0.00676797 0.00473938 0.00776049
internal_weight=0 588 215 134 373 81 352
internal_count=611 588 215 134 373 81 352
is_linear=0
shrinkage=0.05


Tree=21
num_leaves=7
num_cat=0
split_feature=12 10 0 9 3 0
split_gain=24.0924 15.7065 5.07636 3.56205 1.35474 1.21117
threshold=-0.028278243255886838 5.5511151231257837e-16 0.0010160073414724002 0.00097751734006345007 0.3586110129666934 0.0098089657025352515
decision_type=2 2 2 2 2 2
left_child=1 3 -3 4 -1 -4
right_child=-2 2 5 -5 -6 -7
leaf_value=0.0075174238553736353 -0.050999429109303857 -0.028822256165007373 -0.010986020465174483 -0.011235929617722488 -0.0058171216398477561 0.0012693800580953914
leaf_weight=400 23 39 72 29 20 28
leaf_count=400 23 39 72 29 20 28
internal_value=0 0.00116542 -0.0135217 0.00571222 0.00688245 -0.00755451
internal_weight=0 588 139 449 420 100
internal_count=611 588 139 449 420 100
is_linear=0
shrinkage=0.05


Tree=22
num_leaves=8
num_cat=0
split_feature=12 10 0 9 0 3 0
split_gain=21.7434 14.1751 4.67424 3.21528 1.3366 1.23853 0.235182
threshold=-0.028278243255886838 5.5511151231257837e-16 0.00070859405713910009 1.6653345369377351e-16 0.0098089657025352515 0.3438330248142511 0.0050924276790728007
decision_type=2 2 2 2 2 2 2
left_child=1 3 -3 5 -4 -1 -5
right_child=-2 2 4 6 -6 -7 -8
leaf_value=0.0073736843286120457 -0.048449458441008696 -0.031101423783028232 -0.011427331500383745 -0.011936995983123781 0.0012059109268843064 -0.0053847029525786643 -0.0042691662791185083
leaf_weight=389 23 28 83 20 28 20 20
leaf_count=389 23 28 83 20 28 20 20
internal_value=0 0.00110715 -0.0128456 0.00542661 -0.00824057 0.0067498 -0.00810308
internal_weight=0 588 139 449 111 409 40
internal_count=611 588 139 449 111 409 40
is_linear=0
shrinkage=0.05


Tree=23
num_leaves=7
num_cat=0
split_feature=12 10 22 11 5 0
split_gain=19.6234 12.7931 4.23686 1.93606 1.25425 1.19051
threshold=-0.028278243255886838 5.5511151231257837e-16 2.5172722997390083e-06 0.023237851550927103 0.0094659070339553533 0.010384106310820302
decision_type=2 2 2 2 2 2
left_child=1 3 -3 4 -1 -4
right_child=-2 2 5 -5 -6 -7
leaf_value=0.0068557805397687858 -0.046026987226113036 -0.028165873250691222 -0.01026554914438222 -0.0096671258515990694 -0.0016451551027748049 0.0023784494085703047
leaf_weight=379 23 32 83 21 49 24
leaf_count=379 23 32 83 21 49 24
internal_value=0 0.00105179 -0.0122034 0.00515528 0.00588254 -0.00742951
internal_weight=0 588 139 449 428 107
internal_count=611 588 139 449 428 107
is_linear=0
shrinkage=0.05


Tree=24
num_leaves=7
num_cat=0
split_feature=12 10 0 9 3 0
split_gain=17.7101 11.5457 3.88048 2.76477 1.08874 0.886403
threshold=-0.028278243255886838 5.5511151231257837e-16 0.0010160073414724002 0.00097751734006345007 0.3586110129666934 0.014400934932586752
decision_type=2 2 2 2 2 2
left_child=1 3 -3 4 -1 -4
right_child=-2 2 5 -5 -6 -7
leaf_value=0.0064977285073837265 -0.043725635726814684 -0.024970622303394172 -0.0087297053704969586 -0.010033931026279381 -0.0054562366683967413 0.0030389139812905344
leaf_weight=400 23 39 80 29 20 20
leaf_count=400 23 39 80 29 20 20
internal_value=0 0.000999201 -0.0115932 0.00489751 0.00592849 -0.00637598
internal_weight=0 588 139 449 420 100
internal_count=611 588 139 449 420 100
is_linear=0
shrinkage=0.05


Tree=25
num_leaves=8
num_cat=0
split_feature=12 0 0 0 13 104 34
split_gain=14.52 7.88346 12.1451 7.88064 0.385807 0.215845 0.210003
threshold=-0.033583683169541495 0.28133165577943814 -1.0000000180025095e-35 0.00096759697034945013 0.15164952196232137 -3.2471459804172549e-06 0.00089458133454408133
decision_type=2 2 2 2 2 2 2
left_child=1 2 6 -4 5 -3 -1
right_child=-2 4 3 -5 -6 -7 -8
leaf_value=0.009782829544581902 -0.039979343471879314 0.0062548163498134975 -0.040621019425717275 -0.0086423673769158698 0.00032587613910436633 0.009039221409209602 0.0041008389182388789
leaf_weight=87 22 154 22 155 20 127 20
leaf_count=87 22 154 22 155 20 127 20
internal_value=0 0.00139766 -0.00457784 -0.0126171 0.00703568 0.00751325 0.00872078
internal_weight=0 585 284 177 301 281 107
internal_count=607 585 284 177 301 281 107
is_linear=0
shrinkage=0.05


Tree=26
num_leaves=8
num_cat=0
split_feature=12 0 0 0 79 10 104
split_gain=13.1043 7.11482 10.961 7.11228 0.269472 0.207706 0.167984
threshold=-0.033583683169541495 0.28133165577943814 -1.0000000180025095e-35 0.00096759697034945013 -0.13185576642115368 -1.0000000180025095e-35 -3.2471459804172549e-06
decision_type=2 2 2 2 2 2 2
left_child=1 2 5 -4 -3 -1 -6
right_child=-2 4 3 -5 6 -7 -8
leaf_value=0.0036901412950828675 -0.037980376717380505 0.0013562677258794958 -0.038589968396858743 -0.0082102489855230588 0.0059497315921141092 0.0093409652575507929 0.0084080548430899623
leaf_weight=20 22 22 22 155 148 87 131
leaf_count=20 22 22 22 155 148 87 131
internal_value=0 0.00132778 -0.00434895 -0.0119863 0.0066839 0.00828474 0.007104
internal_weight=0 585 284 177 301 107 279
internal_count=607 585 284 177 301 107 279
is_linear=0
shrinkage=0.05


Tree=27
num_leaves=7
num_cat=0
split_feature=5 9 123 14 2 43
split_gain=11.6893 5.90076 3.77184 0.806002 0.712982 0.169382
threshold=0.87249753930852514 0.0004967218136770501 -0.00020670308633338847 0.04710631406097187 1.0000000180025095e-35 5.3952943751952293e-07
decision_type=2 2 2 2 2 2
left_child=1 2 -1 -4 -3 -6
right_child=-2 4 3 -5 5 -7
leaf_value=-0.013183032310214535 -0.02694148637942578 -0.015042710617805523 0.004957751571177736 0.015004655576887585 -0.0075176790237310347 -0.0026191281434148552
leaf_weight=29 38 30 404 21 60 25
leaf_count=29 38 30 404 21 60 25
internal_value=0 0.00170106 0.0042637 0.00545419 -0.00841583 -0.00607693
internal_weight=0 569 454 425 115 85
internal_count=607 569 454 425 115 85
is_linear=0
shrinkage=0.05


Tree=28
num_leaves=8
num_cat=0
split_feature=12 0 0 0 13 2 104
split_gain=11.1952 5.95529 9.31026 6.2299 0.324203 0.19286 0.17982
threshold=-0.033583683169541495 0.28133165577943814 -1.0000000180025095e-35 0.00096759697034945013 0.15164952196232137 0.00048792391291405004 -3.2471459804172549e-06
decision_type=2 2 2 2 2 2 2
left_child=1 2 5 -4 6 -1 -3
right_child=-2 4 3 -5 -6 -7 -8
leaf_value=0.011736072324540305 -0.03510280126197772 0.005418789165408968 -0.035901795124465771 -0.0074689730619936587 -2.1191500127315522e-05 0.006568589777730051 0.0079602327945781509
leaf_weight=23 22 154 22 155 20 84 127
leaf_count=23 22 154 22 155 20 84 127
internal_value=0 0.00122937 -0.00396422 -0.011003 0.00612963 0.00767936 0.00656741
internal_weight=0 585 284 177 301 107 281
internal_count=607 585 284 177 301 107 281
is_linear=0
shrinkage=0.05


Tree=29
num_leaves=8
num_cat=0
split_feature=12 0 0 0 13 34 104
split_gain=10.1037 5.37465 8.40251 5.62248 0.292593 0.194698 0.162288
threshold=-0.033583683169541495 0.28133165577943814 -1.0000000180025095e-35 0.00096759697034945013 0.15164952196232137 0.00089458133454408133 -3.2471459804172549e-06
decision_type=2 2 2 2 2 2 2
left_child=1 2 5 -4 6 -1 -3
right_child=-2 4 3 -5 -6 -7 -8
leaf_value=0.0083180086558748943 -0.033347660066051915 0.0051478497189992754 -0.034106705100698902 -0.0070955243642111462 -2.0132064819335937e-05 0.0028469950240105394 0.0075622211474426623
leaf_weight=87 22 154 22 155 20 20 127
leaf_count=87 22 154 22 155 20 20 127
internal_value=0 0.0011679 -0.00376601 -0.0104528 0.00582315 0.00729539 0.00623904
internal_weight=0 585 284 177 301 107 281
internal_count=607 585 284 177 301 107 281
is_linear=0
shrinkage=0.05


Tree=30
num_leaves=7
num_cat=0
split_feature=5 142 76 37 51 14
split_gain=9.82965 4.43388 2.03032 1.77495 0.955413 0.785209
threshold=0.89057884743797222 -3.0302311664910963e-08 -1.0000000180025095e-35 1.0000000180025095e-35 3.8843979754183694e-18 0.054194594720020653
decision_type=2 2 2 2 2 2
left_child=1 3 -3 4 -1 -4
right_child=-2 2 5 -5 -6 -7
leaf_value=-0.016465628576966432 -0.027370713182514713 -0.0074318493596939863 0.0041413844733772121 0.004256958972949248 -0.0060695541164308212 0.014050774373823689
leaf_weight=39 31 38 416 26 51 21
leaf_count=39 31 38 416 26 51 21
internal_value=0 0.00151345 0.00365363 -0.00725022 -0.0105745 0.00461758
internal_weight=0 591 475 116 90 437
internal_count=622 591 475 116 90 437
is_linear=0
shrinkage=0.05


Tree=31
num_leaves=8
num_cat=0
split_feature=5 9 11 0 107 3 0
split_gain=8.87126 5.14035 1.62367 0.855374 0.84657 0.79152 0.152744
threshold=0.89057884743797222 0.00068567269146420004 0.10687655979687877 0.0039408867377600009 -2.8963779502572628e-07 0.43676336187799775 0.0095170768467159016
decision_type=2 2 2 2 2 2 2
left_child=1 2 5 4 -3 -1 -5
right_child=-2 3 -4 6 -6 -7 -8
leaf_value=0.0048578926250813946 -0.026002177980638322 -0.0049496150617911062 -0.010162112265825272 -0.0059643320404948333 -0.017690863544703461 -0.005082917040306798 -0.0010167824350691471
leaf_weight=431 31 22 20 39 32 21 26
leaf_count=431 31 22 20 39 32 21 26
internal_value=0 0.00143777 0.00377917 -0.00784911 -0.0125 0.00439604 -0.00398531
internal_weight=0 591 472 119 54 452 65
internal_count=622 591 472 119 54 452 65
is_linear=0
shrinkage=0.05


Tree=32
num_leaves=8
num_cat=0
split_feature=5 9 11 0 51 3 0
split_gain=8.00631 4.63917 1.46537 0.771975 0.809026 0.714346 0.138043
threshold=0.89057884743797222 0.00068567269146420004 0.10687655979687877 0.0039408867377600009 4.4416293244826792e-06 0.43676336187799775 0.0096656322777184511
decision_type=2 2 2 2 2 2 2
left_child=1 2 5 4 -3 -1 -5
right_child=-2 3 -4 6 -6 -7 -8
leaf_value=0.0046149979890572675 -0.024702068694656895 -0.016757090829990128 -0.0096540065295994282 -0.0056076771020889286 -0.0042031050393623965 -0.0048287713040952533 -0.00087143773585557935
leaf_weight=431 31 33 20 40 21 21 25
leaf_count=431 31 33 20 40 21 21 25
internal_value=0 0.00136588 0.00359021 -0.00745666 -0.011875 0.00417624 -0.00378605
internal_weight=0 591 472 119 54 452 65
internal_count=622 591 472 119 54 452 65
is_linear=0
shrinkage=0.05


Tree=33
num_leaves=7
num_cat=0
split_feature=5 9 123 2 0 43
split_gain=7.2257 4.18685 1.61045 0.713553 0.584923 0.157421
threshold=0.89057884743797222 0.00068567269146420004 -0.0001580523945405778 1.0000000180025095e-35 0.00043842636760110007 2.4055345773711918e-05
decision_type=2 2 2 2 2 2
left_child=1 2 -1 -3 -4 -5
right_child=-2 3 4 5 -6 -7
leaf_value=-0.0077997356560081249 -0.023466965423956997 -0.012629088608977887 0.0076478403409648886 -0.0058758635497228665 0.0032198791029146457 -0.0010907262526452543
leaf_weight=30 31 39 95 55 347 25
leaf_count=30 31 39 95 55 347 25
internal_value=0 0.00129759 0.0034107 -0.00708382 0.00417159 -0.00438051
internal_weight=0 591 472 119 442 80
internal_count=622 591 472 119 442 80
is_linear=0
shrinkage=0.05


Tree=34
num_leaves=8
num_cat=0
split_feature=5 9 62 0 40 88 43
split_gain=6.52119 3.77863 1.46667 0.72777 0.66571 0.869086 0.165425
threshold=0.89057884743797222 0.00068567269146420004 -0.0038914453696569499 0.00043842636760110007 9.9799732951004276e-07 -7.2079824605895417e-07 2.4055345773711918e-05
decision_type=2 2 2 2 2 2 2
left_child=1 2 -1 -4 5 -3 -6
right_child=-2 4 3 -5 6 -7 -8
leaf_value=-0.01000995114678517 -0.022293615818864878 -0.0056695283334381105 0.0077683361422430765 0.0028052981828685891 -0.0052463143792313843 -0.019217847129330043 -1.0454813441769643e-05
leaf_weight=20 31 29 93 359 48 20 22
leaf_count=20 31 29 93 359 48 20 22
internal_value=0 0.00123271 0.00324017 0.00382645 -0.00672963 -0.0111995 -0.00360076
internal_weight=0 591 472 452 119 49 70
internal_count=622 591 472 452 119 49 70
is_linear=0
shrinkage=0.05


Tree=35
num_leaves=12
num_cat=0
split_feature=0 12 0 17 12 96 52 16 18 86 18
split_gain=7.34871 5.81688 4.50843 3.51735 0.500626 0.448106 0.278335 0.64613 0.224663 0.173777 0.0570813
threshold=0.052895345821334157 -0.028278243255886838 -1.0000000180025095e-35 4.2181318972730607e-07 -0.42746551527571169 -7.3625015450849672e-07 3.2964849319019039e-06 0.0076524214860300326 0.00039194340484665968 -6.5635429986417095e-05 -0.93179389936330659
decision_type=2 2 2 2 2 2 2 2 2 2 2
left_child=1 2 4 -4 -1 6 9 -8 10 -2 -7
right_child=5 -3 3 -5 -6 8 7 -9 -10 -11 -12
leaf_value=-0.0017985361017053949 0.0058029618407427165 -0.031711514577979133 -0.023854959380784722 -0.0057089918511545488 0.0065697401948273185 0.0090198990767416751 -0.0055042362611355455 0.005859071659770879 0.0017139128051125087 0.001239741434726645 0.0063424552411045117
leaf_weight=24 54 21 33 140 70 23 29 22 26 34 148
leaf_count=24 54 21 33 140 70 23 29 22 26 34 148
internal_value=0 -0.00637395 -0.00438111 -0.00917036 0.00443316 0.00451039 0.0023366 -0.000602417 0.00604418 0.0040399 0.00670258
internal_weight=0 288 267 173 94 336 139 51 197 88 171
internal_count=624 288 267 173 94 336 139 51 197 88 171
is_linear=0
shrinkage=0.05


Tree=36
num_leaves=13
num_cat=0
split_feature=0 14 83 83 6 96 7 7 36 18 64 20
split_gain=6.63554 4.87346 4.2891 3.87296 0.77478 0.467344 0.263645 0.618645 0.248823 0.196511 0.113597 0.0686273
threshold=0.03176602005689716 -0.0035422417252986998 -9.8444994424043296e-09 1.0000000180025095e-35 1.0000000180025095e-35 -7.3625015450849672e-07 0.0022056503948152503 0.0013257836723659002 -1.0000000180025095e-35 0.00039194340484665968 5.020713374267336e-08 0.00021599531915238827
decision_type=2 2 2 2 2 2 2 2 2 2 2 2
left_child=1 8 4 -4 -3 6 7 -2 -1 11 -10 -7
right_child=5 2 3 -5 -6 9 -8 -9 10 -11 -12 -13
leaf_value=0.00026095871133013416 0.0027192714118864387 -0.0071637557964364801 -0.038616885067451569 -0.012518590508790856 0.00245044164878961 0.005297776803755286 0.0069958637214519769 -0.0065417633222585375 0.009206171212717891 0.0016282171584092655 0.00443067236549475 0.0072724362157962534
leaf_weight=26 100 108 21 44 26 88 22 22 20 26 33 88
leaf_count=26 100 108 21 44 26 88 22 22 20 26 33 88
internal_value=0 -0.00623966 -0.0104108 -0.0209503 -0.00529831 0.00413419 0.00195776 0.00104925 0.00426735 0.0056857 0.00623275 0.00628511
internal_weight=0 278 199 65 134 346 144 122 79 202 53 176
internal_count=624 278 199 65 134 346 144 122 79 202 53 176
is_linear=0
shrinkage=0.05


Tree=37
num_leaves=12
num_cat=0
split_feature=0 12 0 17 12 96 52 16 6 13 14
split_gain=6.00134 4.83823 3.81927 2.94168 0.453803 0.363064 0.244299 0.579703 0.182703 0.153252 0.0559565
threshold=0.052895345821334157 -0.028278243255886838 -1.0000000180025095e-35 4.2181318972730607e-07 -0.42746551527571169 -7.3625015450849672e-07 3.2964849319019039e-06 0.0076524214860300326 0.00039818824447850006 0.053544090405829005 0.0013327089949532825
decision_type=2 2 2 2 2 2 2 2 2 2 2
left_child=1 2 4 -4 -1 6 9 -8 10 -2 -7
right_child=5 -3 3 -5 -6 8 7 -9 -10 -11 -12
leaf_value=-0.0017624227393146915 0.0007395050392068666 -0.028867482181106296 -0.021779246430731182 -0.0051845400266548889 0.0062049080963645668 0.0080532430280600819 -0.0052765577581935924 0.0054867959327318458 0.0020626986004186397 0.0051785490878609062 0.005694337480148315
leaf_weight=24 29 21 33 140 70 31 29 22 33 59 133
leaf_count=24 29 21 33 140 70 31 29 22 33 59 133
internal_value=0 -0.00575945 -0.00394197 -0.00835 0.0041707 0.00407659 0.00211992 -0.000633542 0.00545719 0.00371568 0.00614023
internal_weight=0 288 267 173 94 336 139 51 197 88 164
internal_count=624 288 267 173 94 336 139 51 197 88 164
is_linear=0
shrinkage=0.05


Tree=38
num_leaves=11
num_cat=0
split_feature=0 12 0 17 40 30 7 7 18 20
split_gain=5.43875 4.3089 3.63496 2.93309 0.438249 0.348621 0.245632 0.579796 0.162946 0.0611095
threshold=0.03176602005689716 -0.028278243255886838 -1.0000000180025095e-35 4.2181318972730607e-07 -0.00098405992380244992 3.0496615207486399e-06 0.0022056503948152503 0.0013620995864610502 0.00039194340484665968 0.00021599531915238827
decision_type=2 2 2 2 2 2 2 2 2 2
left_child=1 2 4 -4 -1 8 7 -7 9 -2
right_child=5 -3 3 -5 -6 6 -8 -9 -10 -11
leaf_value=-0.0022140378725122325 0.0047779613300069669 -0.027424108041893869 -0.022506158070561166 -0.0051984387685376733 0.0058493330297804081 0.0025070664125870774 0.0064405513554811472 -0.0067887365072965625 0.0014366874901147991 0.0066699579857834954
leaf_weight=22 89 21 30 133 72 104 25 20 26 82
leaf_count=22 89 21 30 133 72 104 25 20 26 82
internal_value=0 -0.00564763 -0.00386823 -0.00838391 0.00396216 0.00374423 0.00191929 0.00100774 0.00512451 0.00568523
internal_weight=0 278 257 163 94 346 149 124 197 171
internal_count=624 278 257 163 94 346 149 124 197 171
is_linear=0
shrinkage=0.05


Tree=39
num_leaves=11
num_cat=0
split_feature=0 12 0 21 12 96 13 80 18 2
split_gain=4.90847 3.88878 3.28055 2.72088 0.408623 0.346412 0.213525 0.219945 0.148564 0.0585429
threshold=0.03176602005689716 -0.028278243255886838 -1.0000000180025095e-35 9.6011095022921648e-07 -0.42746551527571169 -7.3625015450849672e-07 0.15164952196232137 -0.0015412631845728335 0.00039194340484665968 0.0048896011684869513
decision_type=2 2 2 2 2 2 2 2 2 2
left_child=1 2 4 -4 -1 6 7 -2 9 -7
right_child=5 -3 3 -5 -6 8 -8 -9 -10 -11
leaf_value=-0.0018659763804559288 0.0036199271529422784 -0.026052902488126639 -0.018425533162016009 -0.0039754172833439084 0.0056943487894854372 0.0072122738127493209 -0.003110901564359665 -0.001354884776961187 0.0013648529608662311 0.0049515455708439866
leaf_weight=24 95 21 45 118 70 36 20 29 26 140
leaf_count=24 95 21 45 118 70 36 20 29 26 140
internal_value=0 -0.00536525 -0.00367481 -0.00796471 0.00376405 0.00355702 0.00168322 0.00245646 0.00489279 0.00541397
internal_weight=0 278 257 163 94 346 144 124 202 176
internal_count=624 278 257 163 94 346 144 124 202 176
is_linear=0
shrinkage=0.05


Tree=40
num_leaves=9
num_cat=0
split_feature=63 0 14 58 104 104 4 4
split_gain=4.14514 2.00376 1.83879 1.691 0.261541 0.489361 0.126192 0.084827
threshold=-0.56101116602221979 0.28133165577943814 -0.0059445626466263493 8.4838366565971306e-05 -2.0956838818193015e-06 -4.724801765805367e-06 0.0044949712643679004 0.009543350865982651
decision_type=2 2 2 2 2 2 2 2
left_child=-1 2 6 -4 5 -3 -2 -6
right_child=1 4 3 -5 7 -7 -8 -9
leaf_value=-0.019600095222883213 0.0063920149202081004 0.0044419121711739692 -0.0032071060881147849 -0.018191681261218728 0.0060985470607288579 -0.00080578132571342085 0.0023644656300681032 0.0027716205804608762
leaf_weight=26 37 116 182 21 95 72 41 24
leaf_count=26 37 116 182 21 95 72 41 24
internal_value=0 0.000800775 -0.00225007 -0.00475723 0.00359325 0.00243216 0.00427497 0.00542757
internal_weight=0 588 281 203 307 188 78 119
internal_count=614 588 281 203 307 188 78 119
is_linear=0
shrinkage=0.05


Tree=41
num_leaves=7
num_cat=0
split_feature=63 129 17 0 17 12
split_gain=3.74099 1.90336 1.22317 1.79697 1.08049 0.684861
threshold=-0.56101116602221979 -1.1136697836178706e-05 -0.0044479591313822996 0.0018983307148972503 -0.9635050411178977 -0.052701237973996902
decision_type=2 2 2 2 2 2
left_child=-1 2 -2 -4 -3 -6
right_child=1 4 3 -5 5 -7
leaf_value=-0.01862009075255348 0.0065390761304158903 -0.0090725875552743664 -0.020190248796716333 -0.0036376644113960753 0.002378053586156826 0.011850299150682987
leaf_weight=26 21 20 20 91 416 20
leaf_count=26 21 20 20 91 416 20
internal_value=0 0.000760736 -0.0045266 -0.00662011 0.00229128 0.00281256
internal_weight=0 588 132 111 456 436
internal_count=614 588 132 111 456 436
is_linear=0
shrinkage=0.05


Tree=42
num_leaves=9
num_cat=0
split_feature=63 0 14 41 135 135 4 14
split_gain=3.37625 1.71838 1.5912 1.119 0.236069 0.236115 0.109925 0.100956
threshold=-0.56101116602221979 0.28133165577943814 -0.0059445626466263493 -1.0000000180025095e-35 -1.9787992561620516e-08 -5.0009965863708314e-08 0.0044949712643679004 0.0051032783209103262
decision_type=2 2 2 2 2 2 2 2
left_child=-1 2 6 -4 5 -3 -2 -6
right_child=1 4 3 -5 7 -7 -8 -9
leaf_value=-0.017689086144002011 0.0059432175878838117 0.0030875675946227098 -0.01286050732614416 -0.002799241925822571 0.0085477005690336224 -0.001571584149132832 0.0021842069461055829 0.0045439235397262152
leaf_weight=26 37 181 33 170 20 32 41 74
leaf_count=26 37 181 33 170 20 32 41 74
internal_value=0 0.000722699 -0.00210255 -0.00443482 0.00330868 0.0023876 0.00396733 0.00539579
internal_weight=0 588 281 203 307 213 78 94
internal_count=614 588 281 203 307 213 78 94
is_linear=0
shrinkage=0.05


Tree=43
num_leaves=7
num_cat=0
split_feature=63 129 10 5 83 44
split_gain=3.04706 1.58134 1.18035 0.935809 0.706388 0.320104
threshold=-0.56101116602221979 -1.7935609099229137e-05 0.0047904216351275014 0.30158845485867952 0.00077279219733863004 -0.0094540429831605488
decision_type=2 2 2 2 2 2
left_child=-1 2 4 5 -2 -3
right_child=1 3 -4 -5 -6 -7
leaf_value=-0.016804632045358842 -0.0041648533045580347 -0.0021873597724122867 -0.015099749645395649 -0.0055860059587536639 0.0060878149646755664 0.0030895644339196844
leaf_weight=26 84 31 21 37 21 394
leaf_count=26 84 31 21 37 21 394
internal_value=0 0.000686564 -0.00427856 0.00204069 -0.00211432 0.00270466
internal_weight=0 588 126 462 105 425
internal_count=614 588 126 462 105 425
is_linear=0
shrinkage=0.05


Tree=44
num_leaves=7
num_cat=0
split_feature=12 10 22 88 11 20
split_gain=2.67077 1.66863 1.10495 0.559804 0.392139 0.281888
threshold=-0.028278243255886838 2.7755575615628918e-16 2.76289596033536e-16 -5.662684047150806e-05 0.10687655979687877 -0.00019370512560454997
decision_type=2 2 2 2 2 2
left_child=1 4 -3 -4 5 -1
right_child=-2 2 3 -5 -6 -7
leaf_value=0.0049472558439907291 -0.018022831715643405 -0.014103950989311158 0.0054860985919367522 -0.0036341182503163956 -0.0047549481410533194 0.0017558286324716533
leaf_weight=87 20 23 20 106 20 338
leaf_count=87 20 23 20 106 20 338
internal_value=0 0.000553699 -0.00402608 -0.00218646 0.00208715 0.00240913
internal_weight=0 594 149 126 445 425
internal_count=614 594 149 126 445 425
is_linear=0
shrinkage=0.05


Tree=45
num_leaves=7
num_cat=0
split_feature=12 78 11 87 0 44
split_gain=4.36619 1.85038 1.22764 1.15044 1.09747 0.665158
threshold=-0.028278243255886838 -0.0014803871530786998 0.87779943960406981 -5.9779902751360275e-07 0.0049091813500272514 0.0019896876934040971
decision_type=2 2 2 2 2 2
left_child=1 4 5 -4 -1 -3
right_child=-2 2 3 -5 -6 -7
leaf_value=-0.017843562000918956 -0.022834645752750696 0.0026139853138790639 9.9749207341422643e-06 -0.015248705588635945 -0.0016787471884440277 -0.0025155314972712282
leaf_weight=21 21 433 30 21 21 74
leaf_count=21 21 433 30 21 21 74
internal_value=0 0.00035969 0.00112147 -0.00627301 -0.00976115 0.0018653
internal_weight=0 600 558 51 42 507
internal_count=621 600 558 51 42 507
is_linear=0
shrinkage=0.05


Tree=46
num_leaves=7
num_cat=0
split_feature=12 78 11 87 16 83
split_gain=3.94049 1.66996 1.10795 1.03827 1.0035 0.608795
threshold=-0.028278243255886838 -0.0014803871530786998 0.87779943960406981 -5.9779902751360275e-07 8.4958303920827839e-07 0.00018460194327013011
decision_type=2 2 2 2 2 2
left_child=1 4 5 -4 -1 -3
right_child=-2 2 3 -5 -6 -7
leaf_value=-0.016642099235799502 -0.021692913361004599 0.00092392211189621049 9.4762075847635676e-06 -0.014486270007633029 -0.0011671947399736382 0.0053116005565466279
leaf_weight=22 21 409 30 21 20 98
leaf_count=22 21 409 30 21 20 98
internal_value=0 0.000341706 0.0010654 -0.00595936 -0.0092731 0.00177203
internal_weight=0 600 558 51 42 507
internal_count=621 600 558 51 42 507
is_linear=0
shrinkage=0.05


Tree=47
num_leaves=6
num_cat=0
split_feature=5 10 9 14 87
split_gain=3.35375 2.31647 1.52811 1.06681 0.441381
threshold=0.96578793871639834 0.0048535443264508009 0.049199001279135311 0.53901770902007307 -0.00014559519295489855
decision_type=2 2 2 2 2
left_child=1 2 3 -1 -4
right_child=-2 -3 4 -5 -6
leaf_value=0.0012112734755568965 -0.020023894655917373 -0.014915778429713101 -0.0030486791022121909 0.012981122666969897 -0.013427405904180238
leaf_weight=515 21 24 20 20 21
leaf_count=515 21 24 20 20 21
internal_value=0 0.000304168 0.000938332 0.00165127 -0.00836461
internal_weight=0 600 576 535 41
internal_count=621 600 576 535 41
is_linear=0
shrinkage=0.05


Tree=48
num_leaves=6
num_cat=0
split_feature=12 63 129 56 10
split_gain=3.3116 1.49055 1.00558 1.12069 0.816143
threshold=-0.028278243255886838 -0.56101116602221979 -1.7935609099229137e-05 6.2018120424080499e-05 0.0047270172666287512
decision_type=2 2 2 2 2
left_child=1 -1 3 -3 -4
right_child=-2 2 4 -5 -6
leaf_value=-0.012766702113939182 -0.019880910758816064 -0.0011190675395842881 0.0013158601603319052 -0.014073820334742776 0.0099826516495246827
leaf_weight=21 21 101 429 20 29
leaf_count=21 21 101 429 20 29
internal_value=0 0.000318997 0.000793607 -0.00326035 0.00186463
internal_weight=0 600 579 121 458
internal_count=621 600 579 121 458
is_linear=0
shrinkage=0.05


Tree=49
num_leaves=7
num_cat=0
split_feature=12 78 11 87 16 44
split_gain=2.98872 1.40359 0.936608 0.911108 0.840551 0.591199
threshold=-0.028278243255886838 -0.0014803871530786998 0.87779943960406981 -5.9779902751360275e-07 8.4958303920827839e-07 0.00025443465599362628
decision_type=2 2 2 2 2 2
left_child=1 4 5 -4 -1 -3
right_child=-2 2 3 -5 -6 -7
leaf_value=-0.015255843831776226 -0.018886864948130789 0.0024835722867810233 9.9113012159553662e-05 -0.013479947218937534 -0.0010930043016560375 -0.0017447832400648623
leaf_weight=22 21 403 30 21 20 104
leaf_count=22 21 403 30 21 20 104
internal_value=0 0.000303047 0.000966517 -0.00549226 -0.00851163 0.00161622
internal_weight=0 600 558 51 42 507
internal_count=621 600 558 51 42 507
is_linear=0
shrinkage=0.05


Tree=50
num_leaves=6
num_cat=0
split_feature=62 5 129 2 127
split_gain=2.19328 1.76829 0.816242 0.82846 0.567072
threshold=-0.004728158812483149 0.96578793871639834 -1.7935609099229137e-05 1.0000000180025095e-35 -0.1507938618818222
decision_type=2 2 2 2 2
left_child=-1 2 3 -2 -4
right_child=1 -3 4 -5 -6
leaf_value=-0.014551754327490927 -0.012010459487792106 -0.013348808412609454 -0.0060335398080670058 -0.00073689498074765495 0.0023731841422269494
leaf_weight=25 20 22 21 88 448
leaf_count=25 20 22 21 88 448
internal_value=0 0.00056386 0.00109433 -0.00282459 0.00199676
internal_weight=0 599 577 108 469
internal_count=624 599 577 108 469
is_linear=0
shrinkage=0.05


Tree=51
num_leaves=5
num_cat=0
split_feature=36 78 27 123
split_gain=2.03605 1.60727 0.905066 0.719645
threshold=-0.036505682409724793 -0.0046872700030097993 -0.25409646296848382 -0.00048700301618600833
decision_type=2 2 2 2
left_child=-1 -2 -3 -4
right_child=1 2 3 -5
leaf_value=-0.014979938872222027 -0.013082879094318265 -0.0094542156532406805 -0.0035341823636730568 0.0020240406074674071
leaf_weight=22 21 20 66 495
leaf_count=22 21 20 66 495
internal_value=0 0.000506344 0.000997521 0.00137013
internal_weight=0 602 581 561
internal_count=624 602 581 561
is_linear=0
shrinkage=0.05


Tree=52
num_leaves=6
num_cat=0
split_feature=12 78 12 10 2
split_gain=1.94214 1.13356 0.666541 1.52813 0.222996
threshold=-0.028278243255886838 -0.0011787800473387997 -0.086789664602628547 0.0049025675537635507 0.00028647753280280008
decision_type=2 2 2 2 2
left_child=1 -1 3 -3 -4
right_child=-2 2 4 -5 -6
leaf_value=-0.007761176306032725 -0.014985093678392115 0.0011090062380500279 0.010211420682026073 -0.01265967528673909 0.0030627711024135353
leaf_weight=39 21 499 24 21 20
leaf_count=39 21 499 24 21 20
internal_value=0 0.000482893 0.00105296 0.000552963 0.00696203
internal_weight=0 603 564 520 44
internal_count=624 603 564 520 44
is_linear=0
shrinkage=0.05


Tree=53
num_leaves=5
num_cat=0
split_feature=5 10 77 17
split_gain=1.57764 1.71077 1.29342 0.557403
threshold=0.96578793871639834 0.0048846031154092502 -0.0094586198243187484 -0.64002836401421004
decision_type=2 2 2 2
left_child=1 2 -1 -4
right_child=-2 -3 3 -5
leaf_value=-0.010656731008835463 -0.012606266526078495 -0.013910665339790285 0.0065933135260517403 0.00095690017366989509
leaf_weight=23 24 20 48 509
leaf_count=23 24 20 48 509
internal_value=0 0.000467039 0.000962821 0.00144262
internal_weight=0 600 580 557
internal_count=624 600 580 557
is_linear=0
shrinkage=0.05


Tree=54
num_leaves=6
num_cat=0
split_feature=36 78 11 144 58
split_gain=1.695 1.31534 0.57226 1.13442 0.674254
threshold=-0.036505682409724793 -0.0046872700030097993 0.87779943960406981 -0.00026391112776753557 3.0700494100228827e-06
decision_type=2 2 2 2 2
left_child=-1 -2 4 -4 -3
right_child=1 2 3 -5 -6
leaf_value=-0.013665661336166191 -0.011829161599910419 0.0020363541132086822 -0.01267676187298176 0.0027501441708479364 -0.0034346727508818733
leaf_weight=22 21 469 22 26 64
leaf_count=22 21 469 22 26 64
internal_value=0 0.000464175 0.000908513 -0.00432052 0.00137942
internal_weight=0 602 581 48 533
internal_count=624 602 581 48 533
is_linear=0
shrinkage=0.05


Tree=55
num_leaves=7
num_cat=0
split_feature=63 63 14 10 41 23
split_gain=1.77975 0.821851 1.25531 0.858358 0.683883 0.362768
threshold=-0.56101116602221979 0.0016496001749283509 1.0000000180025095e-35 0.0047270172666287512 1.9005216710141445e-05 -0.0094594003057860473
decision_type=2 2 2 2 2 2
left_child=-1 3 -3 4 -2 -4
right_child=1 2 5 -5 -6 -7
leaf_value=-0.012993760985167078 0.0015190747987648577 -0.014605286510195584 0.0053089884482324127 0.0091994671097823562 -0.007136702267841126 -0.0027310514411433267
leaf_weight=24 464 20 20 35 24 47
leaf_count=24 464 20 20 35 24 47
internal_value=0 0.000887321 -0.00361248 0.00163585 0.00109338 -0.00033104
internal_weight=0 610 87 523 488 67
internal_count=634 610 87 523 488 67
is_linear=0
shrinkage=0.05


Tree=56
num_leaves=7
num_cat=0
split_feature=63 129 14 10 67 89
split_gain=1.60622 0.797664 1.44848 0.947914 0.771214 0.296687
threshold=-0.56101116602221979 -0.00029940355957993421 2.4996452496785458e-11 0.0047270172666287512 -0.00041539941177964993 0.0055741976841071688
decision_type=2 2 2 2 2 2
left_child=-1 2 -2 4 -3 -4
right_child=1 3 5 -5 -6 -7
leaf_value=-0.012344072918252399 -0.015454738923981496 -0.0086467680672649289 -0.0023845583700188777 0.0092685220498793033 0.0013775284775350638 0.0050435389764606955
leaf_weight=24 20 20 41 37 472 20
leaf_count=24 20 20 41 37 472 20
internal_value=0 0.000842955 -0.00377767 0.00155046 0.000970037 5.08834e-05
internal_weight=0 610 81 529 492 61
internal_count=634 610 81 529 492 61
is_linear=0
shrinkage=0.05


Tree=57
num_leaves=7
num_cat=0
split_feature=63 129 14 10 67 23
split_gain=1.44962 0.719891 1.30726 0.855492 0.69602 0.26776
threshold=-0.56101116602221979 -0.00029940355957993421 2.4996452496785458e-11 0.0047270172666287512 -0.00041539941177964993 -0.0094594003057860473
decision_type=2 2 2 2 2 2
left_child=-1 2 -2 4 -3 -4
right_child=1 3 5 -5 -6 -7
leaf_value=-0.011726869366248139 -0.014682002025656402 -0.0082144299196079389 0.0047913619875907905 0.0088050959474482646 0.0013086520853435261 -0.0022653304403874933
leaf_weight=24 20 20 20 37 472 41
leaf_count=24 20 20 20 37 472 41
internal_value=0 0.000800807 -0.00358878 0.00147294 0.000921535 4.83392e-05
internal_weight=0 610 81 529 492 61
internal_count=634 610 81 529 492 61
is_linear=0
shrinkage=0.05


Tree=58
num_leaves=6
num_cat=0
split_feature=62 36 44 62 15
split_gain=1.31424 0.890406 0.511537 0.994553 0.637197
threshold=-0.0049742221236971492 -0.036505682409724793 -0.0048887828782896992 0.0049169236707329962 0.0065781415874381832
decision_type=2 2 2 2 2
left_child=-1 -2 4 -4 -3
right_child=1 2 3 -5 -6
leaf_value=-0.010698262562688727 -0.0095939448731951413 -0.0083616807327295348 0.0011146969101829436 0.011140891186481056 0.0025687541348209681
leaf_weight=26 20 30 508 26 24
leaf_count=26 20 30 508 26 24
internal_value=0 0.000781003 0.00113389 0.00160286 -0.00350371
internal_weight=0 608 588 534 54
internal_count=634 608 588 534 54
is_linear=0
shrinkage=0.05


Tree=59
num_leaves=7
num_cat=0
split_feature=63 18 67 49 6 58
split_gain=1.27113 0.685419 0.697072 0.984178 0.313594 0.16357
threshold=-0.56101116602221979 0.00019320769303291985 -0.00041539941177964993 7.653383123123866e-05 0.00024611146072600008 2.6715047736824307e-06
decision_type=2 2 2 2 2 2
left_child=-1 2 -2 -4 -3 -6
right_child=1 4 3 -5 5 -7
leaf_value=-0.010992284332557271 -0.0080872002523392442 0.0068743686717099104 0.0007214205880459744 -0.010222771976524117 0.0024449528616509938 -0.0023088402301073073
leaf_weight=24 29 39 310 22 190 20
leaf_count=24 29 39 310 22 190 20
internal_value=0 0.000738812 -0.000653156 -3.79699e-06 0.00275689 0.00199221
internal_weight=0 610 361 332 249 210
internal_count=634 610 361 332 249 210
is_linear=0
shrinkage=0.05


Tree=60
num_leaves=7
num_cat=0
split_feature=12 17 128 128 67 0
split_gain=0.99189 0.775152 0.846851 0.790684 0.588669 0.299967
threshold=-0.028278243255886838 -0.64002836401421004 -0.00069774702294262585 -0.0017023374475647844 1.3155082147184308e-19 0.93193462736129506
decision_type=2 2 2 2 2 2
left_child=1 5 3 -3 -4 -1
right_child=-2 2 4 -5 -6 -7
leaf_value=0.011368118566460909 -0.010656255893409253 -0.0014288079385137693 0.00035665150624961952 -0.013220933310332753 0.0070822151577366252 0.0034628655326863129
leaf_weight=20 20 44 462 21 35 30
leaf_count=20 20 44 462 21 35 30
internal_value=0 0.000659137 0.000128369 -0.00523857 0.000830283 0.00662497
internal_weight=0 612 562 65 497 50
internal_count=632 612 562 65 497 50
is_linear=0
shrinkage=0.05


Tree=61
num_leaves=6
num_cat=0
split_feature=12 17 61 44 7
split_gain=0.895181 0.699575 0.652933 0.596464 0.269472
threshold=-0.028278243255886838 -0.64002836401421004 0.20946736565478311 0.00099230534361587313 0.00028913573335335004
decision_type=2 2 2 2 2
left_child=1 4 3 -3 -1
right_child=-2 2 -4 -5 -6
leaf_value=0.010789318089373411 -0.010123443007469177 0.0011293956149811806 -0.0087500364426523463 -0.0035961877785993211 0.0032966519422673933
leaf_weight=20 20 464 20 78 30
leaf_count=20 20 464 20 78 30
internal_value=0 0.00062618 0.000121951 0.00044933 0.00629372
internal_weight=0 612 562 542 50
internal_count=632 612 562 542 50
is_linear=0
shrinkage=0.05


Tree=62
num_leaves=7
num_cat=0
split_feature=58 0 12 17 127 2
split_gain=0.82311 1.66954 1.00079 0.48155 0.684742 0.193389
threshold=6.7148077639180974e-05 0.010384106310820302 -0.044952359263045492 -0.61242331515492909 -0.039312846735826211 0.0096047640515309514
decision_type=2 2 2 2 2 2
left_child=2 -2 3 5 -5 -1
right_child=1 -3 -4 4 -6 -7
leaf_value=0.0091455523250624539 -0.016192010802809489 0.0022141560130486534 0.011791514232754707 -0.0072077458077758148 0.0004548054158316963 0.0022756004787793031
leaf_weight=20 22 28 20 31 490 21
leaf_count=20 22 28 20 31 490 21
internal_value=0 -0.00588456 0.00080059 0.000409454 -1.12374e-06 0.0056268
internal_weight=0 50 582 562 521 41
internal_count=632 50 582 562 521 41
is_linear=0
shrinkage=0.05


Tree=63
num_leaves=7
num_cat=0
split_feature=12 17 128 128 67 64
split_gain=0.82206 0.58779 0.674577 0.706309 0.54629 0.254259
threshold=-0.028278243255886838 -0.64002836401421004 -0.00069774702294262585 -0.0017023374475647844 1.3155082147184308e-19 7.1548226148941995e-08
decision_type=2 2 2 2 2 2
left_child=1 5 3 -3 -4 -1
right_child=-2 2 4 -5 -6 -7
leaf_value=0.0094902541619376283 -0.0097171347588300705 -0.0010673670688199556 0.00029211284229138797 -0.012212569918483497 0.0067710664948182455 0.0023535019547965092
leaf_weight=24 20 44 462 21 35 26
leaf_count=24 20 44 462 21 35 26
internal_value=0 0.000584105 0.000121913 -0.00466812 0.000748377 0.00577914
internal_weight=0 612 562 65 497 50
internal_count=632 612 562 65 497 50
is_linear=0
shrinkage=0.05


Tree=64
num_leaves=7
num_cat=0
split_feature=12 15 63 115 2 45
split_gain=0.741909 0.437102 0.626651 0.635515 0.345339 0.106759
threshold=-0.028278243255886838 -0.0017345666628170498 -0.014223186730110348 -1.2646216859985267e-05 0.00072176971300445011 2.3211290641144285e-05
decision_type=2 2 2 2 2 2
left_child=1 4 -3 -4 -1 -6
right_child=-2 2 3 -5 5 -7
leaf_value=0.0079444738747230896 -0.009231278616935016 -0.0080117468877385061 -0.0070232317051185031 0.00075035865075309303 0.0027914709577166385 -0.00080887818456113608
leaf_weight=29 20 24 28 431 71 29
leaf_count=29 20 24 28 431 71 29
internal_value=0 0.0005549 -0.000135668 0.000276153 0.00314052 0.00174737
internal_weight=0 612 483 459 129 100
internal_count=632 612 483 459 129 100
is_linear=0
shrinkage=0.05


Tree=65
num_leaves=8
num_cat=0
split_feature=51 57 10 10 44 5 102
split_gain=1.68869 0.826494 1.17871 0.756581 0.745391 0.637995 0.21362
threshold=-0.023565209665955895 0.0032181925951513209 0.0014792903005093501 0.0047092088484780503 7.3113461190902026e-05 0.0094659070339553533 -8.4512843286463297e-08
decision_type=2 2 2 2 2 2 2
left_child=-1 3 6 5 -5 -2 -3
right_child=1 2 -4 4 -6 -7 -8
leaf_value=-0.01437843935796991 0.001371247946316931 -0.0034176733304301038 -0.013679405040208318 0.013304972377409286 0.00023520786373410374 -0.003440445431669473 0.0033969557831448546
leaf_weight=20 383 23 24 24 20 84 23
leaf_count=20 383 23 24 24 20 84 23
internal_value=0 0.000398334 -0.00469689 0.00109631 0.00736417 0.000505761 -1.03588e-05
internal_weight=0 581 70 511 44 467 46
internal_count=601 581 70 511 44 467 46
is_linear=0
shrinkage=0.05


Tree=66
num_leaves=6
num_cat=0
split_feature=62 51 44 62 0
split_gain=1.75811 0.641457 0.515464 0.773996 0.634726
threshold=-0.004728158812483149 -0.017398282486249497 -0.0048887828782896992 0.0048013621951802322 0.0068948572470826008
decision_type=2 2 2 2 2
left_child=-1 -2 4 -4 -3
right_child=1 2 3 -5 -6
leaf_value=-0.012806265740297163 -0.008091266344611844 -0.010914788480149581 0.00081619447672552083 0.0092313377218770573 0.00043988638208247721
leaf_weight=26 21 20 473 29 32
leaf_count=26 21 20 473 29 32
internal_value=0 0.000486318 0.000811461 0.00130233 -0.0039273
internal_weight=0 575 554 502 52
internal_count=601 575 554 502 52
is_linear=0
shrinkage=0.05


Tree=67
num_leaves=5
num_cat=0
split_feature=62 51 11 80
split_gain=1.58669 0.578915 0.493928 0.468961
threshold=-0.004728158812483149 -0.017398282486249497 0.96287443453631871 -0.015426809972341896
decision_type=2 2 2 2
left_child=-1 -2 3 -3
right_child=1 2 -4 -5
leaf_value=-0.01216595249537092 -0.0076867026642763198 0.0082966207721090705 -0.005067715907524176 0.00083704540066467312
leaf_weight=26 21 22 34 498
leaf_count=26 21 22 34 498
internal_value=0 0.000462002 0.000770888 0.00115264
internal_weight=0 575 554 520
internal_count=601 575 554 520
is_linear=0
shrinkage=0.05


Tree=68
num_leaves=8
num_cat=0
split_feature=62 19 0 9 13 12 124
split_gain=1.43199 0.514245 0.713185 1.33555 0.316294 0.237793 0.118172
threshold=-0.004728158812483149 -1.0000000180025095e-35 0.0095170768467159016 4.9960036108132054e-16 0.14428846127035269 -0.095992025968736808 7.9995021251365761e-05
decision_type=2 2 2 2 2 2 2
left_child=-1 5 3 -3 -4 6 -2
right_child=1 2 4 -5 -6 -7 -8
leaf_value=-0.011557654912870093 0.0030034193498637493 -0.0097198494167549578 0.0014291144128054465 0.00040867694509055081 -0.0050882665440440183 0.0080578823457472023 -0.00067559786007872656
leaf_weight=26 99 52 269 87 20 20 28
leaf_count=26 99 52 269 87 20 20 28
internal_value=0 0.000438902 -0.000437408 -0.00338041 0.000978085 0.00299034 0.0021923
internal_weight=0 575 428 139 289 147 127
internal_count=601 575 428 139 289 147 127
is_linear=0
shrinkage=0.05


Tree=69
num_leaves=6
num_cat=0
split_feature=51 62 88 49 74
split_gain=1.29433 0.886754 0.447771 0.535726 0.177913
threshold=-0.023565209665955895 -0.0047681735092255989 0.00095123659567731905 -0.0014695085082490997 -9.7528754646105946e-05
decision_type=2 2 2 2 2
left_child=-1 -2 3 -3 -4
right_child=1 2 4 -5 -6
leaf_value=-0.012582345402333887 -0.0099910354590974759 -0.0077623697929084306 0.0028581737976388208 0.00058757051400164316 0.0087697881390340626
leaf_weight=20 20 20 35 486 20
leaf_count=20 20 20 35 486 20
internal_value=0 0.000354429 0.000723251 0.000257533 0.00500785
internal_weight=0 581 561 506 55
internal_count=601 581 561 506 55
is_linear=0
shrinkage=0.05


Tree=70
num_leaves=6
num_cat=0
split_feature=10 142 89 51 17
split_gain=0.974668 0.619472 0.483353 0.436472 0.391025
threshold=0.0048227637238853005 -0.00080522774450132739 -0.002147817930314102 1.1313347889463608e-05 -0.96109828652894946
decision_type=2 2 2 2 2
left_child=1 -1 3 -3 -4
right_child=-2 2 4 -5 -6
leaf_value=-0.005937820917461068 -0.0099791098649249146 0.010704073897036523 -0.0060385818572037606 0.00085309695684620895 0.00077655172138558722
leaf_weight=35 23 23 22 22 486
leaf_count=35 23 23 22 22 486
internal_value=0 0.000513084 0.000921369 0.00588804 0.000481408
internal_weight=0 588 553 45 508
internal_count=611 588 553 45 508
is_linear=0
shrinkage=0.05


Tree=71
num_leaves=7
num_cat=0
split_feature=5 38 17 6 20 101
split_gain=0.894659 0.469224 0.660285 0.726156 0.209237 0.042675
threshold=0.96578793871639834 -0.0010429779629869999 -0.61242331515492909 0.00019962587197520001 -0.00014233200511734999 0.0002143872060329812
decision_type=2 2 2 2 2 2
left_child=1 4 -3 -4 -1 -6
right_child=-2 2 3 -5 5 -7
leaf_value=0.0071635763636939895 -0.010288348626345397 0.0064120264012308336 -0.0027680219929210252 0.0012586392983824849 0.0012470632371550893 0.0036324349728723369
leaf_weight=28 20 35 220 228 50 30
leaf_count=28 20 35 220 228 50 30
internal_value=0 0.000464183 -0.000202017 -0.000718739 0.00344358 0.00214158
internal_weight=0 591 483 448 108 80
internal_count=611 591 483 448 108 80
is_linear=0
shrinkage=0.05


Tree=72
num_leaves=5
num_cat=0
split_feature=10 76 27 10
split_gain=0.865039 0.560478 0.558699 0.554389
threshold=0.0048227637238853005 0.0011002365012835649 -0.21410504051404364 0.0046774909482597002
decision_type=2 2 2 2
left_child=1 2 -1 -4
right_child=-2 -3 3 -5
leaf_value=-0.006588147291525577 -0.0094058358127194486 -0.0055660668752441078 0.00089058301310421858 0.0093774479371495564
leaf_weight=24 23 36 508 20
leaf_count=24 23 36 508 20
internal_value=0 0.000478692 0.000872916 0.00121206
internal_weight=0 588 552 528
internal_count=611 588 552 528
is_linear=0
shrinkage=0.05


Tree=73
num_leaves=5
num_cat=0
split_feature=5 10 12 19
split_gain=0.787628 0.558375 0.56638 0.413654
threshold=0.96578793871639834 0.0048227637238853005 -0.056054423324213766 0.0020114674504881883
decision_type=2 2 2 2
left_child=1 2 3 -1
right_child=-2 -3 -4 -5
leaf_value=-0.00030375179390428584 -0.0096573522314429283 -0.0075754309605274885 0.0087851727869184253 0.0030271920479835058
leaf_weight=430 20 21 21 119
leaf_count=430 20 21 21 119
internal_value=0 0.000431518 0.000726511 0.000418256
internal_weight=0 591 570 549
internal_count=611 591 570 549
is_linear=0
shrinkage=0.05


Tree=74
num_leaves=5
num_cat=0
split_feature=10 76 27 10
split_gain=0.71429 0.500542 0.486168 0.504871
threshold=0.0048227637238853005 0.0011002365012835649 -0.21410504051404364 0.0046774909482597002
decision_type=2 2 2 2
left_child=1 2 -1 -4
right_child=-2 -3 3 -5
leaf_value=-0.0061530581112795822 -0.0085477205357797764 -0.0052780901075392544 0.00081645590970457697 0.0089154356718063356
leaf_weight=24 23 36 508 20
leaf_count=24 23 36 508 20
internal_value=0 0.000434326 0.000806875 0.00112324
internal_weight=0 588 552 528
internal_count=611 588 552 528
is_linear=0
shrinkage=0.05


Tree=75
num_leaves=7
num_cat=0
split_feature=58 17 12 11 77 10
split_gain=0.862721 2.39003 1.4201 0.684497 0.914266 0.590276
threshold=6.7148077639180974e-05 0.00042583956597236778 -0.049536885002229226 0.87779943960406981 0.00095204084993188119 0.0046774909482597002
decision_type=2 2 2 2 2 2
left_child=2 -2 3 5 -5 -1
right_child=1 -3 -4 4 -6 -7
leaf_value=0.00014120745884405454 -0.015867799813193934 0.0064464026396828036 0.013370679240185946 -0.013695333321229556 -0.00029428742692938877 0.0060435361268514022
leaf_weight=429 28 21 21 20 35 47
leaf_count=429 28 21 21 20 35 47
internal_value=0 -0.00630457 0.000618119 0.000113781 -0.0051674 0.000724
internal_weight=0 49 552 531 55 476
internal_count=601 49 552 531 55 476
is_linear=0
shrinkage=0.05


Tree=76
num_leaves=7
num_cat=0
split_feature=58 0 12 11 0 10
split_gain=0.778606 2.39919 1.28164 0.61998 0.761206 0.537054
threshold=6.7148077639180974e-05 0.0023419717537364005 -0.049536885002229226 0.9092773315458812 0.0035733643252482505 0.0046774909482597002
decision_type=2 2 2 2 2 2
left_child=2 -2 3 5 -5 -1
right_child=1 -3 -4 4 -6 -7
leaf_value=0.00011397549306016548 -0.018764727549361333 0.003592197845656691 0.012702144922999046 -0.012434384206842099 -2.25538678932935e-05 0.0057413593261562137
leaf_weight=433 21 28 21 21 30 47
leaf_count=433 21 28 21 21 30 47
internal_value=0 -0.00598934 0.000587213 0.000108092 -0.00513331 0.00066499
internal_weight=0 49 552 531 51 480
internal_count=601 49 552 531 51 480
is_linear=0
shrinkage=0.05


Tree=77
num_leaves=7
num_cat=0
split_feature=78 65 144 5 2 111
split_gain=0.703077 0.443232 0.524661 0.432057 0.290441 0.0585327
threshold=-0.0033693010945047997 -0.00013792441558324996 -0.001021480128018487 0.93196303641405376 0.0029139864011844502 -3.1104171023121756e-06
decision_type=2 2 2 2 2 2
left_child=-1 4 -3 -4 -2 -6
right_child=1 2 3 -5 5 -7
leaf_value=-0.0071628588149906143 0.0089248558552935727 -0.0078968007021190025 -0.00015300706878675825 0.0071910816289129714 0.00010733319708720047 0.0031017300102165811
leaf_weight=32 20 21 432 21 24 51
leaf_count=32 20 21 432 21 24 51
internal_value=0 0.000454028 -0.000170716 0.000187447 0.00357117 0.00214352
internal_weight=0 569 474 453 95 75
internal_count=601 569 474 453 95 75
is_linear=0
shrinkage=0.05


Tree=78
num_leaves=7
num_cat=0
split_feature=58 18 12 17 62 6
split_gain=0.717827 2.32083 1.12026 0.409182 0.664249 0.314223
threshold=6.7148077639180974e-05 8.8921181174093186e-07 -0.049536885002229226 -0.61242331515492909 6.3502038650407002e-05 0.00024762282334850008
decision_type=2 2 2 2 2 2
left_child=2 -2 3 5 -5 -1
right_child=1 -3 -4 4 -6 -7
leaf_value=0.0094073853897862145 -0.01479046449932302 0.0073494420340284713 0.011887444615630169 0.00036996302582788677 -0.0054611533817792816 0.00054421570268459619
leaf_weight=20 29 20 21 436 55 20
leaf_count=20 29 20 21 436 55 20
internal_value=0 -0.00575377 0.000560886 0.000112942 -0.000283217 0.0049758
internal_weight=0 49 552 531 491 40
internal_count=601 49 552 531 491 40
is_linear=0
shrinkage=0.05


Tree=79
num_leaves=7
num_cat=0
split_feature=143 22 62 49 5 85
split_gain=0.624164 0.662439 0.942874 0.865879 0.640057 0.0478088
threshold=0.012187635056994084 -0.0025144228518677995 -0.0024692699405288996 7.653383123123866e-05 0.0031402631767825004 -0.00024197791419125207
decision_type=2 2 2 2 2 2
left_child=1 4 -3 -4 5 -1
right_child=-2 2 3 -5 -6 -7
leaf_value=0.0038067021079107445 -0.0086409632069990045 -0.010960421231575311 0.00059174897229557089 -0.0093492328305728734 0.012343210624530913 0.00084817509923595935
leaf_weight=22 20 20 460 23 20 36
leaf_count=22 20 20 460 23 20 36
internal_value=0 0.000342702 -0.00032214 0.000118369 0.00463008 0.00197037
internal_weight=0 581 503 483 78 58
internal_count=601 581 503 483 78 58
is_linear=0
shrinkage=0.05


Tree=80
num_leaves=6
num_cat=0
split_feature=12 62 10 15 88
split_gain=0.986966 0.514352 1.3324 0.682882 0.341865
threshold=-0.028278243255886838 0.0049169236707329962 0.0048402176058191014 2.2231498043483632e-06 0.00095123659567731905
decision_type=2 2 2 2 2
left_child=1 2 4 -3 -1
right_child=-2 3 -4 -5 -6
leaf_value=0.00020234298683207273 -0.010478372481607255 0.011714397682605879 -0.012221421253690053 -0.00060739387250082063 0.0044699723017401997
leaf_weight=481 21 23 21 22 52
leaf_count=481 21 23 21 22 52
internal_value=0 0.000549556 0.000131978 0.00569041 0.000618697
internal_weight=0 599 554 45 533
internal_count=620 599 554 45 533
is_linear=0
shrinkage=0.05


Tree=81
num_leaves=7
num_cat=0
split_feature=12 11 10 77 5 21
split_gain=0.890737 0.476355 1.24584 0.955488 0.654232 0.0875517
threshold=-0.028278243255886838 0.87779943960406981 0.0049778782989283515 0.00090096934898145251 0.84548409223188081 9.5789993828976116e-06
decision_type=2 2 2 2 2 2
left_child=1 2 4 -3 -1 -5
right_child=-2 3 -4 5 -6 -7
leaf_value=0.00087603066792666827 -0.0099544535878868332 -0.01262725961394608 0.01323796609416604 0.0030968110950198025 -0.0083465905796037999 -0.0015816430258564652
leaf_weight=499 21 20 20 20 20 20
leaf_count=499 21 20 20 20 20 20
internal_value=0 0.000522078 0.000992517 -0.00370403 0.000520631 0.000757584
internal_weight=0 599 539 60 519 40
internal_count=620 599 539 60 519 40
is_linear=0
shrinkage=0.05


Tree=82
num_leaves=7
num_cat=0
split_feature=5 0 0 14 18 94
split_gain=0.691237 0.723829 1.62433 0.534249 0.285524 0.0799453
threshold=0.96578793871639834 -1.0000000180025095e-35 0.0009813580493028501 -0.00048077100834119992 -0.69562672111939028 -1.4311282017160274e-07
decision_type=2 2 2 2 2 2
left_child=1 3 -3 5 -4 -1
right_child=-2 2 4 -5 -6 -7
leaf_value=0.0045593108591024901 -0.0083468501334605007 -0.01245651757881905 0.0047943633268861217 0.011262953645465049 3.7882419078269036e-05 0.0012101599625733502
leaf_weight=28 23 26 34 22 438 49
leaf_count=28 23 26 34 22 438 49
internal_value=0 0.000486558 -0.000289696 0.00439135 0.00038051 0.00242803
internal_weight=0 597 498 99 472 77
internal_count=620 597 498 99 472 77
is_linear=0
shrinkage=0.05


Tree=83
num_leaves=7
num_cat=0
split_feature=12 0 0 22 2 94
split_gain=0.748572 0.456483 1.56294 0.251835 0.241871 0.0760375
threshold=-0.028278243255886838 -1.0000000180025095e-35 0.0009813580493028501 5.5033325158788288e-05 0.00098687460668785035 -1.4311282017160274e-07
decision_type=2 2 2 2 2 2
left_child=1 4 -3 -4 -1 -6
right_child=-2 2 3 -5 5 -7
leaf_value=0.0082139180115932096 -0.009127939448115371 -0.012070908693175834 0.00027775895500531329 0.0060103951580822469 0.0043313453057115632 0.0010527242090271709
leaf_weight=22 21 26 455 20 28 48
leaf_count=22 21 26 455 20 28 48
internal_value=0 0.000476226 -0.000134242 0.000519133 0.00359709 0.00226064
internal_weight=0 599 501 475 98 76
internal_count=620 599 501 475 98 76
is_linear=0
shrinkage=0.05


Tree=84
num_leaves=6
num_cat=0
split_feature=12 62 10 124 0
split_gain=0.675586 0.435403 1.14256 0.601246 0.301423
threshold=-0.028278243255886838 0.0049169236707329962 0.0048402176058191014 1.8831625044999892e-05 0.00043842636760110007
decision_type=2 2 2 2 2
left_child=1 2 4 -3 -1
right_child=-2 3 -4 -5 -6
leaf_value=0.0031222083577354762 -0.0086715428069943489 0.01164397500222549 -0.011371345734888953 1.2969652190804481e-05 -2.4155066486825599e-05
leaf_weight=92 21 20 21 25 441
leaf_count=92 21 20 21 25 441
internal_value=0 0.000452414 6.82176e-05 0.00518231 0.000518932
internal_weight=0 599 554 45 533
internal_count=620 599 554 45 533
is_linear=0
shrinkage=0.05


Tree=85
num_leaves=5
num_cat=0
split_feature=63 5 18 83
split_gain=0.520578 0.488165 0.38663 0.323549
threshold=-0.56101116602221979 0.8980634203676241 0.00043174460748734918 0.0022824667109912259
decision_type=2 2 2 2
left_child=-1 2 3 -2
right_child=1 -3 -4 -5
leaf_value=-0.0069547781371511524 -0.00052166378275358364 0.0076982350048163664 0.0054507394077304263 0.0029687488433457429
leaf_weight=24 482 23 34 77
leaf_count=24 482 23 34 77
internal_value=0 0.000551195 0.000273991 -4.08735e-05
internal_weight=0 616 593 559
internal_count=640 616 593 559
is_linear=0
shrinkage=0.05


Tree=86
num_leaves=5
num_cat=0
split_feature=63 14 51 124
split_gain=0.469822 0.5598 0.307294 0.474729
threshold=-0.56101116602221979 0.53901770902007307 0.0019716916429905057 -2.8800659948960896e-05
decision_type=2 2 2 2
left_child=-1 2 3 -2
right_child=1 -3 -4 -5
leaf_value=-0.0066070393736784652 0.006144856185253178 0.0087518216152966486 -0.0047726215104219212 0.00013319374238032918
leaf_weight=24 35 20 29 532
leaf_count=24 35 20 29 532
internal_value=0 0.000523635 0.000247522 0.000504284
internal_weight=0 616 596 567
internal_count=640 616 596 567
is_linear=0
shrinkage=0.05


Tree=87
num_leaves=5
num_cat=0
split_feature=63 14 5 0
split_gain=0.424014 0.505219 0.472587 0.334868
threshold=-0.56101116602221979 0.53901770902007307 0.8980634203676241 0.0095170768467159016
decision_type=2 2 2 2
left_child=-1 2 3 -2
right_child=1 -3 -4 -5
leaf_value=-0.0062766873743385077 -0.0016976378315739567 0.0083142304210923612 0.0072626476621498242 0.00083815959790775694
leaf_weight=24 200 20 23 373
leaf_count=24 200 20 23 373
internal_value=0 0.000497454 0.000235146 -4.69355e-05
internal_weight=0 616 596 573
internal_count=640 616 596 573
is_linear=0
shrinkage=0.05


Tree=88
num_leaves=6
num_cat=0
split_feature=18 66 58 5 15
split_gain=0.353759 0.429237 1.32466 0.544617 0.354945
threshold=0.00043174460748734918 1.1818313377460756e-19 6.7148077639180974e-05 0.63259196512308924 1.1198742458255843e-05
decision_type=2 2 2 2 2
left_child=1 2 3 -1 -3
right_child=-2 4 -4 -5 -6
leaf_value=-0.00034900556990049355 0.0051186466409957835 0.0095989399190875707 -0.010654321114222209 0.0053446448904097728 0.00073906348306291669
leaf_weight=483 35 20 30 46 26
leaf_count=483 35 20 30 46 26
internal_value=0 -5.14896e-05 -0.000433534 0.000146094 0.00459118
internal_weight=0 605 559 529 46
internal_count=640 605 559 529 46
is_linear=0
shrinkage=0.05


Tree=89
num_leaves=6
num_cat=0
split_feature=18 66 58 12 15
split_gain=0.319267 0.387387 1.19551 0.510883 0.320338
threshold=0.00043174460748734918 1.1818313377460756e-19 6.7148077639180974e-05 -0.049536885002229226 1.1198742458255843e-05
decision_type=2 2 2 2 2
left_child=1 2 3 -1 -3
right_child=-2 4 -4 -5 -6
leaf_value=-0.00016921611309803639 0.0048627144563943153 0.0091189928571111523 -0.010121605178962151 0.0079775387328118088 0.00070211033822628317
leaf_weight=509 35 20 30 20 26
leaf_count=509 35 20 30 20 26
internal_value=0 -4.89151e-05 -0.000411858 0.00013879 0.00436162
internal_weight=0 605 559 529 46
internal_count=640 605 559 529 46
is_linear=0
shrinkage=0.05


Tree=90
num_leaves=7
num_cat=0
split_feature=5 83 58 21 0 58
split_gain=0.671159 0.486722 0.466594 0.286154 0.46237 0.264341
threshold=0.96578793871639834 0.0022824667109912259 5.5979878192433801e-06 -0.37803629410830653 0.0057184629064977012 5.8428197407105675e-07
decision_type=2 2 2 2 2 2
left_child=1 2 5 -3 -5 -1
right_child=-2 3 -4 4 -6 -7
leaf_value=-0.00076493701483072653 -0.0087516086904898937 -0.0021357634314335887 -0.0063328351886465344 0.011117880949750544 0.0022818362988784847 0.0025905248994367077
leaf_weight=393 23 20 34 20 57 69
leaf_count=393 23 20 34 20 57 69
internal_value=0 -4.63464e-05 -0.000679819 0.00319286 0.00457691 -0.000263797
internal_weight=0 593 496 97 77 462
internal_count=616 593 496 97 77 462
is_linear=0
shrinkage=0.05


Tree=91
num_leaves=7
num_cat=0
split_feature=5 17 4 61 58 18
split_gain=0.605721 0.653278 0.491146 0.336998 0.403431 0.0221524
threshold=0.96578793871639834 -0.61242331515492909 0.0014128109048908504 0.20946736565478311 5.5979878192433801e-06 0.0002355657753582418
decision_type=2 2 2 2 2 2
left_child=1 2 -1 4 -3 -4
right_child=-2 3 5 -5 -6 -7
leaf_value=0.011048942788814506 -0.0083140285280735599 6.5638045168870648e-05 0.0027828058367595078 -0.0066649899056011987 -0.0051650762445206062 0.00042948974587488922
leaf_weight=21 23 470 20 22 40 20
leaf_count=21 23 470 20 22 40 20
internal_value=0 -4.40291e-05 0.00485695 -0.000605983 -0.000344614 0.00160615
internal_weight=0 593 61 532 510 40
internal_count=616 593 61 532 510 40
is_linear=0
shrinkage=0.05


Tree=92
num_leaves=7
num_cat=0
split_feature=5 17 19 16 16 8
split_gain=0.546663 0.591254 0.370338 0.313069 0.370283 0.0585215
threshold=0.96578793871639834 -0.74233402575689622 0.00028889363437668191 -0.007397587999932149 0.00083783971351683703 9.3476151051588349e-05
decision_type=2 2 2 2 2 2
left_child=1 2 -1 5 -5 -3
right_child=-2 3 -4 4 -6 -7
leaf_value=0.010517693914007396 -0.0078983271413523223 0.004686267549087378 0.0014677387621934313 -0.0024987694496572928 0.00030972677290661341 0.0016099552176132631
leaf_weight=20 23 22 26 216 257 52
leaf_count=20 23 22 26 216 257 52
internal_value=0 -4.18276e-05 0.0054025 -0.000499669 -0.0009728 0.00252453
internal_weight=0 593 46 547 473 74
internal_count=616 593 46 547 473 74
is_linear=0
shrinkage=0.05


Tree=93
num_leaves=6
num_cat=0
split_feature=12 5 3 11 9
split_gain=1.27559 0.845882 0.836846 0.281553 0.293865
threshold=-0.033583683169541495 0.75947851848339398 0.0019649749596367004 0.97124144391094391 0.049199001279135311
decision_type=2 2 2 2 2
left_child=1 3 -3 4 -1
right_child=-2 2 -4 -5 -6
leaf_value=0.00010757534797950688 -0.012429542759699482 0.01398017380187022 0.00044100202061235906 -0.0056205994784832005 -0.0049112904801844595
leaf_weight=493 21 21 25 25 31
leaf_count=493 21 21 25 25 31
internal_value=0 0.000109039 0.00662193 -0.000436667 -0.000189342
internal_weight=0 595 46 549 524
internal_count=616 595 46 549 524
is_linear=0
shrinkage=0.05


Tree=94
num_leaves=7
num_cat=0
split_feature=12 5 110 22 10 34
split_gain=1.15122 0.763409 0.756555 0.271391 0.695088 0.100817
threshold=-0.033583683169541495 0.75947851848339398 -0.00015438078873316981 1.3776236248903239e-05 0.0019446088979801002 1.5269579161025401e-05
decision_type=2 2 2 2 2 2
left_child=1 3 -3 4 -1 -5
right_child=-2 2 -4 5 -6 -7
leaf_value=-0.0004121165775467625 -0.011808065424806306 0.00015155674191191792 0.012988222741775893 0.0045004034557911965 -0.0099296436621807514 0.0002929051232058555
leaf_weight=470 21 24 22 35 20 24
leaf_count=470 21 24 22 35 20 24
internal_value=0 0.000103587 0.00629083 -0.000414834 -0.000800587 0.00278888
internal_weight=0 595 46 549 490 59
internal_count=616 595 46 549 490 59
is_linear=0
shrinkage=0.05


Tree=95
num_leaves=5
num_cat=0
split_feature=10 10 36 12
split_gain=0.792495 0.520787 0.467114 0.523751
threshold=0.0048535443264508009 0.0047092088484780503 -0.019175796680811097 -0.04175634845969195
decision_type=2 2 2 2
left_child=1 2 -1 -4
right_child=-2 -3 3 -5
leaf_value=-0.0072151327178636123 -0.0086807154323905716 0.0076223209106198444 6.5394093195349202e-05 0.0079416361743245619
leaf_weight=21 25 24 520 22
leaf_count=21 25 24 520 22
internal_value=0 0.000409095 0.000101604 0.000385094
internal_weight=0 587 563 542
internal_count=612 587 563 542
is_linear=0
shrinkage=0.05


Tree=96
num_leaves=5
num_cat=0
split_feature=10 17 12 10
split_gain=0.715226 0.497665 0.848025 0.483163
threshold=0.0048535443264508009 -0.97064617489207317 -0.044952359263045492 0.0047092088484780503
decision_type=2 2 2 2
left_child=1 -1 3 -3
right_child=-2 2 -4 -5
leaf_value=-0.0069892547013957742 -0.0082466797786764807 -1.468348791639426e-05 0.010787832983769478 0.0072412047889277645
leaf_weight=22 25 521 20 24
leaf_count=22 25 521 20 24
internal_value=0 0.00038864 0.000675921 0.000304842
internal_weight=0 587 565 545
internal_count=612 587 565 545
is_linear=0
shrinkage=0.05


Tree=97
num_leaves=7
num_cat=0
split_feature=17 123 14 5 83 5
split_gain=0.406574 0.44778 1.4733 0.606483 0.379018 0.314767
threshold=-0.97064617489207317 -0.0010177019817222937 4.4543167184224489e-06 0.72704287487958219 -0.00050620657492875189 0.0094659070339553533
decision_type=2 2 2 2 2 2
left_child=-1 2 -2 5 -5 -3
right_child=1 3 -4 4 -6 -7
leaf_value=-0.0066397921084320509 -0.014477879632752211 0.00077225735677677429 0.0020242317357195517 0.0012803174112923444 0.010600098276821276 -0.0027688414771251408
leaf_weight=22 21 413 38 20 24 74
leaf_count=22 21 413 38 20 24 74
internal_value=0 0.000282953 -0.0038494 0.000742103 0.00636383 0.000234185
internal_weight=0 590 59 531 44 487
internal_count=612 590 59 531 44 487
is_linear=0
shrinkage=0.05


end of trees

feature_importances:
element_1=86
mixing_entropy=58
element_6=42
element_11=40
element_10=21
element_1_element_3=20
element_1_element_6=19
element_4=18
element_12=18
element_6_element_12=15
element_3=14
element_1_element_7=13
element_6_element_11=13
phs_element_1_element_6=13
element_6_element_7=12
element_1_element_5=11
element_7=10
element_1_element_11=10
phs_element_3_element_8=10
element_8=9
element_5_element_6=9
element_4_element_6=8
element_1_element_2=7
element_10_element_12=7
element_11_element_12=7
element_2=6
element_1_element_8=6
element_3_element_6=6
phs_element_1_element_3=6
phs_element_6_element_12=6
element_5=5
element_9=5
element_1_element_4=5
element_6_element_10=5
element_7_element_11=5
element_1_element_9=4
element_1_element_10=4
phs_element_1_element_10=4
phs_element_1_element_11=4
phs_element_2_element_9=4
phs_element_5_element_12=4
phs_element_6_element_11=4
element_2_element_6=3
element_3_element_4=3
element_3_element_9=3
element_4_element_5=3
element_4_element_11=3
element_10_element_11=3
phs_element_1_element_5=3
phs_element_6_element_7=3
phs_element_10_element_11=3
element_1_element_12=2
element_3_element_10=2
element_3_element_11=2
element_5_element_7=2
element_7_element_8=2
element_7_element_10=2
phs_element_1_element_2=2
phs_element_1_element_12=2
phs_element_2_element_7=2
phs_element_6_element_9=2
phs_element_6_element_10=2
phs_element_8_element_9=2
phs_element_10_element_12=2
phs_element_11_element_12=2
element_2_element_7=1
element_2_element_8=1
element_2_element_9=1
element_3_element_7=1
element_3_element_8=1
element_3_element_12=1
element_4_element_7=1
element_5_element_8=1
element_5_element_11=1
element_5_element_12=1
element_7_element_9=1
element_9_element_11=1
phs_element_1_element_4=1
phs_element_1_element_8=1
phs_element_1_element_9=1
phs_element_3_element_5=1
phs_element_3_element_6=1
phs_element_3_element_9=1
phs_element_3_element_11=1
phs_element_4_element_6=1
phs_element_4_element_7=1
phs_element_4_element_11=1
phs_element_6_element_8=1

parameters:
[boosting: gbdt]
[objective: regression]
[metric: l1,l2]
[tree_learner: serial]
[device_type: cpu]
[data: ]
[valid: ]
[num_iterations: 100]
[learning_rate: 0.05]
[num_leaves: 15]
[num_threads: 0]
[deterministic: 0]
[force_col_wise: 0]
[force_row_wise: 0]
[histogram_pool_size: -1]
[max_depth: 4]
[min_data_in_leaf: 20]
[min_sum_hessian_in_leaf: 0.001]
[bagging_fraction: 0.8]
[pos_bagging_fraction: 1]
[neg_bagging_fraction: 1]
[bagging_freq: 5]
[bagging_seed: 3]
[feature_fraction: 0.8]
[feature_fraction_bynode: 1]
[feature_fraction_seed: 2]
[extra_trees: 0]
[extra_seed: 6]
[early_stopping_round: 20]
[first_metric_only: 0]
[max_delta_step: 0]
[lambda_l1: 0]
[lambda_l2: 0]
[linear_lambda: 0]
[min_gain_to_split: 0]
[drop_rate: 0.1]
[max_drop: 50]
[skip_drop: 0.5]
[xgboost_dart_mode: 0]
[uniform_drop: 0]
[drop_seed: 4]
[top_rate: 0.2]
[other_rate: 0.1]
[min_data_per_group: 100]
[max_cat_threshold: 32]
[cat_l2: 10]
[cat_smooth: 10]
[max_cat_to_onehot: 4]
[top_k: 20]
[monotone_constraints: ]
[monotone_constraints_method: basic]
[monotone_penalty: 0]
[feature_contri: ]
[forcedsplits_filename: ]
[refit_decay_rate: 0.9]
[cegb_tradeoff: 1]
[cegb_penalty_split: 0]
[cegb_penalty_feature_lazy: ]
[cegb_penalty_feature_coupled: ]
[path_smooth: 0]
[interaction_constraints: ]
[verbosity: -1]
[saved_feature_importance_type: 0]
[linear_tree: 0]
[max_bin: 255]
[max_bin_by_feature: ]
[min_data_in_bin: 3]
[bin_construct_sample_cnt: 200000]
[data_random_seed: 1]
[is_enable_sparse: 1]
[enable_bundle: 1]
[use_missing: 1]
[zero_as_missing: 0]
[feature_pre_filter: 1]
[pre_partition: 0]
[two_round: 0]
[header: 0]
[label_column: ]
[weight_column: ]
[group_column: ]
[ignore_column: ]
[categorical_feature: ]
[forcedbins_filename: ]
[precise_float_parser: 0]
[objective_seed: 5]
[num_class: 1]
[is_unbalance: 0]
[scale_pos_weight: 1]
[sigmoid: 1]
[boost_from_average: 1]
[reg_sqrt: 0]
[alpha: 0.9]
[fair_c: 1]
[poisson_max_delta_step: 0.7]
[tweedie_variance_power: 1.5]
[lambdarank_truncation_level: 30]
[lambdarank_norm: 1]
[label_gain: ]
[eval_at: ]
[multi_error_top_k: 1]
[auc_mu_weights: ]
[num_machines: 1]
[local_listen_port: 12400]
[time_out: 120]
[machine_list_filename: ]
[machines: ]
[gpu_platform_id: -1]
[gpu_device_id: -1]
[gpu_use_dp: 0]
[num_gpu: 1]

end of parameters

pandas_categorical:[]
